,0,1,2,3,4,5,6,7,8,9,10,11,12,13,14,15,16,17,18,19,20,21,22,23,24,25,26,27,28,29,30,31,32,33,34,35,36,37,38,39,40,41,42,43,44,45,46,47,48,49,50,51,52,53,54,55,56,57,58,59,60,61,62,63,64,65,66,67,68,69,70,71,72,73,74,75,76,77,78,79,80,81,82,83,84,85,86,87,88,89,90,91,92,93,94,95,96,97,98,99,100,101,102,103,104,105,106,107,108,109,110,111,112,113,114,115,116,117,118,119,120,121,122,123,124,125,126,127,128,129,130,131,132,133,134,135,136,137,138,139,140,141,142,143,144,145,146,147,148,149,150,151,152,153,154,155,156,157,158,159,160,161,162,163,164,165,166,167,168,169,170,171,172,173,174,175,176,177,178,179,180,181,182,183,184,185,186,187,188,189,190,191,192,193,194,195,196,197,198,199,200,201,202,203,204,205,206,207,208,209,210,211,212,213,214,215,216,217,218,219,220,221,222,223,224,225,226,227,228,229,230,231,232,233,234,235,236,237,238,239,240,241,242,243,244,245,246,247,248,249,250,251,252,253,254,255,256,257,258,259,260,261,262,263,264,265,266,267,268,269,270,271,272,273,274,275,276,277,278,279,280,281,282,283,284,285,286,287,288,289,290,291,292,293,294,295,296,297,298,299,300,301,302,303,304,305,306,307,308,309,310,311,312,313,314,315,316,317,318,319,320,321,322,323,324,325,326,327,328,329,330,331,332,333,334,335,336,337,338,339,340,341,342,343,344,345,346,347,348,349,350,351,352,353,354,355,356,357,358,359,360,361,362,363,364,365,366,367,368,369,370,371,372,373,374,375,376,377,378,379,380,381,382,383,384,385,386,387,388,389,390,391,392,393,394,395,396,397,398,399,400,401,402,403,404,405,406,407,408,409,410,411,412,413,414,415,416,417,418,419,420,421,422,423,424,425,426,427,428,429,430,431,432,433,434,435,436,437,438,439,440,441,442,443,444,445,446,447,448,449,450,451,452,453,454,455,456,457,458,459,460,461,462,463,464,465,466,467,468,469,470,471,472,473,474,475,476,477,478,479,480,481,482,483,484,485,486,487,488,489,490,491,492,493,494,495,496,497,498,499,500,501,502,503,504,505,506,507,508,509,510,511
AMH,-0.9154483,-1.5731342,-1.2748095,1.0149784,-1.252443,1.8811235,0.16240077,0.1496893,0.86864126,-0.07008164,-0.8778722,0.36615482,0.6411154,2.080122,-0.20595145,0.52672833,-0.37371263,1.3767239,-0.8162312,1.6042409,0.74732363,-0.139936,0.6593358,0.7236875,-0.5065786,0.9705458,0.4341065,1.9639733,1.684969,0.6539439,-1.8068134,-0.8517203,-1.4241511,0.82924044,-0.59661716,-1.2512994,-1.6639001,-0.20668615,-0.8284364,1.251504,0.101308934,1.6543258,1.0086074,-0.5237126,0.89471996,0.9424407,-0.5757697,-1.7161801,-0.043771993,-1.6569229,0.25197464,-0.2733959,-0.362957,-0.33467066,-0.50875586,1.258466,-0.33193767,-0.140445,0.35503843,-0.9586029,0.89449763,-0.29792216,0.42968854,1.0343773,1.3698399,0.6998304,1.271924,-0.21693866,1.7288116,-0.83430976,-1.9098452,-0.92702824,0.047875024,1.5967554,-1.1993228,-1.0422257,-2.1342666,0.23710297,-0.8724182,0.017781984,-0.47611004,1.5608048,1.5922856,0.75950444,0.49099913,-0.17524791,-1.8492734,0.66880405,0.9037342,0.9523918,-0.35097122,0.59075373,2.3506927,0.1657589,2.107276,1.2398798,1.3763527,-1.1670618,-2.2760885,-0.5459375,0.08139418,-2.134038,0.35757184,0.32581493,1.8794566,3.2348244,-3.2111983,-0.6455035,-1.2537873,-0.3809515,-0.55282927,1.8429376,1.0696572,-0.54202527,-1.8382833,-0.62087125,-0.5733283,-0.17408496,-0.4556664,-0.7776428,-2.890111,-1.0919424,0.012048007,-0.22008573,0.86921865,-0.24569482,-0.27115533,-2.1395597,0.9258033,2.0886767,1.9206746,-2.157085,-2.7932162,-0.99093974,-0.15143178,0.20015378,1.3037866,-1.7298783,-0.015072184,1.2494923,1.2137778,-1.0005724,-0.07723232,1.0638955,0.83251506,-1.1801193,0.4090792,0.8612621,0.5948195,-0.9944155,-0.93375564,-0.7971658,0.89241236,0.45256597,-1.2509242,0.3606241,0.6431157,1.0280635,1.573883,-1.0484942,-1.6888174,1.0488573,-2.3428147,-1.1148273,0.9558241,0.089330055,0.30459735,0.45968407,-0.06081435,1.2976044,0.33123502,0.06333542,-0.43887308,-1.2342612,1.1635987,-1.8766625,0.64463884,0.6450307,1.5916449,0.50203633,2.337088,-1.4229473,-2.278235,1.9041815,0.6895358,0.7799886,0.026557397,0.29345918,0.12133291,2.2638059,1.014643,-0.6674053,0.38830465,0.26742035,-0.4529733,0.030891322,-3.8728447,-0.5273865,0.9090425,-0.09635317,0.9346001,-0.7180192,0.08213772,-0.7780723,-1.324882,-0.13480651,0.61696583,-0.2843662,2.0757036,0.1272177,-1.1528288,-0.33644095,1.31428,2.3981512,-1.0782027,1.6140735,-0.71623707,-0.8972911,1.4305285,1.4058248,1.3337567,-0.3336113,0.06364055,0.3075735,0.23711026,0.81802446,-0.35029012,-0.34915125,-0.044896353,-0.7731898,0.49392477,-0.26993814,-1.3365469,-0.17444389,0.28010952,0.30820462,-2.5649443,-0.47766083,0.24809696,0.104392715,-0.013140411,0.44364464,-0.074301094,-0.36554733,-1.3865579,-0.839806,0.22378416,1.4784949,-0.25054035,0.35256073,-0.5355796,0.3488642,0.34390464,1.9639664,0.3594019,-0.03908882,-0.55122906,-0.036709633,-0.11330249,0.6067105,1.074868,1.2366828,0.81666094,-1.1564442,-0.005740011,-0.8141942,-0.27633247,1.0438734,-0.27821422,-0.58594406,0.8640483,0.64796823,-0.70446783,-0.1808732,0.3335227,0.16313627,-2.4346936,-0.22516239,0.8154608,0.27794987,-0.4843135,-0.5744616,-0.7331321,-0.4599262,-1.9945928,-0.7377759,0.67590106,-0.43240303,-0.112678744,-0.74784434,1.0060623,-0.9263178,1.0326146,-1.3631371,-0.3899679,-1.7014843,-0.8911603,-0.027890801,0.6796808,0.67959183,0.6594027,-0.19726859,-0.2919179,-0.963161,1.0372018,-0.6102897,-0.46592292,-0.24632046,1.1609926,-1.500323,-2.207569,0.37119877,-0.3520484,-1.1321236,-0.29807207,0.5589962,-0.2674182,-0.14537354,-0.9489542,-2.1209934,1.7167578,-0.8268884,-1.8227795,-2.7790046,1.058696,-0.0102092,0.18312816,-0.22451486,0.99691534,-0.29108566,-1.1108661,-1.6629701,-0.24960932,-0.23702212,0.5578821,-0.19718155,-0.06758285,1.8610283,-0.5292963,0.45294315,-0.21640101,-0.2719296,0.05368285,-0.30454728,-0.018252809,0.6543349,-0.15404314,-0.13053726,0.80396783,1.0496305,-0.21448532,-0.9449769,-0.3658372,-0.24676763,1.5211205,-0.38771313,-2.1517444,1.1187443,0.463478,0.8573867,-0.62305874,-0.4375629,0.014514998,1.5026476,0.7084374,0.3126088,-1.1166956,-1.6733143,0.18225454,-0.2339849,-0.18393192,-0.94674456,-0.26140505,-1.2355283,0.6480383,1.6980569,-1.131898,-0.089807406,0.7978735,0.59638506,2.9080615,1.0252062,0.6572306,-1.2940154,2.4789724,-0.39594764,0.109969385,-0.111921005,-0.032559324,-0.54880244,0.7392978,0.86973655,2.4579573,1.0880023,0.11463059,0.9887425,0.7818092,1.9257724,0.8902862,0.5790711,0.86421186,0.6060114,-2.2433395,2.1242473,0.08909863,1.5823524,-0.026314737,-0.5399369,0.7035806,-2.6591008,-0.2864597,0.45914257,-0.16226244,1.3714558,0.57050836,2.1408243,-0.3346116,0.7238029,-0.42115647,0.09430873,-2.180342,-0.37747252,0.20138332,2.1686924,-1.2086029,-2.3278663,0.7326664,-0.3161571,-0.32533297,0.66253227,0.9171689,-0.8876832,0.9638294,-0.98407704,-1.3123245,-2.3373778,-1.0535113,-2.8981266,0.843097,-0.19343647,2.3007317,0.3344398,-1.7660433,0.96727496,0.95453113,-2.2608714,0.96876353,-1.2284739,0.110878885,0.35668007,-1.456984,-1.621963,0.7909389,-0.036872543,4.1140847,-0.91252935,0.029471349,0.298431,0.0836598,0.7067109,-1.49683,-0.80562496,1.2456446,0.47399482,0.71303797,0.19583255,0.21332006,-1.8846631,0.05239988,-0.9968279,-1.0498246,-0.21154799,-1.3811617,1.4130936,0.93940085,-0.7856189,-0.36554125,1.3186228,1.0517321,-0.4066654,-0.14235228,-1.4748695,-0.35982883,2.6749191,-0.32183185,0.591087,-0.70298684,-0.35374424,0.22945592,-0.5347595,-2.6160672,0.44071454,1.1008363,1.036397,0.6135224,-1.0768206,0.4341257,1.3241487,-0.07691973,-1.101662,-1.4872736,-0.09531024,-2.610131,0.056601565,1.5049152,0.98441494,1.1923468,0.12280445,-0.6244199,-0.77438563,0.0776159,-0.6317447
CBX2,-0.23228593,-1.5332428,0.17643736,0.8600946,0.67312455,0.6635318,0.2862005,-0.48343107,0.066796705,0.93175936,-1.5977626,0.34084523,-1.2388082,2.5259445,0.05548325,0.7355934,1.0508385,2.5412593,0.3172989,-1.0153754,0.7480731,0.14387031,1.622101,0.10105541,-2.1973221,0.27433112,0.37795514,-0.9666573,1.2095376,2.167471,1.5724603,0.08280005,-0.9891192,1.7897189,0.8643802,-1.6323867,1.5641767,-0.915767,0.52628237,2.6626687,0.25840765,1.5750364,1.2982621,-0.4746755,1.1608056,-0.029795937,-0.44921315,-1.1919729,-0.43102214,-0.20738357,2.4373646,-1.196479,0.5780201,-0.8565987,-1.2142774,-0.38583136,0.17443255,-0.8806874,-0.640969,1.557371,-1.3942538,-0.20487861,-0.0026080143,-0.53128695,0.2299717,-0.13957296,-0.23938133,-1.0738236,-1.3192188,2.085362,1.3882501,-1.1511954,0.42280054,0.12955266,-2.0549314,0.58991134,0.18986204,-0.60629034,0.98522425,1.7390763,-1.1453668,0.27413565,0.3467746,-0.36302304,-1.07351,2.4128194,-0.68115014,0.35809538,0.5728525,0.908027,-1.4311788,-0.9105526,-0.17216586,-2.4444923,0.9436255,0.18072556,-0.06446225,1.7308204,-1.812674,-0.152452,-1.7422518,-0.3420845,-0.81002975,1.7002585,-0.8567847,1.2326446,0.34500277,1.9734895,-1.1112126,-1.0887529,0.6670816,-0.046595633,-0.32868925,0.6698838,0.7447358,1.0094846,-1.6785105,1.101226,1.2704761,-1.367081,0.82690644,0.29446715,-2.1510947,-2.3493047,-0.31230107,-2.732078,-0.15573646,-1.0269855,1.3073547,2.0731442,-1.3202146,-1.4245871,-2.0146892,1.2891694,0.7687275,0.32320583,0.010460244,0.4679878,-1.863228,-1.3404089,-0.21884553,0.48092374,0.4216005,-1.4427581,-0.07247723,-1.5092137,-0.06033681,0.07586044,0.30416176,-0.14816318,0.6801256,0.5047972,-0.35836312,0.6274454,-0.026449002,-0.04345927,0.25084126,1.2678878,1.1308092,-0.37247145,-0.3171397,0.79597193,0.019617673,0.2533103,-0.6852959,-0.1715931,-2.6756516,-2.1941247,1.3662816,1.9665834,-0.37921792,-1.5154806,-0.6179603,1.6417783,0.93571067,-1.1738,-0.4908013,1.1896578,0.29298553,1.2175994,1.8588111,-0.093974665,-1.1995769,-1.4016414,0.13118315,0.75576264,2.5103269,-0.6846528,-1.3319936,0.3068788,0.8976459,1.0422277,0.4117331,0.24655701,1.2729449,1.4656278,-0.07819146,-0.42330962,0.36467886,-0.84412515,1.1771342,-0.69768727,-1.2260611,-1.4828783,0.5480381,-0.93074995,-0.47424865,-0.25016132,0.12578681,0.8240288,0.4168548,-0.80722904,-2.116738,1.6336209,0.8098188,-0.94480586,0.726102,-1.1585581,1.5765299,-1.179258,-0.1887838,-0.8964279,0.34649444,1.0029008,-0.8095203,0.4654161,-2.0923972,-0.47946402,0.47170314,-0.38807285,-0.4426,0.74538887,0.18953858,-0.51195246,1.609562,1.9876686,-1.5250285,0.025607107,0.5710101,-0.10399643,-0.628083,1.6601448,-1.8544335,-0.16858561,0.17027506,-1.4265523,-1.0622791,-1.8512136,-0.0765469,0.69525033,2.2938085,0.27113643,-1.0223908,0.24219799,-0.03761388,-0.099100605,-0.5658988,0.38582394,0.02131851,-2.4001038,-1.1395642,0.825598,0.5792576,-1.3622392,-1.2472061,-0.6485971,-0.33650115,0.96292925,-0.19125515,-0.53954977,0.00982443,0.5430508,-0.9915963,-0.85650694,1.24849,-1.2269013,-0.8633889,1.7191589,1.1161301,-1.8342419,0.33371893,-1.5879223,-0.09237569,0.43844023,0.5526351,-0.37269557,2.7377245,-0.39499837,-0.016589165,-1.3025935,-0.8357884,-1.5063771,0.12860198,0.2592473,-0.6888237,0.5776117,-1.1374586,-0.45274317,0.43810618,0.51700604,0.5162634,0.27071616,-0.59966236,-2.346403,1.1592689,-0.3163547,0.15411423,-0.2909657,3.2926433,0.12562153,0.86968654,-0.34176412,1.0132936,-2.5865,-1.1662539,-0.4880009,0.25842288,0.4443148,-0.22546667,-0.97788465,-0.80676836,-0.95285666,-1.916338,-0.03866222,-0.09431956,-0.11259932,-0.31142244,-0.152747,0.3295283,-1.4661283,1.8964691,0.48733887,-0.5232909,0.18793954,-0.6422796,-0.75979894,0.3197362,0.6445459,1.3896171,-1.503345,0.07732829,-0.7513813,1.7833905,-1.7249758,-0.01612272,2.1885853,-2.0164976,-0.300202,1.9538431,-0.51270777,0.1599208,0.37850213,-2.0123837,-0.6177181,1.8478003,-0.5571774,0.65705764,-0.18102238,1.6285084,-0.59207773,-0.631915,0.48665935,2.1596544,-1.0939044,2.449133,1.9761485,1.5109233,-0.044938013,1.4887838,2.3848388,-1.1954547,-1.3917267,-0.5485267,0.0032324663,-0.8941433,-0.25789565,-0.011177789,-0.9506782,0.74365044,-1.2403563,1.3320202,-0.7853622,-0.7030059,0.070238516,1.0506908,-0.24194951,-0.7619548,-0.8361403,-1.8041997,0.48177567,0.05525766,1.1987276,-0.7933854,1.0588591,-1.7777842,-1.4004391,0.5556304,0.9786371,-0.03691455,0.82323456,1.5135177,1.2658067,-1.89826,0.15297204,-2.1658993,0.5013047,1.2655177,-1.0115494,1.0793357,-1.6897326,2.0300448,-1.1462551,0.71664405,0.95607585,-1.050433,0.23798369,0.785311,1.5979431,1.550501,-1.8678776,1.594158,-0.08478757,-0.18064111,1.0779555,-1.7664708,-0.55673677,2.0743682,-1.5042481,0.6974825,0.7189272,-0.81517035,1.4591501,0.46840432,-0.23210731,-0.48893294,0.20255232,-0.80537546,-2.051315,2.071484,-0.08697447,0.46186385,-0.71185315,1.0431567,-1.1547905,0.05943766,-0.6201756,0.6718431,-0.20233463,-1.5045532,0.51289034,-1.4498006,-1.5802317,-0.5980628,2.6832933,1.3166866,0.23160623,1.5961248,2.0716317,3.727737,-0.7061729,0.1393631,0.19257551,-0.6853723,0.07895697,-1.016923,1.1293643,0.7725449,-1.2240475,-0.17448345,-2.4918473,-0.4482953,1.1492645,1.0679427,0.96156955,-0.5688289,0.12420723,1.3854164,-0.6510925,1.6407671,-0.8609666,1.354849,-1.2510947,1.1838652,0.02913431,-0.8820597,-0.58267474,-0.100318,0.029453935,0.17810753,2.407895,0.38543373,-0.66569537,0.6741653,-0.62894136,0.56731737,-0.65267444,-1.195539,-1.4894731,2.0494206,0.50375134,-0.2036479,-0.417218,-0.8717159,2.3333795,0.5448361,-0.36683106,1.3313813,0.088902295,-1.5687549,0.37077427,-0.17687312,-1.3135924
CTNNB1,0.4723452,1.3013921,-0.34121582,1.0311573,-0.03754733,1.0994607,0.34559986,-0.22792363,3.259052,-0.2968325,0.14608127,0.072972015,0.21193519,-0.57330626,0.5883606,-1.1531,1.120407,-0.2589246,-0.14064488,-0.33847958,0.14095594,0.6352223,0.65408236,-0.35633484,-0.62944895,0.016454749,-0.05431105,-2.5327086,-0.11234903,0.96334255,2.7100413,-1.6052601,1.3958976,-0.80404824,-0.52488804,-1.2844943,-0.02005773,-0.9681128,0.17183006,-0.85602146,-1.1568942,-0.66032267,-0.104123324,-1.163722,1.1691155,-1.2962158,-2.7629714,-0.77758604,0.56528205,0.20849273,0.6589873,-0.37834585,-0.21826538,-1.0097063,1.4854897,-0.42576075,-1.6923733,-0.34454563,-0.19699472,0.9569683,-1.0830108,-0.042269778,-0.7666627,-1.9887205,-3.3094008,0.075675584,-0.4723706,2.4937725,-0.70466954,3.2059166,1.3128347,0.77982056,0.64186144,0.41308045,-0.2861612,-0.643912,-1.3248355,0.98288816,-0.26733586,-0.5483907,-1.0156957,0.99331445,-1.0688046,2.5942557,-1.1510044,-0.72192156,0.699216,1.1228576,-0.8516887,1.9240552,0.38647205,-0.8199378,-1.0633405,-1.4627529,0.87051946,0.7937216,0.55434996,0.31068587,-0.9793051,0.9448341,-1.6008754,0.047984466,1.0996621,0.94792575,-1.7919722,0.7502009,1.0509578,1.0703138,0.027802622,0.7378099,-0.35514584,-2.3136017,0.21135673,-0.5392951,0.95531344,-1.4948639,1.506432,0.5952446,0.040476657,2.6377597,1.9637982,-0.43004417,1.343552,-0.017687926,-2.0510015,2.0727243,0.59006506,-1.6801329,-0.4392873,0.35701284,-0.29367584,0.90373313,1.5278076,1.9554844,-0.041475043,-1.1625826,-0.5975435,0.86917347,-0.26336673,-0.92555135,-0.28620481,-1.5643176,-1.141478,1.0520396,-0.75507104,-1.4144347,-1.5530472,-0.99316067,-0.27635533,-0.5934245,-0.8690442,-0.33572686,0.49914682,-0.5870435,0.5369254,-0.09895742,-0.5053264,-0.030759744,1.1115813,1.981682,-0.8964723,1.0160913,1.584283,1.6874096,-0.34057957,1.1453123,-1.3417137,0.52044505,-0.52430075,-1.0609157,0.4869204,1.3506632,2.3069923,1.2991481,0.91282123,1.3819062,0.02804572,0.3609749,0.85155106,-0.6921041,-0.9633166,-0.06478127,1.3600711,-1.1225164,0.15475786,0.98715335,1.3615081,-0.61223227,-0.47575983,0.45957053,-0.25003847,-0.23002356,-0.67777604,1.6722237,-0.89130884,-0.63829046,0.56476665,-0.5058178,2.012706,-0.740278,0.40394077,2.4692318,-0.68121004,1.438515,0.5175505,-0.70046157,-0.37001657,0.23713098,0.07997978,1.2893105,-1.8591157,0.5475328,0.9894684,-0.45562154,-1.3352197,-0.64231855,-1.2933148,-0.06868677,-1.4570704,0.06975413,-1.6295786,0.24872631,2.3305724,0.51689243,0.273458,-0.9238515,0.7987238,-1.1386232,-0.48432794,-1.6087302,-0.4180763,0.7355786,0.1666339,-0.76883256,-0.43047982,-0.44086316,-0.24627139,-0.457352,-0.51109695,-0.44429716,-0.33250585,0.583177,-0.29345253,-1.6356571,1.0036763,1.3624705,0.29339707,0.94288576,0.07238418,0.14063148,1.3575817,-0.4979075,-0.27460167,-0.7964244,0.56862885,0.85533273,0.043745153,-1.5119753,-0.7826371,-0.45812273,-1.3767428,0.12904958,-2.126762,0.5136628,0.65952206,0.12367294,-0.23537245,-1.8458563,0.03550068,1.0955244,0.37847814,0.81833804,0.3916367,-1.036933,-1.0975208,1.084099,-1.4298507,-0.048668474,-0.6343736,1.3529747,-1.1499773,0.7959491,-1.1576556,-0.21633315,-0.6215009,0.5590957,0.9261729,1.1926697,0.27482125,1.8558073,1.1797236,1.3534342,1.7941127,-0.5426782,-0.29504812,-1.8422015,-1.0883656,0.4103049,0.39425373,0.030232288,-1.4172033,1.1901724,-2.4533334,0.49115372,-0.8044931,-1.522078,1.0746744,1.50146,0.3566053,0.8311762,0.23727052,1.0135849,-0.9699984,-0.45587653,0.5819057,-1.8951116,-0.035054915,0.7740437,-2.1341434,-0.9227178,-0.67484117,-1.7981974,-0.34583434,-0.8676132,0.9533003,0.346679,0.80121595,1.0904317,-1.4846673,-0.44603705,-0.03402709,0.16518033,1.633947,-0.1300367,0.030200884,0.8975292,0.60234743,-1.9512261,-0.07583662,1.2164176,-0.24293578,-0.18267632,-2.8828511,0.5099999,0.05311853,-0.497564,-1.0461318,-1.2849131,0.88551974,1.3362147,0.2474767,0.98129517,0.23246294,-0.60376716,-1.8141558,-0.23541543,1.8941007,0.6394221,0.123825364,-1.9430431,0.14515574,-0.34442198,0.4546174,-1.006064,-0.35943314,-1.4254663,0.71714365,0.66621923,0.7489741,1.5999496,0.28658116,-0.51472557,-0.19537969,-0.19311833,1.3241919,0.22560447,-2.0890472,0.5068643,-0.34093297,0.72343475,0.7893561,1.1749228,0.4160498,-1.3584555,-0.29760996,0.9356751,-1.2950482,0.5568029,1.2952412,0.2633593,-0.20076178,-1.8756764,0.17204364,-3.2667003,0.26377624,-0.39601853,0.20547907,-2.620393,-0.29339957,0.34821716,2.912786,0.723617,-1.129527,0.31562018,-0.91975164,-2.5301883,0.04469906,-0.4775911,-0.89930034,2.6580443,-0.92131644,1.6354452,0.5875395,0.80983,0.36697277,1.3736527,0.42795086,2.5172853,-1.540372,-0.58281493,1.6216038,-0.24122293,0.101299204,1.24325,0.7124833,-0.050454445,0.576052,-0.66869074,0.36712602,-0.40898493,1.7633197,-0.4329725,1.260104,0.666004,-1.4181186,0.59391266,-1.0328296,3.3678033,-1.1252987,1.4602076,0.31853488,1.2998017,-0.58553934,-1.1508142,0.34372666,1.1262219,-2.1562765,2.1087267,-0.36576182,-0.110520355,2.0627036,-0.78527886,0.2623261,0.7318167,-1.264078,0.7018586,-0.92563486,-2.1361604,-0.22258258,-1.6496248,-0.14400451,-0.16820924,0.919957,-1.0305294,-0.19242424,-0.45484135,0.2224034,1.1338485,-2.366405,0.93808347,-0.49289468,-0.7964861,0.9163514,0.88037443,1.2675337,0.7035283,0.31216004,0.002534852,1.8119874,1.345399,-0.90786374,-0.37113622,1.7895494,-1.145399,0.4735582,0.9514243,-0.4005367,0.24950536,-1.0069082,-0.06049967,-0.52201045,0.44748974,-0.66501904,-1.7143419,-1.5622108,-0.009297742,0.72043085,-1.616858,-2.6547115,0.8945869,-0.17984086,-1.1892004,1.2467014,-0.65468633,-0.57033604,0.7174515,-1.9519639,-0.6173218,-1.6677167,0.71805924,0.60896736,-0.71927655
DHH,0.84005207,-1.0120528,0.15669334,1.1823893,-0.27066755,-1.0669509,0.14925851,0.7916156,-1.0530999,1.2070231,-1.0297889,0.9876988,-0.19332741,1.2962228,-0.03278355,1.4064484,1.515365,3.4025803,0.99988776,0.2785974,-0.10098296,0.6317724,0.2717931,-0.7985286,-0.78566086,0.8474157,-1.5323929,0.41712084,0.37706482,0.76069915,0.2631321,-0.55284536,-1.4657787,0.47777542,-1.0382116,0.14425483,0.365321,-2.614529,0.99817574,-0.21717173,1.5249733,0.83442664,1.1949592,-0.24401246,-0.6084712,1.9499426,-1.9499539,-0.5934902,-1.6312578,-0.9224945,1.1527487,-1.7268127,-0.4624375,-1.459072,0.82478243,1.1180085,1.1055793,-1.3287112,1.3793535,0.19842686,1.3352565,-0.55531985,-0.7656398,1.498365,1.1968905,0.17449996,-0.20499367,0.31996307,0.9872009,1.1460744,2.072042,-1.3337513,-1.1350389,-0.96522224,-0.6150706,2.2857392,-0.84192306,-0.9793433,0.28066546,0.2512176,-0.74835837,0.3887246,0.48788473,-0.36830077,-0.77746814,3.136786,-0.693709,0.8225539,0.32329702,-1.8182374,0.33022493,-0.56813955,0.7033428,-0.62056905,1.6772989,1.0235493,1.7659755,0.4361564,-1.0818604,-0.52947086,-1.9112768,-0.13605268,0.67266077,1.725798,-0.10511969,2.3995707,-0.6497971,0.6352395,-0.81308794,-0.95068467,-0.24559502,2.7897933,-0.6891085,1.6883497,-1.2006078,0.76940584,-0.10714841,0.11125819,-1.2610793,0.61574554,-1.1002312,-0.24979563,-2.0100393,-0.88971305,1.4632615,0.29685324,-1.2208393,-1.2346871,0.6487152,0.4218327,2.6732428,-0.3842336,-1.517741,0.48340484,0.81680316,0.7514891,0.6755558,-0.78032976,1.1412915,0.68420076,-0.279347,-1.3955964,-1.2236595,0.4930459,0.104961716,-0.71066564,2.099192,1.0304055,-0.8271602,-0.08002002,-0.4880688,-0.2090221,0.082003735,0.98795515,0.8016604,0.7386505,-0.6596996,0.44914007,2.2624974,-0.43852496,0.18948732,-0.5300824,-0.74460185,1.7544827,0.7235356,-1.1297936,-1.7304661,0.62496406,0.4560106,1.3189875,-1.3830606,-1.4809626,-1.3174307,-0.42803052,-0.112187035,-1.9840645,-0.23894127,1.4192661,1.0193479,2.2606332,2.9532576,-0.31269628,-0.3779915,0.953622,0.49191514,1.7745577,1.4195136,0.28563833,-1.8299333,0.17965125,-0.696947,0.85855097,0.053223882,0.4669114,1.2390008,1.1187146,0.36439735,-1.2907168,0.40507412,-0.50708836,-0.23589936,-0.11799136,-2.0144904,-1.3951069,-2.8633242,-1.3643099,0.7344909,-0.07485959,-1.7741783,1.2070943,-0.10447881,-0.8996895,-0.9911841,1.2752115,1.033507,-0.8117071,-1.8221862,-0.81703156,1.0960152,1.34688,1.198257,-0.39366406,-1.0746028,1.5005777,0.72631264,0.49913463,-0.20826377,-0.24662389,0.10530048,-0.09732042,0.5431719,0.058784675,0.50718963,1.389795,1.0137507,0.59508336,-2.366677,1.1185083,-1.2802751,-1.6298735,0.3000372,0.15599339,-1.3629599,-0.9985223,-0.19828434,0.879676,-0.6091136,-0.07524828,-0.6118223,-0.31024024,-1.710692,0.75198454,-0.713074,1.5056723,-0.45459017,-0.5222502,0.5726345,0.47905195,-1.0742946,0.18331125,-0.4134288,0.21082984,0.37788484,0.5098201,0.5556994,0.70266986,-0.6324627,-1.959688,0.61049706,-0.2549278,1.225343,0.9265629,-1.9511577,0.60846376,1.0708449,-0.35623252,0.11247749,0.46184772,-0.86845654,-0.05677347,-0.53478515,0.63957953,-0.56290805,1.2586603,-1.7491404,-0.8515633,1.4378986,-0.27409038,0.41690108,0.7355118,-1.7845869,-1.7251447,1.2454811,0.49708977,0.36607704,0.41052657,0.57456946,1.1141466,2.4322634,2.4141765,-0.14112368,-1.5555993,-1.5792358,-1.3837303,1.3952776,0.62559766,-1.6104231,1.2483196,1.1834952,-0.6336519,-0.83696854,-0.4950624,-0.74710315,-1.815002,-0.51719695,-1.6271486,-1.762412,0.91632026,0.40691993,1.0226207,0.62501734,-0.95392764,-1.3477311,-0.93782586,0.52482134,-0.042628042,0.022948666,0.4837454,0.0914942,-0.6427454,-1.0285059,-0.40328148,-0.10610245,0.7911866,0.37741062,-0.5017833,1.2432123,-2.9777071,1.0378983,0.6903417,-0.5574446,-0.6714977,-1.6043482,-1.4090196,-1.5150983,0.055237666,-1.4863498,-0.3752559,1.5742128,-1.9541494,1.4105122,-0.15386792,-0.96756047,-0.21067141,1.7063736,0.15956816,-1.8277919,-1.4075153,0.5248494,-0.5829183,-0.48319334,-0.28949997,2.9379349,0.10010906,0.07327503,1.362332,-1.7329426,-2.9127436,0.19957677,1.0847765,-1.3964323,-1.6611375,1.1442509,-0.15824029,1.821214,0.8185401,-0.47351003,-0.8880662,0.07777762,0.6626107,1.934599,-0.53026444,0.8375605,0.5166514,0.9121168,1.3454626,-1.216407,0.34644118,-2.0253127,0.60041493,0.64679444,1.7128061,-0.49941507,-1.187187,0.13144456,-0.30972424,1.4336995,1.092835,3.124971,0.5779906,-0.087191604,-1.7789981,-1.5912468,0.15963173,-0.5527491,0.79228145,0.53204453,-1.6449393,-0.34057456,-1.4238925,1.0658246,-0.7822858,1.5070761,3.038253,-0.81715,-0.9309561,-0.796481,-1.1697253,0.0037957842,0.18067084,-0.95893484,-1.6805327,0.6236686,1.1240444,-0.33056802,-0.39916813,0.4026065,-0.4327664,-0.5022911,1.0975889,0.6398057,-0.28599292,-1.0092279,-0.99455047,0.28527144,0.20864473,-0.12114,0.119960606,1.581971,-1.8047059,-0.34679013,-0.81688434,0.28402993,1.3303819,2.1098695,-1.5751238,1.8520184,-0.2967011,-1.3981371,0.18580236,-1.1748589,-2.3423092,0.5093304,1.1476314,-0.20606768,-1.8194488,-0.47087604,-0.024276461,1.745418,0.34539106,-1.0469104,-1.6607927,1.307766,0.642603,0.73114914,-0.57849383,1.7972172,-2.1560588,-1.269324,0.70845836,-1.5669165,0.6773655,0.014436375,-0.6907488,-0.981324,0.79459906,-0.23405762,0.22606295,-0.15447477,-1.1084435,0.0132917315,-1.3917749,-0.8615949,0.5151717,1.1526507,0.64026004,0.24520566,-0.8223311,2.2295887,0.07461933,-0.12292486,1.2061923,0.7785966,1.1275107,-0.442621,-0.3835128,0.045570657,-1.3686882,-0.3379262,-1.000008,-1.2291337,1.4197137,-1.1702815,-0.18856391,0.112859115,-0.34881428,-0.85226905,1.018478,1.7724676,0.33963013,-1.5492347,1.0214758
DKK1,1.2802572,0.41377234,-1.2153571,-0.10710206,0.3980052,-1.0266191,1.5439476,1.479786,-1.4855534,-0.95564675,-0.49920675,-0.34781155,0.4898662,0.7026263,-0.23969206,-0.5683587,0.35012412,-1.3845434,0.1682594,0.45040524,1.5039676,-1.0978487,1.3073264,-0.5218453,1.2237644,-0.51522434,-0.05700644,0.35986105,1.027903,0.3378342,0.10252868,-0.061858788,-2.2721436,-0.029980473,-0.2578127,-0.15271018,0.8563738,1.8405151,-0.053498648,-1.8293167,-0.49308747,-0.36145955,0.8119414,0.0016166267,0.06950009,-0.05422637,0.11399564,-1.3089666,0.61855274,0.11576182,0.6916173,2.119559,0.65855694,0.5027512,0.8550455,-0.5695834,-0.81330514,-1.4338442,-0.588637,1.6435547,0.11679548,-0.1586643,0.8764307,2.6270835,0.9084757,1.0075821,0.15663832,-1.102896,0.3000338,-0.767281,0.4201987,-0.81564677,-0.68696904,-1.0982088,-1.5462707,0.11718423,-0.15864085,0.12886684,-0.91057616,1.1494218,-0.9907332,1.3632243,-0.6969673,-1.769038,0.39574254,-0.33915454,-2.1896808,1.5032111,1.4693018,-0.045548223,-0.78504825,-0.68078655,3.4500928,-0.4752644,0.5164203,-0.660749,2.2249498,-0.8175762,-1.125483,0.25811616,0.60834545,1.2906777,-0.92251515,0.6078543,3.400242,1.5166856,-1.0663626,0.11481771,0.90009016,-1.460238,0.031970248,-0.10765675,0.13240148,-0.4767171,-0.36620015,0.46011242,1.3378471,-1.6510062,-0.30676934,2.6662924,2.1281164,1.1542355,-0.8150968,-0.29432815,0.3640851,-0.42738482,-1.427808,1.2800596,-0.9943972,0.82427615,-1.7573398,1.0918517,0.755166,-1.0367362,-0.6186273,1.1176609,0.5354049,-0.49082172,2.2571208,-1.5019982,0.1400626,-1.0017625,-0.05414898,0.7909191,-0.2215523,1.177375,0.5898067,-2.5330215,-0.65846306,1.5328051,0.43148383,-0.056664426,-0.48073003,0.545597,0.015918203,0.4506823,0.8357616,-1.3373587,-0.32435033,0.55766344,1.8995452,-1.0164346,-0.09444226,-1.402026,0.8327569,1.1619546,-0.95564204,-2.4713578,-1.5184172,0.03166279,-1.8266805,1.541054,0.7835651,1.5554161,0.664571,-1.5715156,-0.07581891,-0.6971011,0.85760236,-0.74751496,-0.27619547,0.8650121,-1.6175451,1.7081237,0.31347916,-1.8069632,-0.660383,-0.7149304,0.6238975,0.3763253,1.4649123,-1.3251799,0.84026253,0.09279361,0.046127256,1.7333676,0.3708631,-0.76657486,0.00828577,-1.0995373,-0.059912954,-0.6187599,0.8998535,-0.52381897,0.59266824,-0.40260625,-0.36911696,1.0399061,-0.6585857,0.52102166,0.37782243,-1.2114019,0.35171717,0.7769106,0.13585812,-0.10786458,-1.3930715,0.3239194,-0.14612895,1.5062712,0.85915583,0.2804104,0.9815305,-0.81662124,-0.7205154,-0.1761717,-0.56051743,-1.9891471,-1.3951395,-0.31916288,-1.0570704,-0.23443548,1.3368416,0.757086,-0.35374376,-0.13753694,-1.1081773,0.27755305,0.5647909,-0.43030998,-0.77830046,2.1267543,0.41999623,-0.07251226,0.2042891,0.7452262,0.22790574,-0.18532474,-1.287448,-0.33427036,1.3136557,1.5772204,2.252844,-0.9138769,-0.44146243,-0.4656925,-1.0912702,-1.1515487,-0.23941627,-0.45478055,0.14878492,-0.4953473,-0.12596633,1.3856074,2.9970307,-0.24101838,-0.48829067,-1.0063875,-0.3905465,-0.11911281,0.57983744,0.46995386,2.5678642,-0.9703389,-0.19353765,-0.32658708,-0.26176652,0.11448075,0.7697439,-0.6080865,-0.7522086,-1.3668103,0.9028684,-0.46148998,1.4161032,-0.42782664,0.39948273,1.0963563,0.060343668,0.577291,0.24099152,-0.21162888,1.6952834,-1.1891642,2.2818818,0.8369947,-0.011030349,1.0830736,0.33731675,-1.100798,-2.2720149,-1.964435,3.465554,-0.21538353,0.69973576,1.7578808,-0.8931078,0.1732326,1.1921686,0.0933226,0.62265337,-0.93919015,0.57563865,-1.1038376,-1.3656706,-1.5577741,-0.89861125,0.5574851,2.7999585,0.14265268,-1.9499142,-0.9690446,0.6719158,0.022828791,0.29672703,0.71471864,1.490442,0.8348839,0.6726127,-0.63638324,3.310038,2.0747426,-0.12274093,-0.8604973,-1.0681337,-0.11762596,-0.72300154,-0.1268702,1.9168688,0.13453741,0.09202541,-1.8794739,0.3608641,-0.741684,1.0682454,1.4353778,-3.4801545,1.206575,0.406404,-2.6591103,-0.13539103,-0.54087096,-1.6898655,0.30443123,-0.327775,0.9982008,-1.9120749,1.6112158,0.5613505,1.6531253,0.37432942,-1.714108,1.5998799,-0.76322263,-0.14903115,0.37838402,0.26286528,-0.85532904,-1.9420942,0.5366855,-0.3553045,-0.34081656,0.99587566,1.6862895,1.6097457,1.2011902,-1.237933,-0.3413013,-0.38790187,-0.5813255,1.8963277,-2.0010893,0.1935085,1.1693423,0.2798169,-1.0331458,-0.6267431,-0.9209772,0.53938335,0.9469062,1.3771445,1.6616946,0.5551728,-1.739178,0.6314061,-0.9444113,-1.3053417,1.1057118,0.22095083,0.0074486,-1.0111123,-1.3881304,-0.98886347,0.9843136,-1.1019279,0.59466493,1.0828928,0.71481234,1.296988,-0.3316866,1.6223788,-0.5789977,1.7732737,2.3122194,-1.3529958,-1.9830472,-1.8006912,1.519756,-2.123262,0.5447878,-0.22750978,-0.20654681,1.311103,-0.2346137,-0.7720927,-2.1321678,0.70907617,0.8524917,0.693913,-0.3574711,-0.7989809,-0.010755039,0.048806727,0.048260853,-1.1436692,-0.6539525,0.18523161,-0.66863936,0.95698744,-0.45528877,0.61925626,0.30445242,0.49615347,0.16370647,-0.20462094,-1.6917007,0.4159412,-0.3183466,-2.0097218,0.32439303,-0.75112414,0.5160999,-1.4786248,-0.1326204,-0.12752333,0.5125183,-0.69524187,-0.010407037,-1.3213062,-1.376469,-2.5111542,0.5937029,-1.7166219,-0.516246,-0.92392766,0.92616016,2.2754807,-0.21185835,-1.3994784,0.59745777,-0.14422636,-0.19458772,0.10979531,1.7320387,0.59061676,1.2850223,0.93429536,-1.5681891,-0.58015865,0.55651206,-2.0107756,-2.0180764,0.85393405,-0.40082026,0.2512509,-0.075928904,-1.0223864,0.43425134,-0.6601106,0.31675848,1.8432155,0.14377709,-1.6797913,0.3616629,1.0275054,1.5780762,-1.0447835,-1.8905767,-2.803712,2.3066888,-0.86317223,-0.14432518,-0.2266082,0.95312613,-1.9728402,-0.13117447,-1.6792413,1.1168573,-1.2799293,-1.1416581,-1.1870669,-0.85512966
DMRT1,-1.2108064,-2.0479014,1.8304199,-0.9048957,-0.20278199,2.045438,0.31960273,0.24987932,0.2832696,0.320795,-0.7586914,-0.14043523,-0.6043926,-0.0695809,-0.5985086,0.49459332,-0.35289347,1.7024373,0.48022208,1.0528458,-0.8098993,1.1125624,0.6067569,-0.5253787,-1.5674375,4.2097054,-0.106627084,-1.189794,1.5383584,0.52719563,1.1601136,0.4058061,-2.0832257,0.9310085,-0.8236058,0.53666735,-0.19495232,-2.4073384,0.14011073,0.71969926,-0.5040158,0.27533436,1.0184274,0.947711,-0.15434952,-1.358007,1.5814099,-0.0065612397,-0.16771716,0.41330928,2.2649276,0.028054884,0.47438276,-1.2240711,-0.03596911,0.34030974,0.5204416,-0.10388122,1.3252556,1.0275171,-0.37440532,-1.038666,-0.42688733,0.63819057,-0.3632252,1.6030256,-0.37704363,0.34274283,1.7503767,-0.55960023,-1.2497667,-0.97527343,-0.546331,0.029529708,-0.75450635,1.5872688,-1.3847224,-0.9889749,1.4468098,0.06629924,0.8724908,-0.269641,2.5503035,-0.061398216,-0.51807785,0.45496285,0.16300315,0.79628086,0.39798418,-1.1646262,-0.80740726,-0.966552,-0.66485673,0.05067269,-0.04186596,0.6454335,0.0042593004,1.3006425,-1.0032002,-0.112781554,0.67159337,0.3810057,0.43827352,2.0895262,0.44762108,-0.21683519,0.16971311,1.4124175,-0.15547457,-2.0089517,-0.19505729,-0.15298489,0.8517018,2.622013,0.30288416,1.034986,-0.48356658,0.06822771,-1.3851585,-0.2005623,-0.9786484,-0.91373587,-0.19507365,0.11604721,1.212496,-1.1682774,0.20600541,0.38139647,0.67472684,0.90343535,-0.11066823,-2.026304,-2.876819,-2.3561912,-0.76702636,0.22105403,-0.108406916,-0.38204727,0.36998823,1.2284722,0.22541328,0.1483767,-0.34918484,0.7205641,-1.2098712,-1.2448572,1.7523911,-1.2748619,1.0497646,1.0271081,-0.11054545,0.083015725,-0.19644457,1.512968,-0.9079683,0.8089586,-1.4975634,-0.2487709,-0.66322654,-1.2233299,0.49550393,0.8356262,-0.75871164,-0.4978176,-1.2671216,-0.74306977,-0.8970611,-0.51020753,0.53410906,2.70487,0.53237313,1.4545563,-2.1432397,-1.2712493,0.29442984,-2.2351618,0.8547066,2.285378,0.5260601,-0.08345126,0.9323168,-1.6561509,-2.7952826,-0.8336035,-0.90954936,1.0376735,-0.116563514,-0.34725845,0.47103918,0.014605861,0.69564605,-1.8529903,-0.57531,0.38613802,0.76454824,1.3499156,-1.5126853,-2.1177652,1.4321784,0.24904102,0.2627047,-0.228242,-0.12505138,-0.737832,-3.3705912,0.789852,-0.85075337,1.3495489,-2.6080277,2.109028,-1.9510869,-0.075118095,-1.0766262,0.7851323,-0.6182796,-0.7592049,-0.25483236,0.15053864,-0.21861005,1.5718746,-1.1218262,-1.7828444,-2.946539,-0.13952246,0.78209645,-0.29196393,-2.1467812,-0.7156111,-0.5201454,-1.1446247,0.15203969,3.2714777,0.4352993,-1.3072491,0.1765141,1.0530212,-0.8617102,-0.06824748,-0.32402036,-0.5848576,0.50667775,0.03965181,-0.4687671,0.2755577,-1.308916,1.1658664,-1.0333534,-0.64857763,1.9303092,-0.8685404,-0.5592011,0.47242126,1.4085933,0.75763094,-0.7955572,-0.71117955,-1.0489188,0.09803764,-1.8144747,-0.4312456,-0.39706385,-0.26271424,-0.17663477,-0.44884637,1.7587078,-1.1745481,-0.34060362,2.2099183,1.1757084,-1.5985662,0.00014417213,-0.34684256,-1.5770434,-0.8501104,0.12384055,1.1302459,-1.1606733,-0.77058965,0.62545896,-0.47458518,-0.6507087,1.2397062,-1.4531953,-0.39549297,-0.43497202,-0.24401666,-0.8905768,1.0355154,-0.5954259,0.33817425,-1.1126639,-2.9618747,1.072653,-0.41042426,1.2990872,0.27510864,2.2391274,0.43236947,2.4704647,1.0404997,0.21753968,1.0272503,-1.1569575,-1.3080729,1.819257,1.8051232,-0.35559744,2.4544632,0.32173935,-0.030374197,-1.0107015,0.06561681,-2.0286705,-0.56667316,-1.2233036,-0.47802177,-0.38495198,0.119338416,-0.5674892,-1.2061845,-1.1778101,0.7468343,-1.9827884,-0.807214,1.1077086,-0.72677314,0.13887356,-0.106097974,0.93091697,-0.88964295,0.78155124,-1.966807,-1.2144101,0.43272474,-1.6267477,0.827561,-0.12384604,0.48563546,-0.26291078,0.15570052,0.07633195,-0.6426557,-0.78581816,0.37143004,1.2967957,0.3909859,-1.0314137,-0.38898948,1.2356557,0.4074976,0.7305124,-0.8797486,-1.6804447,0.3148457,1.4438715,-0.33514565,-1.9251584,0.6407295,-0.42996925,-0.01613985,0.94504714,-1.2031206,2.202481,1.330175,1.7413614,-0.20806807,-2.355062,-1.1527251,-0.03479143,1.7212981,-2.4014332,0.62433696,1.1649565,0.004128408,0.68228763,1.8801538,1.5184451,1.2559447,0.028848723,-1.7429781,1.5498867,1.4752818,0.860141,-0.28152162,2.4844418,-0.15009794,-0.90707797,0.9762888,-0.27519938,0.15125915,0.28861496,-0.4765013,-0.4371159,3.047806,-1.4559882,-1.9107033,-0.5569117,2.9716513,0.598986,0.7786479,0.703047,2.4851732,-0.95546407,0.7351217,-2.011108,0.24722807,-0.11110257,-0.16627412,0.40090933,-0.22892842,0.086258285,-0.57500726,-0.29351884,-0.07439795,0.13110006,1.1495275,-1.2784606,0.31948826,-0.30887774,-1.3830824,-0.064876124,0.9096942,0.1400199,0.14281139,0.5052733,-1.948634,0.063520625,-1.0221728,0.4036422,1.9707274,-0.6137332,0.77680916,-0.98695385,2.075464,2.1094456,-1.1483858,1.8513956,-2.7692533,1.3174363,-0.2468345,1.7506427,-1.2966254,-1.0458328,-0.0121362675,1.6418157,-1.1572673,0.47638842,0.49678984,0.30393687,1.8926424,0.979713,-0.049206495,-0.41774946,1.2748941,-0.5889105,-1.6745964,-0.030433638,0.23918869,1.4245148,0.48772538,-0.6347709,0.32158864,1.4394196,0.32351902,-0.6402413,0.2506385,0.7142421,-1.3901521,0.95813113,1.921178,-0.94137007,1.4851044,-0.438113,-0.45932123,0.3298187,-0.405064,2.284921,-0.5526659,0.57940286,-0.4538811,0.19422908,-0.014905761,3.042508,-0.73360115,-0.1898262,1.4981152,0.4733651,-1.2875924,1.0449154,2.4867072,-0.10580827,0.9408771,1.5294518,-0.13738425,0.6215635,-1.1184012,-0.7580387,-1.949716,0.33273432,-0.87228626,-1.44374,-1.2422612,-1.0400561,0.962777,0.52423894,-0.04625839,-0.86057657,0.14799653,-0.109193504,-1.0120933,-1.4568079,1.2087551
FGF9,0.3597048,0.014896975,-0.78884745,-2.1402001,-0.26652414,-1.2838893,0.8156628,-0.49069804,-0.746345,2.029567,-0.5985498,0.021132493,-1.3644907,1.4290737,0.68543714,0.26162362,0.19081198,0.5169749,-0.2865043,0.4467307,4.1037474,1.2807333,0.50536984,-0.049157094,1.1300646,-2.2889493,2.2647347,-1.7428768,-0.670541,-0.14307301,0.871957,0.5472005,-1.952672,-1.1619514,-0.060553335,1.0092741,-0.46115,0.13501397,0.15211059,0.09098712,1.3082757,-0.556881,1.3297429,0.17380235,-0.78330994,-0.060507223,0.08737631,-0.35993248,-0.48747036,-0.66006976,-0.713063,0.85381436,2.8745956,2.6202493,1.3938663,-1.3438613,1.2730397,1.147339,-0.6716311,0.99878913,-2.252969,-0.585614,-0.13382915,-0.14128876,0.043803077,0.00577874,0.6911371,-0.39481825,2.460833,-0.5594761,-0.43425795,0.2524431,0.6923473,-0.39121935,-0.9382,-0.010858437,-1.7573502,1.110945,1.8121368,1.0960379,0.26819515,-1.5299885,0.9408377,-1.6421242,-1.461115,1.070461,0.35663307,0.42681542,-0.3392174,-0.87128556,1.1799451,-0.043002404,1.0169301,-0.4383818,0.7112073,0.053320065,1.1393046,1.4129142,0.14656375,-1.6549197,2.4887333,-1.9647026,0.74705344,0.09869118,1.456606,-0.41331378,0.77816594,-1.8824229,0.9331158,1.1842512,-0.060667384,0.82190853,-0.83610404,0.35388136,-0.8782041,-1.0789565,-0.20699503,0.5350179,-0.597566,-0.48520285,-0.72971475,1.4060358,-1.0031881,-1.2757362,0.060777023,-0.3170579,-0.3517177,-1.5061071,0.2083373,0.6044783,-1.1901612,-1.1556085,-0.18349716,-0.49322736,-0.58882433,0.74148214,1.794941,-1.6364709,1.6677545,-0.5489715,1.577767,-0.7968274,-0.99262893,0.1561403,0.62875056,-1.3417222,0.07325794,0.874505,-1.0938195,1.5896355,-0.07055215,-1.4581951,0.7094138,1.431212,-0.40110648,-0.19168206,0.6787871,-0.19975999,-0.16921449,-1.2787331,-0.012724183,0.30548283,-0.45446318,3.0283177,-0.13783945,1.0651236,-1.2274879,0.38013697,-1.508254,0.86731935,-2.9381304,2.0951061,-0.776446,0.75683504,1.0729198,1.8653628,-0.08160782,-0.27548495,-0.60720354,-0.06957425,-1.4078588,0.028370015,1.2143651,1.519905,0.98863155,1.1049308,-1.0683069,-0.5952323,-1.4747115,-0.7191514,-2.0137491,0.035619017,0.73859084,-1.7234217,0.49689934,-0.38983396,-0.39905426,-0.12073479,-0.65750384,-0.4741279,-0.423309,0.37503847,-0.5740325,-0.42155594,0.046086576,-0.5367546,-1.1052775,-0.08590803,1.1840076,-1.0592742,-0.57676065,2.3890336,-0.66518813,0.9803809,-0.5297915,0.16068873,-0.42835408,2.100141,1.5949728,0.8896526,-1.4842036,-0.7328664,1.2250327,-0.802642,0.005655858,-0.98560184,0.035762545,0.6426236,-0.18305689,-1.6339898,-0.63532674,-0.8323026,0.87268436,-1.4538774,-0.19080353,-0.83362156,-1.5611092,2.183335,-0.97852486,-0.7633368,0.831834,-0.36451894,-0.31821537,1.2057637,0.45571917,-0.6514566,-0.23514538,-2.275179,-0.92119366,0.4660955,-1.2991115,1.4238231,-0.99130154,1.3399849,-0.21376666,-0.05067747,-0.37842083,1.0100397,0.52101517,-1.1176766,0.022367897,1.5822358,2.1716816,-0.1546558,0.15257858,-0.9920752,-0.34179983,-0.6722533,-0.8193291,-0.34727636,0.070543654,0.73962384,1.1959798,0.691926,-0.81761754,-0.39785782,-1.0457088,0.5136597,-0.021741493,1.3706305,1.0424507,-0.7955626,0.61897725,-1.5834246,0.72331667,-3.2442715,-1.5304905,0.44671762,-1.5043741,0.50772554,-1.7879642,-1.7548275,-0.21534452,-1.1128519,-0.8656295,-0.059570204,-0.35839048,0.1265225,1.3807324,0.21599436,0.93662953,-0.6929254,1.9664812,-0.0039375755,0.25061062,1.087906,1.1040907,2.0911117,2.6514585,0.6073084,0.50683236,-0.61057436,-0.19762954,-2.3837934,0.7408008,-1.4044112,1.2228662,0.45384288,0.9833454,0.5137499,1.5633316,-0.18383175,0.92159116,0.09222626,0.71617126,1.4500482,1.1571666,-0.14860599,0.06302322,-0.3335966,2.7918308,-2.4942791,-0.37976474,-2.3338177,0.4049046,-0.27471092,1.294973,2.5946338,-0.379779,1.5682703,1.2267797,0.75994813,0.6750327,-1.3180238,0.99812496,-1.7347572,-0.03682579,-1.4052126,1.9625243,-1.318831,0.064769775,0.22586861,-0.17467532,1.8295295,-0.3926754,-0.9971192,1.9509277,-0.30600423,0.5517027,0.47706184,-0.65325564,0.01863462,1.4899315,-0.7661245,-0.531138,0.34858164,0.6105952,-1.5404252,-0.33359668,2.549364,0.92969763,0.9581163,-0.22495772,0.6462851,-1.1615828,-1.0843604,-2.4437385,-0.96096855,-1.8471972,-0.26992926,-1.1452177,0.19857855,-0.959824,-0.26475197,-0.07263075,1.2066343,-1.6618958,0.94920504,-1.361138,-1.311587,0.16235729,0.7667228,0.3750498,0.8935687,1.8725568,1.144081,0.7112255,1.1889071,0.67791474,1.5264709,-2.3329875,-1.1382176,-1.095003,-0.50030994,-0.09927542,0.20732015,0.07852715,0.46416247,-0.34518468,0.49715653,0.8582538,2.2781956,0.3636039,1.6700866,0.47024542,0.035754535,1.0587263,-0.03525715,-3.0823843,1.9920101,2.0140455,0.59073716,0.13099267,-1.592806,-1.0968019,-0.8740837,-0.8079238,-0.92645645,0.81695276,-1.1298095,-1.2872736,-0.67092985,1.1705036,-1.0708624,1.3848917,-1.8340446,1.6428802,0.4332711,1.1550144,0.99924207,-0.19670834,1.0614685,-0.4861199,-0.5631499,1.4447609,0.38736135,2.7616084,-1.2403919,-1.2414548,0.34142384,1.0432693,0.008942841,0.18714306,1.7302451,0.36154398,-0.83354765,0.7081567,-0.20083445,-0.92346084,-0.077988796,0.84854484,-0.8527825,-1.1173071,-0.038126014,-1.3123301,0.8415145,0.36986428,0.35770163,-2.0635002,-0.89310265,-0.9428155,1.3729484,-0.4396375,0.5564038,0.38242343,0.5289326,1.5000075,-0.91310614,-1.106668,1.2261332,-2.0587587,-1.7577407,0.27293742,-1.0075575,-1.4044532,-3.0018888,-0.29885733,1.4520973,0.7508105,-0.34053624,-0.3778614,-0.17605819,1.2148956,-0.6586699,-0.7851156,-0.22543648,0.18434836,1.5073807,0.27097723,-0.48333758,-1.7682688,-0.7288346,0.1712341,-0.26869887,-1.7198561,0.6236889,-0.8538515,-1.2408677,-0.22941299,1.9239757,-1.8420348,-1.7928337
FOXL2,-0.46076894,0.23844317,0.635492,0.84313774,0.24278256,0.2871625,-0.38529918,0.22997215,-2.002506,-0.6695476,-0.28539446,0.61314094,1.1550107,1.8434137,-0.5875483,-1.4033722,0.42621997,4.009478,-0.95068806,-0.760657,0.4940508,-0.3635247,-0.37757295,-0.6684016,-1.6373022,1.3823105,0.6169561,0.041869607,2.037574,-0.48163497,-0.6506235,0.58447665,1.8651541,1.144136,0.7167163,-0.39118016,-0.4770563,-1.7701198,-1.1073968,0.32715362,-0.5781289,0.8268532,0.44097155,-0.24283732,0.7963554,0.2838122,-2.0903888,0.34208405,-0.38265666,0.10450288,-0.82987547,-0.96475285,-2.0291557,-1.4902239,-0.48425362,-0.9600665,-0.9719137,0.10707606,1.5836357,-0.4498015,-0.328444,0.058927547,-0.7834811,0.8664323,2.2325928,1.8698981,-0.82607484,-0.74032986,1.5401598,-1.4511911,-0.3704633,-0.75350755,0.29556677,-0.662361,0.57196873,1.1986251,-1.193493,-0.01380808,1.0522132,-0.31791317,-0.69624114,1.1795373,0.2681575,0.46449465,-3.65787,1.927573,-0.2280415,1.3033237,2.0134327,-0.8305575,-0.10948174,0.74710786,0.55857825,2.3911848,1.7285314,1.6076009,1.6547524,1.1844364,0.887191,-0.136506,-0.039558366,-0.7139053,1.444143,0.8055593,3.3608549,1.0527083,0.54944855,0.4839726,0.47247705,-0.18802616,0.7396436,1.4861645,1.469038,0.18753037,-1.4257784,-0.11037177,0.028842034,0.25054315,0.10565987,-0.6073003,-1.994376,-0.32635683,-0.0036300207,-1.6548164,-0.31872743,0.35692975,0.2927628,0.6800485,2.0048466,-0.07258883,0.93974483,-0.11090898,0.91644096,0.82656556,-0.5381741,0.5507656,1.1886096,-1.5497154,2.816156,2.7186558,0.96630186,-0.17538176,-0.5784062,-0.21094073,-1.9853871,-0.0059573743,-0.21616584,1.1077564,1.3585681,-0.3274661,1.2698967,-0.09423999,0.67529154,0.3945259,-0.5570363,0.108473465,0.34427202,0.7436365,2.5978234,-0.16395812,-2.384288,-0.8639911,-0.24061705,0.98102695,-0.27066526,-0.10867079,-1.9614958,0.69709873,-1.283912,0.47786948,-0.43260077,-1.117469,-3.1694458,0.6876406,-1.0179439,-0.55528224,-0.9320997,0.46235293,-0.07372135,-0.022306683,0.88715154,-0.47746104,-0.24102241,-1.2921525,-1.4843254,1.5267128,1.5325785,-0.8251415,0.77733105,0.6815979,0.8096109,1.9259006,-0.9780664,-1.257397,-0.565394,-0.88059163,0.23765847,0.8777314,1.5572804,1.3039346,-0.19830959,-0.4687072,-0.15095557,-0.69004786,-2.0758426,0.44637552,0.10998605,1.3884441,0.10904622,0.23906164,-1.0736732,0.31073993,1.4684263,0.8327392,0.12826768,-0.29641023,-0.3250326,-0.13742167,0.22256312,-1.72133,-0.110300206,-1.4951731,-1.4428535,-0.41397697,0.94136065,0.2746893,-0.9839566,-1.0639693,-1.19478,-2.4388125,0.23078789,0.37042066,1.0121763,0.07325771,-0.16984335,-1.172987,-2.6796434,0.25424385,-0.32433146,1.0489773,0.42171425,0.9080853,0.07957837,-0.84190416,-0.4064267,0.73115635,1.0502324,0.36597258,1.4702308,-2.712623,-0.2698634,0.50287426,-0.32893375,-0.996654,-1.1556253,0.14606896,0.6163227,-0.9161253,-0.10324658,-1.1129684,-0.50085294,2.1976979,-1.4905229,-1.3503822,0.25329882,0.4502343,-0.07995984,-0.3798979,-0.8623343,0.600188,-0.20091867,1.053439,0.2937254,-0.2997117,1.5211786,-1.343357,-1.8027463,1.030047,0.07987708,-0.47634906,-0.5153084,-0.47030708,-0.9730078,0.8061515,-0.3293807,1.1750172,-0.8497601,1.9646523,0.4265375,-2.382402,0.23880029,0.082502015,0.43801272,-1.39684,3.4367042,-1.6428406,0.85686785,-1.122582,1.1867914,0.5378832,1.5142566,-0.98771834,-0.5416617,-0.17969583,0.15964578,-0.11345154,0.4470736,0.1778104,0.34387815,-0.4539218,-0.19608706,0.76787794,0.21320412,-0.55471253,-0.4681778,-0.68947834,-0.011963591,-0.76090723,0.800816,-1.8451451,0.7337866,-1.0867186,-2.8889067,-0.51071286,0.19050549,0.0955761,1.5964494,1.0679567,1.1777188,-1.2493017,1.1092786,-0.39543316,-0.029785821,0.41624504,-0.093762726,1.4966756,-0.78249425,-0.35846406,-1.0153543,0.34728047,-0.24735832,-0.483855,-1.6862017,0.5881361,1.040789,1.2609837,-0.15671915,-2.0175219,-1.3173506,-0.76028436,-0.1377851,1.0707994,0.064625315,-0.38304976,0.43974283,-0.24252084,-0.67202705,0.13000931,-0.8081481,1.3823328,-1.4041967,-1.0382531,2.913551,0.9836585,0.68096846,0.00022622009,0.031927582,-1.7813638,0.6308923,0.86489326,0.5404249,-1.7283795,-1.3034258,-0.5363139,-0.53265333,0.10372301,-1.5701857,-0.08915079,1.3344058,1.2736474,-0.0045516533,-0.8936659,-1.2073811,1.3698715,0.2453773,0.42136416,-0.2630841,-0.098817,-1.1273366,1.9342581,1.3316668,0.16455014,-1.0294157,3.2202363,1.1279601,2.214241,0.8781318,-1.9205099,1.2250475,1.3463719,-0.7476945,-0.5776473,-1.4624935,1.5054746,0.3819528,-0.90309894,0.72166497,-0.92875195,-1.3992839,0.0666964,2.2365415,-0.7534151,-0.28540447,0.78683805,-0.056002807,-1.4681772,-0.58107656,1.247705,0.16656081,-0.6129346,0.8001894,-1.2224233,-0.06409167,-0.55933005,-0.87104905,-1.808889,1.0432502,-1.9693446,0.28678855,0.85839367,-0.3974928,-0.62717324,1.4100037,-1.302799,0.048515927,-1.4137992,-0.16037144,-1.7550013,1.4435451,-1.3425231,1.431812,0.5666633,-0.037570413,-0.035937395,0.8537896,-0.19238088,1.0851853,-1.1178366,-0.59157985,1.2761912,0.16508165,-2.033086,1.1794772,-0.91332537,0.64704657,-1.0228512,0.55947983,-0.3922934,0.57765776,-0.67020863,-0.8234379,-1.6783652,0.5034834,1.3351802,-0.56854975,-0.30262575,1.4227749,0.07094292,0.3054161,-0.5394774,0.4894561,-1.2303367,-0.97091216,1.8968991,0.8423748,-0.9998726,-0.99799067,-0.070289515,1.3148056,0.9595557,1.7554989,1.0722622,0.63720477,-0.34993705,-1.7208775,1.1782596,-1.7848941,1.5438484,-2.629055,0.6924474,-3.0948606,-0.18522385,-1.4595774,-0.37666327,-1.489159,0.10234462,1.7348915,-0.4146555,0.3445007,0.12876518,-2.4807541,0.8433865,-1.7549361,0.100874335,-0.9392205,0.7319463,2.7249298,0.8526909,-0.69381374,0.7451357,-0.41633016,-1.0500265
GATA4,-0.10524292,-1.4282206,-0.8917299,0.9210811,-0.060643498,0.5561936,1.9949713,1.6934128,0.021120513,1.3883927,-0.6627674,0.57385105,0.07988883,-1.0091096,-1.2366049,1.12413,1.1486967,0.6656239,-2.0226076,1.0936338,-1.0878292,0.016508508,0.4104878,-0.801646,-0.15149504,-0.40886512,-0.20194827,-0.25234908,0.92089736,-0.28723088,0.91989946,2.2273018,0.24496505,0.58806396,-2.141083,0.9610615,2.3681638,-1.0064604,-1.4129913,1.5458181,0.0065931994,0.92542195,-1.0169156,1.1819689,0.17189565,0.31388652,-1.0676136,-0.8820705,-0.68612015,0.5716245,-0.6726893,-2.0285983,0.33290234,0.49197,0.34299016,0.8674536,1.3470095,0.5989576,0.13504541,-0.6575998,0.99073875,-0.46981362,-0.07565031,0.5334709,0.9586705,1.1130326,-0.37572786,-0.7609421,1.5912278,0.9122249,-0.9391975,-1.4682941,0.7353016,-0.47713098,-1.3186975,2.441532,-0.19187711,-0.40032485,1.0969738,-0.3278128,-0.31236517,-1.3538424,0.20320818,-0.9321005,-2.2699769,0.41188487,-0.03249909,-1.4369217,0.5099658,-0.7726062,-0.0034006278,1.9336066,0.23244204,-0.5524749,0.06170682,2.262488,0.42231914,0.08850356,-1.7527173,-0.6477573,-2.1030097,1.1765686,0.5207401,0.35629612,-0.20313907,1.1115084,-0.10192386,-0.6082984,0.36765474,-1.9408152,-0.005804314,0.43060648,0.48746333,1.3556124,-1.7533689,-0.51342046,0.31251478,0.17159577,-0.6888391,1.1507013,-3.119893,-0.52776873,1.2970656,-1.3486098,-0.079919964,0.3042502,0.12258177,-0.068643704,-0.14610395,-0.13483775,0.010750694,-0.8993874,1.8347354,-0.6938272,-0.041611034,0.69522125,0.40549922,-2.0853214,-0.45187813,0.04131504,-1.3394326,-0.83147764,0.17794861,-0.11343863,-1.3721133,-0.7165444,0.31395653,2.0494673,0.84165365,-0.8720119,1.8027642,-1.0133742,-0.8066584,1.021753,-0.46500236,0.92363,-1.4929944,-0.21542467,-1.0259278,0.5606797,-0.7436531,0.6471697,-0.4073929,-0.51347953,-0.4499643,0.6816691,-1.9610959,-0.31180245,0.6665069,0.72270286,1.9613128,-1.9053165,0.66451555,-0.798606,-1.2212,-1.6689818,-1.4791746,0.16178046,1.5183176,2.7509675,1.2440323,-1.7310894,1.2335845,-1.4091129,2.752443,1.6011777,1.8177538,-0.782383,-1.6594741,-0.47869754,1.136951,1.3218414,0.28546774,0.8287478,-0.19729364,1.2880446,-1.2070876,-0.048564404,1.4938583,1.3932055,-0.18914692,-0.2129104,0.8514955,-0.7123425,-3.9949853,0.08212168,0.866128,-1.8691014,0.13310964,2.088493,-0.53581285,0.24097943,-0.67718285,1.5219948,-0.46269357,-0.8072148,0.4256911,0.6183444,-0.8226023,1.9933987,-0.12014421,1.2780854,-1.252586,-0.06450758,-0.38739064,-0.65824765,-1.237449,-0.48107213,-0.7207622,-1.7916607,1.3106757,0.84353405,-1.1735507,0.4389256,-0.10096964,0.99943495,-0.27495745,0.41834483,-1.6526941,1.076127,1.078673,0.04854579,0.87140363,1.6312732,-0.99851435,0.71032697,1.694727,-2.4094093,0.54340917,-0.13893998,0.60169935,1.1669434,1.5957174,1.5174325,0.60733676,-1.2819741,0.10645241,1.7681721,-0.53834075,-1.0674716,1.2927494,0.508406,-1.2260197,-0.5386014,0.49652874,-0.7456595,1.620103,-1.4928778,-1.6767911,-0.87751263,0.48551732,0.38568243,-0.38932502,-1.2389083,1.4381905,1.4214026,0.87468857,-0.049473107,-0.24271303,1.0108075,-1.3851666,-0.18616588,-1.6594598,0.42410532,0.8194442,-1.1725074,0.38988376,1.4935191,0.6268455,-1.52167,0.15983522,0.46421257,-1.8787588,-2.3460217,0.16334389,0.31131876,0.555379,-0.6415028,-0.01859243,0.37963358,-0.6373633,-0.53005457,-0.40847078,1.1406615,1.4367166,-1.4479034,-0.86483276,0.699873,-0.122077964,-0.9189975,1.700578,-0.3616413,0.44832742,-0.13525853,-1.8354138,-1.7986456,-0.6365223,0.060120847,1.4015203,-0.5553551,-0.095579796,-0.8957177,-1.2952688,-0.3262375,0.4145595,-0.11660886,0.31023753,0.64649194,-0.12702146,-0.30012023,-0.30579966,1.2590197,3.6569226,0.5082194,-0.88318354,-0.29787445,0.81371504,1.3947582,-0.819358,-1.0895507,-1.1552387,-0.7463145,0.21975374,-0.12133652,-1.6309795,-0.5619737,-0.46471623,0.6736358,1.0186023,0.22746213,-1.1544058,0.49143723,-0.45469972,0.25855663,-0.9141337,-0.5551633,-2.287833,0.21460135,-0.6292641,1.4275272,-0.26537862,-1.7761813,1.5753037,-0.23915881,-0.32707578,0.5733754,-0.23369882,-1.8014082,2.2723303,2.0946038,0.18140663,-0.0447119,0.099493586,0.62029713,-0.54034346,0.28757793,1.3811163,-1.0406786,0.15251207,0.77820253,1.2221458,-0.107553385,-0.21363644,0.36268517,-0.47685245,1.1859641,-1.7909899,0.59697634,0.105172694,0.35154837,-1.7080271,-1.1870445,0.02026237,3.6090121,-0.25823632,-0.0053845574,2.8279614,-1.6852973,0.91146034,0.48398894,-1.4938748,2.279359,1.013718,0.8267598,-0.628104,0.66465324,0.8873672,-1.6487844,-0.8801218,-0.3728725,2.7538528,-1.1273983,1.2985618,0.92331105,-1.7168076,-0.51917887,1.623307,-1.2545625,0.14199102,2.0902283,1.9381661,-1.55654,-0.165365,0.98406535,-1.0203758,-1.1301465,2.0976753,-0.7094992,0.16701435,-1.3107339,0.5735613,-2.000437,0.7139795,0.8324154,0.6326577,-0.7845028,0.8289497,-1.2537426,-0.10731032,0.33450487,-0.110352255,-1.193869,0.76455665,-1.2348483,-1.3560311,-1.2193712,-0.16012745,-0.24370378,1.3628602,1.0458721,0.83891445,-0.6681496,-1.0790521,0.33471248,3.135267,-0.7170444,0.07216674,2.3015585,1.1976343,-0.79307497,-0.7853238,0.7812903,1.5319334,0.37095505,0.3691739,-0.5953707,-1.9174706,-1.2980547,1.0114232,0.13595374,-0.09433404,-0.73300874,1.2303867,1.6296129,-0.84363794,-0.76377094,-1.2131621,0.76698494,1.1925638,0.38808,0.46519327,0.40236926,0.71303296,0.72005564,0.2678531,1.6978811,1.7293551,-0.9328575,-1.520741,-0.61495715,-2.3974285,-0.49476442,-1.5669428,-0.12784244,-2.0095732,-1.3016853,0.60562557,0.20850945,-0.43146616,-0.3401758,-1.3984966,-1.6439525,-2.3585873,0.16236393,-0.42623046,0.024790518,0.8031373,0.2797461,-0.492814,0.5737406,0.8188181,1.2241243
NR0B1,-0.43568656,-1.4011878,2.4597833,-1.5932693,0.79148215,-0.5240786,1.5577149,1.0044258,-0.57582325,1.8465312,2.4866276,-0.6497307,1.1646525,1.0715334,-0.043034203,2.0004458,0.89409304,2.810234,-0.018595908,1.2854891,-1.5762657,-0.19080734,0.9418078,0.30888128,0.06366737,-0.8968327,-1.6949153,0.25799382,-0.26274148,0.46902758,0.1567778,-0.15308546,0.22682133,-0.5882598,0.31907737,-0.3387509,-0.040490482,1.0470818,0.7317616,-0.43896127,0.99407625,0.38894337,0.5537817,-0.5250162,-1.052556,-0.34448448,1.4758871,1.0508751,-2.0715551,1.4772124,-0.12348132,0.15248345,-0.26946783,0.7470619,-0.7840002,0.41575587,-0.23339203,0.2513569,0.351104,1.2785736,0.13072775,0.26171818,0.4898792,0.7491978,0.248415,-0.041306447,-0.02033682,0.16719727,2.3780925,-1.8462312,0.2777818,-1.8783072,-1.1721786,0.38611898,-0.1879268,-2.04839,-1.7350284,1.1225201,0.66350394,0.9912545,-0.8925685,-0.80284375,0.13439518,-1.2634909,-1.4796929,1.9318196,-1.1051978,1.8511873,2.4555786,1.2097071,1.096486,1.2462771,0.8502568,-0.4190353,1.8731849,-0.26863405,-0.02153055,0.802245,-0.12011135,0.5016728,1.3717557,-0.5696148,1.241788,1.5507376,0.3026801,-0.23257391,-0.81132376,-0.6666545,-1.7660439,-0.21924554,-0.13753296,-1.8026358,0.76765734,-1.1262119,-0.4375834,-1.0496953,1.1193811,-0.7727912,0.0027901502,-1.224193,0.5189063,-1.0386775,-1.6154418,0.21782218,2.062678,0.76263416,-0.961412,-0.8475434,0.99279505,-1.3035288,2.7861881,-2.106491,1.0003407,-1.8908874,0.07230021,-0.2664874,0.8495746,-2.0276256,2.2833474,0.015643774,-0.87271905,-0.34886917,-1.1335038,1.1716632,-2.4123192,-0.8403529,-0.07311216,-0.6111933,-0.98983735,-0.22350012,0.21815822,-0.25961405,-1.1656662,-0.055968557,-2.325533,-1.403403,-0.08055899,-0.813488,-1.2782992,-0.5305347,0.53947693,0.37334117,-0.001885871,1.1800717,0.5308403,0.42912304,-1.4669384,-0.20438632,-1.0417885,1.4286526,1.0689071,0.5657414,-2.5270383,0.65873176,0.31028855,-1.9078746,-0.32857364,1.610256,0.50828475,0.6285794,-0.111893184,0.8430354,-0.15663038,1.3863789,0.014548943,-0.12855181,-0.23369324,0.94103897,1.4418873,-0.35415322,1.1917527,0.5166014,0.9419509,1.2565018,1.545958,0.7576765,0.9306564,0.6940537,1.3720108,0.4422353,1.7055937,-1.0974746,-0.62141246,-0.28713614,-2.4501646,-0.92175484,-0.5792784,-0.058508493,-1.3440998,0.5946036,-0.851926,0.5527358,-2.1958666,-1.0058734,-0.29763567,1.8997217,-0.78893715,1.6972159,0.5347567,0.0034953875,0.5998664,-1.2720256,0.81610876,0.4949878,-0.16360094,-1.8027577,-2.2438378,-2.0856662,-0.66974187,-1.6868755,-2.1072078,0.1855359,-0.7711126,0.8742477,-0.029429762,-0.67651707,-1.3065792,1.6353874,0.06416218,-0.8726389,0.46097788,-0.8371463,0.96575725,-0.6877025,-0.34253067,-2.2071042,0.5984185,-0.7462985,2.5309272,0.9550951,-2.0627778,1.044417,0.3917745,1.9043968,-0.7252689,-0.30402362,-0.3540274,-0.53372294,-1.689349,-1.3188764,-0.46362206,0.21727517,-1.174584,0.6373939,1.5007918,1.5859263,0.4044946,0.44543624,-1.4262576,-0.86512804,-0.19370961,1.4161521,1.0045788,-2.0934148,-0.5479945,2.7349026,-2.6025262,-0.16531028,1.046628,0.6999495,-1.2989935,-0.13881804,-0.191922,-1.3325486,-0.08702389,-1.116874,1.9861933,0.8064087,0.64963955,0.36716,-0.026286718,-0.66765904,-0.18017527,0.14059992,1.2954512,0.09723902,1.4142606,-0.6347689,0.50794923,1.0826732,-1.2928629,0.043603174,0.73298454,-0.11674371,-0.19815892,-1.4585696,-1.1584363,-0.064780265,-0.10555177,1.4007565,-0.75646734,0.18554,0.6573934,-0.5098831,1.0806103,-1.0588768,-1.2605702,0.48352414,2.1113727,-0.74598277,0.052634254,0.3033968,-1.9000748,-0.07058,-0.044974677,0.024663892,2.1059828,-0.21664757,0.2999418,-0.9896173,-1.6885324,2.543078,-0.056380384,0.43354824,-0.864542,-0.50329244,-0.57486784,-0.581987,-0.0138094025,1.3238063,0.33785257,1.8890154,-0.50318295,-2.128043,-2.4410813,0.42736617,-1.3720273,1.2632395,-0.6368644,0.17030352,-1.2626636,0.28492138,-0.94989413,-0.54114234,1.6477416,1.2230139,-2.8965814,1.643861,-0.34601176,1.5477902,0.87920356,0.46365073,0.13586949,0.97325236,-0.26481533,0.016634535,-1.3794389,0.9783807,0.1447432,0.509103,-1.1537641,0.5576861,0.4490499,-0.05115359,0.078767926,-0.024002962,0.73407686,0.022214292,-1.6934717,0.7082675,0.93231934,-0.21273102,0.17430493,1.6069155,0.4019528,-0.9456509,-0.8108167,-1.3077326,-0.2391657,1.0735788,-1.1775974,0.9866227,1.0026598,-3.2083404,1.940798,-0.77471656,2.1381137,0.8461575,-0.6696827,1.7538615,-0.12217106,1.7888913,0.5789513,-0.9547454,0.1439687,1.6145902,-1.209562,-1.8283972,0.6349776,0.33819705,2.2597592,0.5600682,1.9186028,0.25489375,-1.5171428,0.33667657,-1.0785434,1.4668181,-0.6806876,1.0391316,1.8203791,-0.5634393,0.8464742,-0.6767587,-0.74834937,-0.2599341,-1.6786125,0.970088,1.0001423,1.3473374,-1.7684712,-1.154763,-0.40691668,-0.5670478,-0.29061082,-2.054906,2.1323545,-0.26578012,2.4799097,0.19492352,-1.1896828,0.51593715,-2.4108517,0.7068388,0.24334987,-0.8238691,-0.76804465,1.7167283,0.07936952,-0.2091585,0.14844234,-1.1670429,-0.008013939,2.4153955,0.6478011,-0.34251326,-2.0695267,-0.4432309,-1.057279,-0.37148815,-1.6705257,-0.086684495,2.9004636,0.46819955,-1.2116219,0.16457254,0.506653,-0.5941253,-0.15519351,0.14201671,0.0029713712,0.16742297,0.27826017,0.82606024,0.34556264,-0.6400159,-0.5149896,-0.90255094,1.2133917,0.26614502,0.27246043,-0.75278646,0.9382136,0.0274734,-0.82268924,0.718529,1.0391157,0.5514503,-2.1489651,-0.096293055,-1.4686848,1.2103738,-1.3868445,1.2789586,1.0469024,0.53639555,-1.0326011,-1.4721642,-0.66190386,-0.13340384,0.31124935,0.025534254,-0.6302258,1.7207075,-0.5252872,-0.64223677,0.50432855,-0.21235695,0.2030349,0.12291005,-0.95603275,-1.8250666
NR5A1,1.532625,-0.0050774934,0.20144697,1.2107759,0.19846536,0.21150284,-1.2150029,0.40217823,-1.8988372,0.86643237,-0.72106266,1.2379477,-0.19297631,1.4769447,0.07824041,0.94149816,1.9825518,1.6844027,0.0759269,-1.2727053,1.1049371,0.606831,-0.71181846,-0.209881,-0.22839825,0.6098768,0.24656552,-0.21375886,1.3512031,1.5053496,0.030038519,-1.8580984,-0.42565313,1.1892763,-1.4411943,-1.1906916,1.999941,-1.6567804,1.4644686,0.2185649,-0.53639907,1.0377665,-0.6147189,1.5378613,-0.7454322,-1.2555948,-1.042614,1.0447491,-0.6936515,-0.34469068,-0.93117154,-2.230491,0.99134207,-0.18498038,0.23664866,1.4382495,-0.07163398,-0.8982082,0.6909676,1.0415828,-0.94188374,0.81237346,-0.7123319,0.46524525,0.092806146,2.4276307,0.3189062,-0.3072023,-1.2866964,2.0265167,-1.1803963,0.02807362,0.472129,1.0967313,-0.3917913,-0.42059863,0.15724862,-1.4329977,1.483893,1.0216479,-0.44357613,-1.0177745,-1.8161402,0.45952934,-0.7458664,-0.064668335,-0.7854722,0.18055713,0.69591546,0.116977915,1.0707574,0.86553305,-1.049887,0.84894764,0.9191014,-0.08711488,1.4245054,-0.010102122,-1.0479205,-0.19596082,-1.8986658,-1.6737549,-0.25652838,0.27562463,1.4628919,1.2149276,-1.1988975,-0.20429738,-1.3717794,-2.112635,0.7672048,0.5336641,-0.1656096,-0.22899504,-1.3107469,1.8482331,-1.0206106,-0.985422,-0.18736506,0.9752959,-0.49943942,-0.4129372,-1.0879029,-3.3180785,0.60603696,-0.64590317,-1.4527991,-0.910461,-1.9827642,0.22444507,0.43958768,-2.0742757,-0.15179121,2.3897483,-0.0018176688,0.34989312,-0.09130858,-0.5331542,0.8313766,0.71557873,-0.73521966,1.0774738,-1.6143683,0.75867367,-0.7274808,-0.25880712,0.43133903,-0.27902862,0.669321,1.6893902,0.5697462,0.4908293,-0.03662842,-0.34249184,-1.1651961,-0.4035549,0.20471372,-0.25316378,0.56027114,-0.95062375,0.3523733,-1.25718,0.81625485,1.0886117,-0.21108091,-2.3573346,-2.1864028,0.61878103,-0.020943856,-0.8328233,0.032998886,-1.733397,-1.0992483,-0.3160211,-0.4963888,-0.6859858,-2.1491253,1.6235346,-0.11525462,2.8146317,1.6205559,1.2277763,0.5392959,0.116966866,0.8083782,-0.23290735,0.99380934,-0.24082483,0.8254453,0.29447266,1.9154085,0.6794101,-0.04900071,1.6604798,1.4483727,0.73996496,-0.4511222,0.4801711,0.75138366,0.38638008,-1.0569681,0.85093325,-0.22863054,-0.50431824,-2.516862,0.537874,1.5072173,0.4086348,-1.6211361,2.4213908,-0.44956803,1.391186,-0.0748355,2.1619077,2.0148046,0.81698656,-0.36817786,-1.5964935,-1.6498126,2.7726097,-0.83237654,2.3121774,-0.77975494,-1.2662635,0.8459222,-1.031468,-0.6436665,-2.1691716,-0.61380094,-1.8882955,-0.6720491,0.799253,-0.83624214,0.14176078,1.7349225,1.0899659,-1.6506603,0.90971106,1.4460323,0.7631851,0.09677465,-0.41792646,-0.2081962,-0.4619579,-2.1229799,-0.83954704,-2.4583185,-1.4542328,1.5269902,2.1330247,-0.7267397,1.5370916,0.73203856,-0.0062816823,1.3229634,1.1155,-1.0060277,-0.1212252,0.40848094,-1.2569753,-0.6225432,0.0998503,-0.031633936,-0.5657919,0.03385258,-2.0430486,0.913488,-0.87525046,-1.3057908,-0.48964494,-1.1173948,1.693066,-0.01465938,-0.23513746,0.68317866,0.7820245,-0.79780626,-0.62214774,-0.63670284,-1.0514696,-1.4498754,0.72095907,-0.12842281,-0.7768105,-0.45139182,-0.93382597,-0.11121893,0.5097357,1.1466473,-0.76122266,0.3517208,-1.7581779,0.5228762,-0.8136708,-0.34617144,0.6674079,-0.8235387,0.8155128,1.3163472,0.35720134,-0.88541466,-1.0834514,-0.19451237,-0.9727117,0.49733475,-0.72673553,-1.1357253,0.40775162,0.6521024,0.54196274,1.005438,-0.35182384,-0.1670267,1.330157,-0.6397139,0.32893598,-0.33362857,-0.97911114,2.373129,0.09560848,-0.88058025,-0.46959764,-0.5029131,-0.74602437,1.0091031,0.92689097,1.4575095,-0.25169972,0.8395984,-0.34326473,-0.15675783,-1.4712555,-0.2256121,0.4497644,-1.9439683,0.07444043,0.8163673,-0.32077092,-1.0879825,0.24610758,-0.27299955,0.14347771,-0.3879405,1.4152257,-0.98558146,0.73445815,-2.5945675,-0.29518515,1.3925633,-0.7065284,-1.566396,0.31762367,1.3041177,-0.20158085,0.5518731,1.1291833,0.5186883,-0.598175,-0.9493867,-0.5742165,0.73546976,-0.43283,1.1216701,-0.29595995,-0.36890104,0.35385326,0.63779575,-1.0381556,1.4728113,0.6011356,-0.49038523,-1.1275932,-0.014546549,-0.8921328,-0.3574423,0.6476933,0.4192384,-0.50788426,-1.8941635,0.179496,2.5021477,1.9428563,-1.9050959,0.52191335,1.1160135,2.9591973,-0.009610262,-0.032837134,-0.22737257,-0.3883003,-1.1798269,0.84729147,-1.5763699,4.0050564,1.6791172,-0.8443072,0.8387281,-0.41691747,0.8165409,-0.66863614,3.3624163,1.6649466,-0.054038074,1.650999,0.64547426,0.3625366,-2.4159832,-3.451483,0.73843163,-0.28685585,1.295324,-2.0130343,0.5994125,1.60518,-0.8945821,0.026004624,0.9677554,-0.7583855,1.0030429,-1.295399,1.5816014,-2.2152216,1.1009372,-0.7682961,-2.016241,-0.5631637,-0.39128697,0.47572538,0.9280227,0.82267696,0.89058244,1.0267252,1.226687,1.3851506,2.205071,-0.6956825,0.026186649,-0.13791843,3.1124003,-1.3707167,1.2030355,-0.086225525,0.0038563043,-0.2659766,0.060084816,-0.93499184,-2.2642753,-0.045151383,-0.80128086,-0.07750644,1.4223894,-0.4865656,-1.8229833,0.49619356,0.9667481,-1.2796787,-0.89557093,-0.40892366,-0.656217,0.15086876,-1.5896848,1.3231261,0.24569383,1.7229605,1.1429604,-0.11210247,0.19943315,-0.38489494,-1.8746849,0.8590568,-0.37790328,0.86692655,0.28623185,-0.29926223,-0.3211152,0.41283873,0.6798499,1.8351798,0.9727082,0.44869876,-1.1018176,-1.0247831,-0.4117575,-0.5638425,-0.41606912,1.2455245,1.7820513,-0.36735904,-2.078584,0.38829643,-0.3417569,-0.35410714,-0.42690527,-0.05852527,0.74630284,-1.6829377,0.5931557,-0.44296673,-0.7648455,-2.1492798,-0.5073899,1.2802052,-0.43081564,2.3197486,-0.8059264,-1.7024438,-0.3380822,0.31245604,-1.3327069,0.25759432,0.8753922,0.5333613
PGD2,-0.4028689,-1.0961487,-0.2062455,-1.507945,1.6752278,1.1886872,-0.28147057,-1.1207812,-1.1792188,1.3598747,1.8152106,-0.36550248,-0.5715397,0.6400615,0.9574408,-0.5060186,0.6903379,-0.34776863,0.46910435,1.1159775,1.5033745,-0.7698205,0.4566729,-0.4331982,-1.5864537,0.6037386,1.4645959,-0.6840898,-1.3404236,1.7077683,-0.41105896,1.2431737,0.55277365,0.7250734,-0.6803331,1.548541,0.934591,-0.58848214,-0.38177547,1.1564497,1.5993044,1.0985224,-1.7837427,-0.62450886,0.23004274,-0.2735599,-2.1038318,-0.030462194,1.4169015,-0.5506181,-1.1454148,0.5594502,0.3906949,-1.7517323,1.5709716,-1.4120138,1.6776888,0.9484704,1.6180681,-0.11912714,-1.1884772,-0.18708718,0.7034802,1.7020013,-1.9050063,-1.7146989,1.4583426,0.29036114,1.3350747,1.1520221,-1.0340227,0.8750564,-1.1775539,0.2740722,0.039122544,-0.8128693,-1.3499931,0.9479125,1.5286454,-1.118742,0.58102906,-0.45222616,1.5844693,1.3193959,2.0357547,0.016591517,-1.1876229,1.5209713,0.28350767,0.33362123,2.0053086,-1.2337259,-1.0917977,0.037305884,1.3783387,0.15068863,0.5108459,0.8516027,0.7085398,-1.411647,1.0080173,1.4552543,-1.5608004,0.87669,-1.4274577,1.1666313,-1.6350323,1.0549256,-0.23574555,1.0637878,0.8436376,0.24790414,-1.1351558,-1.3143814,-1.4889334,-1.1477579,-0.65767676,0.8633376,1.9726839,1.3834714,-0.16492149,-0.12697686,0.8792306,0.66049653,-0.350733,-1.1508331,-0.13284737,-2.1351318,0.42589578,0.73562574,-0.39358202,0.030820414,-2.0352652,-2.0793667,1.0202798,1.277055,0.7966864,1.0441579,-0.542998,-0.22282502,0.77485967,0.87991047,1.026965,1.087781,0.16179602,0.7088919,1.3102922,-0.123959966,-0.14135842,1.2943573,0.39224005,-0.11304801,0.81805205,-1.4184961,-0.35330495,-1.7110071,-1.4051976,-1.1646296,-0.36410555,-0.6874062,-1.5372275,-0.96992385,0.64585215,0.17079307,-1.3293891,1.112656,-2.280062,-1.7752206,-1.8744686,2.2836645,-0.59760183,0.39180255,-0.8369612,-1.3490028,-1.7234491,-0.37303138,0.094349004,1.5738822,-0.6817093,-1.4230753,1.3784537,0.24574497,1.993435,0.95994735,-1.3784682,0.53625816,-0.15613481,-2.0708594,-1.6638076,-0.8868396,1.3811446,-0.29298905,0.18375733,-0.22891185,0.5008331,1.918078,0.3846748,-1.4040477,-0.07857259,-0.484472,1.1848878,1.2808145,-1.1316856,-0.87916744,0.8848283,-1.0905972,-1.1395323,-0.11641459,-0.6072721,-2.668466,-0.15614074,-0.4832762,1.3812604,1.792978,0.19410098,-0.71778214,-0.35735336,-0.904451,0.47735164,1.834784,0.10533204,-0.15352367,-0.5735344,-0.91165894,-0.25654086,-1.022245,-2.032187,1.3055557,-1.16945,-2.165614,-1.5390072,0.31262136,-0.5019107,0.8325091,-0.020969585,0.2256119,0.074647754,-0.6434741,2.0611455,-0.34113726,-0.20490181,-1.8803444,-1.4421377,0.44114357,1.3947492,-1.6853638,1.0387293,-2.1820357,1.6299367,-1.4071136,-0.80868906,0.053221617,-0.41794407,0.19562131,0.4642614,0.41489574,0.27508673,-0.8387009,1.1841183,-0.86520225,-1.5258343,0.97691864,0.9308614,-0.09840464,1.0407536,0.8134846,-0.8607934,1.2222975,0.99043745,-0.797549,0.030968754,1.2568421,0.5332018,0.90290236,1.1103059,0.6903189,-1.055129,2.114745,1.5421494,-0.19801436,-0.39691857,-1.2554011,-1.0560944,1.0238497,-1.3960385,1.2048109,-2.0797155,0.4101596,-1.1352493,1.5355887,1.4968818,0.056824006,-0.61555153,-0.11991643,0.49233112,1.4548429,0.100017026,0.47811672,-0.5487212,0.31953964,1.1090857,-0.008441119,1.5586503,-0.35941824,1.80522,-0.48693827,1.666636,0.4698776,1.1536764,-0.78389394,-1.4202275,0.8393163,0.7382144,0.92183185,0.062078618,-1.5534066,1.6727763,0.93929243,-0.3774112,-0.4332296,-0.014849694,-0.3425373,-0.74000555,-0.82631284,-0.56134796,0.6834198,-0.43744713,0.016683104,0.09835379,-1.1096063,1.1439979,-1.9130442,-0.6467473,0.8423894,1.3362546,1.303951,-0.56398827,-1.31467,-1.4695435,1.5149274,-0.039815035,-1.1009592,-1.5919242,0.3213488,-1.7229929,1.9188898,-1.9225628,1.2529936,2.03177,1.0844442,1.2166345,-1.5695337,0.50435793,1.6387876,-1.5357474,-1.2144425,0.61111754,-1.6466333,0.46155128,-0.92681605,-0.6159647,0.4201116,-0.94969684,-0.42861164,-1.2443795,0.16173753,1.6085814,-1.2453029,1.22965,0.24110217,1.4615026,-0.677499,-1.6950353,0.31789836,-0.53451866,-0.87277836,-1.5941012,0.6555873,0.21132942,-1.3825035,0.2555134,-0.46500316,0.030042268,-1.3849448,0.69787997,0.26584053,-1.5664101,-0.29983586,-0.076466136,1.3707536,0.18427737,2.338268,0.967491,2.1630332,-0.5221765,-0.5268666,0.15068592,-1.3623894,0.10613582,1.3319255,-1.4578326,-2.0212939,0.40808913,-0.627683,-1.9767711,0.8935107,1.8582807,0.66035485,-0.7610906,-2.079733,-1.6529758,1.7695147,1.3180406,1.5343668,-1.1253281,0.89473724,1.0175129,-0.9249005,1.2278146,-0.54421645,-0.5768451,-1.6675267,-1.0917419,-0.4078908,-1.3272027,1.2108598,0.038332973,-0.7303302,0.30921158,2.0592084,0.2992212,-0.33460554,-0.53994656,-0.7145367,0.3740583,-1.7859275,2.095001,-1.4878172,-1.5942503,-1.0607231,-0.812452,-1.398892,-0.08259768,-0.7249357,-0.8709257,0.041093625,-0.019691885,-0.3115099,-1.0907476,-1.4390165,-1.0117283,-0.8892245,-1.5457805,1.3935467,-1.8009846,-1.0491303,-0.7399399,0.18346746,0.14483309,0.84424347,-1.1515772,0.6263679,-0.63498694,1.6175759,1.2027053,-1.0429024,1.9254696,0.9352336,0.7523879,-0.4984451,-0.75262403,0.86328936,0.3747737,-1.7785722,0.942599,0.34901807,1.0245636,0.69630605,0.72951347,1.6314098,-0.08275049,-0.29705766,-1.312924,1.0696278,0.053333215,0.66769236,1.2631054,-0.44938454,-0.06264591,-0.9139108,-0.9460078,1.6566024,-0.5699086,-1.1716633,1.4273818,-1.4738294,1.2352731,1.7557412,-0.8340469,0.08202738,0.57289135,-1.4003782,0.804246,-0.43291318,0.41503146,-0.8674779,0.84027356,1.4142072,-1.7255641,1.8483936,1.1340592,1.3745224
RSPO1,0.9196024,1.4429302,-0.35727504,0.38180026,-1.476584,1.9700608,1.1279525,1.9116771,-1.5752182,-0.63369566,-1.6160394,1.2561501,0.45599356,0.6175785,-0.65725255,2.2446234,-0.32749343,1.331829,0.08028072,0.91102535,2.9979095,-0.730201,0.8734452,1.2238587,1.0810547,-1.4029392,-0.7977329,-0.8672668,1.2071495,-1.3917513,-2.3334227,0.9024681,-0.33233422,1.4824489,0.598842,-0.57951367,-0.3946442,0.22502407,1.280015,0.6711093,0.24804115,0.58579826,0.8748564,1.9413084,1.8843179,1.196293,1.4754757,-1.1889435,-0.55211425,1.7787958,0.40027818,-1.5628456,-1.8640584,-1.7567683,0.050776973,0.9637287,-0.29260454,1.1488432,1.7898725,-0.64276445,0.41770095,-0.20440456,-1.2430221,-2.3505156,-0.11100411,0.5765175,-0.69672173,0.7020764,1.6159757,-0.046642076,0.077143915,-0.59032613,-0.42501134,0.69053483,-0.60575897,0.9913326,-1.2981964,-0.60068446,-0.26064304,-1.0182847,0.26813462,2.473853,-0.95980763,-1.5288047,-0.36140713,3.3424256,0.09341803,1.0133581,0.36633354,-0.185398,-0.23114973,2.012215,1.8424858,0.027385019,1.6252464,2.019177,-0.5133589,0.28246245,-2.1212704,-0.19057073,-1.3310481,-0.834764,0.1724882,0.12119548,-1.4146898,-1.3499019,-1.6999282,-0.024142008,-0.90655136,0.8438501,-0.91228914,0.76290846,-0.58164483,1.511981,0.8482114,1.2288476,0.46333268,-0.34284943,-0.7590223,-0.47944522,-0.030643828,-0.26317373,-1.5144064,-0.18760067,-0.41255638,0.7780391,-0.6284383,-1.5548434,1.1369063,-0.065834306,2.4862723,-1.0500292,-0.6082226,-2.2504287,-0.5415917,-0.47780842,-0.20380886,-0.48534447,2.0741146,1.5176022,-1.213045,0.22099043,-0.7604968,-0.21282996,-1.0384989,0.79338056,0.5094668,1.8643365,-1.7489399,-0.22868618,0.62731504,-1.4600523,-1.5156604,0.40486205,-1.3843789,0.72003907,-1.83972,-0.17903984,1.6482528,0.53046805,-0.29714313,-1.421219,-0.38661578,1.0715667,-0.9776436,0.04346642,-1.1274573,0.03931657,0.8946226,0.60496086,0.6161542,-0.015098265,0.79147077,-0.51862013,-0.3660585,-1.5961955,0.24242797,1.4913912,-0.31319663,2.3782613,1.0121747,0.1511831,0.44616136,0.28697813,0.32838896,-1.2972338,0.81643224,-2.2971544,-2.986295,0.5070567,-0.3524448,0.029508796,1.204443,-0.18969823,0.47107577,2.0907454,0.110041924,-1.7076254,-0.041088752,0.27048054,0.4084892,1.2493408,-0.41314214,-0.092117995,-0.8180395,-0.6513148,0.60973877,1.137077,1.3103538,-1.0068283,1.5887884,-1.2130657,-1.4898909,-0.16609113,0.9140989,0.96653104,-1.1207335,-0.88934004,-0.72727144,1.0015478,-0.68026006,-0.8856478,-0.6780642,1.1216505,-0.68470407,-2.0496662,-2.1083102,-1.3816571,-0.008658798,-0.6956357,-0.78880197,1.2623645,2.2045043,1.0305439,-0.15580429,0.24403778,-0.3559138,-0.7616506,0.72848994,-0.1427129,0.71650356,0.2793534,-0.3885887,-0.23152427,-1.1484067,-1.8514826,0.40170413,-1.0301619,-1.47823,-0.49197668,2.172077,0.66663975,-0.76629937,-0.58187574,-1.1371466,-2.4138043,-0.9817238,0.6246096,1.2724674,0.43437776,-0.05165911,1.9520489,-0.34638247,1.8761277,-0.86513424,-0.24526075,0.5569116,-0.30949545,-0.7286714,-0.5311732,-0.16314763,0.25159767,0.23732346,0.1289998,-1.5207766,0.66802925,-0.46711054,1.0029731,-0.23671985,-0.5521987,-0.46973482,-1.8411782,-0.43097156,-1.1235869,-0.8358887,-1.1988118,1.72746,2.3240638,-0.8933175,-0.8195696,-0.27614495,-1.1843768,0.6942849,-1.4796691,-0.49825683,0.47584745,1.0859662,0.117533065,1.1564488,1.0399127,-0.50753784,-0.24592814,0.08588325,1.4066873,1.9343678,-1.3315469,-0.7002192,0.8813076,1.6399444,0.21654476,-1.0869468,-1.3890613,0.10120646,-0.34611678,-1.020078,-0.7688848,-1.1961907,-0.35624513,2.6880116,-1.1133187,0.35917345,-0.31933966,-1.2307549,0.58036727,0.11527411,0.98051023,0.88763076,-1.1713446,-1.9730549,0.16009212,1.1440933,-1.6075445,0.41087434,-1.2072275,-0.5972315,-0.8992733,0.3693053,0.57684124,0.4711361,0.075860776,-0.27403834,-1.7571235,0.25193238,-0.031349123,-0.37812114,0.9582901,-0.382498,-0.87073106,1.3838067,-0.13070025,0.55141956,-1.0228188,-1.2518996,1.1114913,0.6579203,0.75234914,1.980443,1.4323281,0.19343284,0.8715239,-1.1679715,2.9190068,2.8595018,0.54440147,1.5346031,0.92155063,-0.02122175,-2.156093,1.6302246,1.3081529,0.2424043,-0.9795617,-1.532108,0.3453108,1.4927872,0.12770636,0.8822411,-2.5607834,1.1232183,-0.5715159,0.42142278,-1.0133523,0.3729009,0.56680715,0.4083531,-1.2100843,0.42313945,0.5631047,-1.528957,-0.43973157,-0.44549072,1.475081,0.08779882,0.3859286,-0.25173336,0.7361243,-1.2795628,3.0890071,2.1948414,1.5047181,-0.53596914,0.58988535,-1.2238451,-0.36977082,-1.8196647,0.013040676,-0.8360908,-1.050168,0.5636748,-0.1920718,1.0926132,-0.603627,1.4146402,0.95815265,1.2547334,-0.7271269,0.58070344,1.0506994,1.4393872,-0.28203204,0.6141539,0.6774879,-1.8179344,0.25766498,0.8597949,-1.913939,1.4293855,-0.66777056,-1.8907975,1.1492655,0.4577217,0.7064411,-0.21303934,-1.5825818,-0.38370502,-0.86491203,0.29197136,-2.6484857,-0.09782753,-2.0144877,-0.99537957,0.92730117,1.1962242,-0.62370783,3.1826422,-1.8556355,1.159593,0.87352353,-1.8859237,1.0817764,-0.92268574,-3.375702,1.0746014,-0.02455251,-0.49956003,-1.219028,-0.25555903,-0.026234392,1.136464,-0.05204038,-2.3841946,0.11346065,-0.37611407,0.058853406,0.17354327,-0.0120162675,0.5540718,-1.4778411,-1.4489537,0.92097545,0.14480777,0.21874277,0.7018999,0.35999233,1.9269357,-1.0236129,-1.4786168,-0.7987356,0.7320663,0.84399,0.67665863,1.4133095,-1.1267259,-0.60860515,1.1608564,0.025032995,-0.58794343,-0.61892366,-1.6075794,0.011970863,-0.1368031,0.87471807,-0.72755474,-1.1987876,0.670466,0.8382175,-0.17782588,2.4411097,0.5402232,-3.4174757,0.3042816,-0.4501367,0.3615112,1.1097897,-1.3154813,0.58710015,-0.65657383,0.54226583,0.9428516,-1.1557672,0.76329154,0.0535285
SOX9,0.9974827,-0.3650121,0.702165,0.09896727,1.4957148,0.047741637,-1.5203285,0.10974134,-0.10675836,0.3133616,-1.3686408,-0.4392443,-0.7321637,0.025574608,-0.2448774,0.26588216,1.7863601,0.6816974,-0.77645004,-0.5956786,-1.5315827,-0.30156672,0.81335676,-1.909214,-0.23614177,-1.1219363,0.42789808,0.412536,1.5329779,-1.2464005,-0.33538678,0.339528,-0.5727256,0.37503168,-0.4606504,0.67305964,-0.6010071,-0.73304313,-0.47298735,1.9735874,0.85275394,1.7485657,-0.30870414,0.92374593,0.8794192,-0.3470279,1.3061793,0.27350798,-0.59945065,-0.9198717,1.0349298,-1.0517642,0.56527984,0.5014164,2.0384705,-0.46711522,0.5588065,-1.9012399,-0.977763,1.7196,1.9261062,-0.54456216,-1.2343837,-0.60961425,-0.3524083,1.3777298,-0.6494454,0.5526291,0.72360903,-2.27681,-0.5211697,-1.3631282,0.45604903,0.013014179,0.650748,0.86179096,-0.87132144,-0.42963856,1.3419703,-1.0451959,0.41608632,-1.4607949,-0.47296456,-0.8718396,0.8867567,2.800649,-0.8737944,-2.4958298,0.18914601,-0.080933794,1.008031,1.0334433,3.1492352,0.16251539,0.8153213,0.8267084,-1.1134737,-0.09910042,-3.3795333,0.01250565,-1.6873473,1.9211867,0.21129729,-0.78472924,-0.99342513,-0.37338355,-0.52314526,-1.042405,-1.7964438,-0.8920467,0.18586619,-1.004811,0.7140196,1.1692405,-1.3003241,0.8411138,0.5104541,-0.9144749,0.4885098,0.08846759,-0.06326174,-1.088908,-0.07770187,1.1631448,0.018690508,-0.22031967,1.4308168,0.3136021,0.2509448,1.50537,0.175653,-0.17560798,0.95379186,-0.37397587,-1.0595239,0.50078225,1.6691561,-1.2678175,-2.0910149,0.4234913,0.8893456,0.57796603,0.00015727055,-1.0221077,-1.8911295,1.0681642,-0.49854636,1.1675624,0.29559734,2.0717952,0.5765342,1.0709709,0.058268916,0.52300006,-0.5497811,-1.2892396,-0.15096621,0.48165214,0.3019194,0.83058834,-1.3440114,-1.480899,0.24018824,0.64481205,0.76923084,0.03592901,-0.5414069,-0.4018793,-0.8581049,0.118950464,-0.3463057,-0.619941,-0.5145656,-0.028097916,2.2838528,0.3492609,-0.20561752,-0.14790253,-0.23695816,0.70708925,0.7266796,1.0771394,-0.9880329,-0.5434004,1.014013,0.41687915,0.45855835,-0.99282396,-1.795366,-0.31881404,0.8913166,-1.6776361,-1.0477179,2.5735009,1.2249663,-0.027851894,-1.8236839,-2.395496,0.627294,0.33630788,1.4617764,-0.5557937,-1.2584721,-1.9264776,-2.7859328,-0.40351284,0.7338601,0.98180085,-0.032825258,1.9456406,2.6919,-1.9696449,0.87120223,1.2329136,0.9807077,-1.0039345,-1.4788045,-0.31420505,-1.6197463,0.74210733,0.82368726,-0.5656541,0.5419804,-0.2698654,0.29017374,-1.3708699,0.57025754,-1.2111747,-1.024281,-1.0400105,1.401477,-1.0364716,2.375458,-0.9023435,0.54566115,-0.5310279,1.1324736,0.8728007,-0.65280294,1.1713299,-0.51230514,-1.0075309,-2.1016562,-0.23182556,-1.7019517,-0.756514,0.70698375,0.5779335,-2.654671,2.2268975,2.1023457,2.3568141,-0.046751875,1.2208996,0.31775865,-0.6055186,0.5400706,-0.21700001,-0.93682706,-1.1049297,1.5331497,2.093975,-0.29297164,1.22778,0.032310605,-0.198468,-1.4373081,-1.0321815,0.89014363,-0.081162125,1.2718195,0.042459197,1.2523332,-0.16435075,0.55730927,-0.008932114,-0.2645782,0.622845,1.0342615,-0.13026248,1.2384439,0.30990174,0.9314239,0.1434503,0.11992203,-1.0474133,0.5127336,0.25440472,-1.3088652,3.0082746,-2.0971432,0.23511441,-0.11868653,0.87044704,-0.6347157,0.34023103,0.44555146,-0.89944994,1.6157984,0.76841694,-1.3374742,0.80159336,0.5662571,1.8838459,2.6427906,-0.5916232,0.22192416,0.25878766,-0.05822719,-1.6283071,0.25920784,-0.12304873,0.7803311,0.06688405,-0.44900137,-2.091312,1.6592076,1.2338189,-1.6525744,1.0470065,-1.882953,-0.7289892,-0.491712,-1.844865,-0.8625451,-0.78469056,-0.34535173,-0.91827285,0.22319525,0.4410168,0.10667068,0.6473935,-1.254855,-0.4425972,1.1726878,2.7727294,-1.5246019,0.10889754,-0.3794649,-0.33289313,-0.31590366,-1.4209818,-0.62390196,-0.29707396,-1.5124083,-1.3094748,1.1837376,-0.4084886,2.4689116,-0.49876848,-0.115660995,-0.06966486,0.12451183,-0.9773693,-0.28503475,-0.6312944,-0.1915777,-0.5006677,-0.3490005,0.7710172,1.2803694,-1.5658295,1.9711021,0.2837368,-0.43444386,-0.047969457,0.82011616,-1.1225417,-0.08080527,-0.00655837,-1.7833948,0.49512404,0.5260128,0.48969108,3.7668927,-1.4186932,1.9822943,-0.32445285,-0.08025392,0.6844769,-0.07778874,1.0693645,1.7390391,-0.3427683,1.7258221,-1.5461088,-0.8592758,-0.9995333,0.51565355,-0.7576797,1.0472752,-0.16036543,2.3524442,1.5865779,1.0393771,0.6342357,0.4027769,-0.53580815,0.3036248,0.6311765,-0.43939006,-0.028959543,-1.5737205,-0.8755294,-0.59949255,1.2164664,1.4454659,-0.06339383,-0.0060436577,-1.2804567,-1.0606339,1.3098668,0.99024326,1.4927231,0.57976013,-0.582923,-0.45575657,-0.22371498,0.8574069,-0.7298512,0.21747942,-2.0121033,0.9170566,-0.42230642,-0.64418066,0.18120594,-1.8842732,-0.34661674,0.49065247,-0.48811257,0.5622199,0.9099011,1.5333043,1.0866697,-0.7566858,-0.13982889,-0.23809057,-0.5819558,-0.3952321,-0.5034452,-1.3998365,1.0441431,-1.6708478,-0.5226175,-1.697322,-0.6530447,-1.0682042,-0.3309912,1.1603171,-1.4838605,0.53406435,-0.5431703,-1.4882629,-0.12866336,0.9363286,-0.9526259,-1.082509,-0.110049054,0.94499123,0.8341187,0.17325266,0.74428016,-1.1677748,-0.167314,0.20328942,1.2130239,0.81502444,-0.4026179,-1.1518587,0.5344531,-1.8599422,-2.6352637,-0.78160137,-0.662918,0.42905405,-1.6281632,0.60703504,-0.56944203,1.5305845,-2.6107824,0.76239336,0.36456648,1.8456488,-1.3048337,-1.3960031,1.7985564,-0.9266119,0.28170136,0.91075957,-0.74473804,-1.6351763,0.54352176,0.8384106,0.24133219,2.3734195,0.014468636,-0.22561625,0.39688697,-0.49103236,2.7840695,-0.50239056,1.155555,0.43270797,-0.08789714,-2.0675638,0.6888232,0.10341368,-0.80775803,-0.33850604,-0.3344992,-0.033579875,0.30424136
SRY,0.52242744,-0.9319314,-0.6310011,0.18803887,1.5216131,1.6157259,0.5404914,-1.135879,-0.13975571,0.9222225,0.29480758,2.1602397,-0.8316036,1.9367652,1.1072768,1.1280551,0.66768235,1.4328042,-1.1834129,-0.0455239,1.0154648,0.43059036,1.9041381,1.0674202,-0.2739798,-0.9543645,-1.6443646,0.18499218,0.27257487,2.2239435,0.49247372,0.43250963,-0.80779225,-0.6289909,-0.7526592,1.3464321,-1.3576198,1.0572433,0.1882476,2.426063,0.64923394,-0.877773,1.1931708,1.7102245,0.93523926,1.3962317,-0.86619085,-1.4326943,-1.0125803,1.2181665,2.1749403,0.027083874,-2.018348,0.73256373,-0.63500756,0.24101111,0.9468496,-0.41003087,0.7157998,-0.072236046,1.6646391,0.8457575,0.42667395,-0.86634076,-0.46412048,0.065176964,-0.8134839,-2.9656975,0.8232271,-0.8702045,-1.4153459,-0.13303946,-0.36179876,-0.8660008,-0.86323524,-1.232579,-0.08917174,-0.8568321,1.1577492,-0.26058036,0.1441827,0.37106425,0.87800115,-2.0639944,-0.47008276,3.0517163,0.16062215,-0.3678023,0.53654283,-1.1838535,0.61843413,0.21147336,0.5431081,-0.13849798,1.4643039,0.6433729,1.3578387,0.7715262,-2.0491374,-0.36733308,-0.5271849,0.28272533,2.1929443,2.0693872,0.28386036,0.16242112,0.55685574,-1.0762795,-1.8692968,-0.549794,-0.7152719,0.038896337,0.5110719,-0.67059535,-1.6551527,0.2031946,1.018113,-0.18829302,1.8208091,1.0602994,-0.29173318,-0.41207924,-0.80344015,-0.7778477,0.052791595,-1.7893713,1.2533249,-1.9465432,0.87400705,0.6564157,-0.09333412,-1.7765763,0.66752595,-1.882153,-0.20886426,-0.26394594,1.1442369,-1.8836211,1.3221782,0.76123035,-1.5140778,0.47506014,0.5290736,-0.41171107,-0.8188659,0.026578825,2.0520575,1.2065862,0.006804195,0.45068467,-0.007410977,1.7351497,0.22770478,0.43398058,-1.1363146,-0.7843455,-0.53378046,-0.07685709,1.8978727,-0.89329743,-0.88092685,1.1710936,0.054906543,-0.7046188,-0.670494,0.8811131,-0.5179513,-0.62270975,1.2227436,-0.7399879,0.26506934,1.0761005,-0.28392714,-0.37700143,-0.81798357,-1.7771231,-0.39766046,1.7753712,-2.3183744,-1.5406377,1.686644,1.2671425,-1.6325963,1.2175906,-1.3664944,0.424441,-1.4383147,0.28916097,-1.7169402,0.716526,0.30705124,0.8800057,-0.040370606,0.8009347,1.5564455,0.33363616,-1.1172274,0.7568728,-0.96184826,-1.8460732,0.2983689,0.21392433,0.23292273,0.058226638,1.0919231,-1.1304402,-0.7432161,-0.7455209,-1.0643848,1.7673695,1.6138269,-0.22204494,-1.2575896,-0.32415158,1.0401288,1.238259,0.43868273,-0.3335678,2.0272593,0.9432138,-0.5948909,2.490864,1.0390005,-0.060848206,0.98521173,-0.8587752,-1.9500107,-1.7662207,-0.57783526,-1.916817,0.45590818,1.2613136,-0.03726586,0.30685845,1.4401609,0.952534,-1.2101997,-1.2247456,-0.72100526,-0.71156955,0.10790879,-0.12682317,0.024847303,0.26956928,-1.7668514,1.2126722,-2.081296,1.0864409,-1.0990518,-2.3908741,1.1445824,1.7940707,0.22198008,1.3055432,1.3098588,0.17086552,-2.3582304,-1.8606237,-1.3655307,-0.16406675,-1.3700751,0.53933895,-1.1976594,-0.31870875,-0.9727887,0.6718768,-0.48113346,1.4752741,-0.2271984,-0.34381732,0.20812972,0.52707654,-0.1877078,0.1927498,-0.027697522,-0.92661524,-0.0016141284,0.5116736,1.7102412,-0.32628894,0.39206183,-0.6306746,-1.3321086,0.9946525,-2.26646,0.32320157,1.1242605,0.10207212,0.03954493,-0.008332174,-0.25039864,-1.1030405,-0.7051444,-0.96893793,0.22949502,2.7155516,1.6454757,-0.27953655,1.0085465,0.3713751,-0.33780456,1.761246,0.49178368,-0.57179356,0.5701581,-0.44065082,1.4797026,-0.02699153,-1.0316188,0.4913255,-1.3298305,-0.07206273,1.2973485,-1.5882363,0.7081339,-0.06653184,-0.6029235,-0.5443283,2.4548502,1.3926327,-0.17469078,1.571588,-0.7940523,0.9091058,-0.13615432,0.45446894,-0.3066546,0.2819673,1.7052369,0.22676362,-1.9761376,-1.1249412,-1.9058301,-0.2195122,-1.0428059,-0.19442339,0.37820286,-0.41511238,-1.5851208,0.83540875,-0.33177173,-1.3107916,-0.2913501,-1.031212,0.7368521,1.5027571,-0.5352021,1.2771337,1.8468082,-0.43553564,-0.7062491,-1.924547,-0.32454774,0.08200681,2.8247368,-1.5188334,-1.7602434,0.08075905,0.8111463,1.2460048,-1.6784201,1.4887761,3.0424373,0.22574487,-0.30150682,0.12079862,-0.73428303,-2.3083444,-0.46529284,2.3608482,-0.31849378,1.5312742,0.743219,0.557363,0.011668707,2.5433936,-0.37729675,0.13280955,0.39276084,0.11376319,0.67481285,1.5174267,-1.5877992,1.3911521,0.9615189,1.2612975,-2.5066957,-1.7630655,-1.5936149,-0.8601733,-0.1665743,1.3051878,0.15064885,-0.68555707,-1.5609598,-0.04207142,0.5322751,-0.15816775,1.3010776,1.8751712,1.0436908,1.2089078,0.5299137,0.26996353,0.5063931,-0.17642131,0.58723485,-1.5888815,-1.126359,0.521221,0.85672766,-0.16903394,1.111567,0.3870842,1.0092279,-0.06138571,0.71307003,0.053193007,1.8302767,-0.37254038,1.5172931,-0.19960456,-0.161723,-0.77649975,-1.0214183,-0.7811455,1.3908741,0.35493037,-1.30373,-0.10219352,-0.35090703,-1.0339247,2.3209195,1.345448,-1.3625643,-0.9221715,0.13132201,-1.815799,0.7955483,-0.27622578,0.3311026,-0.8257522,-1.2679372,0.17997293,-0.72671044,-1.7703886,1.214898,-0.28952503,-0.5168329,0.1378114,-1.9625483,-0.6148556,-0.36597827,0.46073738,-1.3950491,-1.2608747,-2.0011306,-0.022094565,1.1867245,-1.937624,-0.24460447,1.8219988,0.27182803,1.4013199,-1.4305866,-0.38296568,0.040955096,-0.8867022,1.3317236,0.35593337,-0.56141645,-0.81338257,-1.1336603,-0.16133437,0.7827282,-0.7920197,0.7497551,-0.82480925,2.1011279,-1.4225986,-1.0346826,-0.5040593,1.602281,1.5140222,0.30144858,-0.21577437,0.1935924,-1.9376516,-1.6830349,1.783339,1.2165202,0.20770702,1.8556167,-0.35103822,0.23065098,-1.6715107,-1.5560389,-0.48405072,-1.6741865,-1.4338263,-0.3818203,1.0441623,-1.8181386,0.2552085,-0.24892184,-1.3088965,1.0627137,-0.69191635,0.51374924,-0.73071563,1.442909,-1.6356604
UGR,-0.4028689,-1.0961487,-0.2062455,-1.507945,1.6752278,1.1886872,-0.28147057,-1.1207812,-1.1792188,1.3598747,1.8152106,-0.36550248,-0.5715397,0.6400615,0.9574408,-0.5060186,0.6903379,-0.34776863,0.46910435,1.1159775,1.5033745,-0.7698205,0.4566729,-0.4331982,-1.5864537,0.6037386,1.4645959,-0.6840898,-1.3404236,1.7077683,-0.41105896,1.2431737,0.55277365,0.7250734,-0.6803331,1.548541,0.934591,-0.58848214,-0.38177547,1.1564497,1.5993044,1.0985224,-1.7837427,-0.62450886,0.23004274,-0.2735599,-2.1038318,-0.030462194,1.4169015,-0.5506181,-1.1454148,0.5594502,0.3906949,-1.7517323,1.5709716,-1.4120138,1.6776888,0.9484704,1.6180681,-0.11912714,-1.1884772,-0.18708718,0.7034802,1.7020013,-1.9050063,-1.7146989,1.4583426,0.29036114,1.3350747,1.1520221,-1.0340227,0.8750564,-1.1775539,0.2740722,0.039122544,-0.8128693,-1.3499931,0.9479125,1.5286454,-1.118742,0.58102906,-0.45222616,1.5844693,1.3193959,2.0357547,0.016591517,-1.1876229,1.5209713,0.28350767,0.33362123,2.0053086,-1.2337259,-1.0917977,0.037305884,1.3783387,0.15068863,0.5108459,0.8516027,0.7085398,-1.411647,1.0080173,1.4552543,-1.5608004,0.87669,-1.4274577,1.1666313,-1.6350323,1.0549256,-0.23574555,1.0637878,0.8436376,0.24790414,-1.1351558,-1.3143814,-1.4889334,-1.1477579,-0.65767676,0.8633376,1.9726839,1.3834714,-0.16492149,-0.12697686,0.8792306,0.66049653,-0.350733,-1.1508331,-0.13284737,-2.1351318,0.42589578,0.73562574,-0.39358202,0.030820414,-2.0352652,-2.0793667,1.0202798,1.277055,0.7966864,1.0441579,-0.542998,-0.22282502,0.77485967,0.87991047,1.026965,1.087781,0.16179602,0.7088919,1.3102922,-0.123959966,-0.14135842,1.2943573,0.39224005,-0.11304801,0.81805205,-1.4184961,-0.35330495,-1.7110071,-1.4051976,-1.1646296,-0.36410555,-0.6874062,-1.5372275,-0.96992385,0.64585215,0.17079307,-1.3293891,1.112656,-2.280062,-1.7752206,-1.8744686,2.2836645,-0.59760183,0.39180255,-0.8369612,-1.3490028,-1.7234491,-0.37303138,0.094349004,1.5738822,-0.6817093,-1.4230753,1.3784537,0.24574497,1.993435,0.95994735,-1.3784682,0.53625816,-0.15613481,-2.0708594,-1.6638076,-0.8868396,1.3811446,-0.29298905,0.18375733,-0.22891185,0.5008331,1.918078,0.3846748,-1.4040477,-0.07857259,-0.484472,1.1848878,1.2808145,-1.1316856,-0.87916744,0.8848283,-1.0905972,-1.1395323,-0.11641459,-0.6072721,-2.668466,-0.15614074,-0.4832762,1.3812604,1.792978,0.19410098,-0.71778214,-0.35735336,-0.904451,0.47735164,1.834784,0.10533204,-0.15352367,-0.5735344,-0.91165894,-0.25654086,-1.022245,-2.032187,1.3055557,-1.16945,-2.165614,-1.5390072,0.31262136,-0.5019107,0.8325091,-0.020969585,0.2256119,0.074647754,-0.6434741,2.0611455,-0.34113726,-0.20490181,-1.8803444,-1.4421377,0.44114357,1.3947492,-1.6853638,1.0387293,-2.1820357,1.6299367,-1.4071136,-0.80868906,0.053221617,-0.41794407,0.19562131,0.4642614,0.41489574,0.27508673,-0.8387009,1.1841183,-0.86520225,-1.5258343,0.97691864,0.9308614,-0.09840464,1.0407536,0.8134846,-0.8607934,1.2222975,0.99043745,-0.797549,0.030968754,1.2568421,0.5332018,0.90290236,1.1103059,0.6903189,-1.055129,2.114745,1.5421494,-0.19801436,-0.39691857,-1.2554011,-1.0560944,1.0238497,-1.3960385,1.2048109,-2.0797155,0.4101596,-1.1352493,1.5355887,1.4968818,0.056824006,-0.61555153,-0.11991643,0.49233112,1.4548429,0.100017026,0.47811672,-0.5487212,0.31953964,1.1090857,-0.008441119,1.5586503,-0.35941824,1.80522,-0.48693827,1.666636,0.4698776,1.1536764,-0.78389394,-1.4202275,0.8393163,0.7382144,0.92183185,0.062078618,-1.5534066,1.6727763,0.93929243,-0.3774112,-0.4332296,-0.014849694,-0.3425373,-0.74000555,-0.82631284,-0.56134796,0.6834198,-0.43744713,0.016683104,0.09835379,-1.1096063,1.1439979,-1.9130442,-0.6467473,0.8423894,1.3362546,1.303951,-0.56398827,-1.31467,-1.4695435,1.5149274,-0.039815035,-1.1009592,-1.5919242,0.3213488,-1.7229929,1.9188898,-1.9225628,1.2529936,2.03177,1.0844442,1.2166345,-1.5695337,0.50435793,1.6387876,-1.5357474,-1.2144425,0.61111754,-1.6466333,0.46155128,-0.92681605,-0.6159647,0.4201116,-0.94969684,-0.42861164,-1.2443795,0.16173753,1.6085814,-1.2453029,1.22965,0.24110217,1.4615026,-0.677499,-1.6950353,0.31789836,-0.53451866,-0.87277836,-1.5941012,0.6555873,0.21132942,-1.3825035,0.2555134,-0.46500316,0.030042268,-1.3849448,0.69787997,0.26584053,-1.5664101,-0.29983586,-0.076466136,1.3707536,0.18427737,2.338268,0.967491,2.1630332,-0.5221765,-0.5268666,0.15068592,-1.3623894,0.10613582,1.3319255,-1.4578326,-2.0212939,0.40808913,-0.627683,-1.9767711,0.8935107,1.8582807,0.66035485,-0.7610906,-2.079733,-1.6529758,1.7695147,1.3180406,1.5343668,-1.1253281,0.89473724,1.0175129,-0.9249005,1.2278146,-0.54421645,-0.5768451,-1.6675267,-1.0917419,-0.4078908,-1.3272027,1.2108598,0.038332973,-0.7303302,0.30921158,2.0592084,0.2992212,-0.33460554,-0.53994656,-0.7145367,0.3740583,-1.7859275,2.095001,-1.4878172,-1.5942503,-1.0607231,-0.812452,-1.398892,-0.08259768,-0.7249357,-0.8709257,0.041093625,-0.019691885,-0.3115099,-1.0907476,-1.4390165,-1.0117283,-0.8892245,-1.5457805,1.3935467,-1.8009846,-1.0491303,-0.7399399,0.18346746,0.14483309,0.84424347,-1.1515772,0.6263679,-0.63498694,1.6175759,1.2027053,-1.0429024,1.9254696,0.9352336,0.7523879,-0.4984451,-0.75262403,0.86328936,0.3747737,-1.7785722,0.942599,0.34901807,1.0245636,0.69630605,0.72951347,1.6314098,-0.08275049,-0.29705766,-1.312924,1.0696278,0.053333215,0.66769236,1.2631054,-0.44938454,-0.06264591,-0.9139108,-0.9460078,1.6566024,-0.5699086,-1.1716633,1.4273818,-1.4738294,1.2352731,1.7557412,-0.8340469,0.08202738,0.57289135,-1.4003782,0.804246,-0.43291318,0.41503146,-0.8674779,0.84027356,1.4142072,-1.7255641,1.8483936,1.1340592,1.3745224
WNT4,-1.2184391,0.2834213,-0.49288428,-0.08640572,0.1408332,1.3123177,0.13377118,3.0170562,-0.025066145,-1.1941533,-0.50236595,0.4153636,0.6788643,-0.1110921,-1.7228347,-0.9178309,2.0348334,0.6315574,-0.728056,-1.3261853,0.7220575,-1.2108078,0.020127026,0.7683006,0.103685744,-1.6085739,-0.26269707,1.0052214,0.86213285,-0.27432373,-2.9103794,-0.12289744,1.2778242,-0.90105444,-0.5260678,0.20817582,0.44976193,-0.07319838,-0.69978887,1.65274,0.005706248,-0.046808705,-0.9148247,0.09862239,-0.5368277,-0.11157472,-1.3962618,1.4727184,-1.5701208,1.3071316,-2.5280032,-0.6476553,-1.8358016,-0.01583296,1.504824,-0.12695812,-0.42551035,0.17262436,0.07133963,0.43741217,0.8702773,1.2062249,0.32135925,1.6946628,0.38621008,-0.98122853,-0.40064126,-0.6944506,0.8355593,-0.1942087,1.6747844,-0.2641908,-0.16303147,-1.0542781,-0.5641265,1.2881179,0.62009627,0.27977803,0.8833807,-0.9746401,-1.1487719,-0.8236029,-0.62211055,-0.9547606,-2.1045954,2.0585108,-0.78028244,-0.8051628,1.086939,0.53671896,1.0025905,-0.33599183,1.8637612,-0.59009296,2.1155307,0.120091096,1.671655,-1.5685719,-2.4592032,-0.033787742,-0.70211726,1.3839755,-0.6997975,0.46108142,0.31121743,-1.2738067,-1.2819201,1.3650272,0.09324977,-0.9695667,2.172155,-0.012670902,0.612874,-0.48227614,-1.131144,1.3406142,-0.017787559,-0.3271631,0.41196176,0.5357986,0.582485,-0.93095267,0.1630845,-0.84736234,0.54528123,-0.034898885,-1.1540692,1.033572,1.8553586,0.4680011,-0.5287045,1.0500946,0.21291982,-0.28342786,-0.6831511,1.1113415,-0.054266628,-1.2201678,2.545676,0.55702317,0.038677674,-0.25050128,-0.53413635,-0.997422,-1.2067709,0.40339544,-0.19679031,0.08612837,2.1109772,1.2276874,1.0620345,0.10662175,0.77722675,2.048525,-0.2943743,0.3347608,-0.5818566,0.6955651,0.3017019,-0.73228866,-0.41695392,0.71812135,0.8536259,0.0072626574,0.13236523,0.45653242,1.446308,-0.7194605,-0.59026,0.6250316,-1.9998231,0.11808339,-1.5568558,0.46082777,-0.6443339,0.9168962,0.5135663,0.049173303,1.7906562,2.5742862,1.7273484,0.091760546,-0.10350769,0.8079045,-1.3064171,0.03297028,1.1027447,0.12475949,-0.15527955,-0.9147141,1.1721238,1.3249353,1.6505111,-0.022598568,1.8153124,1.7001227,1.7376359,0.4186896,-0.3460261,1.7991337,0.6258447,2.1772785,0.39973107,0.43703154,0.07787377,-0.22515297,-0.65201175,0.9072061,-3.0627704,0.64795434,2.7834377,-0.7369672,0.09398162,-0.4888863,0.6054032,1.4033499,1.7259878,-1.3232002,0.45010754,1.4766036,0.73621315,-0.15154533,-2.8895714,-0.8395898,-0.07938688,-0.38635564,-2.2415223,-1.9997073,-0.3085416,0.9381821,-1.6779355,1.4727626,1.2924201,-0.47270536,-1.0082635,1.4997894,-1.2872967,-0.7554808,0.40544346,-2.302089,1.1108586,1.374489,0.9578099,-1.1954465,-0.29658854,-1.1802577,-0.27563623,1.5116677,2.22306,0.21484785,-1.6982446,3.057505,0.16550344,1.3592838,-1.1845362,-0.7920999,0.03674908,-2.5208461,-0.7291637,-1.0859457,-0.5287129,0.8594628,0.098093875,0.01464582,0.56307954,1.5316174,-1.4343648,-1.7516319,-2.2162416,0.929591,-0.8330269,1.1323547,0.6635509,0.022968162,-0.3840584,0.3453716,-0.5510209,0.15661806,0.5142318,-2.1341157,0.8132441,-1.4092665,-0.5576552,-0.28636256,0.62697405,0.68740445,-0.51988304,1.930555,-1.4572752,0.57185215,-0.9977269,-0.1817224,1.187214,0.065417506,0.32229868,1.5031097,1.2996365,0.16872703,1.1559974,-0.5863673,0.15796183,0.565663,-0.936307,-1.3015784,-0.7901451,-0.117295586,0.98354864,0.10540349,1.1934794,-0.26178876,0.104957856,-0.55554336,-1.384227,-1.8646853,-0.7035157,-0.30267054,-0.81037366,-0.71183795,0.80484045,-0.4216485,0.0057516703,-1.5016564,0.16888656,-0.7423668,2.1456509,0.8582938,-0.64184976,0.35270867,1.7427362,-1.2630866,0.62853336,-0.58406436,0.67490476,0.3557735,-0.67225254,1.5894701,-2.375549,-1.925116,0.36036572,2.2887237,-1.4460936,2.4350355,-1.1244893,-2.7387533,-2.753451,0.6196734,-1.2989738,-1.1969867,0.477354,0.5339469,-0.17268169,-0.4991605,-0.007099587,-1.6399815,0.20029506,0.07378469,-2.4082963,-0.67239815,-1.1301455,0.5362894,-0.26253447,0.80913115,1.5393487,0.3031029,0.48459604,1.5543745,0.45976177,-1.7245802,-0.23338072,0.7093461,-0.57986134,-1.3512168,-1.0310541,-0.9335122,2.1999347,1.2854683,-2.465541,-1.3110242,0.26108402,1.7620991,2.5198627,-0.54451483,-0.64702725,1.3618352,-0.029441826,0.32724974,-1.2828003,0.9352059,-0.62163025,2.1929812,0.6815318,-0.012458482,-0.2811898,1.7380131,-0.91610116,-3.670699,-0.0641711,0.43574566,-0.19404803,0.03194968,2.3812854,1.5992663,1.164655,-1.5108697,-0.71136117,0.93187124,-1.2424182,-1.2901323,-0.59986836,0.09668515,-0.6574523,-0.41073644,1.0180731,-0.33596733,0.48714492,-0.9219828,-1.2351882,0.7400268,-0.2310562,1.0785596,1.5128542,0.6325388,0.43621472,-0.53345627,-0.8816587,-1.38147,0.6771301,-1.094838,1.6830002,0.96970886,-0.72329783,-1.748079,0.63145787,0.23466414,0.46464834,-0.35720497,0.7260091,-1.6930115,-0.9915314,-0.6482473,-0.044245124,0.9042295,-0.52668726,-0.076392576,0.46795654,0.23966335,-1.0333803,0.6633299,0.00799053,-0.97969824,-0.32615766,-0.9640729,-1.5617275,1.6831067,0.96491396,-0.897472,-1.4327532,0.7029651,0.4594801,-0.60661256,0.59593683,-1.0611471,-0.07020545,0.01083752,-0.3383167,-0.9633783,0.88907313,-1.183145,-2.9423985,0.3763054,-0.09242882,0.1821425,0.21540366,0.6400037,-1.9609193,0.56214106,-0.4661264,-0.7117716,0.12421687,0.73660994,-0.8742513,0.38312042,-0.08512083,0.06629608,-0.6937479,0.35013247,0.5640885,-0.40948048,-0.6080785,0.3127765,-0.5275425,0.5484313,-0.103376746,2.0125947,1.8416677,0.86837417,0.59122777,-3.3273752,0.98901707,-1.8893504,-0.17545134,0.09366544,-0.9777193,0.5783293,0.31030005,-0.85798126,-0.063136585,-0.357106,1.4235479,0.69097096,1.1948806,0.53615296
