,0,1,2,3,4,5,6,7,8,9,10,11,12,13,14,15,16,17,18,19,20,21,22,23,24,25,26,27,28,29,30,31,32,33,34,35,36,37,38,39,40,41,42,43,44,45,46,47,48,49,50,51,52,53,54,55,56,57,58,59,60,61,62,63,64,65,66,67,68,69,70,71,72,73,74,75,76,77,78,79,80,81,82,83,84,85,86,87,88,89,90,91,92,93,94,95,96,97,98,99,100,101,102,103,104,105,106,107,108,109,110,111,112,113,114,115,116,117,118,119,120,121,122,123,124,125,126,127,128,129,130,131,132,133,134,135,136,137,138,139,140,141,142,143,144,145,146,147,148,149,150,151,152,153,154,155,156,157,158,159,160,161,162,163,164,165,166,167,168,169,170,171,172,173,174,175,176,177,178,179,180,181,182,183,184,185,186,187,188,189,190,191,192,193,194,195,196,197,198,199,200,201,202,203,204,205,206,207,208,209,210,211,212,213,214,215,216,217,218,219,220,221,222,223,224,225,226,227,228,229,230,231,232,233,234,235,236,237,238,239,240,241,242,243,244,245,246,247,248,249,250,251,252,253,254,255,256,257,258,259,260,261,262,263,264,265,266,267,268,269,270,271,272,273,274,275,276,277,278,279,280,281,282,283,284,285,286,287,288,289,290,291,292,293,294,295,296,297,298,299,300,301,302,303,304,305,306,307,308,309,310,311,312,313,314,315,316,317,318,319,320,321,322,323,324,325,326,327,328,329,330,331,332,333,334,335,336,337,338,339,340,341,342,343,344,345,346,347,348,349,350,351,352,353,354,355,356,357,358,359,360,361,362,363,364,365,366,367,368,369,370,371,372,373,374,375,376,377,378,379,380,381,382,383,384,385,386,387,388,389,390,391,392,393,394,395,396,397,398,399,400,401,402,403,404,405,406,407,408,409,410,411,412,413,414,415,416,417,418,419,420,421,422,423,424,425,426,427,428,429,430,431,432,433,434,435,436,437,438,439,440,441,442,443,444,445,446,447,448,449,450,451,452,453,454,455,456,457,458,459,460,461,462,463,464,465,466,467,468,469,470,471,472,473,474,475,476,477,478,479,480,481,482,483,484,485,486,487,488,489,490,491,492,493,494,495,496,497,498,499,500,501,502,503,504,505,506,507,508,509,510,511
AMH,-0.9154483,-1.5731341,-1.2748095,1.0149785,-1.252443,1.8811234,0.16240075,0.1496893,0.86864126,-0.07008164,-0.8778722,0.36615482,0.6411154,2.080122,-0.20595145,0.52672833,-0.37371263,1.3767239,-0.81623125,1.6042408,0.74732363,-0.139936,0.6593358,0.72368747,-0.5065787,0.9705458,0.4341065,1.9639733,1.6849691,0.6539439,-1.8068134,-0.8517203,-1.4241512,0.82924044,-0.59661716,-1.2512994,-1.6639001,-0.20668615,-0.8284365,1.251504,0.101308934,1.6543257,1.0086074,-0.5237126,0.89472,0.9424407,-0.5757697,-1.7161801,-0.043771993,-1.656923,0.25197464,-0.2733959,-0.362957,-0.33467066,-0.50875586,1.2584659,-0.33193767,-0.140445,0.35503843,-0.9586029,0.89449763,-0.29792216,0.4296885,1.0343773,1.3698401,0.6998304,1.2719238,-0.21693866,1.7288116,-0.83430976,-1.9098452,-0.92702824,0.047875024,1.5967554,-1.199323,-1.0422257,-2.1342666,0.23710296,-0.8724182,0.01778198,-0.47611004,1.5608047,1.5922856,0.75950444,0.49099913,-0.17524792,-1.8492734,0.66880405,0.9037342,0.9523918,-0.35097122,0.59075373,2.3506927,0.1657589,2.107276,1.2398798,1.3763527,-1.1670618,-2.2760885,-0.5459375,0.08139418,-2.134038,0.35757184,0.32581493,1.8794568,3.2348244,-3.2111983,-0.6455035,-1.2537872,-0.3809515,-0.55282927,1.8429376,1.0696572,-0.5420253,-1.8382833,-0.62087125,-0.5733283,-0.17408499,-0.4556664,-0.7776428,-2.890111,-1.0919423,0.012048007,-0.22008574,0.86921865,-0.24569482,-0.27115533,-2.1395597,0.9258033,2.0886767,1.9206747,-2.157085,-2.7932162,-0.99093974,-0.15143178,0.20015378,1.3037866,-1.7298784,-0.015072192,1.2494924,1.2137777,-1.0005724,-0.07723232,1.0638955,0.83251506,-1.1801193,0.4090792,0.8612621,0.5948195,-0.99441564,-0.93375564,-0.79716575,0.8924123,0.45256597,-1.2509242,0.3606241,0.6431157,1.0280634,1.5738832,-1.0484943,-1.6888174,1.0488573,-2.3428147,-1.1148273,0.9558241,0.089330055,0.30459735,0.45968407,-0.06081435,1.2976044,0.33123502,0.06333542,-0.43887308,-1.234261,1.1635987,-1.8766625,0.6446388,0.6450307,1.5916449,0.50203633,2.337088,-1.4229472,-2.278235,1.9041815,0.6895358,0.7799886,0.026557397,0.29345918,0.121332906,2.2638059,1.014643,-0.6674053,0.38830465,0.26742035,-0.4529733,0.030891316,-3.8728447,-0.5273865,0.9090425,-0.09635317,0.9346001,-0.7180192,0.08213769,-0.7780723,-1.3248823,-0.13480651,0.6169658,-0.2843662,2.0757036,0.1272177,-1.1528288,-0.33644095,1.3142802,2.3981514,-1.0782028,1.6140735,-0.71623707,-0.8972911,1.4305284,1.4058247,1.3337568,-0.3336113,0.06364055,0.3075735,0.23711026,0.8180244,-0.35029012,-0.34915125,-0.04489636,-0.7731898,0.49392477,-0.26993814,-1.3365471,-0.17444389,0.28010952,0.30820462,-2.5649443,-0.47766083,0.24809694,0.10439271,-0.013140411,0.44364464,-0.0743011,-0.36554733,-1.3865579,-0.839806,0.22378416,1.4784948,-0.25054035,0.35256073,-0.5355796,0.3488642,0.34390464,1.9639664,0.3594019,-0.039088823,-0.55122906,-0.036709633,-0.11330249,0.6067105,1.074868,1.2366828,0.81666094,-1.1564443,-0.005740017,-0.8141942,-0.2763325,1.0438734,-0.27821422,-0.58594406,0.8640483,0.64796823,-0.70446783,-0.18087322,0.3335227,0.16313627,-2.4346936,-0.22516239,0.8154608,0.2779498,-0.4843135,-0.5744616,-0.73313206,-0.4599262,-1.9945928,-0.7377759,0.675901,-0.43240306,-0.11267875,-0.7478444,1.0060623,-0.9263178,1.0326145,-1.3631372,-0.3899679,-1.7014843,-0.89116037,-0.027890803,0.6796808,0.67959183,0.6594027,-0.19726859,-0.2919179,-0.963161,1.0372018,-0.6102897,-0.46592292,-0.24632049,1.1609926,-1.5003229,-2.207569,0.37119877,-0.3520484,-1.1321237,-0.2980721,0.5589962,-0.2674182,-0.14537355,-0.9489542,-2.1209934,1.7167577,-0.8268884,-1.8227794,-2.7790046,1.058696,-0.0102092,0.18312816,-0.22451486,0.9969152,-0.29108566,-1.1108661,-1.6629701,-0.24960932,-0.23702215,0.5578821,-0.19718155,-0.06758286,1.8610283,-0.5292963,0.45294315,-0.21640101,-0.2719296,0.05368284,-0.30454728,-0.018252816,0.65433484,-0.15404315,-0.13053726,0.80396783,1.0496306,-0.21448533,-0.94497687,-0.3658372,-0.24676763,1.5211205,-0.38771313,-2.1517444,1.1187441,0.463478,0.8573867,-0.62305874,-0.43756297,0.014514998,1.5026478,0.7084374,0.31260878,-1.1166955,-1.6733142,0.18225452,-0.2339849,-0.18393193,-0.94674456,-0.26140505,-1.2355283,0.6480383,1.6980567,-1.1318982,-0.08980742,0.7978735,0.59638506,2.9080615,1.0252062,0.6572306,-1.2940154,2.4789727,-0.39594764,0.10996937,-0.11192101,-0.032559324,-0.54880244,0.7392978,0.86973643,2.4579573,1.0880023,0.11463059,0.9887425,0.7818092,1.9257724,0.8902862,0.5790711,0.86421186,0.6060114,-2.2433395,2.1242473,0.08909863,1.5823525,-0.026314737,-0.5399369,0.7035806,-2.6591008,-0.2864597,0.45914257,-0.16226247,1.3714558,0.57050836,2.1408243,-0.3346116,0.7238029,-0.42115647,0.09430873,-2.180342,-0.37747252,0.20138332,2.1686924,-1.2086028,-2.327866,0.7326664,-0.3161571,-0.32533297,0.66253227,0.9171688,-0.8876832,0.9638294,-0.98407704,-1.3123245,-2.3373778,-1.0535114,-2.8981266,0.843097,-0.19343647,2.3007317,0.3344398,-1.7660433,0.96727484,0.95453113,-2.2608712,0.96876353,-1.2284739,0.110878885,0.35668007,-1.4569839,-1.621963,0.7909388,-0.036872543,4.1140847,-0.9125294,0.029471343,0.298431,0.0836598,0.7067109,-1.4968301,-0.805625,1.2456445,0.47399482,0.71303797,0.19583255,0.21332005,-1.8846632,0.05239988,-0.9968279,-1.0498246,-0.21154799,-1.3811616,1.4130934,0.93940085,-0.7856189,-0.36554125,1.3186228,1.0517321,-0.40666544,-0.14235228,-1.4748695,-0.35982883,2.6749191,-0.3218319,0.591087,-0.70298684,-0.35374424,0.22945592,-0.5347595,-2.6160672,0.44071454,1.1008363,1.036397,0.6135224,-1.0768206,0.4341257,1.3241487,-0.076919734,-1.101662,-1.4872736,-0.09531025,-2.610131,0.056601565,1.5049152,0.98441505,1.1923467,0.12280444,-0.6244199,-0.77438563,0.077615894,-0.6317447
CBX2,-0.23228595,-1.533243,0.17643738,0.86009467,0.67312455,0.6635318,0.2862005,-0.48343113,0.066796705,0.9317595,-1.5977626,0.3408453,-1.2388083,2.5259447,0.05548324,0.7355934,1.0508385,2.5412595,0.31729892,-1.0153754,0.7480731,0.14387032,1.6221011,0.10105544,-2.1973224,0.27433112,0.37795517,-0.96665734,1.2095377,2.1674712,1.5724604,0.08280007,-0.98911923,1.789719,0.8643802,-1.6323867,1.5641768,-0.91576713,0.52628237,2.662669,0.25840765,1.5750365,1.2982621,-0.47467557,1.1608057,-0.029795937,-0.44921315,-1.191973,-0.43102214,-0.20738357,2.437365,-1.196479,0.57802016,-0.85659873,-1.2142775,-0.38583136,0.17443256,-0.8806875,-0.64096904,1.5573711,-1.3942538,-0.20487861,-0.0026080143,-0.531287,0.22997172,-0.13957296,-0.23938133,-1.0738236,-1.3192188,2.085362,1.3882502,-1.1511954,0.42280057,0.12955269,-2.0549314,0.58991134,0.18986207,-0.60629034,0.9852243,1.7390764,-1.1453669,0.27413568,0.34677464,-0.36302307,-1.07351,2.4128194,-0.6811502,0.3580954,0.5728525,0.908027,-1.4311788,-0.9105527,-0.17216589,-2.4444923,0.9436255,0.18072557,-0.06446225,1.7308205,-1.8126742,-0.152452,-1.7422518,-0.3420845,-0.8100298,1.7002586,-0.8567848,1.2326447,0.3450028,1.9734896,-1.1112127,-1.088753,0.6670816,-0.04659562,-0.32868925,0.66988385,0.74473584,1.0094848,-1.6785105,1.1012261,1.2704762,-1.367081,0.82690644,0.29446718,-2.1510947,-2.3493047,-0.31230107,-2.732078,-0.15573646,-1.0269856,1.3073547,2.0731444,-1.3202147,-1.4245872,-2.0146892,1.2891697,0.7687276,0.32320586,0.010460245,0.46798787,-1.8632281,-1.3404089,-0.21884556,0.4809238,0.42160055,-1.4427582,-0.07247723,-1.5092137,-0.0603368,0.075860426,0.30416176,-0.14816318,0.6801256,0.5047972,-0.35836315,0.6274454,-0.026449002,-0.04345927,0.25084132,1.267888,1.1308093,-0.37247148,-0.31713971,0.795972,0.019617679,0.2533103,-0.68529606,-0.17159311,-2.6756516,-2.194125,1.3662817,1.9665835,-0.37921792,-1.5154806,-0.6179604,1.6417785,0.9357107,-1.1738,-0.4908013,1.1896579,0.29298556,1.2175994,1.8588113,-0.09397468,-1.199577,-1.4016414,0.13118316,0.75576264,2.5103269,-0.68465286,-1.3319936,0.3068788,0.8976459,1.0422279,0.4117331,0.24655704,1.272945,1.4656279,-0.07819146,-0.42330968,0.3646789,-0.84412515,1.1771343,-0.6976873,-1.2260611,-1.4828784,0.5480381,-0.93074995,-0.47424868,-0.2501614,0.12578681,0.8240289,0.4168548,-0.8072291,-2.116738,1.633621,0.8098188,-0.94480586,0.726102,-1.1585581,1.57653,-1.1792581,-0.18878378,-0.89642805,0.34649447,1.002901,-0.8095203,0.4654161,-2.0923975,-0.47946405,0.47170314,-0.38807288,-0.4426,0.74538887,0.1895386,-0.5119525,1.6095622,1.9876689,-1.5250285,0.025607107,0.5710102,-0.10399643,-0.62808305,1.660145,-1.8544337,-0.16858564,0.17027508,-1.4265523,-1.0622791,-1.8512137,-0.07654692,0.69525033,2.2938087,0.27113643,-1.0223908,0.24219799,-0.037613872,-0.099100605,-0.56589884,0.38582397,0.021318525,-2.400104,-1.1395643,0.82559806,0.57925767,-1.3622394,-1.2472061,-0.6485972,-0.33650115,0.96292925,-0.19125515,-0.5395498,0.00982443,0.5430509,-0.9915964,-0.856507,1.2484901,-1.2269013,-0.86338896,1.7191591,1.1161302,-1.834242,0.33371896,-1.5879225,-0.09237569,0.43844026,0.5526351,-0.37269557,2.737725,-0.3949984,-0.01658915,-1.3025935,-0.8357884,-1.5063771,0.128602,0.2592473,-0.68882376,0.5776117,-1.1374586,-0.4527432,0.43810618,0.5170061,0.5162634,0.27071616,-0.5996624,-2.346403,1.1592689,-0.31635472,0.15411425,-0.29096577,3.2926435,0.12562154,0.86968666,-0.34176412,1.0132936,-2.5865002,-1.1662539,-0.48800093,0.2584229,0.44431487,-0.2254667,-0.9778847,-0.8067684,-0.9528568,-1.9163381,-0.03866222,-0.094319575,-0.11259932,-0.31142247,-0.15274704,0.32952836,-1.4661285,1.8964692,0.48733887,-0.52329093,0.18793954,-0.6422797,-0.75979906,0.31973627,0.6445459,1.3896172,-1.503345,0.07732829,-0.75138134,1.7833906,-1.7249758,-0.016122704,2.1885855,-2.0164979,-0.30020204,1.9538432,-0.5127078,0.15992081,0.37850213,-2.012384,-0.61771816,1.8478005,-0.5571775,0.65705764,-0.1810224,1.6285086,-0.5920778,-0.63191503,0.4866594,2.1596546,-1.0939044,2.4491332,1.9761487,1.5109234,-0.044938006,1.488784,2.384839,-1.1954547,-1.3917267,-0.54852676,0.0032324505,-0.89414334,-0.25789565,-0.011177781,-0.9506783,0.74365044,-1.2403563,1.3320203,-0.7853622,-0.703006,0.07023852,1.050691,-0.24194951,-0.76195484,-0.8361404,-1.8041998,0.48177567,0.055257645,1.1987278,-0.7933854,1.0588591,-1.7777843,-1.4004391,0.5556304,0.9786371,-0.03691454,0.82323456,1.5135179,1.2658068,-1.8982601,0.15297206,-2.1658995,0.50130475,1.2655178,-1.0115495,1.0793358,-1.6897326,2.030045,-1.1462551,0.71664405,0.95607585,-1.050433,0.23798369,0.7853111,1.5979432,1.5505011,-1.8678777,1.5941582,-0.08478757,-0.18064111,1.0779555,-1.7664709,-0.5567368,2.0743685,-1.5042483,0.6974826,0.7189272,-0.8151704,1.4591502,0.46840435,-0.23210733,-0.48893297,0.20255233,-0.8053755,-2.051315,2.0714843,-0.08697447,0.46186385,-0.7118532,1.0431569,-1.1547906,0.059437666,-0.62017566,0.6718432,-0.20233466,-1.5045532,0.51289034,-1.4498007,-1.5802318,-0.5980628,2.6832933,1.3166867,0.23160625,1.596125,2.071632,3.7277372,-0.70617294,0.13936311,0.19257551,-0.68537235,0.078956984,-1.016923,1.1293644,0.772545,-1.2240475,-0.17448343,-2.4918475,-0.44829533,1.1492646,1.0679427,0.9615696,-0.56882894,0.12420724,1.3854165,-0.6510926,1.6407673,-0.8609667,1.3548491,-1.2510948,1.1838653,0.02913431,-0.8820597,-0.5826748,-0.100318,0.029453939,0.17810756,2.4078953,0.38543376,-0.6656955,0.67416537,-0.6289414,0.56731737,-0.65267444,-1.195539,-1.4894732,2.0494206,0.50375134,-0.2036479,-0.41721806,-0.87171596,2.3333797,0.5448361,-0.36683106,1.3313816,0.0889023,-1.568755,0.3707743,-0.17687312,-1.3135926
CTNNB1,0.4723452,1.3013921,-0.34121582,1.0311574,-0.037547335,1.0994608,0.3455999,-0.22792363,3.2590518,-0.2968325,0.14608125,0.072972015,0.21193519,-0.57330626,0.5883606,-1.1530999,1.120407,-0.25892466,-0.14064488,-0.33847958,0.14095592,0.6352223,0.6540823,-0.3563348,-0.62944895,0.016454749,-0.054311056,-2.5327086,-0.11234903,0.96334255,2.7100413,-1.6052601,1.3958977,-0.8040481,-0.52488804,-1.2844943,-0.02005773,-0.9681128,0.17183006,-0.85602134,-1.1568943,-0.6603227,-0.104123324,-1.163722,1.1691157,-1.2962158,-2.7629714,-0.7775861,0.565282,0.20849273,0.6589873,-0.37834585,-0.2182654,-1.0097063,1.4854897,-0.42576075,-1.6923733,-0.34454563,-0.19699474,0.9569683,-1.0830108,-0.04226978,-0.7666627,-1.9887205,-3.3094008,0.075675584,-0.4723706,2.4937723,-0.70466965,3.2059166,1.3128347,0.77982056,0.64186144,0.41308045,-0.2861612,-0.643912,-1.3248354,0.98288816,-0.2673359,-0.5483907,-1.0156955,0.99331445,-1.0688046,2.5942557,-1.1510044,-0.7219216,0.699216,1.1228576,-0.85168856,1.9240552,0.38647205,-0.8199378,-1.0633404,-1.4627528,0.87051946,0.7937216,0.55435,0.31068587,-0.979305,0.9448342,-1.6008754,0.047984462,1.0996622,0.94792575,-1.7919722,0.7502009,1.0509578,1.0703138,0.027802618,0.73780984,-0.35514584,-2.3136017,0.21135673,-0.5392951,0.95531344,-1.4948636,1.506432,0.5952445,0.040476654,2.6377597,1.9637982,-0.43004417,1.3435521,-0.017687926,-2.0510015,2.0727243,0.590065,-1.6801329,-0.4392873,0.35701284,-0.29367584,0.90373313,1.5278076,1.9554844,-0.041475058,-1.1625826,-0.5975435,0.8691735,-0.26336673,-0.92555135,-0.28620481,-1.5643176,-1.141478,1.0520396,-0.7550711,-1.4144346,-1.5530472,-0.99316067,-0.27635533,-0.5934245,-0.8690442,-0.33572686,0.4991468,-0.5870435,0.5369254,-0.09895742,-0.50532645,-0.030759752,1.1115813,1.981682,-0.8964723,1.0160913,1.584283,1.6874096,-0.34057957,1.1453123,-1.3417137,0.520445,-0.52430075,-1.0609157,0.4869204,1.3506632,2.3069923,1.2991481,0.91282123,1.3819063,0.02804572,0.36097494,0.85155106,-0.6921041,-0.9633166,-0.06478127,1.3600711,-1.1225164,0.15475786,0.9871533,1.3615081,-0.61223227,-0.47575983,0.45957053,-0.2500385,-0.23002356,-0.67777604,1.6722239,-0.89130884,-0.63829046,0.56476665,-0.5058178,2.012706,-0.74027807,0.40394077,2.4692316,-0.6812101,1.4385151,0.5175505,-0.70046157,-0.37001657,0.23713098,0.07997978,1.2893107,-1.8591157,0.54753274,0.98946846,-0.45562154,-1.3352197,-0.64231855,-1.2933148,-0.06868677,-1.4570702,0.06975412,-1.6295786,0.24872631,2.3305724,0.51689243,0.273458,-0.9238515,0.7987238,-1.1386231,-0.48432794,-1.6087302,-0.41807634,0.7355786,0.1666339,-0.76883256,-0.43047982,-0.44086316,-0.24627139,-0.45735207,-0.51109695,-0.44429722,-0.33250585,0.583177,-0.29345253,-1.6356571,1.0036764,1.3624705,0.29339707,0.94288576,0.07238417,0.14063147,1.3575817,-0.49790755,-0.27460167,-0.7964244,0.56862885,0.8553327,0.043745153,-1.5119753,-0.7826372,-0.45812276,-1.3767428,0.12904961,-2.126762,0.5136628,0.65952206,0.12367294,-0.23537245,-1.8458563,0.035500694,1.0955244,0.37847814,0.818338,0.3916367,-1.036933,-1.0975208,1.084099,-1.4298506,-0.048668493,-0.6343736,1.3529747,-1.1499773,0.7959491,-1.1576555,-0.21633315,-0.6215009,0.5590957,0.9261729,1.1926699,0.27482125,1.8558074,1.1797237,1.3534343,1.7941127,-0.5426782,-0.29504812,-1.8422015,-1.0883656,0.41030484,0.39425373,0.03023228,-1.4172033,1.1901724,-2.4533334,0.49115366,-0.8044931,-1.522078,1.0746744,1.5014601,0.3566053,0.8311762,0.23727052,1.0135849,-0.9699984,-0.4558765,0.5819057,-1.8951114,-0.035054926,0.77404374,-2.1341434,-0.92271787,-0.67484117,-1.7981974,-0.3458343,-0.8676132,0.95330024,0.346679,0.8012159,1.0904317,-1.4846673,-0.44603705,-0.034027092,0.16518033,1.633947,-0.1300367,0.03020088,0.8975291,0.60234743,-1.9512261,-0.075836636,1.2164177,-0.24293578,-0.18267632,-2.8828514,0.5099998,0.05311853,-0.497564,-1.0461318,-1.2849131,0.88551974,1.3362148,0.2474767,0.9812951,0.23246294,-0.6037672,-1.8141559,-0.23541543,1.8941008,0.6394221,0.123825364,-1.9430429,0.14515576,-0.34442198,0.4546174,-1.006064,-0.35943314,-1.4254663,0.7171436,0.6662191,0.7489741,1.5999496,0.28658116,-0.51472557,-0.19537969,-0.19311833,1.3241919,0.22560446,-2.0890472,0.5068643,-0.34093297,0.72343475,0.78935605,1.1749228,0.4160498,-1.3584554,-0.29760998,0.9356751,-1.2950481,0.5568029,1.2952414,0.2633593,-0.20076178,-1.8756764,0.17204364,-3.2667005,0.26377624,-0.39601853,0.20547906,-2.620393,-0.29339957,0.34821716,2.912786,0.72361696,-1.129527,0.31562018,-0.9197517,-2.5301883,0.04469906,-0.4775911,-0.89930034,2.658044,-0.9213165,1.6354452,0.5875395,0.80983,0.36697277,1.3736527,0.42795083,2.5172853,-1.540372,-0.58281493,1.6216038,-0.24122296,0.101299204,1.2432501,0.7124833,-0.05045445,0.576052,-0.6686908,0.36712602,-0.40898493,1.7633197,-0.4329725,1.260104,0.666004,-1.4181186,0.59391266,-1.0328296,3.367803,-1.1252987,1.4602076,0.31853488,1.2998017,-0.5855394,-1.1508142,0.34372666,1.1262219,-2.1562765,2.1087265,-0.36576182,-0.11052036,2.0627036,-0.78527886,0.2623261,0.7318167,-1.264078,0.7018585,-0.92563486,-2.1361604,-0.22258258,-1.6496248,-0.14400451,-0.16820925,0.919957,-1.0305293,-0.19242424,-0.45484135,0.22240342,1.1338485,-2.3664052,0.93808347,-0.49289465,-0.79648614,0.9163513,0.8803744,1.2675337,0.7035283,0.31216004,0.0025348477,1.8119874,1.345399,-0.9078638,-0.37113622,1.7895495,-1.145399,0.4735582,0.9514243,-0.40053666,0.24950536,-1.0069082,-0.06049967,-0.52201045,0.44748974,-0.66501904,-1.7143419,-1.5622107,-0.009297773,0.7204308,-1.616858,-2.6547115,0.89458686,-0.17984086,-1.1892004,1.2467014,-0.6546864,-0.57033604,0.7174516,-1.9519639,-0.6173218,-1.6677167,0.7180592,0.60896736,-0.71927655
DHH,0.84005195,-1.0120528,0.15669334,1.1823893,-0.27066752,-1.0669508,0.14925851,0.79161555,-1.0530998,1.2070231,-1.0297887,0.98769873,-0.19332738,1.2962228,-0.032783523,1.4064484,1.515365,3.4025803,0.99988776,0.2785974,-0.100982934,0.63177234,0.27179307,-0.7985286,-0.7856608,0.84741557,-1.5323927,0.4171208,0.37706482,0.7606991,0.2631321,-0.5528453,-1.4657785,0.4777754,-1.0382116,0.14425483,0.365321,-2.614529,0.9981757,-0.21717167,1.5249733,0.8344266,1.194959,-0.2440124,-0.60847116,1.9499425,-1.9499536,-0.5934901,-1.6312577,-0.9224944,1.1527487,-1.7268126,-0.46243748,-1.4590718,0.8247824,1.1180085,1.1055793,-1.328711,1.3793534,0.19842687,1.3352565,-0.5553198,-0.7656397,1.498365,1.1968905,0.17449997,-0.20499365,0.31996307,0.9872008,1.1460743,2.0720417,-1.3337512,-1.1350387,-0.9652222,-0.61507046,2.285739,-0.841923,-0.97934324,0.28066546,0.2512176,-0.7483583,0.3887246,0.48788467,-0.36830074,-0.777468,3.1367855,-0.69370896,0.8225539,0.32329702,-1.8182374,0.33022493,-0.56813955,0.7033428,-0.620569,1.6772989,1.0235493,1.7659755,0.4361564,-1.0818603,-0.52947086,-1.9112766,-0.13605268,0.6726607,1.7257979,-0.1051197,2.3995707,-0.649797,0.6352394,-0.8130879,-0.95068455,-0.24559501,2.789793,-0.68910843,1.6883497,-1.2006077,0.7694058,-0.107148394,0.111258194,-1.2610792,0.6157455,-1.1002312,-0.2497956,-2.010039,-0.88971305,1.4632614,0.29685324,-1.2208391,-1.234687,0.6487152,0.42183268,2.6732426,-0.38423356,-1.5177408,0.48340476,0.81680316,0.75148904,0.67555577,-0.7803297,1.1412915,0.68420064,-0.27934697,-1.3955963,-1.2236594,0.49304584,0.10496172,-0.71066564,2.099192,1.0304055,-0.82716006,-0.08002002,-0.48806873,-0.20902207,0.082003735,0.9879551,0.80166036,0.73865044,-0.65969956,0.44914,2.2624972,-0.43852493,0.1894873,-0.5300824,-0.7446018,1.7544827,0.72353554,-1.1297935,-1.7304659,0.624964,0.45601055,1.3189874,-1.3830605,-1.4809624,-1.3174305,-0.42803052,-0.112187035,-1.9840643,-0.23894125,1.4192661,1.0193479,2.260633,2.9532573,-0.31269622,-0.37799147,0.95362186,0.49191508,1.7745576,1.4195135,0.28563833,-1.8299332,0.17965123,-0.6969469,0.8585509,0.053223882,0.46691138,1.2390007,1.1187145,0.36439732,-1.2907166,0.40507406,-0.5070883,-0.23589933,-0.11799135,-2.0144901,-1.3951068,-2.863324,-1.3643098,0.7344909,-0.07485952,-1.7741781,1.2070943,-0.10447878,-0.8996895,-0.9911841,1.2752113,1.033507,-0.81170696,-1.8221861,-0.8170315,1.0960152,1.34688,1.198257,-0.39366403,-1.0746027,1.5005776,0.7263125,0.49913457,-0.20826377,-0.24662389,0.10530048,-0.09732042,0.5431719,0.05878468,0.50718963,1.389795,1.0137507,0.59508336,-2.3666768,1.1185082,-1.280275,-1.6298735,0.30003718,0.15599339,-1.3629599,-0.99852216,-0.19828428,0.8796759,-0.6091135,-0.07524827,-0.6118222,-0.3102402,-1.7106918,0.75198454,-0.713074,1.5056722,-0.45459014,-0.5222501,0.5726345,0.47905195,-1.0742944,0.18331125,-0.41342878,0.21082984,0.3778848,0.50982004,0.5556994,0.7026698,-0.6324627,-1.9596877,0.610497,-0.2549278,1.2253429,0.92656285,-1.9511576,0.6084637,1.0708449,-0.3562325,0.112477496,0.46184772,-0.8684564,-0.056773465,-0.53478515,0.6395795,-0.56290805,1.2586602,-1.7491401,-0.8515633,1.4378986,-0.27409035,0.41690102,0.7355117,-1.7845869,-1.7251446,1.245481,0.4970897,0.36607698,0.41052657,0.57456946,1.1141466,2.432263,2.4141762,-0.14112367,-1.5555991,-1.5792357,-1.3837302,1.3952776,0.62559766,-1.610423,1.2483195,1.183495,-0.63365185,-0.83696854,-0.4950624,-0.74710315,-1.8150018,-0.5171969,-1.6271485,-1.7624118,0.91632026,0.40691993,1.0226207,0.62501734,-0.9539276,-1.347731,-0.93782574,0.52482134,-0.042628042,0.02294867,0.48374537,0.091494195,-0.6427453,-1.0285058,-0.40328145,-0.10610244,0.7911865,0.37741062,-0.50178325,1.2432123,-2.9777071,1.0378983,0.69034165,-0.5574445,-0.67149764,-1.6043481,-1.4090195,-1.5150982,0.055237677,-1.4863497,-0.37525585,1.5742128,-1.9541494,1.4105122,-0.15386789,-0.9675604,-0.2106714,1.7063736,0.15956816,-1.8277918,-1.4075152,0.5248494,-0.58291817,-0.4831933,-0.28949997,2.9379346,0.10010906,0.07327502,1.362332,-1.7329423,-2.9127436,0.19957677,1.0847765,-1.3964322,-1.6611373,1.1442509,-0.15824023,1.821214,0.8185401,-0.47350997,-0.8880661,0.07777762,0.66261065,1.9345988,-0.5302644,0.83756036,0.5166514,0.91211677,1.3454626,-1.2164068,0.34644115,-2.0253124,0.6004149,0.6467944,1.7128061,-0.49941507,-1.187187,0.13144454,-0.30972424,1.4336995,1.0928348,3.1249707,0.5779906,-0.0871916,-1.778998,-1.5912467,0.15963171,-0.5527491,0.7922814,0.53204453,-1.6449392,-0.34057453,-1.4238924,1.0658246,-0.7822858,1.5070761,3.0382526,-0.81715,-0.93095595,-0.796481,-1.1697252,0.0037958247,0.18067081,-0.95893466,-1.6805323,0.62366855,1.1240444,-0.33056802,-0.39916807,0.40260643,-0.4327664,-0.502291,1.0975889,0.6398056,-0.2859929,-1.0092278,-0.9945504,0.28527144,0.20864472,-0.12113998,0.119960606,1.5819709,-1.8047057,-0.34679008,-0.8168843,0.28402993,1.3303818,2.1098692,-1.5751237,1.8520184,-0.29670104,-1.398137,0.18580234,-1.1748588,-2.3423092,0.50933033,1.1476314,-0.20606767,-1.8194487,-0.47087604,-0.024276454,1.7454178,0.34539106,-1.0469103,-1.6607926,1.307766,0.6426029,0.73114914,-0.5784937,1.7972171,-2.1560583,-1.2693237,0.7084583,-1.5669163,0.6773654,0.014436392,-0.6907488,-0.9813239,0.794599,-0.2340576,0.22606294,-0.15447474,-1.1084434,0.013291738,-1.3917748,-0.86159486,0.5151717,1.1526506,0.6402599,0.24520564,-0.8223311,2.2295885,0.07461934,-0.122924834,1.2061923,0.7785966,1.1275107,-0.442621,-0.38351282,0.045570664,-1.3686881,-0.33792618,-1.000008,-1.2291336,1.4197137,-1.1702814,-0.1885639,0.112859115,-0.34881425,-0.852269,1.0184779,1.7724676,0.33963013,-1.5492346,1.0214758
DKK1,1.2802571,0.41377234,-1.2153572,-0.10710207,0.3980052,-1.0266191,1.5439476,1.4797859,-1.4855535,-0.9556468,-0.49920675,-0.34781155,0.4898662,0.7026263,-0.23969206,-0.5683587,0.3501241,-1.3845434,0.1682594,0.45040524,1.5039676,-1.0978487,1.3073264,-0.5218453,1.2237644,-0.51522434,-0.05700645,0.35986105,1.0279028,0.3378342,0.10252868,-0.061858796,-2.2721434,-0.029980473,-0.2578127,-0.1527102,0.8563738,1.8405151,-0.053498648,-1.8293167,-0.4930875,-0.36145955,0.8119414,0.0016166267,0.06950009,-0.05422637,0.11399564,-1.3089666,0.61855274,0.11576182,0.6916173,2.119559,0.65855694,0.5027512,0.8550455,-0.5695834,-0.81330514,-1.4338443,-0.588637,1.6435547,0.11679548,-0.1586643,0.8764307,2.6270838,0.9084757,1.0075821,0.1566383,-1.1028961,0.3000338,-0.767281,0.4201987,-0.81564677,-0.6869691,-1.0982089,-1.5462708,0.11718423,-0.15864085,0.12886684,-0.91057616,1.1494218,-0.9907332,1.3632243,-0.6969673,-1.769038,0.39574254,-0.33915454,-2.1896808,1.503211,1.4693018,-0.045548223,-0.78504825,-0.68078655,3.4500928,-0.4752644,0.5164203,-0.660749,2.2249498,-0.8175762,-1.1254832,0.25811616,0.60834545,1.2906777,-0.9225153,0.6078543,3.400242,1.5166855,-1.0663626,0.1148177,0.9000901,-1.460238,0.031970248,-0.107656755,0.13240148,-0.4767171,-0.36620015,0.46011242,1.3378471,-1.6510062,-0.30676934,2.6662924,2.1281164,1.1542354,-0.8150968,-0.29432815,0.3640851,-0.42738482,-1.427808,1.2800596,-0.9943972,0.82427615,-1.75734,1.0918516,0.755166,-1.0367362,-0.6186273,1.1176608,0.5354049,-0.49082172,2.2571208,-1.5019983,0.1400626,-1.0017625,-0.05414898,0.7909191,-0.2215523,1.177375,0.5898067,-2.5330215,-0.65846306,1.5328051,0.43148383,-0.056664426,-0.48073003,0.545597,0.015918197,0.4506823,0.8357616,-1.3373587,-0.32435033,0.55766344,1.8995452,-1.0164347,-0.09444226,-1.4020263,0.8327569,1.1619546,-0.95564204,-2.4713578,-1.5184172,0.03166279,-1.8266807,1.5410539,0.7835651,1.555416,0.664571,-1.5715157,-0.07581892,-0.6971011,0.85760236,-0.74751496,-0.27619547,0.8650121,-1.6175454,1.7081236,0.31347916,-1.8069632,-0.660383,-0.7149304,0.6238975,0.3763253,1.4649122,-1.3251799,0.84026253,0.092793606,0.046127252,1.7333676,0.3708631,-0.76657486,0.008285766,-1.0995373,-0.059912954,-0.6187599,0.8998535,-0.52381897,0.59266824,-0.40260625,-0.36911696,1.0399061,-0.6585857,0.52102166,0.3778224,-1.2114019,0.35171717,0.7769106,0.13585812,-0.10786458,-1.3930717,0.3239194,-0.14612895,1.5062711,0.8591557,0.2804104,0.9815305,-0.81662124,-0.7205154,-0.1761717,-0.56051743,-1.989147,-1.3951395,-0.3191629,-1.0570704,-0.23443548,1.3368416,0.757086,-0.35374376,-0.13753694,-1.1081773,0.27755305,0.5647909,-0.43030998,-0.77830046,2.1267543,0.41999623,-0.07251226,0.2042891,0.7452262,0.22790574,-0.18532474,-1.2874482,-0.33427036,1.3136556,1.5772204,2.252844,-0.91387695,-0.44146243,-0.4656925,-1.0912702,-1.151549,-0.23941627,-0.45478055,0.14878492,-0.4953473,-0.12596633,1.3856074,2.9970307,-0.24101838,-0.48829067,-1.0063876,-0.3905465,-0.11911282,0.57983744,0.46995386,2.5678642,-0.9703389,-0.19353765,-0.32658708,-0.26176652,0.11448074,0.7697439,-0.6080865,-0.7522086,-1.3668104,0.90286833,-0.46148998,1.4161032,-0.42782664,0.39948273,1.0963563,0.060343668,0.577291,0.24099152,-0.21162888,1.6952834,-1.1891642,2.2818818,0.8369947,-0.011030349,1.0830735,0.33731675,-1.1007981,-2.2720149,-1.964435,3.465554,-0.21538353,0.69973576,1.7578808,-0.89310783,0.1732326,1.1921686,0.0933226,0.62265337,-0.93919015,0.57563865,-1.1038377,-1.3656707,-1.5577741,-0.89861125,0.5574851,2.7999585,0.14265268,-1.9499141,-0.9690446,0.6719158,0.022828788,0.29672703,0.71471864,1.490442,0.8348839,0.6726127,-0.63638324,3.310038,2.0747423,-0.12274093,-0.8604973,-1.0681338,-0.11762596,-0.72300154,-0.1268702,1.9168689,0.13453741,0.09202541,-1.8794739,0.3608641,-0.741684,1.0682454,1.4353778,-3.4801545,1.206575,0.406404,-2.6591103,-0.13539103,-0.54087096,-1.6898656,0.30443123,-0.327775,0.9982008,-1.912075,1.6112156,0.5613505,1.6531253,0.37432942,-1.7141081,1.5998797,-0.76322263,-0.14903115,0.37838402,0.26286528,-0.85532904,-1.9420942,0.5366855,-0.3553045,-0.34081656,0.9958756,1.6862894,1.6097457,1.2011902,-1.2379332,-0.3413013,-0.38790187,-0.5813255,1.8963276,-2.0010893,0.1935085,1.1693423,0.2798169,-1.0331459,-0.6267431,-0.9209772,0.53938335,0.9469061,1.3771445,1.6616945,0.5551728,-1.739178,0.6314061,-0.9444113,-1.3053417,1.1057118,0.22095083,0.0074486,-1.0111123,-1.3881304,-0.98886347,0.98431355,-1.1019279,0.59466493,1.0828928,0.71481234,1.296988,-0.3316866,1.6223788,-0.5789977,1.7732736,2.3122194,-1.3529958,-1.9830471,-1.8006914,1.519756,-2.123262,0.5447878,-0.22750978,-0.20654681,1.311103,-0.2346137,-0.7720927,-2.1321678,0.70907617,0.85249156,0.693913,-0.3574711,-0.7989809,-0.010755039,0.048806727,0.04826085,-1.1436694,-0.6539525,0.18523161,-0.66863936,0.95698744,-0.45528877,0.61925626,0.30445242,0.49615347,0.16370647,-0.20462097,-1.6917007,0.4159412,-0.3183466,-2.0097218,0.32439303,-0.75112414,0.5160999,-1.4786248,-0.1326204,-0.12752333,0.5125183,-0.69524187,-0.010407042,-1.3213063,-1.376469,-2.5111542,0.5937029,-1.7166219,-0.516246,-0.92392766,0.92616016,2.275481,-0.21185835,-1.3994786,0.59745777,-0.14422636,-0.19458772,0.10979531,1.7320386,0.59061676,1.2850223,0.93429536,-1.5681893,-0.58015865,0.55651206,-2.0107756,-2.0180762,0.85393405,-0.40082026,0.2512509,-0.07592891,-1.0223864,0.43425134,-0.6601106,0.31675848,1.8432155,0.14377709,-1.6797916,0.3616629,1.0275054,1.5780762,-1.0447836,-1.890577,-2.8037117,2.306689,-0.86317223,-0.14432518,-0.2266082,0.9531261,-1.9728402,-0.13117447,-1.6792414,1.1168572,-1.2799293,-1.1416581,-1.1870669,-0.85512966
DMRT1,-1.2108063,-2.0479014,1.8304198,-0.9048956,-0.20278198,2.0454378,0.3196027,0.2498793,0.28326958,0.32079497,-0.7586913,-0.14043523,-0.6043925,-0.0695809,-0.5985085,0.4945933,-0.3528934,1.7024373,0.48022202,1.0528458,-0.80989915,1.1125624,0.6067569,-0.52537864,-1.5674374,4.209705,-0.106627084,-1.1897938,1.5383583,0.52719563,1.1601136,0.40580606,-2.0832255,0.93100846,-0.8236057,0.53666735,-0.19495231,-2.4073384,0.14011073,0.7196992,-0.50401574,0.27533433,1.0184274,0.947711,-0.15434952,-1.3580067,1.5814098,-0.0065612416,-0.16771717,0.41330922,2.2649274,0.028054884,0.47438276,-1.224071,-0.035969093,0.3403097,0.5204416,-0.10388122,1.3252555,1.027517,-0.37440532,-1.038666,-0.4268873,0.6381905,-0.3632252,1.6030256,-0.37704363,0.34274277,1.7503765,-0.55960023,-1.2497666,-0.9752734,-0.5463309,0.0295297,-0.75450623,1.5872688,-1.3847224,-0.9889748,1.4468098,0.06629924,0.8724908,-0.269641,2.5503032,-0.061398216,-0.51807785,0.4549628,0.16300315,0.7962808,0.39798415,-1.1646261,-0.8074072,-0.96655196,-0.6648567,0.050672658,-0.041865963,0.6454335,0.0042593004,1.3006425,-1.0032,-0.11278154,0.6715933,0.38100564,0.4382735,2.0895262,0.44762102,-0.21683517,0.1697131,1.4124173,-0.15547457,-2.0089517,-0.19505729,-0.15298489,0.8517017,2.6220129,0.30288413,1.034986,-0.48356658,0.06822772,-1.3851584,-0.20056228,-0.97864836,-0.91373575,-0.19507365,0.116047196,1.2124958,-1.1682773,0.20600535,0.3813964,0.67472684,0.90343535,-0.11066821,-2.026304,-2.876819,-2.3561912,-0.76702636,0.221054,-0.108406916,-0.38204727,0.3699882,1.2284721,0.22541328,0.14837669,-0.34918484,0.72056407,-1.209871,-1.2448571,1.752391,-1.2748618,1.0497645,1.0271081,-0.11054542,0.08301572,-0.19644457,1.512968,-0.9079682,0.8089586,-1.4975632,-0.2487709,-0.6632265,-1.2233299,0.49550393,0.83562607,-0.7587116,-0.49781755,-1.2671214,-0.7430697,-0.89706105,-0.51020753,0.534109,2.7048697,0.5323731,1.4545562,-2.1432397,-1.2712492,0.2944298,-2.2351618,0.85470647,2.2853777,0.52606004,-0.08345127,0.9323168,-1.6561508,-2.7952824,-0.8336034,-0.9095493,1.0376734,-0.1165635,-0.34725845,0.4710391,0.014605861,0.695646,-1.8529902,-0.57530993,0.386138,0.76454824,1.3499156,-1.5126853,-2.117765,1.4321781,0.249041,0.26270467,-0.228242,-0.1250514,-0.73783195,-3.370591,0.78985196,-0.8507533,1.3495488,-2.6080275,2.1090279,-1.9510866,-0.075118095,-1.0766261,0.7851323,-0.6182795,-0.7592048,-0.25483236,0.15053864,-0.21861005,1.5718745,-1.1218262,-1.7828443,-2.946539,-0.13952245,0.7820964,-0.29196393,-2.146781,-0.7156111,-0.5201454,-1.1446246,0.15203968,3.2714775,0.43529928,-1.307249,0.1765141,1.0530211,-0.8617101,-0.06824747,-0.32402036,-0.5848575,0.50667775,0.03965181,-0.46876708,0.2755577,-1.308916,1.1658664,-1.0333534,-0.6485776,1.930309,-0.86854035,-0.55920106,0.47242123,1.4085933,0.75763094,-0.79555714,-0.7111795,-1.0489188,0.09803764,-1.8144746,-0.43124554,-0.39706385,-0.26271424,-0.17663476,-0.44884637,1.7587075,-1.1745481,-0.34060362,2.2099178,1.1757083,-1.5985662,0.00014417032,-0.3468425,-1.5770433,-0.85011035,0.12384053,1.1302459,-1.1606731,-0.7705896,0.6254589,-0.47458518,-0.6507086,1.239706,-1.4531953,-0.39549297,-0.43497196,-0.24401666,-0.8905767,1.0355154,-0.5954259,0.33817422,-1.1126639,-2.9618747,1.072653,-0.41042426,1.299087,0.27510864,2.2391272,0.43236947,2.4704645,1.0404997,0.21753967,1.0272502,-1.1569575,-1.3080729,1.8192569,1.8051231,-0.3555974,2.454463,0.32173935,-0.030374201,-1.0107015,0.065616764,-2.0286705,-0.56667316,-1.2233034,-0.47802177,-0.38495195,0.1193384,-0.56748915,-1.2061844,-1.17781,0.74683416,-1.9827884,-0.80721396,1.1077085,-0.726773,0.13887355,-0.106097974,0.93091697,-0.88964283,0.7815512,-1.9668068,-1.21441,0.4327247,-1.6267476,0.827561,-0.12384604,0.48563543,-0.26291078,0.15570049,0.07633195,-0.6426557,-0.7858181,0.37142998,1.2967956,0.39098588,-1.0314136,-0.38898948,1.2356557,0.40749758,0.73051226,-0.8797485,-1.6804446,0.31484568,1.4438715,-0.33514565,-1.9251583,0.6407295,-0.42996922,-0.01613986,0.9450471,-1.2031206,2.2024808,1.3301748,1.7413611,-0.20806804,-2.355062,-1.1527251,-0.03479143,1.7212979,-2.4014332,0.6243369,1.1649563,0.004128408,0.68228763,1.8801538,1.518445,1.2559445,0.028848719,-1.742978,1.5498867,1.4752817,0.8601409,-0.2815216,2.4844415,-0.15009794,-0.9070779,0.97628874,-0.27519938,0.15125912,0.28861496,-0.4765013,-0.43711585,3.0478058,-1.455988,-1.9107031,-0.55691165,2.971651,0.598986,0.77864784,0.7030469,2.485173,-0.955464,0.73512167,-2.011108,0.24722804,-0.11110256,-0.16627413,0.4009093,-0.2289284,0.08625828,-0.5750072,-0.29351884,-0.07439795,0.13110004,1.1495275,-1.2784605,0.31948826,-0.30887774,-1.3830823,-0.064876124,0.9096942,0.14001986,0.14281139,0.5052733,-1.9486339,0.063520625,-1.0221727,0.40364218,1.9707273,-0.6137332,0.77680904,-0.98695374,2.0754638,2.1094453,-1.1483856,1.8513956,-2.769253,1.3174362,-0.2468345,1.7506425,-1.2966253,-1.0458326,-0.012136282,1.6418157,-1.1572672,0.4763884,0.4967898,0.30393684,1.892642,0.979713,-0.04920653,-0.41774946,1.274894,-0.5889105,-1.6745964,-0.030433638,0.23918867,1.4245147,0.48772538,-0.6347708,0.3215886,1.4394195,0.323519,-0.6402413,0.25063846,0.714242,-1.3901521,0.9581311,1.9211777,-0.94137,1.4851043,-0.43811294,-0.45932123,0.32981867,-0.405064,2.2849207,-0.5526659,0.57940286,-0.45388106,0.19422905,-0.014905776,3.0425076,-0.7336011,-0.1898262,1.4981152,0.47336507,-1.2875923,1.0449154,2.486707,-0.10580826,0.9408771,1.5294517,-0.13738424,0.62156343,-1.1184012,-0.75803864,-1.9497159,0.3327343,-0.8722862,-1.4437399,-1.2422612,-1.040056,0.962777,0.52423894,-0.046258397,-0.8605765,0.14799652,-0.10919349,-1.0120932,-1.4568079,1.208755
FGF9,0.3597047,0.014896969,-0.7888473,-2.1402,-0.26652414,-1.283889,0.81566274,-0.49069798,-0.74634486,2.0295668,-0.5985496,0.021132484,-1.3644905,1.4290735,0.6854371,0.2616236,0.19081198,0.51697487,-0.28650427,0.44673064,4.103747,1.2807332,0.5053698,-0.04915711,1.1300644,-2.288949,2.2647345,-1.7428765,-0.67054087,-0.14307298,0.87195694,0.54720044,-1.9526716,-1.1619512,-0.060553327,1.0092739,-0.46114987,0.13501398,0.15211059,0.09098716,1.3082756,-0.5568809,1.3297428,0.17380235,-0.7833098,-0.060507208,0.08737624,-0.35993242,-0.48747033,-0.6600697,-0.7130629,0.85381424,2.8745952,2.620249,1.3938661,-1.343861,1.2730396,1.1473389,-0.67163104,0.9987891,-2.2529688,-0.58561397,-0.13382915,-0.14128876,0.04380307,0.005778758,0.691137,-0.3948182,2.460833,-0.5594761,-0.4342579,0.25244305,0.6923472,-0.39121932,-0.9381998,-0.010858456,-1.7573501,1.1109449,1.8121365,1.0960377,0.26819515,-1.5299883,0.94083756,-1.642124,-1.4611149,1.0704609,0.356633,0.42681536,-0.3392173,-0.87128544,1.179945,-0.043002404,1.01693,-0.4383818,0.7112072,0.053320065,1.1393045,1.4129139,0.1465637,-1.6549195,2.488733,-1.9647024,0.7470534,0.09869119,1.4566059,-0.41331375,0.7781659,-1.8824227,0.93311566,1.1842511,-0.06066739,0.8219084,-0.83610386,0.3538813,-0.8782039,-1.0789562,-0.206995,0.53501785,-0.5975659,-0.48520282,-0.72971463,1.4060357,-1.0031879,-1.2757361,0.06077701,-0.31705788,-0.35171768,-1.506107,0.20833729,0.60447824,-1.190161,-1.1556083,-0.18349718,-0.49322733,-0.5888243,0.741482,1.7949408,-1.6364707,1.6677544,-0.5489714,1.5777668,-0.7968272,-0.9926288,0.15614027,0.6287505,-1.3417221,0.07325788,0.87450486,-1.0938193,1.5896353,-0.07055212,-1.4581949,0.70941377,1.4312118,-0.40110645,-0.19168204,0.67878705,-0.19975998,-0.16921446,-1.278733,-0.012724205,0.3054828,-0.45446315,3.0283175,-0.13783944,1.0651234,-1.2274877,0.3801369,-1.5082539,0.8673193,-2.93813,2.0951056,-0.77644587,0.756835,1.0729197,1.8653625,-0.08160783,-0.27548492,-0.60720336,-0.06957427,-1.4078586,0.028370015,1.2143649,1.5199047,0.9886314,1.1049306,-1.0683067,-0.5952323,-1.4747113,-0.71915126,-2.0137486,0.035618998,0.7385907,-1.7234216,0.49689928,-0.38983393,-0.39905423,-0.12073477,-0.6575037,-0.47412783,-0.42330894,0.37503842,-0.5740325,-0.42155588,0.04608655,-0.5367545,-1.1052774,-0.085908,1.1840074,-1.0592742,-0.5767605,2.3890333,-0.6651881,0.98038083,-0.5297914,0.16068871,-0.42835405,2.1001408,1.5949727,0.8896525,-1.4842033,-0.73286635,1.2250326,-0.80264187,0.0056558414,-0.9856017,0.03576251,0.6426235,-0.18305689,-1.6339896,-0.6353267,-0.8323024,0.8726843,-1.4538772,-0.19080351,-0.8336214,-1.5611088,2.1833348,-0.9785247,-0.76333666,0.83183384,-0.36451888,-0.31821537,1.2057635,0.4557191,-0.6514564,-0.23514536,-2.2751787,-0.9211934,0.46609542,-1.2991114,1.4238231,-0.99130136,1.3399848,-0.21376666,-0.050677475,-0.3784208,1.0100397,0.5210151,-1.1176764,0.022367842,1.5822357,2.1716812,-0.15465581,0.15257855,-0.9920751,-0.34179977,-0.6722532,-0.81932896,-0.34727636,0.07054365,0.7396237,1.1959796,0.69192594,-0.8176175,-0.39785776,-1.0457085,0.51365966,-0.021741478,1.3706303,1.0424505,-0.79556245,0.6189771,-1.5834243,0.7233166,-3.244271,-1.5304904,0.44671753,-1.504374,0.5077254,-1.787964,-1.7548273,-0.2153445,-1.1128517,-0.86562943,-0.059570193,-0.35839045,0.12652245,1.3807323,0.2159943,0.9366294,-0.69292533,1.9664809,-0.003937592,0.25061065,1.0879059,1.1040906,2.0911114,2.6514583,0.6073083,0.5068323,-0.61057436,-0.19762951,-2.383793,0.7408007,-1.404411,1.2228659,0.45384282,0.9833452,0.51374984,1.5633314,-0.1838317,0.9215911,0.09222623,0.71617115,1.450048,1.1571665,-0.14860594,0.06302319,-0.3335966,2.7918303,-2.4942787,-0.37976468,-2.3338175,0.40490454,-0.2747109,1.2949729,2.5946336,-0.3797789,1.5682701,1.2267796,0.75994796,0.67503256,-1.3180236,0.99812484,-1.734757,-0.036825813,-1.4052125,1.962524,-1.3188308,0.06476975,0.22586858,-0.17467532,1.8295293,-0.3926753,-0.99711907,1.9509274,-0.3060042,0.5517026,0.4770618,-0.6532556,0.018634595,1.4899313,-0.7661244,-0.53113794,0.34858158,0.6105951,-1.540425,-0.33359665,2.5493639,0.9296974,0.9581162,-0.22495772,0.64628506,-1.1615827,-1.0843602,-2.4437382,-0.96096843,-1.8471968,-0.26992923,-1.1452174,0.19857855,-0.9598239,-0.26475194,-0.07263075,1.2066342,-1.6618955,0.9492049,-1.3611379,-1.3115869,0.16235729,0.7667227,0.3750497,0.8935685,1.8725566,1.1440809,0.71122545,1.188907,0.67791456,1.5264708,-2.3329873,-1.1382173,-1.0950029,-0.5003099,-0.09927545,0.2073201,0.07852714,0.46416235,-0.34518465,0.49715644,0.8582537,2.2781954,0.36360386,1.6700864,0.47024533,0.03575455,1.0587261,-0.035257116,-3.0823839,1.9920099,2.0140452,0.5907371,0.1309926,-1.5928057,-1.0968018,-0.8740836,-0.80792373,-0.92645633,0.8169527,-1.1298093,-1.2872735,-0.6709298,1.1705035,-1.0708622,1.3848914,-1.8340443,1.64288,0.43327102,1.1550143,0.99924195,-0.19670832,1.0614684,-0.4861198,-0.5631499,1.4447607,0.38736123,2.7616081,-1.2403917,-1.2414547,0.34142378,1.043269,0.008942775,0.187143,1.730245,0.3615439,-0.8335476,0.7081566,-0.20083444,-0.9234607,-0.07798881,0.8485447,-0.85278237,-1.117307,-0.038126018,-1.31233,0.84151447,0.36986423,0.35770154,-2.0635,-0.8931025,-0.94281536,1.3729483,-0.43963745,0.55640376,0.38242337,0.5289325,1.5000074,-0.913106,-1.1066678,1.2261331,-2.0587585,-1.7577405,0.2729374,-1.0075573,-1.4044529,-3.001888,-0.29885733,1.4520972,0.75081044,-0.34053615,-0.37786138,-0.17605816,1.2148955,-0.65866977,-0.7851154,-0.22543655,0.18434833,1.5073805,0.2709772,-0.48333758,-1.7682686,-0.7288345,0.17123406,-0.26869887,-1.7198559,0.62368876,-0.8538514,-1.2408675,-0.22941297,1.9239753,-1.8420346,-1.7928333
FOXL2,-0.46076894,0.23844318,0.635492,0.84313774,0.24278256,0.28716254,-0.38529915,0.22997215,-2.0025063,-0.6695476,-0.28539446,0.61314094,1.1550107,1.8434137,-0.5875483,-1.4033722,0.42621997,4.009478,-0.95068806,-0.760657,0.4940508,-0.3635247,-0.37757292,-0.6684016,-1.6373022,1.3823105,0.6169561,0.041869607,2.0375738,-0.48163497,-0.6506235,0.58447665,1.8651541,1.144136,0.7167163,-0.39118016,-0.4770563,-1.7701199,-1.1073968,0.32715362,-0.5781289,0.8268532,0.44097155,-0.24283732,0.7963554,0.2838122,-2.0903888,0.34208405,-0.38265666,0.10450288,-0.82987547,-0.96475285,-2.0291557,-1.4902239,-0.48425362,-0.96006644,-0.9719137,0.10707606,1.5836357,-0.4498015,-0.328444,0.058927547,-0.7834811,0.8664323,2.2325928,1.8698981,-0.82607484,-0.74032986,1.54016,-1.4511911,-0.3704633,-0.75350755,0.29556677,-0.662361,0.57196873,1.1986251,-1.193493,-0.01380808,1.0522132,-0.31791317,-0.69624114,1.1795374,0.2681575,0.46449465,-3.6578703,1.927573,-0.2280415,1.3033237,2.0134325,-0.8305575,-0.10948174,0.74710786,0.55857825,2.3911848,1.7285312,1.6076009,1.6547524,1.1844364,0.887191,-0.136506,-0.039558366,-0.7139053,1.444143,0.80555934,3.3608546,1.0527083,0.54944855,0.4839726,0.47247705,-0.18802616,0.7396436,1.4861645,1.469038,0.18753037,-1.4257784,-0.11037177,0.028842034,0.25054315,0.10565987,-0.6073003,-1.994376,-0.32635683,-0.0036300207,-1.6548164,-0.31872743,0.35692975,0.29276282,0.6800485,2.0048466,-0.07258883,0.93974483,-0.110908985,0.91644096,0.82656556,-0.5381741,0.55076563,1.1886096,-1.5497154,2.816156,2.7186553,0.96630186,-0.17538176,-0.5784062,-0.21094073,-1.9853872,-0.0059573743,-0.21616584,1.1077564,1.3585681,-0.32746613,1.2698967,-0.09423999,0.67529154,0.39452592,-0.5570363,0.108473465,0.34427202,0.7436365,2.5978234,-0.16395812,-2.384288,-0.8639911,-0.24061705,0.98102695,-0.27066526,-0.10867078,-1.9614958,0.69709873,-1.283912,0.47786948,-0.43260077,-1.1174688,-3.169446,0.6876406,-1.0179439,-0.55528224,-0.9320997,0.46235293,-0.07372133,-0.022306683,0.88715154,-0.47746104,-0.24102241,-1.2921525,-1.4843254,1.5267128,1.5325785,-0.82514143,0.77733105,0.6815979,0.8096109,1.9259006,-0.9780664,-1.257397,-0.565394,-0.88059163,0.23765847,0.8777314,1.5572804,1.3039346,-0.19830959,-0.4687072,-0.15095556,-0.69004786,-2.0758426,0.44637552,0.10998607,1.3884442,0.10904626,0.23906164,-1.0736732,0.31073993,1.4684263,0.8327392,0.12826768,-0.29641023,-0.3250326,-0.13742167,0.22256312,-1.72133,-0.110300206,-1.4951731,-1.4428533,-0.41397697,0.94136065,0.2746893,-0.9839566,-1.0639693,-1.19478,-2.4388127,0.23078789,0.37042066,1.0121763,0.073257715,-0.16984335,-1.172987,-2.6796436,0.25424385,-0.32433146,1.0489773,0.42171425,0.9080853,0.07957837,-0.84190416,-0.4064267,0.73115635,1.0502324,0.3659726,1.4702308,-2.712623,-0.2698634,0.50287426,-0.32893375,-0.996654,-1.1556253,0.14606896,0.6163227,-0.9161253,-0.10324658,-1.1129684,-0.50085294,2.1976979,-1.4905229,-1.3503822,0.25329882,0.4502343,-0.07995984,-0.3798979,-0.8623343,0.600188,-0.20091867,1.053439,0.2937254,-0.2997117,1.5211786,-1.343357,-1.8027463,1.030047,0.07987708,-0.47634906,-0.5153084,-0.47030702,-0.9730078,0.8061515,-0.3293807,1.1750172,-0.8497601,1.9646523,0.4265375,-2.3824022,0.23880029,0.082502015,0.43801272,-1.39684,3.4367042,-1.6428406,0.85686785,-1.122582,1.1867914,0.5378832,1.5142566,-0.98771834,-0.5416617,-0.17969583,0.1596458,-0.113451526,0.44707364,0.1778104,0.34387815,-0.4539218,-0.19608705,0.76787794,0.21320412,-0.55471253,-0.46817777,-0.68947834,-0.011963591,-0.76090723,0.800816,-1.8451451,0.7337866,-1.0867186,-2.8889067,-0.5107128,0.19050549,0.09557609,1.5964494,1.0679567,1.1777188,-1.2493017,1.1092786,-0.39543316,-0.029785821,0.41624507,-0.093762726,1.4966756,-0.78249425,-0.35846406,-1.0153543,0.34728047,-0.24735832,-0.483855,-1.6862017,0.5881361,1.040789,1.2609837,-0.15671915,-2.0175219,-1.3173506,-0.76028436,-0.1377851,1.0707994,0.064625315,-0.38304973,0.43974286,-0.24252081,-0.67202705,0.13000931,-0.8081481,1.3823328,-1.4041967,-1.0382531,2.913551,0.9836585,0.68096846,0.00022622009,0.031927582,-1.7813638,0.6308923,0.86489326,0.5404249,-1.7283795,-1.3034258,-0.5363139,-0.53265333,0.10372301,-1.5701857,-0.08915079,1.3344058,1.2736474,-0.0045516533,-0.8936659,-1.2073811,1.3698715,0.24537732,0.4213642,-0.2630841,-0.098817,-1.1273366,1.9342581,1.3316668,0.16455014,-1.0294157,3.2202358,1.1279601,2.214241,0.8781318,-1.9205099,1.2250475,1.3463719,-0.7476945,-0.57764727,-1.4624935,1.5054746,0.3819528,-0.90309894,0.72166497,-0.92875195,-1.3992839,0.0666964,2.2365413,-0.7534151,-0.28540447,0.78683805,-0.056002807,-1.4681772,-0.58107656,1.2477051,0.16656081,-0.6129345,0.8001894,-1.2224233,-0.06409167,-0.55933005,-0.87104905,-1.808889,1.0432502,-1.9693446,0.28678855,0.85839367,-0.39749277,-0.6271732,1.4100037,-1.302799,0.048515927,-1.4137992,-0.16037141,-1.7550013,1.4435451,-1.342523,1.431812,0.5666633,-0.037570417,-0.035937395,0.8537896,-0.19238086,1.0851853,-1.1178366,-0.59157985,1.2761912,0.16508165,-2.033086,1.1794772,-0.91332537,0.64704657,-1.0228512,0.55947983,-0.39229336,0.57765776,-0.67020863,-0.8234379,-1.6783652,0.5034834,1.3351802,-0.56854975,-0.30262575,1.4227749,0.07094291,0.30541614,-0.5394774,0.4894561,-1.2303367,-0.97091216,1.8968991,0.8423748,-0.99987257,-0.99799067,-0.070289515,1.3148056,0.9595557,1.7554989,1.0722622,0.63720477,-0.34993705,-1.7208778,1.1782596,-1.7848941,1.5438484,-2.629055,0.6924474,-3.0948606,-0.18522385,-1.4595774,-0.37666324,-1.489159,0.10234462,1.7348915,-0.4146555,0.3445007,0.12876518,-2.4807541,0.8433865,-1.7549361,0.10087435,-0.9392204,0.7319463,2.7249298,0.8526909,-0.69381374,0.7451357,-0.41633016,-1.0500265
GATA4,-0.10524293,-1.4282207,-0.89173,0.9210812,-0.06064351,0.55619365,1.9949714,1.6934128,0.021120498,1.3883928,-0.66276747,0.5738511,0.07988883,-1.0091097,-1.236605,1.12413,1.1486967,0.6656239,-2.0226076,1.0936338,-1.0878295,0.016508507,0.41048783,-0.80164605,-0.15149505,-0.40886518,-0.20194829,-0.2523491,0.92089736,-0.28723094,0.9198995,2.227302,0.24496508,0.588064,-2.141083,0.9610615,2.3681638,-1.0064604,-1.4129914,1.5458181,0.0065931757,0.925422,-1.0169158,1.181969,0.17189565,0.31388655,-1.0676137,-0.88207054,-0.6861202,0.5716245,-0.6726894,-2.0285985,0.33290237,0.49197,0.34299016,0.8674536,1.3470095,0.5989576,0.13504541,-0.6575999,0.99073875,-0.46981367,-0.07565033,0.5334709,0.9586705,1.1130327,-0.3757279,-0.76094216,1.5912279,0.9122249,-0.9391976,-1.4682943,0.7353016,-0.47713098,-1.3186976,2.4415321,-0.19187713,-0.4003249,1.0969738,-0.32781285,-0.3123652,-1.3538425,0.20320818,-0.9321006,-2.2699769,0.4118849,-0.03249909,-1.4369218,0.5099658,-0.7726063,-0.0034006364,1.9336067,0.23244204,-0.5524749,0.06170682,2.2624881,0.42231914,0.08850356,-1.7527175,-0.6477574,-2.10301,1.1765687,0.5207401,0.35629612,-0.20313908,1.1115084,-0.101923876,-0.6082985,0.36765477,-1.9408154,-0.005804318,0.43060648,0.48746333,1.3556124,-1.753369,-0.5134205,0.31251478,0.17159575,-0.6888392,1.1507014,-3.1198936,-0.5277688,1.2970656,-1.3486099,-0.07991998,0.3042502,0.12258177,-0.06864369,-0.14610398,-0.13483776,0.010750685,-0.8993875,1.8347355,-0.6938272,-0.041611034,0.69522125,0.40549925,-2.0853217,-0.4518782,0.041315053,-1.3394326,-0.83147764,0.17794865,-0.11343865,-1.3721135,-0.71654445,0.31395656,2.0494673,0.84165365,-0.872012,1.8027644,-1.0133743,-0.8066585,1.021753,-0.4650024,0.92363006,-1.4929945,-0.2154247,-1.0259278,0.5606797,-0.7436532,0.6471697,-0.40739292,-0.5134796,-0.44996437,0.6816691,-1.9610962,-0.31180248,0.6665069,0.72270286,1.9613128,-1.9053167,0.6645156,-0.7986061,-1.2212001,-1.6689819,-1.4791747,0.16178045,1.5183176,2.7509675,1.2440323,-1.7310895,1.2335845,-1.4091132,2.7524433,1.6011777,1.8177538,-0.782383,-1.6594743,-0.4786976,1.136951,1.3218415,0.28546777,0.8287478,-0.19729365,1.2880446,-1.2070878,-0.048564423,1.4938583,1.3932055,-0.18914695,-0.21291043,0.8514956,-0.7123426,-3.9949856,0.08212168,0.866128,-1.8691018,0.13310969,2.088493,-0.5358129,0.24097943,-0.6771829,1.5219948,-0.46269363,-0.8072149,0.42569116,0.6183444,-0.82260233,1.9933987,-0.12014421,1.2780855,-1.2525861,-0.0645076,-0.38739064,-0.6582477,-1.2374492,-0.48107216,-0.72076225,-1.7916608,1.3106759,0.84353405,-1.1735508,0.4389256,-0.10096965,0.999435,-0.27495745,0.41834483,-1.6526942,1.076127,1.078673,0.048545778,0.87140363,1.6312732,-0.99851435,0.71032697,1.694727,-2.4094093,0.54340917,-0.13894,0.60169935,1.1669434,1.5957174,1.5174326,0.60733676,-1.2819742,0.10645243,1.7681721,-0.53834075,-1.0674717,1.2927495,0.5084061,-1.2260199,-0.5386014,0.49652877,-0.7456596,1.6201031,-1.492878,-1.6767912,-0.87751275,0.48551732,0.38568243,-0.38932505,-1.2389084,1.4381906,1.4214026,0.87468857,-0.049473107,-0.24271306,1.0108076,-1.3851668,-0.18616591,-1.65946,0.42410535,0.8194442,-1.1725075,0.38988376,1.4935191,0.6268455,-1.5216701,0.15983522,0.46421257,-1.878759,-2.346022,0.16334389,0.31131876,0.555379,-0.64150286,-0.018592464,0.3796336,-0.6373634,-0.5300546,-0.4084708,1.1406615,1.4367166,-1.4479035,-0.8648329,0.699873,-0.122078,-0.91899765,1.7005781,-0.36164132,0.44832745,-0.13525854,-1.8354139,-1.7986456,-0.63652235,0.060120847,1.4015205,-0.55535513,-0.09557981,-0.89571774,-1.2952689,-0.3262375,0.4145595,-0.11660888,0.31023756,0.64649194,-0.12702148,-0.30012026,-0.30579966,1.2590197,3.656923,0.5082194,-0.8831837,-0.2978745,0.81371516,1.3947582,-0.8193581,-1.0895509,-1.1552389,-0.7463146,0.21975374,-0.121336535,-1.6309797,-0.56197375,-0.4647163,0.6736358,1.0186023,0.22746213,-1.1544058,0.49143723,-0.45469972,0.25855666,-0.91413385,-0.5551634,-2.2878332,0.21460135,-0.6292642,1.4275274,-0.26537862,-1.7761816,1.5753037,-0.23915882,-0.3270758,0.5733754,-0.23369883,-1.8014083,2.2723305,2.094604,0.18140666,-0.044711906,0.099493586,0.6202972,-0.5403435,0.28757793,1.3811164,-1.0406787,0.15251207,0.77820253,1.2221458,-0.107553415,-0.21363647,0.3626852,-0.47685248,1.1859642,-1.7909901,0.59697634,0.105172716,0.35154837,-1.7080274,-1.1870446,0.020262364,3.6090124,-0.25823635,-0.0053845746,2.827962,-1.6852974,0.91146046,0.48398894,-1.4938749,2.2793593,1.0137181,0.8267599,-0.62810403,0.66465324,0.88736725,-1.6487845,-0.8801219,-0.3728725,2.753853,-1.1273983,1.2985619,0.92331105,-1.7168077,-0.5191789,1.6233071,-1.2545627,0.141991,2.0902283,1.9381661,-1.5565401,-0.165365,0.9840654,-1.0203761,-1.1301465,2.0976753,-0.70949924,0.16701436,-1.3107339,0.5735613,-2.0004373,0.7139795,0.83241546,0.63265777,-0.78450286,0.8289497,-1.2537426,-0.10731034,0.3345049,-0.11035227,-1.1938691,0.76455677,-1.2348484,-1.3560311,-1.2193714,-0.16012748,-0.24370378,1.3628603,1.0458721,0.8389146,-0.6681496,-1.0790522,0.33471248,3.135267,-0.7170445,0.07216674,2.3015585,1.1976343,-0.7930751,-0.7853239,0.7812903,1.5319335,0.37095508,0.3691739,-0.59537077,-1.9174707,-1.2980549,1.0114232,0.13595374,-0.09433405,-0.7330088,1.2303867,1.6296132,-0.843638,-0.763771,-1.2131622,0.766985,1.1925638,0.38808003,0.4651933,0.40236926,0.71303296,0.72005564,0.2678531,1.6978811,1.7293551,-0.9328576,-1.5207411,-0.6149572,-2.397429,-0.49476448,-1.5669429,-0.12784247,-2.0095732,-1.3016855,0.60562557,0.20850943,-0.4314662,-0.34017584,-1.3984966,-1.6439526,-2.3585873,0.16236393,-0.4262305,0.024790531,0.8031373,0.2797461,-0.49281403,0.57374066,0.8188181,1.2241243
NR0B1,-0.43568665,-1.4011879,2.4597836,-1.5932695,0.7914822,-0.5240787,1.557715,1.0044258,-0.57582337,1.8465315,2.4866278,-0.64973074,1.1646527,1.0715336,-0.04303426,2.000446,0.8940931,2.8102345,-0.018595904,1.2854892,-1.5762659,-0.19080737,0.941808,0.30888134,0.06366738,-0.8968329,-1.6949154,0.25799385,-0.26274154,0.4690276,0.15677777,-0.15308549,0.22682136,-0.58825994,0.3190774,-0.33875093,-0.040490497,1.047082,0.73176163,-0.43896142,0.9940763,0.38894343,0.55378175,-0.5250163,-1.0525562,-0.34448457,1.4758874,1.0508752,-2.0715554,1.4772128,-0.12348135,0.15248348,-0.26946786,0.747062,-0.78400034,0.41575593,-0.23339209,0.25135693,0.35110402,1.2785739,0.13072778,0.2617182,0.48987922,0.7491978,0.24841501,-0.041306484,-0.02033682,0.16719729,2.378093,-1.8462313,0.2777818,-1.8783075,-1.1721787,0.38611907,-0.18792687,-2.0483904,-1.7350286,1.1225202,0.66350406,0.99125457,-0.89256865,-0.80284387,0.1343952,-1.263491,-1.479693,1.9318198,-1.1051979,1.8511876,2.4555788,1.2097075,1.0964862,1.2462773,0.85025686,-0.41903535,1.873185,-0.2686341,-0.021530565,0.80224514,-0.12011137,0.50167286,1.371756,-0.56961495,1.2417883,1.5507377,0.30268013,-0.23257397,-0.8113238,-0.66665465,-1.7660441,-0.2192456,-0.13753298,-1.8026359,0.76765746,-1.126212,-0.43758345,-1.0496953,1.1193812,-0.77279127,0.0027901384,-1.2241932,0.51890635,-1.0386776,-1.6154419,0.21782224,2.0626783,0.7626343,-0.9614121,-0.84754354,0.99279517,-1.3035289,2.7861884,-2.1064913,1.0003408,-1.8908876,0.07230024,-0.2664874,0.8495747,-2.0276258,2.2833476,0.015643781,-0.87271917,-0.34886923,-1.1335039,1.1716634,-2.4123197,-0.84035295,-0.07311216,-0.6111935,-0.98983747,-0.22350016,0.21815822,-0.2596141,-1.1656663,-0.0559686,-2.3255332,-1.4034032,-0.08055901,-0.81348807,-1.2782993,-0.5305347,0.539477,0.3733412,-0.001885871,1.1800718,0.53084034,0.4291231,-1.4669385,-0.20438635,-1.0417886,1.4286528,1.0689073,0.5657414,-2.5270388,0.6587318,0.31028855,-1.907875,-0.32857367,1.6102561,0.5082848,0.62857944,-0.111893244,0.8430354,-0.1566304,1.386379,0.014548952,-0.12855184,-0.2336933,0.9410392,1.4418875,-0.35415325,1.1917528,0.51660144,0.94195116,1.256502,1.5459583,0.75767654,0.93065655,0.69405377,1.3720111,0.44223535,1.7055941,-1.0974747,-0.6214125,-0.28713617,-2.4501648,-0.92175496,-0.57927847,-0.05850856,-1.3441,0.5946036,-0.8519261,0.55273587,-2.1958668,-1.0058736,-0.2976357,1.899722,-0.78893733,1.6972162,0.5347568,0.0034953658,0.5998665,-1.2720257,0.8161089,0.49498788,-0.16360097,-1.802758,-2.243838,-2.0856664,-0.669742,-1.6868756,-2.107208,0.18553591,-0.7711128,0.8742478,-0.029429771,-0.67651725,-1.3065794,1.6353875,0.06416217,-0.872639,0.4609779,-0.83714646,0.9657575,-0.68770266,-0.34253073,-2.2071047,0.59841853,-0.7462987,2.5309274,0.9550952,-2.062778,1.044417,0.39177454,1.904397,-0.725269,-0.30402368,-0.35402742,-0.53372306,-1.6893493,-1.3188765,-0.4636221,0.21727523,-1.1745842,0.63739395,1.500792,1.5859265,0.40449467,0.4454363,-1.4262578,-0.86512816,-0.19370966,1.4161524,1.0045791,-2.093415,-0.54799455,2.7349029,-2.602527,-0.16531034,1.0466281,0.69994956,-1.2989936,-0.13881807,-0.19192202,-1.3325487,-0.08702391,-1.1168741,1.9861937,0.80640876,0.6496396,0.36716002,-0.026286736,-0.6676592,-0.1801753,0.14059997,1.2954513,0.09723902,1.4142607,-0.634769,0.50794923,1.0826734,-1.292863,0.043603174,0.7329846,-0.11674371,-0.19815898,-1.4585698,-1.1584364,-0.064780325,-0.10555181,1.4007567,-0.75646746,0.18554,0.65739346,-0.50988317,1.0806105,-1.058877,-1.2605703,0.4835242,2.111373,-0.7459828,0.05263425,0.3033968,-1.9000751,-0.07058001,-0.044974707,0.024663866,2.1059833,-0.21664765,0.29994184,-0.9896174,-1.6885325,2.5430782,-0.056380413,0.4335483,-0.8645422,-0.5032926,-0.5748679,-0.5819872,-0.013809416,1.3238065,0.3378526,1.8890157,-0.503183,-2.1280432,-2.4410815,0.4273662,-1.3720274,1.2632397,-0.6368646,0.17030354,-1.2626637,0.28492138,-0.9498943,-0.54114246,1.6477418,1.2230141,-2.8965816,1.6438613,-0.34601182,1.5477904,0.8792037,0.4636508,0.13586946,0.9732526,-0.2648154,0.01663451,-1.3794391,0.9783808,0.1447432,0.509103,-1.1537642,0.55768615,0.44904992,-0.05115362,0.07876792,-0.02400299,0.734077,0.022214279,-1.6934719,0.70826757,0.93231934,-0.21273112,0.17430495,1.6069157,0.40195283,-0.945651,-0.8108168,-1.3077327,-0.23916571,1.0735791,-1.1775975,0.98662275,1.00266,-3.2083406,1.9407984,-0.7747167,2.138114,0.84615755,-0.6696828,1.7538618,-0.122171074,1.7888916,0.57895136,-0.95474565,0.14396878,1.6145905,-1.2095622,-1.8283973,0.63497764,0.33819708,2.2597594,0.56006825,1.9186031,0.25489375,-1.517143,0.33667657,-1.0785435,1.4668182,-0.6806878,1.0391319,1.8203794,-0.5634394,0.84647435,-0.6767589,-0.7483494,-0.25993413,-1.6786126,0.97008806,1.0001425,1.3473375,-1.7684714,-1.1547631,-0.4069168,-0.5670479,-0.29061085,-2.0549061,2.1323547,-0.26578012,2.47991,0.19492355,-1.189683,0.5159372,-2.410852,0.7068389,0.2433499,-0.8238692,-0.7680448,1.7167286,0.07936954,-0.20915852,0.14844237,-1.167043,-0.008013908,2.4153957,0.64780116,-0.34251332,-2.069527,-0.44323096,-1.0572792,-0.37148818,-1.6705259,-0.08668452,2.9004638,0.46819958,-1.211622,0.16457255,0.506653,-0.5941254,-0.15519351,0.14201671,0.0029713872,0.16742297,0.27826017,0.8260603,0.34556267,-0.6400161,-0.51498973,-0.90255105,1.2133918,0.26614505,0.27246043,-0.75278664,0.93821365,0.027473383,-0.82268935,0.71852905,1.0391158,0.5514504,-2.1489654,-0.096293084,-1.4686849,1.2103738,-1.3868448,1.2789588,1.0469027,0.5363958,-1.0326014,-1.4721644,-0.661904,-0.13340384,0.31124935,0.025534244,-0.6302259,1.7207078,-0.5252872,-0.6422369,0.50432867,-0.21235703,0.20303492,0.12291005,-0.956033,-1.8250667
NR5A1,1.532625,-0.0050774934,0.20144697,1.210776,0.19846538,0.21150282,-1.2150029,0.40217823,-1.8988372,0.86643237,-0.72106266,1.2379478,-0.19297631,1.4769448,0.07824041,0.94149816,1.9825519,1.6844027,0.0759269,-1.2727054,1.1049371,0.606831,-0.71181846,-0.209881,-0.22839825,0.6098768,0.24656552,-0.21375886,1.351203,1.5053496,0.030038519,-1.8580984,-0.42565313,1.1892763,-1.4411943,-1.1906916,1.9999411,-1.6567802,1.4644687,0.2185649,-0.53639907,1.0377663,-0.6147189,1.5378612,-0.7454322,-1.2555948,-1.042614,1.0447493,-0.6936515,-0.34469068,-0.93117154,-2.230491,0.9913421,-0.18498038,0.23664866,1.4382495,-0.07163398,-0.8982082,0.6909676,1.0415828,-0.94188374,0.8123734,-0.7123319,0.46524522,0.092806146,2.4276307,0.3189062,-0.3072023,-1.2866963,2.0265167,-1.1803964,0.02807362,0.472129,1.0967312,-0.3917913,-0.42059863,0.15724862,-1.4329975,1.4838932,1.0216479,-0.44357613,-1.0177746,-1.8161403,0.45952934,-0.7458664,-0.064668335,-0.78547215,0.18055713,0.69591546,0.116977915,1.0707574,0.86553305,-1.049887,0.8489477,0.9191015,-0.08711488,1.4245055,-0.010102122,-1.0479203,-0.19596082,-1.8986658,-1.6737549,-0.25652838,0.27562463,1.4628919,1.2149274,-1.1988975,-0.20429738,-1.3717794,-2.112635,0.7672048,0.5336641,-0.1656096,-0.22899504,-1.3107469,1.8482331,-1.0206106,-0.9854219,-0.18736506,0.975296,-0.49943942,-0.4129372,-1.0879029,-3.3180785,0.60603696,-0.64590317,-1.452799,-0.910461,-1.9827642,0.22444507,0.43958768,-2.0742757,-0.15179121,2.3897483,-0.0018176688,0.34989312,-0.09130858,-0.5331542,0.8313766,0.71557873,-0.7352196,1.0774739,-1.6143683,0.75867367,-0.7274808,-0.25880712,0.43133903,-0.27902862,0.669321,1.6893903,0.5697462,0.4908293,-0.03662842,-0.34249184,-1.1651961,-0.4035549,0.20471372,-0.25316378,0.56027114,-0.95062375,0.3523733,-1.2571801,0.81625485,1.0886117,-0.21108091,-2.3573344,-2.1864028,0.61878103,-0.020943856,-0.8328233,0.032998886,-1.7333968,-1.0992483,-0.3160211,-0.4963888,-0.6859858,-2.1491253,1.6235346,-0.11525462,2.8146317,1.6205559,1.2277762,0.5392959,0.116966866,0.8083782,-0.23290735,0.9938094,-0.24082483,0.8254453,0.29447266,1.9154084,0.6794101,-0.04900071,1.6604799,1.4483728,0.73996496,-0.4511222,0.4801711,0.75138366,0.38638008,-1.0569682,0.85093325,-0.22863054,-0.50431824,-2.516862,0.537874,1.5072174,0.4086348,-1.6211361,2.421391,-0.44956803,1.391186,-0.0748355,2.1619077,2.0148048,0.81698656,-0.36817786,-1.5964935,-1.6498126,2.7726097,-0.83237654,2.3121774,-0.77975494,-1.2662635,0.8459221,-1.031468,-0.6436665,-2.1691713,-0.61380094,-1.8882955,-0.6720491,0.799253,-0.83624214,0.14176078,1.7349224,1.0899659,-1.6506604,0.90971106,1.4460324,0.7631851,0.09677465,-0.41792646,-0.2081962,-0.4619579,-2.1229799,-0.83954704,-2.4583185,-1.4542328,1.5269902,2.1330247,-0.7267397,1.5370916,0.73203856,-0.0062816823,1.3229634,1.1155,-1.0060277,-0.1212252,0.40848094,-1.2569754,-0.6225432,0.0998503,-0.031633936,-0.5657919,0.03385258,-2.0430486,0.913488,-0.87525046,-1.3057908,-0.48964494,-1.1173948,1.6930659,-0.01465938,-0.23513746,0.68317866,0.7820245,-0.79780626,-0.62214774,-0.63670284,-1.0514696,-1.4498754,0.72095907,-0.12842281,-0.7768105,-0.45139182,-0.93382597,-0.11121893,0.5097357,1.1466473,-0.76122266,0.3517208,-1.7581779,0.5228762,-0.8136708,-0.34617144,0.6674079,-0.8235387,0.8155127,1.3163474,0.35720134,-0.8854146,-1.0834514,-0.19451237,-0.9727117,0.49733475,-0.72673553,-1.1357251,0.40775162,0.6521024,0.54196274,1.005438,-0.35182384,-0.1670267,1.3301569,-0.6397139,0.32893598,-0.33362857,-0.9791112,2.373129,0.09560848,-0.88058025,-0.46959764,-0.5029131,-0.74602437,1.009103,0.92689097,1.4575095,-0.25169972,0.8395984,-0.34326473,-0.15675783,-1.4712554,-0.2256121,0.4497644,-1.9439685,0.07444043,0.8163674,-0.32077092,-1.0879825,0.24610758,-0.27299955,0.14347771,-0.3879405,1.4152256,-0.98558146,0.73445815,-2.5945673,-0.29518515,1.3925633,-0.7065284,-1.566396,0.31762367,1.3041177,-0.20158085,0.5518731,1.1291833,0.5186883,-0.598175,-0.9493867,-0.5742165,0.73546976,-0.43283,1.1216701,-0.29595995,-0.36890104,0.35385326,0.63779575,-1.0381556,1.4728113,0.6011356,-0.49038523,-1.1275932,-0.014546549,-0.89213294,-0.3574423,0.6476933,0.4192384,-0.50788426,-1.8941635,0.179496,2.5021477,1.9428563,-1.9050959,0.52191335,1.1160135,2.9591975,-0.009610262,-0.032837138,-0.22737257,-0.3883003,-1.1798269,0.84729147,-1.5763699,4.0050564,1.6791172,-0.8443072,0.8387281,-0.41691747,0.8165409,-0.668636,3.3624167,1.6649467,-0.054038074,1.6509991,0.64547426,0.3625366,-2.4159832,-3.4514825,0.73843163,-0.28685585,1.2953241,-2.013034,0.5994125,1.60518,-0.8945821,0.026004624,0.96775526,-0.75838554,1.0030429,-1.2953988,1.5816014,-2.2152214,1.1009372,-0.7682961,-2.016241,-0.5631637,-0.39128697,0.47572538,0.9280227,0.82267696,0.89058244,1.0267253,1.2266868,1.3851506,2.205071,-0.6956825,0.026186647,-0.13791843,3.1124008,-1.3707165,1.2030354,-0.086225525,0.0038563043,-0.2659766,0.060084816,-0.93499184,-2.2642753,-0.045151383,-0.80128086,-0.07750644,1.4223894,-0.4865656,-1.8229833,0.49619356,0.9667481,-1.2796786,-0.89557093,-0.40892366,-0.656217,0.15086876,-1.5896848,1.3231261,0.24569383,1.7229605,1.1429604,-0.112102464,0.19943315,-0.38489494,-1.874685,0.8590568,-0.37790328,0.86692655,0.28623185,-0.29926223,-0.3211152,0.41283873,0.6798499,1.8351797,0.9727082,0.44869876,-1.1018177,-1.0247831,-0.4117575,-0.5638425,-0.41606912,1.2455245,1.7820514,-0.36735904,-2.0785837,0.38829643,-0.3417569,-0.35410714,-0.42690527,-0.05852527,0.74630284,-1.6829377,0.5931557,-0.44296673,-0.7648455,-2.1492798,-0.5073899,1.2802051,-0.43081564,2.3197486,-0.8059264,-1.7024438,-0.3380822,0.31245604,-1.332707,0.25759432,0.8753922,0.5333613
PGD2,-0.4028689,-1.0961487,-0.2062455,-1.5079448,1.6752278,1.1886872,-0.28147057,-1.1207812,-1.1792188,1.3598747,1.8152106,-0.36550248,-0.5715397,0.6400615,0.95744073,-0.50601864,0.6903379,-0.34776863,0.4691043,1.1159775,1.5033745,-0.7698205,0.4566729,-0.43319824,-1.5864537,0.6037386,1.4645959,-0.68408984,-1.3404235,1.7077684,-0.41105896,1.2431737,0.55277365,0.7250734,-0.6803331,1.548541,0.934591,-0.58848214,-0.38177547,1.1564497,1.5993044,1.0985224,-1.7837427,-0.6245089,0.23004274,-0.27355987,-2.1038318,-0.03046219,1.4169015,-0.5506181,-1.145415,0.5594502,0.3906949,-1.7517323,1.5709716,-1.4120138,1.677689,0.9484703,1.6180681,-0.11912714,-1.1884772,-0.18708718,0.7034801,1.7020016,-1.9050063,-1.7146989,1.4583426,0.29036114,1.3350747,1.1520221,-1.0340227,0.8750564,-1.1775538,0.2740722,0.039122544,-0.8128693,-1.349993,0.9479125,1.5286454,-1.118742,0.5810291,-0.45222613,1.5844693,1.319396,2.0357547,0.016591527,-1.1876229,1.5209714,0.28350767,0.33362123,2.0053086,-1.2337259,-1.0917977,0.037305884,1.3783388,0.15068863,0.5108459,0.8516026,0.7085398,-1.411647,1.0080173,1.4552546,-1.5608003,0.87669,-1.4274577,1.1666313,-1.6350323,1.0549256,-0.23574555,1.0637878,0.8436376,0.24790417,-1.1351558,-1.3143812,-1.4889333,-1.1477579,-0.65767676,0.8633376,1.972684,1.3834715,-0.16492149,-0.12697686,0.8792306,0.66049653,-0.35073298,-1.1508332,-0.13284737,-2.1351318,0.42589578,0.73562574,-0.39358202,0.030820414,-2.035265,-2.0793667,1.0202798,1.277055,0.7966864,1.0441579,-0.542998,-0.22282502,0.77485967,0.87991047,1.026965,1.087781,0.16179602,0.70889187,1.310292,-0.123959966,-0.14135842,1.2943574,0.39224005,-0.11304801,0.818052,-1.4184961,-0.35330495,-1.711007,-1.4051976,-1.1646295,-0.36410555,-0.6874062,-1.5372275,-0.969924,0.6458521,0.17079307,-1.3293891,1.112656,-2.2800617,-1.7752206,-1.8744686,2.2836645,-0.5976018,0.39180255,-0.8369612,-1.3490028,-1.7234491,-0.37303135,0.094349004,1.5738822,-0.6817093,-1.4230753,1.3784537,0.24574497,1.993435,0.9599473,-1.3784682,0.53625816,-0.15613478,-2.0708594,-1.6638075,-0.8868396,1.3811446,-0.29298905,0.18375736,-0.22891185,0.50083315,1.918078,0.38467482,-1.4040477,-0.07857259,-0.484472,1.1848878,1.2808145,-1.1316856,-0.8791675,0.8848283,-1.0905972,-1.1395322,-0.11641459,-0.6072721,-2.668466,-0.15614071,-0.4832762,1.3812605,1.7929783,0.19410098,-0.71778214,-0.35735336,-0.9044511,0.47735164,1.834784,0.10533207,-0.15352367,-0.5735344,-0.91165894,-0.25654086,-1.022245,-2.0321867,1.3055557,-1.16945,-2.165614,-1.5390071,0.31262133,-0.50191057,0.83250904,-0.020969585,0.2256119,0.074647754,-0.64347416,2.0611455,-0.34113723,-0.20490181,-1.8803443,-1.4421376,0.44114357,1.3947493,-1.6853638,1.0387293,-2.1820357,1.6299367,-1.4071136,-0.80868906,0.053221617,-0.41794407,0.1956213,0.4642614,0.41489574,0.27508676,-0.83870095,1.1841183,-0.86520225,-1.5258342,0.97691864,0.9308614,-0.09840464,1.0407535,0.81348455,-0.8607934,1.2222975,0.99043745,-0.797549,0.030968754,1.2568421,0.5332018,0.90290236,1.110306,0.6903189,-1.055129,2.114745,1.5421495,-0.19801435,-0.39691854,-1.2554011,-1.0560944,1.0238497,-1.3960385,1.2048111,-2.0797153,0.4101596,-1.1352493,1.5355889,1.4968818,0.056824006,-0.61555153,-0.11991644,0.49233106,1.4548429,0.100017026,0.47811672,-0.54872125,0.31953964,1.1090857,-0.008441119,1.5586503,-0.35941824,1.8052201,-0.48693833,1.6666361,0.4698776,1.1536764,-0.783894,-1.4202275,0.8393163,0.7382144,0.92183185,0.062078603,-1.5534066,1.6727763,0.93929243,-0.37741113,-0.43322963,-0.014849694,-0.3425373,-0.74000555,-0.82631284,-0.56134796,0.6834199,-0.43744713,0.016683104,0.098353796,-1.1096063,1.1439979,-1.9130441,-0.6467473,0.8423894,1.3362546,1.303951,-0.5639882,-1.3146698,-1.4695433,1.5149275,-0.039815035,-1.1009592,-1.5919242,0.32134882,-1.7229929,1.9188899,-1.9225628,1.2529936,2.03177,1.0844442,1.2166345,-1.5695336,0.50435793,1.6387877,-1.5357474,-1.2144425,0.61111754,-1.6466331,0.4615513,-0.92681605,-0.61596465,0.4201116,-0.94969666,-0.42861164,-1.2443795,0.16173753,1.6085814,-1.2453029,1.22965,0.24110217,1.4615027,-0.677499,-1.6950353,0.31789836,-0.53451866,-0.87277836,-1.5941012,0.6555873,0.2113294,-1.3825035,0.2555134,-0.46500316,0.03004227,-1.3849447,0.69787997,0.26584053,-1.56641,-0.29983586,-0.07646613,1.3707538,0.18427737,2.338268,0.967491,2.1630332,-0.5221765,-0.52686656,0.1506859,-1.3623894,0.10613582,1.3319255,-1.4578326,-2.0212939,0.40808907,-0.6276829,-1.9767711,0.8935106,1.8582807,0.66035473,-0.7610906,-2.079733,-1.6529758,1.7695147,1.3180406,1.534367,-1.1253281,0.8947373,1.0175129,-0.9249005,1.2278146,-0.54421645,-0.5768451,-1.6675266,-1.0917419,-0.40789077,-1.3272027,1.2108599,0.038332973,-0.7303302,0.30921158,2.0592084,0.2992212,-0.33460554,-0.5399467,-0.7145368,0.3740583,-1.7859274,2.095001,-1.4878172,-1.5942502,-1.0607231,-0.812452,-1.398892,-0.08259768,-0.7249357,-0.8709258,0.041093625,-0.019691903,-0.31150988,-1.0907476,-1.4390163,-1.0117283,-0.8892245,-1.5457805,1.3935467,-1.8009844,-1.0491303,-0.7399399,0.18346746,0.14483309,0.84424347,-1.1515772,0.6263679,-0.63498694,1.617576,1.2027054,-1.0429024,1.9254696,0.9352336,0.7523879,-0.4984451,-0.7526241,0.86328936,0.3747737,-1.778572,0.94259894,0.3490181,1.0245636,0.69630605,0.72951347,1.6314098,-0.08275049,-0.29705766,-1.312924,1.0696278,0.053333208,0.66769236,1.2631053,-0.4493845,-0.06264591,-0.9139108,-0.9460079,1.6566024,-0.5699087,-1.1716633,1.4273819,-1.4738294,1.2352731,1.7557412,-0.83404696,0.08202736,0.57289135,-1.4003782,0.80424595,-0.43291318,0.4150314,-0.8674779,0.84027356,1.4142073,-1.7255641,1.8483936,1.1340591,1.3745224
RSPO1,0.91960245,1.4429303,-0.35727504,0.3818003,-1.476584,1.970061,1.1279526,1.9116772,-1.5752183,-0.63369566,-1.6160394,1.2561502,0.4559936,0.61757857,-0.6572526,2.2446234,-0.3274935,1.3318291,0.080280736,0.9110254,2.9979095,-0.73020107,0.8734453,1.2238588,1.0810548,-1.4029393,-0.79773295,-0.8672668,1.2071496,-1.3917514,-2.3334231,0.90246814,-0.33233422,1.482449,0.5988421,-0.57951367,-0.3946442,0.22502407,1.2800151,0.6711094,0.24804117,0.5857983,0.8748565,1.9413085,1.8843179,1.196293,1.4754758,-1.1889436,-0.55211425,1.7787958,0.4002782,-1.5628457,-1.8640585,-1.7567685,0.050776973,0.9637288,-0.29260454,1.1488432,1.7898726,-0.6427645,0.41770104,-0.20440456,-1.2430222,-2.3505158,-0.11100411,0.5765176,-0.69672173,0.70207644,1.6159759,-0.046642065,0.077143915,-0.59032613,-0.42501134,0.6905349,-0.60575897,0.9913327,-1.2981966,-0.60068446,-0.26064304,-1.0182847,0.26813465,2.473853,-0.9598077,-1.5288047,-0.36140713,3.3424258,0.09341804,1.0133582,0.3663336,-0.185398,-0.2311497,2.012215,1.8424859,0.027385052,1.6252466,2.019177,-0.5133589,0.28246248,-2.1212707,-0.19057074,-1.3310481,-0.834764,0.17248821,0.12119548,-1.4146899,-1.3499022,-1.6999284,-0.024142003,-0.9065514,0.84385014,-0.91228914,0.7629085,-0.5816449,1.511981,0.84821147,1.2288477,0.4633327,-0.34284943,-0.7590223,-0.47944522,-0.030643813,-0.26317373,-1.5144064,-0.18760067,-0.41255638,0.77803916,-0.6284383,-1.5548434,1.1369064,-0.0658343,2.4862723,-1.0500292,-0.6082226,-2.250429,-0.5415917,-0.47780842,-0.20380889,-0.48534447,2.0741148,1.5176023,-1.2130451,0.22099046,-0.7604968,-0.21282998,-1.0384989,0.79338074,0.5094669,1.8643366,-1.74894,-0.22868618,0.6273151,-1.4600524,-1.5156605,0.40486205,-1.3843789,0.7200391,-1.8397201,-0.17903984,1.648253,0.53046817,-0.29714316,-1.4212191,-0.38661578,1.0715668,-0.9776436,0.043466426,-1.1274573,0.039316587,0.8946226,0.6049609,0.61615425,-0.015098265,0.7914708,-0.51862013,-0.3660585,-1.5961955,0.24242802,1.4913913,-0.31319666,2.3782616,1.0121747,0.1511831,0.44616145,0.28697816,0.328389,-1.2972338,0.81643224,-2.2971547,-2.9862952,0.5070567,-0.35244486,0.02950881,1.2044431,-0.18969823,0.47107583,2.0907454,0.110041946,-1.7076254,-0.04108874,0.27048057,0.40848923,1.2493409,-0.41314214,-0.092117995,-0.81803954,-0.6513148,0.6097388,1.1370771,1.3103539,-1.0068283,1.5887885,-1.2130657,-1.489891,-0.16609113,0.914099,0.96653116,-1.1207336,-0.8893401,-0.72727144,1.0015479,-0.68026006,-0.8856478,-0.6780642,1.1216506,-0.68470407,-2.0496664,-2.1083102,-1.3816572,-0.0086587835,-0.6956357,-0.788802,1.2623645,2.2045045,1.0305439,-0.1558043,0.2440378,-0.3559138,-0.7616507,0.72849,-0.1427129,0.7165036,0.27935344,-0.3885887,-0.23152427,-1.1484067,-1.8514827,0.4017042,-1.0301619,-1.4782301,-0.49197668,2.1720772,0.66663975,-0.76629937,-0.58187574,-1.1371467,-2.4138045,-0.98172385,0.6246097,1.2724675,0.4343778,-0.051659096,1.952049,-0.34638247,1.876128,-0.86513424,-0.24526075,0.55691165,-0.30949545,-0.7286714,-0.5311732,-0.16314763,0.2515977,0.2373235,0.12899984,-1.5207767,0.6680293,-0.4671106,1.0029732,-0.23671985,-0.5521987,-0.46973482,-1.8411784,-0.43097156,-1.1235869,-0.83588874,-1.1988118,1.7274601,2.3240638,-0.8933176,-0.81956965,-0.27614498,-1.184377,0.694285,-1.4796692,-0.49825683,0.47584748,1.0859662,0.11753308,1.156449,1.0399128,-0.50753784,-0.24592814,0.08588327,1.4066874,1.9343679,-1.331547,-0.7002193,0.88130766,1.6399446,0.2165448,-1.0869468,-1.3890615,0.10120647,-0.34611675,-1.0200781,-0.7688848,-1.1961907,-0.35624513,2.6880116,-1.1133187,0.35917348,-0.31933966,-1.230755,0.58036727,0.11527412,0.9805103,0.8876308,-1.1713448,-1.9730551,0.16009215,1.1440933,-1.6075445,0.41087437,-1.2072275,-0.5972315,-0.89927334,0.36930534,0.5768413,0.47113612,0.07586081,-0.27403834,-1.7571235,0.2519324,-0.031349115,-0.3781211,0.95829016,-0.382498,-0.87073106,1.383807,-0.13070025,0.5514196,-1.0228188,-1.2518996,1.1114914,0.65792036,0.7523492,1.9804432,1.4323282,0.19343285,0.871524,-1.1679716,2.9190068,2.859502,0.54440165,1.5346032,0.9215507,-0.021221744,-2.156093,1.6302247,1.3081529,0.24240436,-0.9795617,-1.5321081,0.3453108,1.4927874,0.12770636,0.88224113,-2.5607836,1.1232184,-0.5715159,0.42142278,-1.0133524,0.37290093,0.5668072,0.40835318,-1.2100844,0.42313945,0.56310475,-1.5289571,-0.43973157,-0.44549072,1.4750811,0.087798834,0.38592863,-0.25173336,0.73612434,-1.279563,3.0890071,2.1948414,1.5047182,-0.53596914,0.5898854,-1.2238451,-0.36977082,-1.819665,0.013040688,-0.8360908,-1.050168,0.56367487,-0.19207181,1.0926133,-0.603627,1.4146403,0.9581527,1.2547334,-0.72712696,0.5807035,1.0506994,1.4393873,-0.28203204,0.61415404,0.67748797,-1.8179345,0.25766498,0.85979503,-1.913939,1.4293857,-0.6677706,-1.8907976,1.1492658,0.45772177,0.70644116,-0.21303934,-1.5825818,-0.38370502,-0.86491203,0.29197136,-2.6484857,-0.09782754,-2.014488,-0.99537957,0.9273013,1.1962245,-0.62370783,3.1826425,-1.8556355,1.159593,0.8735236,-1.885924,1.0817765,-0.92268574,-3.3757021,1.0746015,-0.024552526,-0.49956003,-1.2190281,-0.25555903,-0.026234392,1.1364641,-0.052040365,-2.384195,0.11346066,-0.3761141,0.058853414,0.17354333,-0.01201625,0.55407184,-1.4778411,-1.4489537,0.9209755,0.1448078,0.21874279,0.7018999,0.35999236,1.9269358,-1.0236129,-1.478617,-0.7987356,0.73206633,0.84399015,0.6766587,1.4133096,-1.126726,-0.6086052,1.1608565,0.025033008,-0.5879435,-0.61892366,-1.6075795,0.011970863,-0.1368031,0.8747182,-0.72755486,-1.1987876,0.670466,0.8382176,-0.1778259,2.44111,0.54022324,-3.417476,0.30428165,-0.4501367,0.36151123,1.1097898,-1.3154813,0.5871002,-0.65657383,0.5422659,0.94285166,-1.1557672,0.7632916,0.053528517
SOX9,0.9974828,-0.36501214,0.70216507,0.09896727,1.4957148,0.04774162,-1.5203286,0.10974134,-0.10675838,0.3133616,-1.3686409,-0.43924436,-0.7321638,0.0255746,-0.24487743,0.2658822,1.7863603,0.6816974,-0.77645004,-0.5956787,-1.531583,-0.30156675,0.8133569,-1.9092141,-0.23614179,-1.1219364,0.4278981,0.41253605,1.5329779,-1.2464006,-0.33538678,0.33952802,-0.57272565,0.37503168,-0.46065044,0.67305964,-0.60100716,-0.73304313,-0.4729874,1.9735875,0.852754,1.7485657,-0.30870423,0.923746,0.8794192,-0.34702793,1.3061793,0.27350798,-0.59945065,-0.9198717,1.0349298,-1.0517642,0.5652799,0.5014165,2.0384705,-0.46711525,0.5588065,-1.9012401,-0.97776306,1.7196001,1.9261065,-0.54456216,-1.2343838,-0.6096143,-0.35240838,1.3777298,-0.6494454,0.5526292,0.72360903,-2.2768104,-0.5211698,-1.3631283,0.45604903,0.013014179,0.6507481,0.861791,-0.8713215,-0.4296386,1.3419703,-1.045196,0.41608632,-1.460795,-0.4729646,-0.87183964,0.8867568,2.8006494,-0.87379444,-2.49583,0.18914601,-0.08093381,1.008031,1.0334433,3.1492352,0.16251543,0.8153214,0.82670844,-1.1134738,-0.099100426,-3.3795335,0.012505646,-1.6873474,1.9211867,0.2112973,-0.7847293,-0.9934252,-0.37338355,-0.5231453,-1.042405,-1.7964439,-0.8920468,0.1858662,-1.0048112,0.7140196,1.1692405,-1.3003242,0.84111387,0.5104541,-0.914475,0.48850986,0.088467605,-0.06326175,-1.0889081,-0.07770187,1.1631448,0.018690506,-0.22031969,1.4308169,0.31360212,0.2509448,1.5053701,0.175653,-0.17560798,0.95379186,-0.3739759,-1.059524,0.50078225,1.6691561,-1.2678176,-2.091015,0.42349133,0.8893456,0.5779661,0.00015728663,-1.0221078,-1.8911296,1.0681642,-0.4985464,1.1675624,0.29559734,2.0717952,0.5765342,1.070971,0.058268916,0.5230001,-0.5497811,-1.2892398,-0.15096623,0.48165214,0.3019194,0.8305884,-1.3440115,-1.4808991,0.24018827,0.64481205,0.76923084,0.035929002,-0.5414069,-0.40187934,-0.85810494,0.118950464,-0.34630573,-0.61994106,-0.51456565,-0.028097952,2.2838528,0.3492609,-0.20561753,-0.14790256,-0.23695816,0.7070893,0.7266797,1.0771394,-0.988033,-0.54340047,1.014013,0.4168792,0.45855838,-0.99282396,-1.7953662,-0.31881407,0.8913166,-1.6776363,-1.047718,2.573501,1.2249664,-0.027851898,-1.823684,-2.3954961,0.62729406,0.3363079,1.4617765,-0.55579376,-1.2584722,-1.9264777,-2.785933,-0.40351284,0.73386014,0.9818009,-0.03282522,1.9456407,2.6919003,-1.969645,0.87120235,1.2329137,0.9807077,-1.0039346,-1.4788046,-0.31420508,-1.6197464,0.7421074,0.82368726,-0.56565416,0.54198045,-0.26986545,0.29017377,-1.37087,0.57025754,-1.2111748,-1.0242811,-1.0400105,1.401477,-1.0364716,2.375458,-0.90234363,0.5456612,-0.531028,1.1324736,0.87280077,-0.65280306,1.1713299,-0.5123052,-1.0075309,-2.1016564,-0.23182559,-1.7019519,-0.7565141,0.7069838,0.57793355,-2.6546712,2.2268975,2.102346,2.3568141,-0.046751883,1.2208996,0.31775868,-0.60551864,0.54007065,-0.21700004,-0.93682706,-1.1049298,1.5331497,2.093975,-0.29297167,1.22778,0.032310605,-0.198468,-1.4373082,-1.0321816,0.89014363,-0.081162125,1.2718196,0.042459182,1.2523333,-0.16435075,0.5573093,-0.008932114,-0.26457822,0.62284505,1.0342616,-0.13026248,1.2384439,0.30990174,0.9314239,0.14345032,0.11992203,-1.0474133,0.51273364,0.25440472,-1.3088653,3.008275,-2.0971434,0.23511446,-0.11868654,0.8704471,-0.63471574,0.34023106,0.44555146,-0.89945,1.6157984,0.768417,-1.3374745,0.8015935,0.5662572,1.883846,2.6427908,-0.59162325,0.22192417,0.25878766,-0.05822723,-1.6283072,0.25920787,-0.12304873,0.7803311,0.066884056,-0.44900146,-2.0913122,1.6592076,1.233819,-1.6525745,1.0470065,-1.8829533,-0.72898924,-0.49171203,-1.8448652,-0.8625452,-0.7846906,-0.34535176,-0.918273,0.22319527,0.4410168,0.10667068,0.6473935,-1.2548553,-0.44259727,1.1726878,2.7727294,-1.524602,0.10889754,-0.37946495,-0.33289313,-0.3159037,-1.4209819,-0.623902,-0.297074,-1.5124085,-1.309475,1.1837378,-0.40848863,2.468912,-0.4987685,-0.115661,-0.06966488,0.12451184,-0.9773694,-0.28503478,-0.6312944,-0.19157772,-0.50066775,-0.34900054,0.77101725,1.2803694,-1.5658296,1.9711021,0.28373682,-0.4344439,-0.047969468,0.8201162,-1.1225418,-0.08080529,-0.006558378,-1.783395,0.4951241,0.52601284,0.48969108,3.7668927,-1.4186933,1.9822944,-0.32445285,-0.08025393,0.68447703,-0.07778874,1.0693645,1.7390392,-0.34276834,1.7258222,-1.546109,-0.8592759,-0.99953336,0.5156536,-0.7576797,1.0472753,-0.16036545,2.3524442,1.5865779,1.0393771,0.63423574,0.40277693,-0.53580815,0.30362484,0.6311765,-0.43939006,-0.028959544,-1.5737206,-0.8755294,-0.5994926,1.2164664,1.4454659,-0.06339383,-0.0060436614,-1.2804568,-1.0606339,1.3098668,0.9902433,1.4927231,0.57976025,-0.5829231,-0.45575657,-0.22371502,0.8574069,-0.72985125,0.21747942,-2.0121036,0.9170566,-0.42230648,-0.64418066,0.18120594,-1.8842734,-0.34661674,0.49065256,-0.4881126,0.56222004,0.90990114,1.5333043,1.0866697,-0.75668585,-0.1398289,-0.23809059,-0.5819558,-0.39523214,-0.50344527,-1.3998367,1.0441431,-1.6708479,-0.5226175,-1.6973221,-0.65304476,-1.0682043,-0.3309912,1.1603171,-1.4838606,0.5340644,-0.5431703,-1.488263,-0.12866339,0.93632865,-0.952626,-1.0825092,-0.11004907,0.9449913,0.8341187,0.17325266,0.7442802,-1.1677749,-0.16731401,0.20328948,1.2130239,0.81502444,-0.40261793,-1.1518587,0.5344531,-1.8599423,-2.635264,-0.7816014,-0.662918,0.42905405,-1.6281633,0.6070351,-0.5694421,1.5305845,-2.6107826,0.7623934,0.36456656,1.8456489,-1.3048338,-1.3960034,1.7985564,-0.9266119,0.2817014,0.9107596,-0.7447381,-1.6351765,0.54352176,0.8384107,0.24133222,2.3734195,0.014468701,-0.22561625,0.39688697,-0.4910324,2.7840695,-0.50239056,1.1555551,0.432708,-0.087897144,-2.067564,0.6888232,0.10341368,-0.8077581,-0.33850604,-0.33449924,-0.03357988,0.30424142
SRY,0.52242744,-0.93193126,-0.63100106,0.18803884,1.521613,1.6157258,0.5404914,-1.135879,-0.13975571,0.92222244,0.29480752,2.1602395,-0.8316035,1.936765,1.1072767,1.1280551,0.66768235,1.4328042,-1.1834129,-0.045523915,1.0154647,0.43059036,1.904138,1.0674202,-0.27397978,-0.9543644,-1.6443645,0.18499215,0.27257484,2.2239432,0.49247372,0.4325096,-0.8077922,-0.6289908,-0.75265914,1.346432,-1.3576196,1.0572433,0.1882476,2.4260628,0.64923394,-0.8777729,1.1931708,1.7102244,0.9352392,1.3962317,-0.8661908,-1.4326942,-1.0125802,1.2181664,2.17494,0.027083859,-2.0183477,0.7325637,-0.6350075,0.24101108,0.9468496,-0.41003087,0.71579975,-0.072236046,1.6646389,0.8457574,0.4266739,-0.86634064,-0.46412042,0.06517697,-0.8134838,-2.9656975,0.8232271,-0.8702044,-1.4153458,-0.13303946,-0.36179873,-0.8660007,-0.8632352,-1.232579,-0.08917174,-0.85683197,1.157749,-0.26058036,0.1441827,0.37106422,0.8780011,-2.0639944,-0.47008276,3.051716,0.16062213,-0.3678023,0.53654283,-1.1838534,0.61843413,0.21147335,0.5431081,-0.13849798,1.4643039,0.6433729,1.3578387,0.7715262,-2.0491374,-0.36733308,-0.52718484,0.2827253,2.192944,2.069387,0.28386033,0.1624211,0.5568557,-1.0762793,-1.8692968,-0.54979396,-0.71527183,0.03889632,0.51107186,-0.6705953,-1.6551526,0.20319459,1.018113,-0.188293,1.8208091,1.0602994,-0.29173318,-0.4120792,-0.80344015,-0.77784765,0.052791584,-1.7893711,1.2533249,-1.9465431,0.87400705,0.6564157,-0.0933341,-1.7765762,0.6675259,-1.8821528,-0.20886426,-0.26394594,1.1442368,-1.883621,1.3221782,0.76123023,-1.5140778,0.47506014,0.5290736,-0.41171107,-0.81886584,0.026578791,2.0520575,1.2065861,0.006804195,0.45068464,-0.007410961,1.7351496,0.22770475,0.43398055,-1.1363145,-0.78434545,-0.5337804,-0.07685708,1.8978726,-0.8932974,-0.8809268,1.1710936,0.05490653,-0.70461875,-0.67049396,0.8811131,-0.5179513,-0.6227097,1.2227435,-0.73998785,0.26506928,1.0761003,-0.2839271,-0.37700137,-0.81798345,-1.777123,-0.39766046,1.7753711,-2.3183742,-1.5406376,1.686644,1.2671425,-1.6325961,1.2175905,-1.3664943,0.42444095,-1.4383144,0.28916094,-1.71694,0.716526,0.30705124,0.8800057,-0.04037061,0.8009346,1.5564455,0.3336361,-1.1172274,0.7568727,-0.9618482,-1.846073,0.29836887,0.21392433,0.23292273,0.05822663,1.091923,-1.1304401,-0.743216,-0.7455209,-1.0643848,1.7673695,1.6138268,-0.22204494,-1.2575895,-0.32415155,1.0401288,1.2382588,0.43868268,-0.33356777,2.027259,0.94321376,-0.5948909,2.4908638,1.0390005,-0.06084819,0.9852116,-0.85877514,-1.9500105,-1.7662206,-0.5778352,-1.9168168,0.45590818,1.2613134,-0.03726584,0.30685842,1.4401608,0.952534,-1.2101996,-1.2247455,-0.7210052,-0.7115695,0.10790879,-0.12682317,0.02484729,0.26956925,-1.7668514,1.2126722,-2.081296,1.0864408,-1.0990517,-2.3908741,1.1445824,1.7940706,0.22198007,1.3055432,1.3098587,0.1708655,-2.35823,-1.8606237,-1.3655306,-0.16406673,-1.370075,0.5393389,-1.1976593,-0.31870875,-0.9727885,0.6718768,-0.48113343,1.4752741,-0.22719839,-0.3438173,0.20812969,0.5270765,-0.1877078,0.1927498,-0.027697526,-0.9266152,-0.0016141111,0.51167357,1.7102412,-0.32628894,0.3920618,-0.63067454,-1.3321086,0.99465245,-2.26646,0.32320157,1.1242605,0.10207211,0.039544895,-0.008332176,-0.2503986,-1.1030403,-0.7051444,-0.9689379,0.22949499,2.7155511,1.6454756,-0.27953655,1.0085465,0.3713751,-0.33780453,1.7612457,0.49178368,-0.5717935,0.5701581,-0.44065076,1.4797025,-0.0269915,-1.0316187,0.4913255,-1.3298304,-0.072062746,1.2973485,-1.5882363,0.7081339,-0.06653187,-0.60292345,-0.5443282,2.45485,1.3926327,-0.17469077,1.571588,-0.79405224,0.9091057,-0.13615432,0.4544689,-0.30665457,0.28196728,1.7052369,0.22676359,-1.9761374,-1.124941,-1.9058299,-0.2195122,-1.0428058,-0.19442338,0.37820283,-0.41511235,-1.5851207,0.8354086,-0.3317717,-1.3107916,-0.29135007,-1.0312119,0.7368521,1.502757,-0.5352021,1.2771337,1.8468081,-0.4355356,-0.70624906,-1.924547,-0.32454774,0.08200681,2.8247366,-1.5188334,-1.7602434,0.08075904,0.81114626,1.2460047,-1.67842,1.488776,3.042437,0.22574484,-0.30150682,0.12079861,-0.734283,-2.3083444,-0.4652928,2.360848,-0.31849378,1.5312741,0.743219,0.5573629,0.011668712,2.5433934,-0.37729675,0.13280953,0.3927608,0.113763176,0.6748128,1.5174266,-1.5877991,1.3911521,0.9615188,1.2612975,-2.5066955,-1.7630653,-1.5936148,-0.8601732,-0.1665743,1.3051877,0.15064885,-0.68555707,-1.5609597,-0.04207142,0.532275,-0.15816772,1.3010776,1.8751712,1.0436908,1.2089078,0.5299137,0.2699635,0.506393,-0.17642131,0.5872348,-1.5888814,-1.1263589,0.5212209,0.8567276,-0.16903393,1.111567,0.3870842,1.0092278,-0.061385676,0.71307,0.053193025,1.8302765,-0.37254038,1.5172931,-0.19960456,-0.161723,-0.7764997,-1.0214183,-0.78114545,1.390874,0.35493034,-1.3037299,-0.10219352,-0.35090703,-1.0339247,2.3209193,1.345448,-1.3625642,-0.92217135,0.13132198,-1.8157989,0.7955483,-0.27622575,0.33110258,-0.8257522,-1.2679371,0.1799729,-0.7267103,-1.7703885,1.214898,-0.28952503,-0.5168328,0.1378114,-1.962548,-0.6148556,-0.36597827,0.46073735,-1.3950489,-1.2608746,-2.0011306,-0.022094565,1.1867243,-1.937624,-0.24460444,1.8219986,0.271828,1.4013197,-1.4305865,-0.38296568,0.040955096,-0.8867021,1.3317235,0.35593334,-0.5614164,-0.81338245,-1.1336602,-0.16133437,0.78272814,-0.79201967,0.7497551,-0.8248092,2.1011276,-1.4225985,-1.0346826,-0.5040593,1.602281,1.5140222,0.30144858,-0.21577436,0.19359237,-1.9376514,-1.6830348,1.7833389,1.2165201,0.20770702,1.8556165,-0.35103822,0.23065096,-1.6715106,-1.5560387,-0.48405063,-1.6741865,-1.4338263,-0.3818203,1.0441623,-1.8181385,0.25520846,-0.24892184,-1.3088964,1.0627137,-0.6919163,0.5137492,-0.7307156,1.4429089,-1.6356604
UGR,-0.4028689,-1.0961487,-0.2062455,-1.5079448,1.6752278,1.1886872,-0.28147057,-1.1207812,-1.1792188,1.3598747,1.8152106,-0.36550248,-0.5715397,0.6400615,0.95744073,-0.50601864,0.6903379,-0.34776863,0.4691043,1.1159775,1.5033745,-0.7698205,0.4566729,-0.43319824,-1.5864537,0.6037386,1.4645959,-0.68408984,-1.3404235,1.7077684,-0.41105896,1.2431737,0.55277365,0.7250734,-0.6803331,1.548541,0.934591,-0.58848214,-0.38177547,1.1564497,1.5993044,1.0985224,-1.7837427,-0.6245089,0.23004274,-0.27355987,-2.1038318,-0.03046219,1.4169015,-0.5506181,-1.145415,0.5594502,0.3906949,-1.7517323,1.5709716,-1.4120138,1.677689,0.9484703,1.6180681,-0.11912714,-1.1884772,-0.18708718,0.7034801,1.7020016,-1.9050063,-1.7146989,1.4583426,0.29036114,1.3350747,1.1520221,-1.0340227,0.8750564,-1.1775538,0.2740722,0.039122544,-0.8128693,-1.349993,0.9479125,1.5286454,-1.118742,0.5810291,-0.45222613,1.5844693,1.319396,2.0357547,0.016591527,-1.1876229,1.5209714,0.28350767,0.33362123,2.0053086,-1.2337259,-1.0917977,0.037305884,1.3783388,0.15068863,0.5108459,0.8516026,0.7085398,-1.411647,1.0080173,1.4552546,-1.5608003,0.87669,-1.4274577,1.1666313,-1.6350323,1.0549256,-0.23574555,1.0637878,0.8436376,0.24790417,-1.1351558,-1.3143812,-1.4889333,-1.1477579,-0.65767676,0.8633376,1.972684,1.3834715,-0.16492149,-0.12697686,0.8792306,0.66049653,-0.35073298,-1.1508332,-0.13284737,-2.1351318,0.42589578,0.73562574,-0.39358202,0.030820414,-2.035265,-2.0793667,1.0202798,1.277055,0.7966864,1.0441579,-0.542998,-0.22282502,0.77485967,0.87991047,1.026965,1.087781,0.16179602,0.70889187,1.310292,-0.123959966,-0.14135842,1.2943574,0.39224005,-0.11304801,0.818052,-1.4184961,-0.35330495,-1.711007,-1.4051976,-1.1646295,-0.36410555,-0.6874062,-1.5372275,-0.969924,0.6458521,0.17079307,-1.3293891,1.112656,-2.2800617,-1.7752206,-1.8744686,2.2836645,-0.5976018,0.39180255,-0.8369612,-1.3490028,-1.7234491,-0.37303135,0.094349004,1.5738822,-0.6817093,-1.4230753,1.3784537,0.24574497,1.993435,0.9599473,-1.3784682,0.53625816,-0.15613478,-2.0708594,-1.6638075,-0.8868396,1.3811446,-0.29298905,0.18375736,-0.22891185,0.50083315,1.918078,0.38467482,-1.4040477,-0.07857259,-0.484472,1.1848878,1.2808145,-1.1316856,-0.8791675,0.8848283,-1.0905972,-1.1395322,-0.11641459,-0.6072721,-2.668466,-0.15614071,-0.4832762,1.3812605,1.7929783,0.19410098,-0.71778214,-0.35735336,-0.9044511,0.47735164,1.834784,0.10533207,-0.15352367,-0.5735344,-0.91165894,-0.25654086,-1.022245,-2.0321867,1.3055557,-1.16945,-2.165614,-1.5390071,0.31262133,-0.50191057,0.83250904,-0.020969585,0.2256119,0.074647754,-0.64347416,2.0611455,-0.34113723,-0.20490181,-1.8803443,-1.4421376,0.44114357,1.3947493,-1.6853638,1.0387293,-2.1820357,1.6299367,-1.4071136,-0.80868906,0.053221617,-0.41794407,0.1956213,0.4642614,0.41489574,0.27508676,-0.83870095,1.1841183,-0.86520225,-1.5258342,0.97691864,0.9308614,-0.09840464,1.0407535,0.81348455,-0.8607934,1.2222975,0.99043745,-0.797549,0.030968754,1.2568421,0.5332018,0.90290236,1.110306,0.6903189,-1.055129,2.114745,1.5421495,-0.19801435,-0.39691854,-1.2554011,-1.0560944,1.0238497,-1.3960385,1.2048111,-2.0797153,0.4101596,-1.1352493,1.5355889,1.4968818,0.056824006,-0.61555153,-0.11991644,0.49233106,1.4548429,0.100017026,0.47811672,-0.54872125,0.31953964,1.1090857,-0.008441119,1.5586503,-0.35941824,1.8052201,-0.48693833,1.6666361,0.4698776,1.1536764,-0.783894,-1.4202275,0.8393163,0.7382144,0.92183185,0.062078603,-1.5534066,1.6727763,0.93929243,-0.37741113,-0.43322963,-0.014849694,-0.3425373,-0.74000555,-0.82631284,-0.56134796,0.6834199,-0.43744713,0.016683104,0.098353796,-1.1096063,1.1439979,-1.9130441,-0.6467473,0.8423894,1.3362546,1.303951,-0.5639882,-1.3146698,-1.4695433,1.5149275,-0.039815035,-1.1009592,-1.5919242,0.32134882,-1.7229929,1.9188899,-1.9225628,1.2529936,2.03177,1.0844442,1.2166345,-1.5695336,0.50435793,1.6387877,-1.5357474,-1.2144425,0.61111754,-1.6466331,0.4615513,-0.92681605,-0.61596465,0.4201116,-0.94969666,-0.42861164,-1.2443795,0.16173753,1.6085814,-1.2453029,1.22965,0.24110217,1.4615027,-0.677499,-1.6950353,0.31789836,-0.53451866,-0.87277836,-1.5941012,0.6555873,0.2113294,-1.3825035,0.2555134,-0.46500316,0.03004227,-1.3849447,0.69787997,0.26584053,-1.56641,-0.29983586,-0.07646613,1.3707538,0.18427737,2.338268,0.967491,2.1630332,-0.5221765,-0.52686656,0.1506859,-1.3623894,0.10613582,1.3319255,-1.4578326,-2.0212939,0.40808907,-0.6276829,-1.9767711,0.8935106,1.8582807,0.66035473,-0.7610906,-2.079733,-1.6529758,1.7695147,1.3180406,1.534367,-1.1253281,0.8947373,1.0175129,-0.9249005,1.2278146,-0.54421645,-0.5768451,-1.6675266,-1.0917419,-0.40789077,-1.3272027,1.2108599,0.038332973,-0.7303302,0.30921158,2.0592084,0.2992212,-0.33460554,-0.5399467,-0.7145368,0.3740583,-1.7859274,2.095001,-1.4878172,-1.5942502,-1.0607231,-0.812452,-1.398892,-0.08259768,-0.7249357,-0.8709258,0.041093625,-0.019691903,-0.31150988,-1.0907476,-1.4390163,-1.0117283,-0.8892245,-1.5457805,1.3935467,-1.8009844,-1.0491303,-0.7399399,0.18346746,0.14483309,0.84424347,-1.1515772,0.6263679,-0.63498694,1.617576,1.2027054,-1.0429024,1.9254696,0.9352336,0.7523879,-0.4984451,-0.7526241,0.86328936,0.3747737,-1.778572,0.94259894,0.3490181,1.0245636,0.69630605,0.72951347,1.6314098,-0.08275049,-0.29705766,-1.312924,1.0696278,0.053333208,0.66769236,1.2631053,-0.4493845,-0.06264591,-0.9139108,-0.9460079,1.6566024,-0.5699087,-1.1716633,1.4273819,-1.4738294,1.2352731,1.7557412,-0.83404696,0.08202736,0.57289135,-1.4003782,0.80424595,-0.43291318,0.4150314,-0.8674779,0.84027356,1.4142073,-1.7255641,1.8483936,1.1340591,1.3745224
WNT4,-1.2184393,0.28342134,-0.49288428,-0.08640571,0.14083321,1.3123177,0.1337712,3.0170562,-0.025066145,-1.1941535,-0.50236607,0.41536367,0.67886436,-0.1110921,-1.722835,-0.917831,2.0348337,0.63155746,-0.7280561,-1.3261855,0.7220576,-1.2108079,0.020127019,0.76830065,0.10368575,-1.608574,-0.26269707,1.0052215,0.86213285,-0.27432376,-2.9103796,-0.12289744,1.2778242,-0.90105456,-0.52606785,0.20817587,0.44976193,-0.073198415,-0.6997889,1.65274,0.005706248,-0.04680871,-0.9148248,0.098622374,-0.5368277,-0.11157475,-1.3962619,1.4727184,-1.5701209,1.3071318,-2.5280032,-0.6476553,-1.8358017,-0.015832953,1.5048242,-0.12695813,-0.42551035,0.1726244,0.071339644,0.4374122,0.87027735,1.2062249,0.32135928,1.694663,0.38621008,-0.9812286,-0.40064126,-0.6944506,0.83555937,-0.19420871,1.6747845,-0.2641908,-0.1630315,-1.0542783,-0.56412655,1.2881179,0.62009627,0.27977803,0.88338083,-0.97464013,-1.148772,-0.823603,-0.6221106,-0.9547607,-2.1045957,2.0585108,-0.7802825,-0.80516285,1.0869391,0.53671896,1.0025905,-0.33599186,1.8637612,-0.590093,2.1155307,0.120091096,1.6716552,-1.5685722,-2.4592035,-0.033787742,-0.7021173,1.3839756,-0.6997976,0.46108145,0.3112175,-1.2738067,-1.2819202,1.3650273,0.093249775,-0.9695668,2.172155,-0.012670894,0.612874,-0.48227623,-1.131144,1.3406142,-0.017787568,-0.3271631,0.41196185,0.53579867,0.58248514,-0.9309528,0.16308454,-0.84736234,0.54528123,-0.03489888,-1.1540693,1.0335721,1.8553587,0.46800116,-0.5287045,1.0500946,0.21291982,-0.28342786,-0.6831511,1.1113416,-0.05426663,-1.2201679,2.545676,0.5570232,0.038677674,-0.2505013,-0.53413635,-0.9974221,-1.206771,0.40339553,-0.19679031,0.086128354,2.1109772,1.2276874,1.0620346,0.10662175,0.7772268,2.048525,-0.29437432,0.33476081,-0.5818566,0.69556516,0.30170193,-0.73228866,-0.41695395,0.71812147,0.8536259,0.007262638,0.13236524,0.45653248,1.446308,-0.7194605,-0.5902601,0.62503165,-1.9998235,0.11808338,-1.556856,0.46082777,-0.644334,0.9168963,0.5135664,0.049173303,1.7906562,2.5742865,1.7273486,0.091760546,-0.103507705,0.8079046,-1.3064172,0.03297028,1.1027448,0.12475949,-0.15527958,-0.91471416,1.1721239,1.3249354,1.6505113,-0.022598572,1.8153125,1.700123,1.7376361,0.41868964,-0.34602612,1.7991338,0.6258448,2.1772785,0.39973113,0.43703157,0.077873774,-0.22515297,-0.65201175,0.9072062,-3.0627706,0.6479544,2.783438,-0.7369672,0.09398164,-0.4888863,0.60540324,1.4033499,1.7259878,-1.3232003,0.4501076,1.4766037,0.73621327,-0.15154535,-2.8895717,-0.83958983,-0.07938688,-0.38635567,-2.2415226,-1.9997075,-0.30854163,0.9381822,-1.6779356,1.4727626,1.2924201,-0.47270536,-1.0082636,1.4997895,-1.2872968,-0.7554809,0.4054435,-2.3020892,1.1108587,1.374489,0.95781004,-1.1954467,-0.29658854,-1.1802579,-0.27563626,1.5116678,2.2230601,0.21484785,-1.6982448,3.057505,0.16550344,1.359284,-1.1845363,-0.7920999,0.036749087,-2.5208464,-0.7291637,-1.0859458,-0.5287129,0.85946286,0.09809388,0.014645837,0.56307954,1.5316175,-1.4343649,-1.751632,-2.2162418,0.929591,-0.83302695,1.1323547,0.663551,0.022968188,-0.38405842,0.34537166,-0.5510209,0.15661806,0.5142318,-2.134116,0.81324416,-1.4092667,-0.5576552,-0.28636256,0.6269741,0.6874045,-0.51988304,1.930555,-1.4572753,0.57185215,-0.99772704,-0.18172242,1.187214,0.06541754,0.32229874,1.5031098,1.2996365,0.16872703,1.1559974,-0.5863673,0.15796185,0.56566304,-0.9363071,-1.3015785,-0.7901452,-0.117295586,0.9835487,0.10540349,1.1934794,-0.26178876,0.10495787,-0.55554336,-1.3842273,-1.8646854,-0.7035157,-0.30267054,-0.8103737,-0.711838,0.8048405,-0.4216485,0.005751671,-1.5016567,0.16888657,-0.7423668,2.145651,0.85829383,-0.64184976,0.35270867,1.7427365,-1.2630867,0.62853336,-0.58406436,0.6749048,0.35577354,-0.67225254,1.5894701,-2.3755493,-1.9251162,0.36036575,2.2887237,-1.4460938,2.4350357,-1.1244894,-2.7387538,-2.7534513,0.6196735,-1.2989739,-1.1969868,0.47735402,0.53394693,-0.17268169,-0.49916056,-0.007099589,-1.6399816,0.20029508,0.07378469,-2.4082966,-0.67239827,-1.1301457,0.53628945,-0.26253447,0.8091312,1.5393487,0.30310297,0.4845961,1.5543745,0.4597618,-1.7245804,-0.23338072,0.7093462,-0.57986134,-1.3512169,-1.0310543,-0.9335124,2.199935,1.2854685,-2.4655411,-1.3110244,0.26108402,1.7620993,2.5198627,-0.5445149,-0.64702725,1.3618352,-0.029441826,0.32724974,-1.2828004,0.935206,-0.6216303,2.1929815,0.68153185,-0.0124584865,-0.2811898,1.7380133,-0.91610116,-3.6706991,-0.06417111,0.4357457,-0.19404803,0.031949654,2.3812857,1.5992663,1.1646551,-1.5108699,-0.7113612,0.9318713,-1.2424183,-1.2901324,-0.59986836,0.09668515,-0.65745234,-0.41073647,1.0180731,-0.3359674,0.48714495,-0.92198294,-1.2351884,0.74002683,-0.23105624,1.0785598,1.5128543,0.63253886,0.43621477,-0.5334563,-0.8816587,-1.3814701,0.67713016,-1.094838,1.6830003,0.9697089,-0.7232979,-1.7480791,0.6314579,0.23466416,0.46464843,-0.357205,0.72600913,-1.6930116,-0.9915315,-0.64824736,-0.04424512,0.90422964,-0.52668726,-0.076392576,0.46795663,0.23966338,-1.0333805,0.66332996,0.00799053,-0.97969836,-0.32615766,-0.9640729,-1.5617276,1.6831067,0.964914,-0.89747214,-1.4327533,0.70296514,0.45948014,-0.60661256,0.59593695,-1.0611471,-0.070205465,0.01083752,-0.3383167,-0.96337837,0.8890732,-1.1831452,-2.9423988,0.37630543,-0.09242882,0.1821425,0.21540366,0.6400038,-1.9609195,0.5621411,-0.46612647,-0.7117716,0.124216855,0.73661,-0.87425137,0.38312048,-0.08512083,0.06629608,-0.693748,0.3501325,0.5640886,-0.40948048,-0.60807854,0.31277654,-0.52754253,0.54843134,-0.103376746,2.012595,1.8416678,0.86837417,0.5912278,-3.3273752,0.98901707,-1.8893505,-0.17545132,0.09366545,-0.97771937,0.5783294,0.31030014,-0.8579813,-0.06313658,-0.35710603,1.4235479,0.6909711,1.1948807,0.536153
