,0,1,2,3,4,5,6,7,8,9,10,11,12,13,14,15,16,17,18,19,20,21,22,23,24,25,26,27,28,29,30,31,32,33,34,35,36,37,38,39,40,41,42,43,44,45,46,47,48,49,50,51,52,53,54,55,56,57,58,59,60,61,62,63,64,65,66,67,68,69,70,71,72,73,74,75,76,77,78,79,80,81,82,83,84,85,86,87,88,89,90,91,92,93,94,95,96,97,98,99,100,101,102,103,104,105,106,107,108,109,110,111,112,113,114,115,116,117,118,119,120,121,122,123,124,125,126,127,128,129,130,131,132,133,134,135,136,137,138,139,140,141,142,143,144,145,146,147,148,149,150,151,152,153,154,155,156,157,158,159,160,161,162,163,164,165,166,167,168,169,170,171,172,173,174,175,176,177,178,179,180,181,182,183,184,185,186,187,188,189,190,191,192,193,194,195,196,197,198,199,200,201,202,203,204,205,206,207,208,209,210,211,212,213,214,215,216,217,218,219,220,221,222,223,224,225,226,227,228,229,230,231,232,233,234,235,236,237,238,239,240,241,242,243,244,245,246,247,248,249,250,251,252,253,254,255,256,257,258,259,260,261,262,263,264,265,266,267,268,269,270,271,272,273,274,275,276,277,278,279,280,281,282,283,284,285,286,287,288,289,290,291,292,293,294,295,296,297,298,299,300,301,302,303,304,305,306,307,308,309,310,311,312,313,314,315,316,317,318,319,320,321,322,323,324,325,326,327,328,329,330,331,332,333,334,335,336,337,338,339,340,341,342,343,344,345,346,347,348,349,350,351,352,353,354,355,356,357,358,359,360,361,362,363,364,365,366,367,368,369,370,371,372,373,374,375,376,377,378,379,380,381,382,383,384,385,386,387,388,389,390,391,392,393,394,395,396,397,398,399,400,401,402,403,404,405,406,407,408,409,410,411,412,413,414,415,416,417,418,419,420,421,422,423,424,425,426,427,428,429,430,431,432,433,434,435,436,437,438,439,440,441,442,443,444,445,446,447,448,449,450,451,452,453,454,455,456,457,458,459,460,461,462,463,464,465,466,467,468,469,470,471,472,473,474,475,476,477,478,479,480,481,482,483,484,485,486,487,488,489,490,491,492,493,494,495,496,497,498,499,500,501,502,503,504,505,506,507,508,509,510,511,512,513,514,515,516,517,518,519,520,521,522,523,524,525,526,527,528,529,530,531,532,533,534,535,536,537,538,539,540,541,542,543,544,545,546,547,548,549,550,551,552,553,554,555,556,557,558,559,560,561,562,563,564,565,566,567,568,569,570,571,572,573,574,575,576,577,578,579,580,581,582,583,584,585,586,587,588,589,590,591,592,593,594,595,596,597,598,599,600,601,602,603,604,605,606,607,608,609,610,611,612,613,614,615,616,617,618,619,620,621,622,623,624,625,626,627,628,629,630,631,632,633,634,635,636,637,638,639,640,641,642,643,644,645,646,647,648,649,650,651,652,653,654,655,656,657,658,659,660,661,662,663,664,665,666,667,668,669,670,671,672,673,674,675,676,677,678,679,680,681,682,683,684,685,686,687,688,689,690,691,692,693,694,695,696,697,698,699,700,701,702,703,704,705,706,707,708,709,710,711,712,713,714,715,716,717,718,719,720,721,722,723,724,725,726,727,728,729,730,731,732,733,734,735,736,737,738,739,740,741,742,743,744,745,746,747,748,749,750,751,752,753,754,755,756,757,758,759,760,761,762,763,764,765,766,767,768,769,770,771,772,773,774,775,776,777,778,779,780,781,782,783,784,785,786,787,788,789,790,791,792,793,794,795,796,797,798,799,800,801,802,803,804,805,806,807,808,809,810,811,812,813,814,815,816,817,818,819,820,821,822,823,824,825,826,827,828,829,830,831,832,833,834,835,836,837,838,839,840,841,842,843,844,845,846,847,848,849,850,851,852,853,854,855,856,857,858,859,860,861,862,863,864,865,866,867,868,869,870,871,872,873,874,875,876,877,878,879,880,881,882,883,884,885,886,887,888,889,890,891,892,893,894,895,896,897,898,899,900,901,902,903,904,905,906,907,908,909,910,911,912,913,914,915,916,917,918,919,920,921,922,923,924,925,926,927,928,929,930,931,932,933,934,935,936,937,938,939,940,941,942,943,944,945,946,947,948,949,950,951,952,953,954,955,956,957,958,959,960,961,962,963,964,965,966,967,968,969,970,971,972,973,974,975,976,977,978,979,980,981,982,983,984,985,986,987,988,989,990,991,992,993,994,995,996,997,998,999,1000,1001,1002,1003,1004,1005,1006,1007,1008,1009,1010,1011,1012,1013,1014,1015,1016,1017,1018,1019,1020,1021,1022,1023
Cebpa,0.706336,0.94644046,-1.0621294,0.08399728,-1.1307691,0.91249907,-1.0729791,1.2532762,1.2541156,1.3617487,0.22271685,1.0392879,0.24237761,-1.1913548,0.7793164,0.72818244,0.40292695,1.0665444,-1.1230078,1.0628777,0.53504264,1.3632714,0.49649313,-1.1107229,-0.6287638,-0.9647675,-0.8688945,0.66045886,-0.70855516,-0.2636101,0.5083149,-1.1340483,1.0064898,-1.0652698,0.16473395,0.7598151,-1.0758198,-0.6384228,0.26298505,-1.6695997,-1.1698875,0.3817724,0.6490168,-0.91213304,-1.2323182,0.9491173,0.7716005,-1.0710917,0.08346346,-0.054614242,0.92127454,1.1739581,-0.3667358,0.39935905,1.5608757,0.36301044,-0.8690075,1.2004565,-0.035429016,-1.4813888,-1.2498499,1.1910024,-1.293186,-0.3883247,-0.03992072,1.1423919,1.4349982,0.11743256,-1.5306813,-0.37796336,0.62639105,-0.37598157,1.6219724,-0.9080478,-0.76780206,1.0841888,0.6320388,0.020279717,-1.039858,-0.21807341,1.5166861,-1.3443412,-1.4043679,-0.71854717,-0.45620874,-0.4120512,1.5636508,0.38544607,-1.179223,-0.52815044,-1.4677174,1.2249364,-0.5736713,-0.32628876,-1.2696626,1.4388276,-0.77281487,-1.509017,-0.19738768,-1.2220292,0.026083086,-0.6720941,0.31545752,-0.21019325,-1.5460483,0.51533484,-0.99417496,1.5629085,-1.5123386,-0.640373,-0.027063949,-1.5629877,-1.5653737,-1.5504229,-1.0952023,-1.6301569,-0.53559047,1.6764371,-1.3621804,-0.80040395,1.0321236,-0.77497375,0.63808113,0.42940632,1.3263922,0.3854321,0.32675862,1.5676364,1.3974115,1.6976057,1.7453762,-0.021561433,0.24312067,1.2399198,-1.3422079,0.9305446,-0.1921273,0.3623529,-1.4754443,0.13624968,0.87683666,-1.625302,1.4014509,-0.27618766,1.6456256,1.606776,-0.6058959,1.176164,1.7461597,-0.13127248,0.106965296,1.3002381,-1.0604411,0.050867435,-1.3645167,0.26421884,-0.11669682,-0.72485685,1.066515,-0.7752598,0.18299893,0.41605937,0.6538868,-0.23799379,1.5727249,1.2391206,1.2291877,1.2914027,-0.4019431,-0.7086734,1.5599957,-0.778882,-0.24131644,1.1462603,-1.3332437,-0.90233994,0.5069715,-0.8693061,-0.9491026,0.8912535,-0.7626552,0.28463015,-1.220128,0.7787621,0.22308059,-0.3777471,-1.5066408,1.4938796,1.7968678,-1.4878584,1.3342826,-0.5803141,-0.2518518,1.1637847,0.30990693,0.5894447,-0.42566893,-0.019305998,1.7327646,-0.12413309,-1.4227514,1.1543269,-0.77580947,-1.201453,0.8736029,-1.5274074,0.8653465,-0.53268915,-0.51742184,1.7228394,0.7051334,0.46723002,-0.8086426,0.52450126,0.7295438,-0.8512659,1.202571,0.55733126,-0.1609462,-1.647763,-0.15237191,1.276707,0.1464698,1.341417,-1.3739552,0.7396519,1.553754,0.98642385,1.5865077,-0.9311692,0.0056063943,0.91924995,-1.5060797,-1.2627066,0.1672155,1.7997949,0.35417897,0.6675966,-0.92171043,-1.6907036,-1.5440811,0.90395766,-0.8821069,1.0386157,-0.9640353,0.12952398,1.3478715,0.31911704,-0.20616622,-0.86369675,0.81478286,-1.4718225,1.3710414,1.1019636,-0.5848202,0.07540528,0.59655166,-0.11704326,0.07160854,-0.512073,0.8040133,0.5648617,-1.396428,1.2437925,0.9981014,0.8674592,-0.29337564,-0.57359654,-0.07370307,1.7176977,-1.1436137,0.48604214,-0.25090823,0.9251949,-0.66846293,1.7825084,-0.117413856,1.2520846,1.1992652,0.272728,-1.5452273,-0.9040158,0.20359866,0.09076421,-0.3177796,0.93525785,0.40783364,-0.9209961,-0.33121666,1.3225467,1.7481703,1.6294743,-1.3403027,0.41025227,0.34393638,0.35918665,1.4470054,-1.4264246,-0.28331292,1.5817662,1.4156399,0.23284227,0.2818132,-0.6696748,-0.90513855,1.6797426,-0.61345726,-0.5870537,0.7786343,-0.6907807,-0.19095244,0.9470865,0.7918563,-0.22190595,-0.6988922,-1.2591478,-0.7569915,1.3720262,0.006112113,-0.86449313,0.5616119,-0.4352661,0.62754744,1.2005606,0.05850734,0.87215513,1.4157264,1.6200328,1.200147,-1.5956037,1.558954,-0.72212297,0.057492573,0.5584729,0.77907544,0.9098187,-1.3058892,-1.5169806,-1.1042314,-1.4106518,0.85610515,0.3823976,1.3516198,0.7216587,0.09273357,-0.34800592,0.71787655,-0.26818362,0.19311664,0.916229,-1.0263287,-0.8413186,-0.5947626,1.413281,-0.88495773,1.75012,-1.4339738,-1.3346106,-0.4826412,-1.195676,-0.84628993,-0.6582665,0.08942256,-0.6112479,-0.27468637,-0.10482898,0.5178031,0.06709476,-0.78931123,-0.4521636,-1.4492652,0.3288912,0.15681383,0.32012495,1.5584391,0.7732417,0.5641794,-1.0260427,0.15926434,-0.877419,0.5148914,0.28578773,-0.33230698,0.2375709,0.66588455,-0.36702642,0.8891979,-0.94901115,-0.3927787,0.34608105,-0.24162312,0.7020067,0.7964581,1.5511798,-1.369483,1.3787813,-1.2475019,-0.06307737,-1.1833047,-1.6499058,0.47973177,-0.20390996,-1.1420728,0.8603098,0.54471874,1.2323613,-1.2081214,-1.1190679,-1.4054985,-1.1216078,0.22997034,-0.97682685,-1.5947373,-1.503082,-1.5857618,1.7844086,1.2039564,-0.0543973,0.8130652,0.12571163,-1.4140309,1.6923803,0.12271834,-0.10409591,-0.9609162,-1.4891968,1.080251,0.04499786,0.6677271,-0.26161325,-0.28291753,-1.0302,0.8459523,0.42341262,-0.2671158,-0.03188087,-1.6069624,1.3219635,-0.72850513,-0.89577806,0.31091708,1.6410952,-0.3829935,1.1972779,-1.500109,-0.1706554,0.12073336,-0.8031805,-0.92191136,1.5982877,0.2327321,-1.0694418,-0.38197395,0.37663564,0.42991886,0.5545993,1.4652969,0.864006,0.10995567,1.5710986,0.1817031,1.2631674,0.20272006,0.5789108,-0.1987312,0.7595522,0.73915726,-0.73983437,0.25218156,-0.3330998,0.1064042,1.7522479,-0.89650327,-1.2179106,-1.3532178,-1.0040249,0.8769545,1.3731202,0.20727195,-0.45503575,1.7831076,-0.1070282,0.25851625,-0.25726563,-1.4459376,-0.3011573,-0.5850026,-1.2979438,0.2567178,0.2120189,0.63484883,-1.0903988,-1.0662299,-1.5789741,1.4076531,0.10988134,-0.06494742,-0.64556736,0.13710622,1.7081075,-1.1301942,0.0058012726,0.66020656,-0.028399969,1.2332265,0.5518188,-0.558736,1.0218523,-0.86104906,1.6322347,-0.43304166,1.7091922,-0.8136952,-0.7644322,-0.05210231,-1.4020435,0.43010396,-0.25104377,1.5565826,1.1138124,0.972895,-0.838922,-1.1900887,-1.6746649,-0.5838675,-1.0576246,1.4677404,1.1637155,-1.2313443,0.73668927,-1.5298142,-0.7989207,-1.3487221,0.7912931,0.151761,0.15904781,-0.373703,0.392533,-1.6628203,0.21066394,0.32371122,-1.5568434,-0.2334338,0.5587012,0.53492165,-1.0216852,-1.1277741,1.5933441,1.0259265,0.97985786,0.94607365,-0.94416094,-1.4275955,0.8430496,-1.4693633,-0.6359658,1.7387288,1.6323215,-0.3002165,-1.1026767,1.3974998,0.24684684,-1.477581,0.3074491,-0.6351542,0.8480145,0.97949225,-1.5000614,-1.4733999,0.875016,0.36882964,1.522175,0.61344564,1.3924891,-1.0373642,-1.4550825,1.7629848,-0.4750169,1.5470164,-0.79566634,-0.12825587,-1.0986537,1.162198,-0.21562538,-1.2478681,-1.6420004,-0.77840465,1.360475,-0.18660209,0.7452613,-1.484564,-1.1170449,-1.6384354,-0.29967576,0.81548446,1.1558459,-0.4069217,-1.4574337,-1.2903618,-0.7772825,0.75091,-0.648472,-0.3083315,1.3450944,-0.89269906,1.7623535,-0.21696661,1.2194839,-1.5942826,1.7240111,-0.8535668,-0.20965211,-0.5708408,1.7398659,-1.3938137,0.100655995,-0.9725594,0.8218302,-1.6124158,-1.1677507,-0.46888644,-1.436212,-1.4889404,1.6956836,-0.48364016,-0.9050657,-1.6061422,1.2305119,0.83286357,-1.595428,-0.6624718,0.6932489,-0.54817367,-0.012397711,-0.13102534,1.5331151,1.3070606,1.6050942,-0.69215524,-1.0645726,1.776379,-1.19345,0.89540255,-1.3226498,0.4333394,0.007352571,-0.091637425,-0.7707381,-0.82888675,-1.1188654,1.4938284,-1.500322,-1.4895656,1.2367417,1.2448173,0.09448495,1.4653895,-0.30750597,0.15188052,-0.9251707,-1.2988925,1.6827031,0.14115092,-0.90993196,0.45670798,0.86813825,1.4937272,0.30994415,-0.18255904,0.6909048,-1.6036987,-0.81843406,1.5829313,-1.665912,-1.4528342,-0.42411658,0.4510966,1.1528296,-1.2843286,-0.8675399,-1.075015,-0.57597435,1.468401,-1.4234542,0.22420049,-0.11788167,-0.4183821,0.7031547,-1.3421831,0.79864836,0.36113912,-0.33548743,-1.2079351,1.1250854,0.78968555,0.3369044,1.2548155,-1.4296192,0.932038,-1.4117619,-1.5716779,1.0619655,0.75386184,0.31623182,-0.2390604,-0.016319994,1.2519596,1.3262423,1.7938441,-0.43982378,0.79091704,-1.318552,1.4053258,-1.165441,-0.97971773,-1.3650426,0.53002983,-0.75332785,0.95546156,0.84387046,1.1374214,1.6159338,0.8306315,0.87999594,0.16902204,0.18028775,-1.1094522,0.97892344,-0.60658187,-1.1253756,0.6587966,1.5823631,-0.24137412,-0.43966743,0.35701278,1.3773477,-1.0861616,-0.45089424,0.5186373,-1.3346783,0.44646993,0.6262529,-1.1453118,1.0491087,-1.1521513,0.6176902,0.39728662,-0.58793694,1.4265772,-0.8726442,-0.138542,0.059774864,-0.13035181,0.5803393,-1.6350105,-0.6110592,-0.279289,-0.40010694,0.57197833,1.5920161,-0.040783092,1.0322233,0.7598628,-1.4190278,-1.1391876,-0.61270946,-0.8318034,-1.5270927,-0.37430593,0.68126994,-0.7687971,0.017520646,1.4260111,0.78563005,0.94777733,-0.27867255,-1.6387383,-1.2435094,-0.5576301,1.3040438,1.3282303,-0.9388945,-0.7244321,0.84729475,-0.5733396,-1.6218113,1.0386075,-1.0322104,-0.093363404,1.7774235,0.27562883,-0.9290966,-1.0760798,-1.5799415,1.270554,1.2096363,1.76393,-0.113919005,-0.6171805,-0.596469,-0.25838053,-0.5816872,1.6621416,0.6827088,-1.278097,0.5689193,0.9320882,0.95695275,-0.31560704,-0.038120627,-0.8947504,0.88740575,0.88295966,-1.5357943,-1.2857558,-0.5464974,0.75019443,-1.3571628,-1.1066563,0.16301507,0.3632332,-1.463599,-0.64624965,1.2010205,-1.0542498,0.88892585,0.0037746518,-0.20116484,1.0747961,-1.0174136,-0.30977827,1.1916121,-0.1860414,-1.6581692,1.2090701,0.5520869,-0.41071948,1.5951772,-0.42428628,1.0420878,0.9950194,-1.430465,-0.14997552,-0.81909174,0.8984874,-1.3311177,-0.27997047,1.7916095,-1.5838658,-0.9995817,-1.1562806,-0.4182707,-1.5509242,-0.111337535,-0.46083495,1.7001698,-0.997518,-0.28265274,-1.1900907,-1.4494922,-0.87747604,-1.0069767,-1.6346066,-0.5901476,0.49534282,-0.6607743,1.5953785,-1.4393758,-0.98088557,0.85013086,-1.4696755,0.8545095,0.17186293,0.4705922,0.05466709,-1.1666942,1.3748175,-0.39438647,-1.6112418,-0.048840642,-1.2742246,-0.30296844,1.6586269,1.078566,0.3171556,1.4525533,1.3317087,-0.60636514,-0.54765856,-1.1114478,0.059592895,0.26926062,-1.6271582,-0.014966067,-1.4564,0.0514327,1.6529198,-1.044068,-0.8455011,0.63640636,1.2097193,-0.57838327,-0.33680788,0.026718305,0.43973947,0.15565789,1.5759166,-0.04963472,-0.5656485,0.3538958,-0.9405788,0.55580413,0.8694556,-1.0271555,0.45387995,1.3495573,-1.0243552,-0.6170088,0.354108,-1.631202,0.66588974,0.6492184,-1.223585,-1.0957676,-0.36249125,-0.030611476,-0.5420436,1.7680166,0.12229091,-0.9090883,-1.150815,-1.5134648,0.6517384,1.0317461,-1.142738,1.6264198,1.5441325,-0.24225211,1.705634,-0.089520246,-0.3399783,-1.2433902,-1.5496466,-1.4983344,-0.39619592,1.7024441,0.5182276,0.56916976,1.6403383,-0.7531714,0.13140737,1.7993916,0.9479835,-1.457243,-0.3000476,1.0256231,-1.2252848,1.6979905,0.98567915,-0.64796543,-0.09532631,-1.5874887,1.577016,1.3867294,0.1683,1.2887219,0.73185736,0.11606176,0.54732084,-0.75295156,0.16608498,-0.2812807,-0.14852187,-0.026186386,0.8137212,0.7894849,-1.235449,1.5478933,0.19043334,0.12058699,-1.2732099,-0.18595499,-0.36257094,1.2015488,0.22752982,-0.14001793,1.2365886,-1.0797635,-0.3182689,-1.3207928,-1.0425276,1.3154781,0.9604763,-0.93694943,1.1259098,-1.1669105,-0.5479365,-1.6803522,0.34245732,0.9891086,-1.0182903,-0.008119821,1.6892979,-0.36198446,-0.16812932,0.25263917,0.8137356,-0.562121,-0.21012723,0.6277207,0.20871499,-1.552998,-0.14431705,0.44738808,0.5223807,1.3580157,0.96552926,0.5913889,0.4796171,0.3522169,-1.2111194,-0.7976325,-1.4704944,0.5352414
EgrNab,0.706336,0.94644046,-1.0621294,0.08399728,-1.1307691,0.91249907,-1.0729791,1.2532762,1.2541156,1.3617487,0.22271685,1.0392879,0.24237761,-1.1913548,0.7793164,0.72818244,0.40292695,1.0665444,-1.1230078,1.0628777,0.53504264,1.3632714,0.49649313,-1.1107229,-0.6287638,-0.9647675,-0.8688945,0.66045886,-0.70855516,-0.2636101,0.5083149,-1.1340483,1.0064898,-1.0652698,0.16473395,0.7598151,-1.0758198,-0.6384228,0.26298505,-1.6695997,-1.1698875,0.3817724,0.6490168,-0.91213304,-1.2323182,0.9491173,0.7716005,-1.0710917,0.08346346,-0.054614242,0.92127454,1.1739581,-0.3667358,0.39935905,1.5608757,0.36301044,-0.8690075,1.2004565,-0.035429016,-1.4813888,-1.2498499,1.1910024,-1.293186,-0.3883247,-0.03992072,1.1423919,1.4349982,0.11743256,-1.5306813,-0.37796336,0.62639105,-0.37598157,1.6219724,-0.9080478,-0.76780206,1.0841888,0.6320388,0.020279717,-1.039858,-0.21807341,1.5166861,-1.3443412,-1.4043679,-0.71854717,-0.45620874,-0.4120512,1.5636508,0.38544607,-1.179223,-0.52815044,-1.4677174,1.2249364,-0.5736713,-0.32628876,-1.2696626,1.4388276,-0.77281487,-1.509017,-0.19738768,-1.2220292,0.026083086,-0.6720941,0.31545752,-0.21019325,-1.5460483,0.51533484,-0.99417496,1.5629085,-1.5123386,-0.640373,-0.027063949,-1.5629877,-1.5653737,-1.5504229,-1.0952023,-1.6301569,-0.53559047,1.6764371,-1.3621804,-0.80040395,1.0321236,-0.77497375,0.63808113,0.42940632,1.3263922,0.3854321,0.32675862,1.5676364,1.3974115,1.6976057,1.7453762,-0.021561433,0.24312067,1.2399198,-1.3422079,0.9305446,-0.1921273,0.3623529,-1.4754443,0.13624968,0.87683666,-1.625302,1.4014509,-0.27618766,1.6456256,1.606776,-0.6058959,1.176164,1.7461597,-0.13127248,0.106965296,1.3002381,-1.0604411,0.050867435,-1.3645167,0.26421884,-0.11669682,-0.72485685,1.066515,-0.7752598,0.18299893,0.41605937,0.6538868,-0.23799379,1.5727249,1.2391206,1.2291877,1.2914027,-0.4019431,-0.7086734,1.5599957,-0.778882,-0.24131644,1.1462603,-1.3332437,-0.90233994,0.5069715,-0.8693061,-0.9491026,0.8912535,-0.7626552,0.28463015,-1.220128,0.7787621,0.22308059,-0.3777471,-1.5066408,1.4938796,1.7968678,-1.4878584,1.3342826,-0.5803141,-0.2518518,1.1637847,0.30990693,0.5894447,-0.42566893,-0.019305998,1.7327646,-0.12413309,-1.4227514,1.1543269,-0.77580947,-1.201453,0.8736029,-1.5274074,0.8653465,-0.53268915,-0.51742184,1.7228394,0.7051334,0.46723002,-0.8086426,0.52450126,0.7295438,-0.8512659,1.202571,0.55733126,-0.1609462,-1.647763,-0.15237191,1.276707,0.1464698,1.341417,-1.3739552,0.7396519,1.553754,0.98642385,1.5865077,-0.9311692,0.0056063943,0.91924995,-1.5060797,-1.2627066,0.1672155,1.7997949,0.35417897,0.6675966,-0.92171043,-1.6907036,-1.5440811,0.90395766,-0.8821069,1.0386157,-0.9640353,0.12952398,1.3478715,0.31911704,-0.20616622,-0.86369675,0.81478286,-1.4718225,1.3710414,1.1019636,-0.5848202,0.07540528,0.59655166,-0.11704326,0.07160854,-0.512073,0.8040133,0.5648617,-1.396428,1.2437925,0.9981014,0.8674592,-0.29337564,-0.57359654,-0.07370307,1.7176977,-1.1436137,0.48604214,-0.25090823,0.9251949,-0.66846293,1.7825084,-0.117413856,1.2520846,1.1992652,0.272728,-1.5452273,-0.9040158,0.20359866,0.09076421,-0.3177796,0.93525785,0.40783364,-0.9209961,-0.33121666,1.3225467,1.7481703,1.6294743,-1.3403027,0.41025227,0.34393638,0.35918665,1.4470054,-1.4264246,-0.28331292,1.5817662,1.4156399,0.23284227,0.2818132,-0.6696748,-0.90513855,1.6797426,-0.61345726,-0.5870537,0.7786343,-0.6907807,-0.19095244,0.9470865,0.7918563,-0.22190595,-0.6988922,-1.2591478,-0.7569915,1.3720262,0.006112113,-0.86449313,0.5616119,-0.4352661,0.62754744,1.2005606,0.05850734,0.87215513,1.4157264,1.6200328,1.200147,-1.5956037,1.558954,-0.72212297,0.057492573,0.5584729,0.77907544,0.9098187,-1.3058892,-1.5169806,-1.1042314,-1.4106518,0.85610515,0.3823976,1.3516198,0.7216587,0.09273357,-0.34800592,0.71787655,-0.26818362,0.19311664,0.916229,-1.0263287,-0.8413186,-0.5947626,1.413281,-0.88495773,1.75012,-1.4339738,-1.3346106,-0.4826412,-1.195676,-0.84628993,-0.6582665,0.08942256,-0.6112479,-0.27468637,-0.10482898,0.5178031,0.06709476,-0.78931123,-0.4521636,-1.4492652,0.3288912,0.15681383,0.32012495,1.5584391,0.7732417,0.5641794,-1.0260427,0.15926434,-0.877419,0.5148914,0.28578773,-0.33230698,0.2375709,0.66588455,-0.36702642,0.8891979,-0.94901115,-0.3927787,0.34608105,-0.24162312,0.7020067,0.7964581,1.5511798,-1.369483,1.3787813,-1.2475019,-0.06307737,-1.1833047,-1.6499058,0.47973177,-0.20390996,-1.1420728,0.8603098,0.54471874,1.2323613,-1.2081214,-1.1190679,-1.4054985,-1.1216078,0.22997034,-0.97682685,-1.5947373,-1.503082,-1.5857618,1.7844086,1.2039564,-0.0543973,0.8130652,0.12571163,-1.4140309,1.6923803,0.12271834,-0.10409591,-0.9609162,-1.4891968,1.080251,0.04499786,0.6677271,-0.26161325,-0.28291753,-1.0302,0.8459523,0.42341262,-0.2671158,-0.03188087,-1.6069624,1.3219635,-0.72850513,-0.89577806,0.31091708,1.6410952,-0.3829935,1.1972779,-1.500109,-0.1706554,0.12073336,-0.8031805,-0.92191136,1.5982877,0.2327321,-1.0694418,-0.38197395,0.37663564,0.42991886,0.5545993,1.4652969,0.864006,0.10995567,1.5710986,0.1817031,1.2631674,0.20272006,0.5789108,-0.1987312,0.7595522,0.73915726,-0.73983437,0.25218156,-0.3330998,0.1064042,1.7522479,-0.89650327,-1.2179106,-1.3532178,-1.0040249,0.8769545,1.3731202,0.20727195,-0.45503575,1.7831076,-0.1070282,0.25851625,-0.25726563,-1.4459376,-0.3011573,-0.5850026,-1.2979438,0.2567178,0.2120189,0.63484883,-1.0903988,-1.0662299,-1.5789741,1.4076531,0.10988134,-0.06494742,-0.64556736,0.13710622,1.7081075,-1.1301942,0.0058012726,0.66020656,-0.028399969,1.2332265,0.5518188,-0.558736,1.0218523,-0.86104906,1.6322347,-0.43304166,1.7091922,-0.8136952,-0.7644322,-0.05210231,-1.4020435,0.43010396,-0.25104377,1.5565826,1.1138124,0.972895,-0.838922,-1.1900887,-1.6746649,-0.5838675,-1.0576246,1.4677404,1.1637155,-1.2313443,0.73668927,-1.5298142,-0.7989207,-1.3487221,0.7912931,0.151761,0.15904781,-0.373703,0.392533,-1.6628203,0.21066394,0.32371122,-1.5568434,-0.2334338,0.5587012,0.53492165,-1.0216852,-1.1277741,1.5933441,1.0259265,0.97985786,0.94607365,-0.94416094,-1.4275955,0.8430496,-1.4693633,-0.6359658,1.7387288,1.6323215,-0.3002165,-1.1026767,1.3974998,0.24684684,-1.477581,0.3074491,-0.6351542,0.8480145,0.97949225,-1.5000614,-1.4733999,0.875016,0.36882964,1.522175,0.61344564,1.3924891,-1.0373642,-1.4550825,1.7629848,-0.4750169,1.5470164,-0.79566634,-0.12825587,-1.0986537,1.162198,-0.21562538,-1.2478681,-1.6420004,-0.77840465,1.360475,-0.18660209,0.7452613,-1.484564,-1.1170449,-1.6384354,-0.29967576,0.81548446,1.1558459,-0.4069217,-1.4574337,-1.2903618,-0.7772825,0.75091,-0.648472,-0.3083315,1.3450944,-0.89269906,1.7623535,-0.21696661,1.2194839,-1.5942826,1.7240111,-0.8535668,-0.20965211,-0.5708408,1.7398659,-1.3938137,0.100655995,-0.9725594,0.8218302,-1.6124158,-1.1677507,-0.46888644,-1.436212,-1.4889404,1.6956836,-0.48364016,-0.9050657,-1.6061422,1.2305119,0.83286357,-1.595428,-0.6624718,0.6932489,-0.54817367,-0.012397711,-0.13102534,1.5331151,1.3070606,1.6050942,-0.69215524,-1.0645726,1.776379,-1.19345,0.89540255,-1.3226498,0.4333394,0.007352571,-0.091637425,-0.7707381,-0.82888675,-1.1188654,1.4938284,-1.500322,-1.4895656,1.2367417,1.2448173,0.09448495,1.4653895,-0.30750597,0.15188052,-0.9251707,-1.2988925,1.6827031,0.14115092,-0.90993196,0.45670798,0.86813825,1.4937272,0.30994415,-0.18255904,0.6909048,-1.6036987,-0.81843406,1.5829313,-1.665912,-1.4528342,-0.42411658,0.4510966,1.1528296,-1.2843286,-0.8675399,-1.075015,-0.57597435,1.468401,-1.4234542,0.22420049,-0.11788167,-0.4183821,0.7031547,-1.3421831,0.79864836,0.36113912,-0.33548743,-1.2079351,1.1250854,0.78968555,0.3369044,1.2548155,-1.4296192,0.932038,-1.4117619,-1.5716779,1.0619655,0.75386184,0.31623182,-0.2390604,-0.016319994,1.2519596,1.3262423,1.7938441,-0.43982378,0.79091704,-1.318552,1.4053258,-1.165441,-0.97971773,-1.3650426,0.53002983,-0.75332785,0.95546156,0.84387046,1.1374214,1.6159338,0.8306315,0.87999594,0.16902204,0.18028775,-1.1094522,0.97892344,-0.60658187,-1.1253756,0.6587966,1.5823631,-0.24137412,-0.43966743,0.35701278,1.3773477,-1.0861616,-0.45089424,0.5186373,-1.3346783,0.44646993,0.6262529,-1.1453118,1.0491087,-1.1521513,0.6176902,0.39728662,-0.58793694,1.4265772,-0.8726442,-0.138542,0.059774864,-0.13035181,0.5803393,-1.6350105,-0.6110592,-0.279289,-0.40010694,0.57197833,1.5920161,-0.040783092,1.0322233,0.7598628,-1.4190278,-1.1391876,-0.61270946,-0.8318034,-1.5270927,-0.37430593,0.68126994,-0.7687971,0.017520646,1.4260111,0.78563005,0.94777733,-0.27867255,-1.6387383,-1.2435094,-0.5576301,1.3040438,1.3282303,-0.9388945,-0.7244321,0.84729475,-0.5733396,-1.6218113,1.0386075,-1.0322104,-0.093363404,1.7774235,0.27562883,-0.9290966,-1.0760798,-1.5799415,1.270554,1.2096363,1.76393,-0.113919005,-0.6171805,-0.596469,-0.25838053,-0.5816872,1.6621416,0.6827088,-1.278097,0.5689193,0.9320882,0.95695275,-0.31560704,-0.038120627,-0.8947504,0.88740575,0.88295966,-1.5357943,-1.2857558,-0.5464974,0.75019443,-1.3571628,-1.1066563,0.16301507,0.3632332,-1.463599,-0.64624965,1.2010205,-1.0542498,0.88892585,0.0037746518,-0.20116484,1.0747961,-1.0174136,-0.30977827,1.1916121,-0.1860414,-1.6581692,1.2090701,0.5520869,-0.41071948,1.5951772,-0.42428628,1.0420878,0.9950194,-1.430465,-0.14997552,-0.81909174,0.8984874,-1.3311177,-0.27997047,1.7916095,-1.5838658,-0.9995817,-1.1562806,-0.4182707,-1.5509242,-0.111337535,-0.46083495,1.7001698,-0.997518,-0.28265274,-1.1900907,-1.4494922,-0.87747604,-1.0069767,-1.6346066,-0.5901476,0.49534282,-0.6607743,1.5953785,-1.4393758,-0.98088557,0.85013086,-1.4696755,0.8545095,0.17186293,0.4705922,0.05466709,-1.1666942,1.3748175,-0.39438647,-1.6112418,-0.048840642,-1.2742246,-0.30296844,1.6586269,1.078566,0.3171556,1.4525533,1.3317087,-0.60636514,-0.54765856,-1.1114478,0.059592895,0.26926062,-1.6271582,-0.014966067,-1.4564,0.0514327,1.6529198,-1.044068,-0.8455011,0.63640636,1.2097193,-0.57838327,-0.33680788,0.026718305,0.43973947,0.15565789,1.5759166,-0.04963472,-0.5656485,0.3538958,-0.9405788,0.55580413,0.8694556,-1.0271555,0.45387995,1.3495573,-1.0243552,-0.6170088,0.354108,-1.631202,0.66588974,0.6492184,-1.223585,-1.0957676,-0.36249125,-0.030611476,-0.5420436,1.7680166,0.12229091,-0.9090883,-1.150815,-1.5134648,0.6517384,1.0317461,-1.142738,1.6264198,1.5441325,-0.24225211,1.705634,-0.089520246,-0.3399783,-1.2433902,-1.5496466,-1.4983344,-0.39619592,1.7024441,0.5182276,0.56916976,1.6403383,-0.7531714,0.13140737,1.7993916,0.9479835,-1.457243,-0.3000476,1.0256231,-1.2252848,1.6979905,0.98567915,-0.64796543,-0.09532631,-1.5874887,1.577016,1.3867294,0.1683,1.2887219,0.73185736,0.11606176,0.54732084,-0.75295156,0.16608498,-0.2812807,-0.14852187,-0.026186386,0.8137212,0.7894849,-1.235449,1.5478933,0.19043334,0.12058699,-1.2732099,-0.18595499,-0.36257094,1.2015488,0.22752982,-0.14001793,1.2365886,-1.0797635,-0.3182689,-1.3207928,-1.0425276,1.3154781,0.9604763,-0.93694943,1.1259098,-1.1669105,-0.5479365,-1.6803522,0.34245732,0.9891086,-1.0182903,-0.008119821,1.6892979,-0.36198446,-0.16812932,0.25263917,0.8137356,-0.562121,-0.21012723,0.6277207,0.20871499,-1.552998,-0.14431705,0.44738808,0.5223807,1.3580157,0.96552926,0.5913889,0.4796171,0.3522169,-1.2111194,-0.7976325,-1.4704944,0.5352414
Eklf,0.706336,0.94644046,-1.0621294,0.08399728,-1.1307691,0.91249907,-1.0729791,1.2532762,1.2541156,1.3617487,0.22271685,1.0392879,0.24237761,-1.1913548,0.7793164,0.72818244,0.40292695,1.0665444,-1.1230078,1.0628777,0.53504264,1.3632714,0.49649313,-1.1107229,-0.6287638,-0.9647675,-0.8688945,0.66045886,-0.70855516,-0.2636101,0.5083149,-1.1340483,1.0064898,-1.0652698,0.16473395,0.7598151,-1.0758198,-0.6384228,0.26298505,-1.6695997,-1.1698875,0.3817724,0.6490168,-0.91213304,-1.2323182,0.9491173,0.7716005,-1.0710917,0.08346346,-0.054614242,0.92127454,1.1739581,-0.3667358,0.39935905,1.5608757,0.36301044,-0.8690075,1.2004565,-0.035429016,-1.4813888,-1.2498499,1.1910024,-1.293186,-0.3883247,-0.03992072,1.1423919,1.4349982,0.11743256,-1.5306813,-0.37796336,0.62639105,-0.37598157,1.6219724,-0.9080478,-0.76780206,1.0841888,0.6320388,0.020279717,-1.039858,-0.21807341,1.5166861,-1.3443412,-1.4043679,-0.71854717,-0.45620874,-0.4120512,1.5636508,0.38544607,-1.179223,-0.52815044,-1.4677174,1.2249364,-0.5736713,-0.32628876,-1.2696626,1.4388276,-0.77281487,-1.509017,-0.19738768,-1.2220292,0.026083086,-0.6720941,0.31545752,-0.21019325,-1.5460483,0.51533484,-0.99417496,1.5629085,-1.5123386,-0.640373,-0.027063949,-1.5629877,-1.5653737,-1.5504229,-1.0952023,-1.6301569,-0.53559047,1.6764371,-1.3621804,-0.80040395,1.0321236,-0.77497375,0.63808113,0.42940632,1.3263922,0.3854321,0.32675862,1.5676364,1.3974115,1.6976057,1.7453762,-0.021561433,0.24312067,1.2399198,-1.3422079,0.9305446,-0.1921273,0.3623529,-1.4754443,0.13624968,0.87683666,-1.625302,1.4014509,-0.27618766,1.6456256,1.606776,-0.6058959,1.176164,1.7461597,-0.13127248,0.106965296,1.3002381,-1.0604411,0.050867435,-1.3645167,0.26421884,-0.11669682,-0.72485685,1.066515,-0.7752598,0.18299893,0.41605937,0.6538868,-0.23799379,1.5727249,1.2391206,1.2291877,1.2914027,-0.4019431,-0.7086734,1.5599957,-0.778882,-0.24131644,1.1462603,-1.3332437,-0.90233994,0.5069715,-0.8693061,-0.9491026,0.8912535,-0.7626552,0.28463015,-1.220128,0.7787621,0.22308059,-0.3777471,-1.5066408,1.4938796,1.7968678,-1.4878584,1.3342826,-0.5803141,-0.2518518,1.1637847,0.30990693,0.5894447,-0.42566893,-0.019305998,1.7327646,-0.12413309,-1.4227514,1.1543269,-0.77580947,-1.201453,0.8736029,-1.5274074,0.8653465,-0.53268915,-0.51742184,1.7228394,0.7051334,0.46723002,-0.8086426,0.52450126,0.7295438,-0.8512659,1.202571,0.55733126,-0.1609462,-1.647763,-0.15237191,1.276707,0.1464698,1.341417,-1.3739552,0.7396519,1.553754,0.98642385,1.5865077,-0.9311692,0.0056063943,0.91924995,-1.5060797,-1.2627066,0.1672155,1.7997949,0.35417897,0.6675966,-0.92171043,-1.6907036,-1.5440811,0.90395766,-0.8821069,1.0386157,-0.9640353,0.12952398,1.3478715,0.31911704,-0.20616622,-0.86369675,0.81478286,-1.4718225,1.3710414,1.1019636,-0.5848202,0.07540528,0.59655166,-0.11704326,0.07160854,-0.512073,0.8040133,0.5648617,-1.396428,1.2437925,0.9981014,0.8674592,-0.29337564,-0.57359654,-0.07370307,1.7176977,-1.1436137,0.48604214,-0.25090823,0.9251949,-0.66846293,1.7825084,-0.117413856,1.2520846,1.1992652,0.272728,-1.5452273,-0.9040158,0.20359866,0.09076421,-0.3177796,0.93525785,0.40783364,-0.9209961,-0.33121666,1.3225467,1.7481703,1.6294743,-1.3403027,0.41025227,0.34393638,0.35918665,1.4470054,-1.4264246,-0.28331292,1.5817662,1.4156399,0.23284227,0.2818132,-0.6696748,-0.90513855,1.6797426,-0.61345726,-0.5870537,0.7786343,-0.6907807,-0.19095244,0.9470865,0.7918563,-0.22190595,-0.6988922,-1.2591478,-0.7569915,1.3720262,0.006112113,-0.86449313,0.5616119,-0.4352661,0.62754744,1.2005606,0.05850734,0.87215513,1.4157264,1.6200328,1.200147,-1.5956037,1.558954,-0.72212297,0.057492573,0.5584729,0.77907544,0.9098187,-1.3058892,-1.5169806,-1.1042314,-1.4106518,0.85610515,0.3823976,1.3516198,0.7216587,0.09273357,-0.34800592,0.71787655,-0.26818362,0.19311664,0.916229,-1.0263287,-0.8413186,-0.5947626,1.413281,-0.88495773,1.75012,-1.4339738,-1.3346106,-0.4826412,-1.195676,-0.84628993,-0.6582665,0.08942256,-0.6112479,-0.27468637,-0.10482898,0.5178031,0.06709476,-0.78931123,-0.4521636,-1.4492652,0.3288912,0.15681383,0.32012495,1.5584391,0.7732417,0.5641794,-1.0260427,0.15926434,-0.877419,0.5148914,0.28578773,-0.33230698,0.2375709,0.66588455,-0.36702642,0.8891979,-0.94901115,-0.3927787,0.34608105,-0.24162312,0.7020067,0.7964581,1.5511798,-1.369483,1.3787813,-1.2475019,-0.06307737,-1.1833047,-1.6499058,0.47973177,-0.20390996,-1.1420728,0.8603098,0.54471874,1.2323613,-1.2081214,-1.1190679,-1.4054985,-1.1216078,0.22997034,-0.97682685,-1.5947373,-1.503082,-1.5857618,1.7844086,1.2039564,-0.0543973,0.8130652,0.12571163,-1.4140309,1.6923803,0.12271834,-0.10409591,-0.9609162,-1.4891968,1.080251,0.04499786,0.6677271,-0.26161325,-0.28291753,-1.0302,0.8459523,0.42341262,-0.2671158,-0.03188087,-1.6069624,1.3219635,-0.72850513,-0.89577806,0.31091708,1.6410952,-0.3829935,1.1972779,-1.500109,-0.1706554,0.12073336,-0.8031805,-0.92191136,1.5982877,0.2327321,-1.0694418,-0.38197395,0.37663564,0.42991886,0.5545993,1.4652969,0.864006,0.10995567,1.5710986,0.1817031,1.2631674,0.20272006,0.5789108,-0.1987312,0.7595522,0.73915726,-0.73983437,0.25218156,-0.3330998,0.1064042,1.7522479,-0.89650327,-1.2179106,-1.3532178,-1.0040249,0.8769545,1.3731202,0.20727195,-0.45503575,1.7831076,-0.1070282,0.25851625,-0.25726563,-1.4459376,-0.3011573,-0.5850026,-1.2979438,0.2567178,0.2120189,0.63484883,-1.0903988,-1.0662299,-1.5789741,1.4076531,0.10988134,-0.06494742,-0.64556736,0.13710622,1.7081075,-1.1301942,0.0058012726,0.66020656,-0.028399969,1.2332265,0.5518188,-0.558736,1.0218523,-0.86104906,1.6322347,-0.43304166,1.7091922,-0.8136952,-0.7644322,-0.05210231,-1.4020435,0.43010396,-0.25104377,1.5565826,1.1138124,0.972895,-0.838922,-1.1900887,-1.6746649,-0.5838675,-1.0576246,1.4677404,1.1637155,-1.2313443,0.73668927,-1.5298142,-0.7989207,-1.3487221,0.7912931,0.151761,0.15904781,-0.373703,0.392533,-1.6628203,0.21066394,0.32371122,-1.5568434,-0.2334338,0.5587012,0.53492165,-1.0216852,-1.1277741,1.5933441,1.0259265,0.97985786,0.94607365,-0.94416094,-1.4275955,0.8430496,-1.4693633,-0.6359658,1.7387288,1.6323215,-0.3002165,-1.1026767,1.3974998,0.24684684,-1.477581,0.3074491,-0.6351542,0.8480145,0.97949225,-1.5000614,-1.4733999,0.875016,0.36882964,1.522175,0.61344564,1.3924891,-1.0373642,-1.4550825,1.7629848,-0.4750169,1.5470164,-0.79566634,-0.12825587,-1.0986537,1.162198,-0.21562538,-1.2478681,-1.6420004,-0.77840465,1.360475,-0.18660209,0.7452613,-1.484564,-1.1170449,-1.6384354,-0.29967576,0.81548446,1.1558459,-0.4069217,-1.4574337,-1.2903618,-0.7772825,0.75091,-0.648472,-0.3083315,1.3450944,-0.89269906,1.7623535,-0.21696661,1.2194839,-1.5942826,1.7240111,-0.8535668,-0.20965211,-0.5708408,1.7398659,-1.3938137,0.100655995,-0.9725594,0.8218302,-1.6124158,-1.1677507,-0.46888644,-1.436212,-1.4889404,1.6956836,-0.48364016,-0.9050657,-1.6061422,1.2305119,0.83286357,-1.595428,-0.6624718,0.6932489,-0.54817367,-0.012397711,-0.13102534,1.5331151,1.3070606,1.6050942,-0.69215524,-1.0645726,1.776379,-1.19345,0.89540255,-1.3226498,0.4333394,0.007352571,-0.091637425,-0.7707381,-0.82888675,-1.1188654,1.4938284,-1.500322,-1.4895656,1.2367417,1.2448173,0.09448495,1.4653895,-0.30750597,0.15188052,-0.9251707,-1.2988925,1.6827031,0.14115092,-0.90993196,0.45670798,0.86813825,1.4937272,0.30994415,-0.18255904,0.6909048,-1.6036987,-0.81843406,1.5829313,-1.665912,-1.4528342,-0.42411658,0.4510966,1.1528296,-1.2843286,-0.8675399,-1.075015,-0.57597435,1.468401,-1.4234542,0.22420049,-0.11788167,-0.4183821,0.7031547,-1.3421831,0.79864836,0.36113912,-0.33548743,-1.2079351,1.1250854,0.78968555,0.3369044,1.2548155,-1.4296192,0.932038,-1.4117619,-1.5716779,1.0619655,0.75386184,0.31623182,-0.2390604,-0.016319994,1.2519596,1.3262423,1.7938441,-0.43982378,0.79091704,-1.318552,1.4053258,-1.165441,-0.97971773,-1.3650426,0.53002983,-0.75332785,0.95546156,0.84387046,1.1374214,1.6159338,0.8306315,0.87999594,0.16902204,0.18028775,-1.1094522,0.97892344,-0.60658187,-1.1253756,0.6587966,1.5823631,-0.24137412,-0.43966743,0.35701278,1.3773477,-1.0861616,-0.45089424,0.5186373,-1.3346783,0.44646993,0.6262529,-1.1453118,1.0491087,-1.1521513,0.6176902,0.39728662,-0.58793694,1.4265772,-0.8726442,-0.138542,0.059774864,-0.13035181,0.5803393,-1.6350105,-0.6110592,-0.279289,-0.40010694,0.57197833,1.5920161,-0.040783092,1.0322233,0.7598628,-1.4190278,-1.1391876,-0.61270946,-0.8318034,-1.5270927,-0.37430593,0.68126994,-0.7687971,0.017520646,1.4260111,0.78563005,0.94777733,-0.27867255,-1.6387383,-1.2435094,-0.5576301,1.3040438,1.3282303,-0.9388945,-0.7244321,0.84729475,-0.5733396,-1.6218113,1.0386075,-1.0322104,-0.093363404,1.7774235,0.27562883,-0.9290966,-1.0760798,-1.5799415,1.270554,1.2096363,1.76393,-0.113919005,-0.6171805,-0.596469,-0.25838053,-0.5816872,1.6621416,0.6827088,-1.278097,0.5689193,0.9320882,0.95695275,-0.31560704,-0.038120627,-0.8947504,0.88740575,0.88295966,-1.5357943,-1.2857558,-0.5464974,0.75019443,-1.3571628,-1.1066563,0.16301507,0.3632332,-1.463599,-0.64624965,1.2010205,-1.0542498,0.88892585,0.0037746518,-0.20116484,1.0747961,-1.0174136,-0.30977827,1.1916121,-0.1860414,-1.6581692,1.2090701,0.5520869,-0.41071948,1.5951772,-0.42428628,1.0420878,0.9950194,-1.430465,-0.14997552,-0.81909174,0.8984874,-1.3311177,-0.27997047,1.7916095,-1.5838658,-0.9995817,-1.1562806,-0.4182707,-1.5509242,-0.111337535,-0.46083495,1.7001698,-0.997518,-0.28265274,-1.1900907,-1.4494922,-0.87747604,-1.0069767,-1.6346066,-0.5901476,0.49534282,-0.6607743,1.5953785,-1.4393758,-0.98088557,0.85013086,-1.4696755,0.8545095,0.17186293,0.4705922,0.05466709,-1.1666942,1.3748175,-0.39438647,-1.6112418,-0.048840642,-1.2742246,-0.30296844,1.6586269,1.078566,0.3171556,1.4525533,1.3317087,-0.60636514,-0.54765856,-1.1114478,0.059592895,0.26926062,-1.6271582,-0.014966067,-1.4564,0.0514327,1.6529198,-1.044068,-0.8455011,0.63640636,1.2097193,-0.57838327,-0.33680788,0.026718305,0.43973947,0.15565789,1.5759166,-0.04963472,-0.5656485,0.3538958,-0.9405788,0.55580413,0.8694556,-1.0271555,0.45387995,1.3495573,-1.0243552,-0.6170088,0.354108,-1.631202,0.66588974,0.6492184,-1.223585,-1.0957676,-0.36249125,-0.030611476,-0.5420436,1.7680166,0.12229091,-0.9090883,-1.150815,-1.5134648,0.6517384,1.0317461,-1.142738,1.6264198,1.5441325,-0.24225211,1.705634,-0.089520246,-0.3399783,-1.2433902,-1.5496466,-1.4983344,-0.39619592,1.7024441,0.5182276,0.56916976,1.6403383,-0.7531714,0.13140737,1.7993916,0.9479835,-1.457243,-0.3000476,1.0256231,-1.2252848,1.6979905,0.98567915,-0.64796543,-0.09532631,-1.5874887,1.577016,1.3867294,0.1683,1.2887219,0.73185736,0.11606176,0.54732084,-0.75295156,0.16608498,-0.2812807,-0.14852187,-0.026186386,0.8137212,0.7894849,-1.235449,1.5478933,0.19043334,0.12058699,-1.2732099,-0.18595499,-0.36257094,1.2015488,0.22752982,-0.14001793,1.2365886,-1.0797635,-0.3182689,-1.3207928,-1.0425276,1.3154781,0.9604763,-0.93694943,1.1259098,-1.1669105,-0.5479365,-1.6803522,0.34245732,0.9891086,-1.0182903,-0.008119821,1.6892979,-0.36198446,-0.16812932,0.25263917,0.8137356,-0.562121,-0.21012723,0.6277207,0.20871499,-1.552998,-0.14431705,0.44738808,0.5223807,1.3580157,0.96552926,0.5913889,0.4796171,0.3522169,-1.2111194,-0.7976325,-1.4704944,0.5352414
Fli1,0.706336,0.94644046,-1.0621294,0.08399728,-1.1307691,0.91249907,-1.0729791,1.2532762,1.2541156,1.3617487,0.22271685,1.0392879,0.24237761,-1.1913548,0.7793164,0.72818244,0.40292695,1.0665444,-1.1230078,1.0628777,0.53504264,1.3632714,0.49649313,-1.1107229,-0.6287638,-0.9647675,-0.8688945,0.66045886,-0.70855516,-0.2636101,0.5083149,-1.1340483,1.0064898,-1.0652698,0.16473395,0.7598151,-1.0758198,-0.6384228,0.26298505,-1.6695997,-1.1698875,0.3817724,0.6490168,-0.91213304,-1.2323182,0.9491173,0.7716005,-1.0710917,0.08346346,-0.054614242,0.92127454,1.1739581,-0.3667358,0.39935905,1.5608757,0.36301044,-0.8690075,1.2004565,-0.035429016,-1.4813888,-1.2498499,1.1910024,-1.293186,-0.3883247,-0.03992072,1.1423919,1.4349982,0.11743256,-1.5306813,-0.37796336,0.62639105,-0.37598157,1.6219724,-0.9080478,-0.76780206,1.0841888,0.6320388,0.020279717,-1.039858,-0.21807341,1.5166861,-1.3443412,-1.4043679,-0.71854717,-0.45620874,-0.4120512,1.5636508,0.38544607,-1.179223,-0.52815044,-1.4677174,1.2249364,-0.5736713,-0.32628876,-1.2696626,1.4388276,-0.77281487,-1.509017,-0.19738768,-1.2220292,0.026083086,-0.6720941,0.31545752,-0.21019325,-1.5460483,0.51533484,-0.99417496,1.5629085,-1.5123386,-0.640373,-0.027063949,-1.5629877,-1.5653737,-1.5504229,-1.0952023,-1.6301569,-0.53559047,1.6764371,-1.3621804,-0.80040395,1.0321236,-0.77497375,0.63808113,0.42940632,1.3263922,0.3854321,0.32675862,1.5676364,1.3974115,1.6976057,1.7453762,-0.021561433,0.24312067,1.2399198,-1.3422079,0.9305446,-0.1921273,0.3623529,-1.4754443,0.13624968,0.87683666,-1.625302,1.4014509,-0.27618766,1.6456256,1.606776,-0.6058959,1.176164,1.7461597,-0.13127248,0.106965296,1.3002381,-1.0604411,0.050867435,-1.3645167,0.26421884,-0.11669682,-0.72485685,1.066515,-0.7752598,0.18299893,0.41605937,0.6538868,-0.23799379,1.5727249,1.2391206,1.2291877,1.2914027,-0.4019431,-0.7086734,1.5599957,-0.778882,-0.24131644,1.1462603,-1.3332437,-0.90233994,0.5069715,-0.8693061,-0.9491026,0.8912535,-0.7626552,0.28463015,-1.220128,0.7787621,0.22308059,-0.3777471,-1.5066408,1.4938796,1.7968678,-1.4878584,1.3342826,-0.5803141,-0.2518518,1.1637847,0.30990693,0.5894447,-0.42566893,-0.019305998,1.7327646,-0.12413309,-1.4227514,1.1543269,-0.77580947,-1.201453,0.8736029,-1.5274074,0.8653465,-0.53268915,-0.51742184,1.7228394,0.7051334,0.46723002,-0.8086426,0.52450126,0.7295438,-0.8512659,1.202571,0.55733126,-0.1609462,-1.647763,-0.15237191,1.276707,0.1464698,1.341417,-1.3739552,0.7396519,1.553754,0.98642385,1.5865077,-0.9311692,0.0056063943,0.91924995,-1.5060797,-1.2627066,0.1672155,1.7997949,0.35417897,0.6675966,-0.92171043,-1.6907036,-1.5440811,0.90395766,-0.8821069,1.0386157,-0.9640353,0.12952398,1.3478715,0.31911704,-0.20616622,-0.86369675,0.81478286,-1.4718225,1.3710414,1.1019636,-0.5848202,0.07540528,0.59655166,-0.11704326,0.07160854,-0.512073,0.8040133,0.5648617,-1.396428,1.2437925,0.9981014,0.8674592,-0.29337564,-0.57359654,-0.07370307,1.7176977,-1.1436137,0.48604214,-0.25090823,0.9251949,-0.66846293,1.7825084,-0.117413856,1.2520846,1.1992652,0.272728,-1.5452273,-0.9040158,0.20359866,0.09076421,-0.3177796,0.93525785,0.40783364,-0.9209961,-0.33121666,1.3225467,1.7481703,1.6294743,-1.3403027,0.41025227,0.34393638,0.35918665,1.4470054,-1.4264246,-0.28331292,1.5817662,1.4156399,0.23284227,0.2818132,-0.6696748,-0.90513855,1.6797426,-0.61345726,-0.5870537,0.7786343,-0.6907807,-0.19095244,0.9470865,0.7918563,-0.22190595,-0.6988922,-1.2591478,-0.7569915,1.3720262,0.006112113,-0.86449313,0.5616119,-0.4352661,0.62754744,1.2005606,0.05850734,0.87215513,1.4157264,1.6200328,1.200147,-1.5956037,1.558954,-0.72212297,0.057492573,0.5584729,0.77907544,0.9098187,-1.3058892,-1.5169806,-1.1042314,-1.4106518,0.85610515,0.3823976,1.3516198,0.7216587,0.09273357,-0.34800592,0.71787655,-0.26818362,0.19311664,0.916229,-1.0263287,-0.8413186,-0.5947626,1.413281,-0.88495773,1.75012,-1.4339738,-1.3346106,-0.4826412,-1.195676,-0.84628993,-0.6582665,0.08942256,-0.6112479,-0.27468637,-0.10482898,0.5178031,0.06709476,-0.78931123,-0.4521636,-1.4492652,0.3288912,0.15681383,0.32012495,1.5584391,0.7732417,0.5641794,-1.0260427,0.15926434,-0.877419,0.5148914,0.28578773,-0.33230698,0.2375709,0.66588455,-0.36702642,0.8891979,-0.94901115,-0.3927787,0.34608105,-0.24162312,0.7020067,0.7964581,1.5511798,-1.369483,1.3787813,-1.2475019,-0.06307737,-1.1833047,-1.6499058,0.47973177,-0.20390996,-1.1420728,0.8603098,0.54471874,1.2323613,-1.2081214,-1.1190679,-1.4054985,-1.1216078,0.22997034,-0.97682685,-1.5947373,-1.503082,-1.5857618,1.7844086,1.2039564,-0.0543973,0.8130652,0.12571163,-1.4140309,1.6923803,0.12271834,-0.10409591,-0.9609162,-1.4891968,1.080251,0.04499786,0.6677271,-0.26161325,-0.28291753,-1.0302,0.8459523,0.42341262,-0.2671158,-0.03188087,-1.6069624,1.3219635,-0.72850513,-0.89577806,0.31091708,1.6410952,-0.3829935,1.1972779,-1.500109,-0.1706554,0.12073336,-0.8031805,-0.92191136,1.5982877,0.2327321,-1.0694418,-0.38197395,0.37663564,0.42991886,0.5545993,1.4652969,0.864006,0.10995567,1.5710986,0.1817031,1.2631674,0.20272006,0.5789108,-0.1987312,0.7595522,0.73915726,-0.73983437,0.25218156,-0.3330998,0.1064042,1.7522479,-0.89650327,-1.2179106,-1.3532178,-1.0040249,0.8769545,1.3731202,0.20727195,-0.45503575,1.7831076,-0.1070282,0.25851625,-0.25726563,-1.4459376,-0.3011573,-0.5850026,-1.2979438,0.2567178,0.2120189,0.63484883,-1.0903988,-1.0662299,-1.5789741,1.4076531,0.10988134,-0.06494742,-0.64556736,0.13710622,1.7081075,-1.1301942,0.0058012726,0.66020656,-0.028399969,1.2332265,0.5518188,-0.558736,1.0218523,-0.86104906,1.6322347,-0.43304166,1.7091922,-0.8136952,-0.7644322,-0.05210231,-1.4020435,0.43010396,-0.25104377,1.5565826,1.1138124,0.972895,-0.838922,-1.1900887,-1.6746649,-0.5838675,-1.0576246,1.4677404,1.1637155,-1.2313443,0.73668927,-1.5298142,-0.7989207,-1.3487221,0.7912931,0.151761,0.15904781,-0.373703,0.392533,-1.6628203,0.21066394,0.32371122,-1.5568434,-0.2334338,0.5587012,0.53492165,-1.0216852,-1.1277741,1.5933441,1.0259265,0.97985786,0.94607365,-0.94416094,-1.4275955,0.8430496,-1.4693633,-0.6359658,1.7387288,1.6323215,-0.3002165,-1.1026767,1.3974998,0.24684684,-1.477581,0.3074491,-0.6351542,0.8480145,0.97949225,-1.5000614,-1.4733999,0.875016,0.36882964,1.522175,0.61344564,1.3924891,-1.0373642,-1.4550825,1.7629848,-0.4750169,1.5470164,-0.79566634,-0.12825587,-1.0986537,1.162198,-0.21562538,-1.2478681,-1.6420004,-0.77840465,1.360475,-0.18660209,0.7452613,-1.484564,-1.1170449,-1.6384354,-0.29967576,0.81548446,1.1558459,-0.4069217,-1.4574337,-1.2903618,-0.7772825,0.75091,-0.648472,-0.3083315,1.3450944,-0.89269906,1.7623535,-0.21696661,1.2194839,-1.5942826,1.7240111,-0.8535668,-0.20965211,-0.5708408,1.7398659,-1.3938137,0.100655995,-0.9725594,0.8218302,-1.6124158,-1.1677507,-0.46888644,-1.436212,-1.4889404,1.6956836,-0.48364016,-0.9050657,-1.6061422,1.2305119,0.83286357,-1.595428,-0.6624718,0.6932489,-0.54817367,-0.012397711,-0.13102534,1.5331151,1.3070606,1.6050942,-0.69215524,-1.0645726,1.776379,-1.19345,0.89540255,-1.3226498,0.4333394,0.007352571,-0.091637425,-0.7707381,-0.82888675,-1.1188654,1.4938284,-1.500322,-1.4895656,1.2367417,1.2448173,0.09448495,1.4653895,-0.30750597,0.15188052,-0.9251707,-1.2988925,1.6827031,0.14115092,-0.90993196,0.45670798,0.86813825,1.4937272,0.30994415,-0.18255904,0.6909048,-1.6036987,-0.81843406,1.5829313,-1.665912,-1.4528342,-0.42411658,0.4510966,1.1528296,-1.2843286,-0.8675399,-1.075015,-0.57597435,1.468401,-1.4234542,0.22420049,-0.11788167,-0.4183821,0.7031547,-1.3421831,0.79864836,0.36113912,-0.33548743,-1.2079351,1.1250854,0.78968555,0.3369044,1.2548155,-1.4296192,0.932038,-1.4117619,-1.5716779,1.0619655,0.75386184,0.31623182,-0.2390604,-0.016319994,1.2519596,1.3262423,1.7938441,-0.43982378,0.79091704,-1.318552,1.4053258,-1.165441,-0.97971773,-1.3650426,0.53002983,-0.75332785,0.95546156,0.84387046,1.1374214,1.6159338,0.8306315,0.87999594,0.16902204,0.18028775,-1.1094522,0.97892344,-0.60658187,-1.1253756,0.6587966,1.5823631,-0.24137412,-0.43966743,0.35701278,1.3773477,-1.0861616,-0.45089424,0.5186373,-1.3346783,0.44646993,0.6262529,-1.1453118,1.0491087,-1.1521513,0.6176902,0.39728662,-0.58793694,1.4265772,-0.8726442,-0.138542,0.059774864,-0.13035181,0.5803393,-1.6350105,-0.6110592,-0.279289,-0.40010694,0.57197833,1.5920161,-0.040783092,1.0322233,0.7598628,-1.4190278,-1.1391876,-0.61270946,-0.8318034,-1.5270927,-0.37430593,0.68126994,-0.7687971,0.017520646,1.4260111,0.78563005,0.94777733,-0.27867255,-1.6387383,-1.2435094,-0.5576301,1.3040438,1.3282303,-0.9388945,-0.7244321,0.84729475,-0.5733396,-1.6218113,1.0386075,-1.0322104,-0.093363404,1.7774235,0.27562883,-0.9290966,-1.0760798,-1.5799415,1.270554,1.2096363,1.76393,-0.113919005,-0.6171805,-0.596469,-0.25838053,-0.5816872,1.6621416,0.6827088,-1.278097,0.5689193,0.9320882,0.95695275,-0.31560704,-0.038120627,-0.8947504,0.88740575,0.88295966,-1.5357943,-1.2857558,-0.5464974,0.75019443,-1.3571628,-1.1066563,0.16301507,0.3632332,-1.463599,-0.64624965,1.2010205,-1.0542498,0.88892585,0.0037746518,-0.20116484,1.0747961,-1.0174136,-0.30977827,1.1916121,-0.1860414,-1.6581692,1.2090701,0.5520869,-0.41071948,1.5951772,-0.42428628,1.0420878,0.9950194,-1.430465,-0.14997552,-0.81909174,0.8984874,-1.3311177,-0.27997047,1.7916095,-1.5838658,-0.9995817,-1.1562806,-0.4182707,-1.5509242,-0.111337535,-0.46083495,1.7001698,-0.997518,-0.28265274,-1.1900907,-1.4494922,-0.87747604,-1.0069767,-1.6346066,-0.5901476,0.49534282,-0.6607743,1.5953785,-1.4393758,-0.98088557,0.85013086,-1.4696755,0.8545095,0.17186293,0.4705922,0.05466709,-1.1666942,1.3748175,-0.39438647,-1.6112418,-0.048840642,-1.2742246,-0.30296844,1.6586269,1.078566,0.3171556,1.4525533,1.3317087,-0.60636514,-0.54765856,-1.1114478,0.059592895,0.26926062,-1.6271582,-0.014966067,-1.4564,0.0514327,1.6529198,-1.044068,-0.8455011,0.63640636,1.2097193,-0.57838327,-0.33680788,0.026718305,0.43973947,0.15565789,1.5759166,-0.04963472,-0.5656485,0.3538958,-0.9405788,0.55580413,0.8694556,-1.0271555,0.45387995,1.3495573,-1.0243552,-0.6170088,0.354108,-1.631202,0.66588974,0.6492184,-1.223585,-1.0957676,-0.36249125,-0.030611476,-0.5420436,1.7680166,0.12229091,-0.9090883,-1.150815,-1.5134648,0.6517384,1.0317461,-1.142738,1.6264198,1.5441325,-0.24225211,1.705634,-0.089520246,-0.3399783,-1.2433902,-1.5496466,-1.4983344,-0.39619592,1.7024441,0.5182276,0.56916976,1.6403383,-0.7531714,0.13140737,1.7993916,0.9479835,-1.457243,-0.3000476,1.0256231,-1.2252848,1.6979905,0.98567915,-0.64796543,-0.09532631,-1.5874887,1.577016,1.3867294,0.1683,1.2887219,0.73185736,0.11606176,0.54732084,-0.75295156,0.16608498,-0.2812807,-0.14852187,-0.026186386,0.8137212,0.7894849,-1.235449,1.5478933,0.19043334,0.12058699,-1.2732099,-0.18595499,-0.36257094,1.2015488,0.22752982,-0.14001793,1.2365886,-1.0797635,-0.3182689,-1.3207928,-1.0425276,1.3154781,0.9604763,-0.93694943,1.1259098,-1.1669105,-0.5479365,-1.6803522,0.34245732,0.9891086,-1.0182903,-0.008119821,1.6892979,-0.36198446,-0.16812932,0.25263917,0.8137356,-0.562121,-0.21012723,0.6277207,0.20871499,-1.552998,-0.14431705,0.44738808,0.5223807,1.3580157,0.96552926,0.5913889,0.4796171,0.3522169,-1.2111194,-0.7976325,-1.4704944,0.5352414
Fog1,0.706336,0.94644046,-1.0621294,0.08399728,-1.1307691,0.91249907,-1.0729791,1.2532762,1.2541156,1.3617487,0.22271685,1.0392879,0.24237761,-1.1913548,0.7793164,0.72818244,0.40292695,1.0665444,-1.1230078,1.0628777,0.53504264,1.3632714,0.49649313,-1.1107229,-0.6287638,-0.9647675,-0.8688945,0.66045886,-0.70855516,-0.2636101,0.5083149,-1.1340483,1.0064898,-1.0652698,0.16473395,0.7598151,-1.0758198,-0.6384228,0.26298505,-1.6695997,-1.1698875,0.3817724,0.6490168,-0.91213304,-1.2323182,0.9491173,0.7716005,-1.0710917,0.08346346,-0.054614242,0.92127454,1.1739581,-0.3667358,0.39935905,1.5608757,0.36301044,-0.8690075,1.2004565,-0.035429016,-1.4813888,-1.2498499,1.1910024,-1.293186,-0.3883247,-0.03992072,1.1423919,1.4349982,0.11743256,-1.5306813,-0.37796336,0.62639105,-0.37598157,1.6219724,-0.9080478,-0.76780206,1.0841888,0.6320388,0.020279717,-1.039858,-0.21807341,1.5166861,-1.3443412,-1.4043679,-0.71854717,-0.45620874,-0.4120512,1.5636508,0.38544607,-1.179223,-0.52815044,-1.4677174,1.2249364,-0.5736713,-0.32628876,-1.2696626,1.4388276,-0.77281487,-1.509017,-0.19738768,-1.2220292,0.026083086,-0.6720941,0.31545752,-0.21019325,-1.5460483,0.51533484,-0.99417496,1.5629085,-1.5123386,-0.640373,-0.027063949,-1.5629877,-1.5653737,-1.5504229,-1.0952023,-1.6301569,-0.53559047,1.6764371,-1.3621804,-0.80040395,1.0321236,-0.77497375,0.63808113,0.42940632,1.3263922,0.3854321,0.32675862,1.5676364,1.3974115,1.6976057,1.7453762,-0.021561433,0.24312067,1.2399198,-1.3422079,0.9305446,-0.1921273,0.3623529,-1.4754443,0.13624968,0.87683666,-1.625302,1.4014509,-0.27618766,1.6456256,1.606776,-0.6058959,1.176164,1.7461597,-0.13127248,0.106965296,1.3002381,-1.0604411,0.050867435,-1.3645167,0.26421884,-0.11669682,-0.72485685,1.066515,-0.7752598,0.18299893,0.41605937,0.6538868,-0.23799379,1.5727249,1.2391206,1.2291877,1.2914027,-0.4019431,-0.7086734,1.5599957,-0.778882,-0.24131644,1.1462603,-1.3332437,-0.90233994,0.5069715,-0.8693061,-0.9491026,0.8912535,-0.7626552,0.28463015,-1.220128,0.7787621,0.22308059,-0.3777471,-1.5066408,1.4938796,1.7968678,-1.4878584,1.3342826,-0.5803141,-0.2518518,1.1637847,0.30990693,0.5894447,-0.42566893,-0.019305998,1.7327646,-0.12413309,-1.4227514,1.1543269,-0.77580947,-1.201453,0.8736029,-1.5274074,0.8653465,-0.53268915,-0.51742184,1.7228394,0.7051334,0.46723002,-0.8086426,0.52450126,0.7295438,-0.8512659,1.202571,0.55733126,-0.1609462,-1.647763,-0.15237191,1.276707,0.1464698,1.341417,-1.3739552,0.7396519,1.553754,0.98642385,1.5865077,-0.9311692,0.0056063943,0.91924995,-1.5060797,-1.2627066,0.1672155,1.7997949,0.35417897,0.6675966,-0.92171043,-1.6907036,-1.5440811,0.90395766,-0.8821069,1.0386157,-0.9640353,0.12952398,1.3478715,0.31911704,-0.20616622,-0.86369675,0.81478286,-1.4718225,1.3710414,1.1019636,-0.5848202,0.07540528,0.59655166,-0.11704326,0.07160854,-0.512073,0.8040133,0.5648617,-1.396428,1.2437925,0.9981014,0.8674592,-0.29337564,-0.57359654,-0.07370307,1.7176977,-1.1436137,0.48604214,-0.25090823,0.9251949,-0.66846293,1.7825084,-0.117413856,1.2520846,1.1992652,0.272728,-1.5452273,-0.9040158,0.20359866,0.09076421,-0.3177796,0.93525785,0.40783364,-0.9209961,-0.33121666,1.3225467,1.7481703,1.6294743,-1.3403027,0.41025227,0.34393638,0.35918665,1.4470054,-1.4264246,-0.28331292,1.5817662,1.4156399,0.23284227,0.2818132,-0.6696748,-0.90513855,1.6797426,-0.61345726,-0.5870537,0.7786343,-0.6907807,-0.19095244,0.9470865,0.7918563,-0.22190595,-0.6988922,-1.2591478,-0.7569915,1.3720262,0.006112113,-0.86449313,0.5616119,-0.4352661,0.62754744,1.2005606,0.05850734,0.87215513,1.4157264,1.6200328,1.200147,-1.5956037,1.558954,-0.72212297,0.057492573,0.5584729,0.77907544,0.9098187,-1.3058892,-1.5169806,-1.1042314,-1.4106518,0.85610515,0.3823976,1.3516198,0.7216587,0.09273357,-0.34800592,0.71787655,-0.26818362,0.19311664,0.916229,-1.0263287,-0.8413186,-0.5947626,1.413281,-0.88495773,1.75012,-1.4339738,-1.3346106,-0.4826412,-1.195676,-0.84628993,-0.6582665,0.08942256,-0.6112479,-0.27468637,-0.10482898,0.5178031,0.06709476,-0.78931123,-0.4521636,-1.4492652,0.3288912,0.15681383,0.32012495,1.5584391,0.7732417,0.5641794,-1.0260427,0.15926434,-0.877419,0.5148914,0.28578773,-0.33230698,0.2375709,0.66588455,-0.36702642,0.8891979,-0.94901115,-0.3927787,0.34608105,-0.24162312,0.7020067,0.7964581,1.5511798,-1.369483,1.3787813,-1.2475019,-0.06307737,-1.1833047,-1.6499058,0.47973177,-0.20390996,-1.1420728,0.8603098,0.54471874,1.2323613,-1.2081214,-1.1190679,-1.4054985,-1.1216078,0.22997034,-0.97682685,-1.5947373,-1.503082,-1.5857618,1.7844086,1.2039564,-0.0543973,0.8130652,0.12571163,-1.4140309,1.6923803,0.12271834,-0.10409591,-0.9609162,-1.4891968,1.080251,0.04499786,0.6677271,-0.26161325,-0.28291753,-1.0302,0.8459523,0.42341262,-0.2671158,-0.03188087,-1.6069624,1.3219635,-0.72850513,-0.89577806,0.31091708,1.6410952,-0.3829935,1.1972779,-1.500109,-0.1706554,0.12073336,-0.8031805,-0.92191136,1.5982877,0.2327321,-1.0694418,-0.38197395,0.37663564,0.42991886,0.5545993,1.4652969,0.864006,0.10995567,1.5710986,0.1817031,1.2631674,0.20272006,0.5789108,-0.1987312,0.7595522,0.73915726,-0.73983437,0.25218156,-0.3330998,0.1064042,1.7522479,-0.89650327,-1.2179106,-1.3532178,-1.0040249,0.8769545,1.3731202,0.20727195,-0.45503575,1.7831076,-0.1070282,0.25851625,-0.25726563,-1.4459376,-0.3011573,-0.5850026,-1.2979438,0.2567178,0.2120189,0.63484883,-1.0903988,-1.0662299,-1.5789741,1.4076531,0.10988134,-0.06494742,-0.64556736,0.13710622,1.7081075,-1.1301942,0.0058012726,0.66020656,-0.028399969,1.2332265,0.5518188,-0.558736,1.0218523,-0.86104906,1.6322347,-0.43304166,1.7091922,-0.8136952,-0.7644322,-0.05210231,-1.4020435,0.43010396,-0.25104377,1.5565826,1.1138124,0.972895,-0.838922,-1.1900887,-1.6746649,-0.5838675,-1.0576246,1.4677404,1.1637155,-1.2313443,0.73668927,-1.5298142,-0.7989207,-1.3487221,0.7912931,0.151761,0.15904781,-0.373703,0.392533,-1.6628203,0.21066394,0.32371122,-1.5568434,-0.2334338,0.5587012,0.53492165,-1.0216852,-1.1277741,1.5933441,1.0259265,0.97985786,0.94607365,-0.94416094,-1.4275955,0.8430496,-1.4693633,-0.6359658,1.7387288,1.6323215,-0.3002165,-1.1026767,1.3974998,0.24684684,-1.477581,0.3074491,-0.6351542,0.8480145,0.97949225,-1.5000614,-1.4733999,0.875016,0.36882964,1.522175,0.61344564,1.3924891,-1.0373642,-1.4550825,1.7629848,-0.4750169,1.5470164,-0.79566634,-0.12825587,-1.0986537,1.162198,-0.21562538,-1.2478681,-1.6420004,-0.77840465,1.360475,-0.18660209,0.7452613,-1.484564,-1.1170449,-1.6384354,-0.29967576,0.81548446,1.1558459,-0.4069217,-1.4574337,-1.2903618,-0.7772825,0.75091,-0.648472,-0.3083315,1.3450944,-0.89269906,1.7623535,-0.21696661,1.2194839,-1.5942826,1.7240111,-0.8535668,-0.20965211,-0.5708408,1.7398659,-1.3938137,0.100655995,-0.9725594,0.8218302,-1.6124158,-1.1677507,-0.46888644,-1.436212,-1.4889404,1.6956836,-0.48364016,-0.9050657,-1.6061422,1.2305119,0.83286357,-1.595428,-0.6624718,0.6932489,-0.54817367,-0.012397711,-0.13102534,1.5331151,1.3070606,1.6050942,-0.69215524,-1.0645726,1.776379,-1.19345,0.89540255,-1.3226498,0.4333394,0.007352571,-0.091637425,-0.7707381,-0.82888675,-1.1188654,1.4938284,-1.500322,-1.4895656,1.2367417,1.2448173,0.09448495,1.4653895,-0.30750597,0.15188052,-0.9251707,-1.2988925,1.6827031,0.14115092,-0.90993196,0.45670798,0.86813825,1.4937272,0.30994415,-0.18255904,0.6909048,-1.6036987,-0.81843406,1.5829313,-1.665912,-1.4528342,-0.42411658,0.4510966,1.1528296,-1.2843286,-0.8675399,-1.075015,-0.57597435,1.468401,-1.4234542,0.22420049,-0.11788167,-0.4183821,0.7031547,-1.3421831,0.79864836,0.36113912,-0.33548743,-1.2079351,1.1250854,0.78968555,0.3369044,1.2548155,-1.4296192,0.932038,-1.4117619,-1.5716779,1.0619655,0.75386184,0.31623182,-0.2390604,-0.016319994,1.2519596,1.3262423,1.7938441,-0.43982378,0.79091704,-1.318552,1.4053258,-1.165441,-0.97971773,-1.3650426,0.53002983,-0.75332785,0.95546156,0.84387046,1.1374214,1.6159338,0.8306315,0.87999594,0.16902204,0.18028775,-1.1094522,0.97892344,-0.60658187,-1.1253756,0.6587966,1.5823631,-0.24137412,-0.43966743,0.35701278,1.3773477,-1.0861616,-0.45089424,0.5186373,-1.3346783,0.44646993,0.6262529,-1.1453118,1.0491087,-1.1521513,0.6176902,0.39728662,-0.58793694,1.4265772,-0.8726442,-0.138542,0.059774864,-0.13035181,0.5803393,-1.6350105,-0.6110592,-0.279289,-0.40010694,0.57197833,1.5920161,-0.040783092,1.0322233,0.7598628,-1.4190278,-1.1391876,-0.61270946,-0.8318034,-1.5270927,-0.37430593,0.68126994,-0.7687971,0.017520646,1.4260111,0.78563005,0.94777733,-0.27867255,-1.6387383,-1.2435094,-0.5576301,1.3040438,1.3282303,-0.9388945,-0.7244321,0.84729475,-0.5733396,-1.6218113,1.0386075,-1.0322104,-0.093363404,1.7774235,0.27562883,-0.9290966,-1.0760798,-1.5799415,1.270554,1.2096363,1.76393,-0.113919005,-0.6171805,-0.596469,-0.25838053,-0.5816872,1.6621416,0.6827088,-1.278097,0.5689193,0.9320882,0.95695275,-0.31560704,-0.038120627,-0.8947504,0.88740575,0.88295966,-1.5357943,-1.2857558,-0.5464974,0.75019443,-1.3571628,-1.1066563,0.16301507,0.3632332,-1.463599,-0.64624965,1.2010205,-1.0542498,0.88892585,0.0037746518,-0.20116484,1.0747961,-1.0174136,-0.30977827,1.1916121,-0.1860414,-1.6581692,1.2090701,0.5520869,-0.41071948,1.5951772,-0.42428628,1.0420878,0.9950194,-1.430465,-0.14997552,-0.81909174,0.8984874,-1.3311177,-0.27997047,1.7916095,-1.5838658,-0.9995817,-1.1562806,-0.4182707,-1.5509242,-0.111337535,-0.46083495,1.7001698,-0.997518,-0.28265274,-1.1900907,-1.4494922,-0.87747604,-1.0069767,-1.6346066,-0.5901476,0.49534282,-0.6607743,1.5953785,-1.4393758,-0.98088557,0.85013086,-1.4696755,0.8545095,0.17186293,0.4705922,0.05466709,-1.1666942,1.3748175,-0.39438647,-1.6112418,-0.048840642,-1.2742246,-0.30296844,1.6586269,1.078566,0.3171556,1.4525533,1.3317087,-0.60636514,-0.54765856,-1.1114478,0.059592895,0.26926062,-1.6271582,-0.014966067,-1.4564,0.0514327,1.6529198,-1.044068,-0.8455011,0.63640636,1.2097193,-0.57838327,-0.33680788,0.026718305,0.43973947,0.15565789,1.5759166,-0.04963472,-0.5656485,0.3538958,-0.9405788,0.55580413,0.8694556,-1.0271555,0.45387995,1.3495573,-1.0243552,-0.6170088,0.354108,-1.631202,0.66588974,0.6492184,-1.223585,-1.0957676,-0.36249125,-0.030611476,-0.5420436,1.7680166,0.12229091,-0.9090883,-1.150815,-1.5134648,0.6517384,1.0317461,-1.142738,1.6264198,1.5441325,-0.24225211,1.705634,-0.089520246,-0.3399783,-1.2433902,-1.5496466,-1.4983344,-0.39619592,1.7024441,0.5182276,0.56916976,1.6403383,-0.7531714,0.13140737,1.7993916,0.9479835,-1.457243,-0.3000476,1.0256231,-1.2252848,1.6979905,0.98567915,-0.64796543,-0.09532631,-1.5874887,1.577016,1.3867294,0.1683,1.2887219,0.73185736,0.11606176,0.54732084,-0.75295156,0.16608498,-0.2812807,-0.14852187,-0.026186386,0.8137212,0.7894849,-1.235449,1.5478933,0.19043334,0.12058699,-1.2732099,-0.18595499,-0.36257094,1.2015488,0.22752982,-0.14001793,1.2365886,-1.0797635,-0.3182689,-1.3207928,-1.0425276,1.3154781,0.9604763,-0.93694943,1.1259098,-1.1669105,-0.5479365,-1.6803522,0.34245732,0.9891086,-1.0182903,-0.008119821,1.6892979,-0.36198446,-0.16812932,0.25263917,0.8137356,-0.562121,-0.21012723,0.6277207,0.20871499,-1.552998,-0.14431705,0.44738808,0.5223807,1.3580157,0.96552926,0.5913889,0.4796171,0.3522169,-1.2111194,-0.7976325,-1.4704944,0.5352414
Gata1,0.706336,0.94644046,-1.0621294,0.08399728,-1.1307691,0.91249907,-1.0729791,1.2532762,1.2541156,1.3617487,0.22271685,1.0392879,0.24237761,-1.1913548,0.7793164,0.72818244,0.40292695,1.0665444,-1.1230078,1.0628777,0.53504264,1.3632714,0.49649313,-1.1107229,-0.6287638,-0.9647675,-0.8688945,0.66045886,-0.70855516,-0.2636101,0.5083149,-1.1340483,1.0064898,-1.0652698,0.16473395,0.7598151,-1.0758198,-0.6384228,0.26298505,-1.6695997,-1.1698875,0.3817724,0.6490168,-0.91213304,-1.2323182,0.9491173,0.7716005,-1.0710917,0.08346346,-0.054614242,0.92127454,1.1739581,-0.3667358,0.39935905,1.5608757,0.36301044,-0.8690075,1.2004565,-0.035429016,-1.4813888,-1.2498499,1.1910024,-1.293186,-0.3883247,-0.03992072,1.1423919,1.4349982,0.11743256,-1.5306813,-0.37796336,0.62639105,-0.37598157,1.6219724,-0.9080478,-0.76780206,1.0841888,0.6320388,0.020279717,-1.039858,-0.21807341,1.5166861,-1.3443412,-1.4043679,-0.71854717,-0.45620874,-0.4120512,1.5636508,0.38544607,-1.179223,-0.52815044,-1.4677174,1.2249364,-0.5736713,-0.32628876,-1.2696626,1.4388276,-0.77281487,-1.509017,-0.19738768,-1.2220292,0.026083086,-0.6720941,0.31545752,-0.21019325,-1.5460483,0.51533484,-0.99417496,1.5629085,-1.5123386,-0.640373,-0.027063949,-1.5629877,-1.5653737,-1.5504229,-1.0952023,-1.6301569,-0.53559047,1.6764371,-1.3621804,-0.80040395,1.0321236,-0.77497375,0.63808113,0.42940632,1.3263922,0.3854321,0.32675862,1.5676364,1.3974115,1.6976057,1.7453762,-0.021561433,0.24312067,1.2399198,-1.3422079,0.9305446,-0.1921273,0.3623529,-1.4754443,0.13624968,0.87683666,-1.625302,1.4014509,-0.27618766,1.6456256,1.606776,-0.6058959,1.176164,1.7461597,-0.13127248,0.106965296,1.3002381,-1.0604411,0.050867435,-1.3645167,0.26421884,-0.11669682,-0.72485685,1.066515,-0.7752598,0.18299893,0.41605937,0.6538868,-0.23799379,1.5727249,1.2391206,1.2291877,1.2914027,-0.4019431,-0.7086734,1.5599957,-0.778882,-0.24131644,1.1462603,-1.3332437,-0.90233994,0.5069715,-0.8693061,-0.9491026,0.8912535,-0.7626552,0.28463015,-1.220128,0.7787621,0.22308059,-0.3777471,-1.5066408,1.4938796,1.7968678,-1.4878584,1.3342826,-0.5803141,-0.2518518,1.1637847,0.30990693,0.5894447,-0.42566893,-0.019305998,1.7327646,-0.12413309,-1.4227514,1.1543269,-0.77580947,-1.201453,0.8736029,-1.5274074,0.8653465,-0.53268915,-0.51742184,1.7228394,0.7051334,0.46723002,-0.8086426,0.52450126,0.7295438,-0.8512659,1.202571,0.55733126,-0.1609462,-1.647763,-0.15237191,1.276707,0.1464698,1.341417,-1.3739552,0.7396519,1.553754,0.98642385,1.5865077,-0.9311692,0.0056063943,0.91924995,-1.5060797,-1.2627066,0.1672155,1.7997949,0.35417897,0.6675966,-0.92171043,-1.6907036,-1.5440811,0.90395766,-0.8821069,1.0386157,-0.9640353,0.12952398,1.3478715,0.31911704,-0.20616622,-0.86369675,0.81478286,-1.4718225,1.3710414,1.1019636,-0.5848202,0.07540528,0.59655166,-0.11704326,0.07160854,-0.512073,0.8040133,0.5648617,-1.396428,1.2437925,0.9981014,0.8674592,-0.29337564,-0.57359654,-0.07370307,1.7176977,-1.1436137,0.48604214,-0.25090823,0.9251949,-0.66846293,1.7825084,-0.117413856,1.2520846,1.1992652,0.272728,-1.5452273,-0.9040158,0.20359866,0.09076421,-0.3177796,0.93525785,0.40783364,-0.9209961,-0.33121666,1.3225467,1.7481703,1.6294743,-1.3403027,0.41025227,0.34393638,0.35918665,1.4470054,-1.4264246,-0.28331292,1.5817662,1.4156399,0.23284227,0.2818132,-0.6696748,-0.90513855,1.6797426,-0.61345726,-0.5870537,0.7786343,-0.6907807,-0.19095244,0.9470865,0.7918563,-0.22190595,-0.6988922,-1.2591478,-0.7569915,1.3720262,0.006112113,-0.86449313,0.5616119,-0.4352661,0.62754744,1.2005606,0.05850734,0.87215513,1.4157264,1.6200328,1.200147,-1.5956037,1.558954,-0.72212297,0.057492573,0.5584729,0.77907544,0.9098187,-1.3058892,-1.5169806,-1.1042314,-1.4106518,0.85610515,0.3823976,1.3516198,0.7216587,0.09273357,-0.34800592,0.71787655,-0.26818362,0.19311664,0.916229,-1.0263287,-0.8413186,-0.5947626,1.413281,-0.88495773,1.75012,-1.4339738,-1.3346106,-0.4826412,-1.195676,-0.84628993,-0.6582665,0.08942256,-0.6112479,-0.27468637,-0.10482898,0.5178031,0.06709476,-0.78931123,-0.4521636,-1.4492652,0.3288912,0.15681383,0.32012495,1.5584391,0.7732417,0.5641794,-1.0260427,0.15926434,-0.877419,0.5148914,0.28578773,-0.33230698,0.2375709,0.66588455,-0.36702642,0.8891979,-0.94901115,-0.3927787,0.34608105,-0.24162312,0.7020067,0.7964581,1.5511798,-1.369483,1.3787813,-1.2475019,-0.06307737,-1.1833047,-1.6499058,0.47973177,-0.20390996,-1.1420728,0.8603098,0.54471874,1.2323613,-1.2081214,-1.1190679,-1.4054985,-1.1216078,0.22997034,-0.97682685,-1.5947373,-1.503082,-1.5857618,1.7844086,1.2039564,-0.0543973,0.8130652,0.12571163,-1.4140309,1.6923803,0.12271834,-0.10409591,-0.9609162,-1.4891968,1.080251,0.04499786,0.6677271,-0.26161325,-0.28291753,-1.0302,0.8459523,0.42341262,-0.2671158,-0.03188087,-1.6069624,1.3219635,-0.72850513,-0.89577806,0.31091708,1.6410952,-0.3829935,1.1972779,-1.500109,-0.1706554,0.12073336,-0.8031805,-0.92191136,1.5982877,0.2327321,-1.0694418,-0.38197395,0.37663564,0.42991886,0.5545993,1.4652969,0.864006,0.10995567,1.5710986,0.1817031,1.2631674,0.20272006,0.5789108,-0.1987312,0.7595522,0.73915726,-0.73983437,0.25218156,-0.3330998,0.1064042,1.7522479,-0.89650327,-1.2179106,-1.3532178,-1.0040249,0.8769545,1.3731202,0.20727195,-0.45503575,1.7831076,-0.1070282,0.25851625,-0.25726563,-1.4459376,-0.3011573,-0.5850026,-1.2979438,0.2567178,0.2120189,0.63484883,-1.0903988,-1.0662299,-1.5789741,1.4076531,0.10988134,-0.06494742,-0.64556736,0.13710622,1.7081075,-1.1301942,0.0058012726,0.66020656,-0.028399969,1.2332265,0.5518188,-0.558736,1.0218523,-0.86104906,1.6322347,-0.43304166,1.7091922,-0.8136952,-0.7644322,-0.05210231,-1.4020435,0.43010396,-0.25104377,1.5565826,1.1138124,0.972895,-0.838922,-1.1900887,-1.6746649,-0.5838675,-1.0576246,1.4677404,1.1637155,-1.2313443,0.73668927,-1.5298142,-0.7989207,-1.3487221,0.7912931,0.151761,0.15904781,-0.373703,0.392533,-1.6628203,0.21066394,0.32371122,-1.5568434,-0.2334338,0.5587012,0.53492165,-1.0216852,-1.1277741,1.5933441,1.0259265,0.97985786,0.94607365,-0.94416094,-1.4275955,0.8430496,-1.4693633,-0.6359658,1.7387288,1.6323215,-0.3002165,-1.1026767,1.3974998,0.24684684,-1.477581,0.3074491,-0.6351542,0.8480145,0.97949225,-1.5000614,-1.4733999,0.875016,0.36882964,1.522175,0.61344564,1.3924891,-1.0373642,-1.4550825,1.7629848,-0.4750169,1.5470164,-0.79566634,-0.12825587,-1.0986537,1.162198,-0.21562538,-1.2478681,-1.6420004,-0.77840465,1.360475,-0.18660209,0.7452613,-1.484564,-1.1170449,-1.6384354,-0.29967576,0.81548446,1.1558459,-0.4069217,-1.4574337,-1.2903618,-0.7772825,0.75091,-0.648472,-0.3083315,1.3450944,-0.89269906,1.7623535,-0.21696661,1.2194839,-1.5942826,1.7240111,-0.8535668,-0.20965211,-0.5708408,1.7398659,-1.3938137,0.100655995,-0.9725594,0.8218302,-1.6124158,-1.1677507,-0.46888644,-1.436212,-1.4889404,1.6956836,-0.48364016,-0.9050657,-1.6061422,1.2305119,0.83286357,-1.595428,-0.6624718,0.6932489,-0.54817367,-0.012397711,-0.13102534,1.5331151,1.3070606,1.6050942,-0.69215524,-1.0645726,1.776379,-1.19345,0.89540255,-1.3226498,0.4333394,0.007352571,-0.091637425,-0.7707381,-0.82888675,-1.1188654,1.4938284,-1.500322,-1.4895656,1.2367417,1.2448173,0.09448495,1.4653895,-0.30750597,0.15188052,-0.9251707,-1.2988925,1.6827031,0.14115092,-0.90993196,0.45670798,0.86813825,1.4937272,0.30994415,-0.18255904,0.6909048,-1.6036987,-0.81843406,1.5829313,-1.665912,-1.4528342,-0.42411658,0.4510966,1.1528296,-1.2843286,-0.8675399,-1.075015,-0.57597435,1.468401,-1.4234542,0.22420049,-0.11788167,-0.4183821,0.7031547,-1.3421831,0.79864836,0.36113912,-0.33548743,-1.2079351,1.1250854,0.78968555,0.3369044,1.2548155,-1.4296192,0.932038,-1.4117619,-1.5716779,1.0619655,0.75386184,0.31623182,-0.2390604,-0.016319994,1.2519596,1.3262423,1.7938441,-0.43982378,0.79091704,-1.318552,1.4053258,-1.165441,-0.97971773,-1.3650426,0.53002983,-0.75332785,0.95546156,0.84387046,1.1374214,1.6159338,0.8306315,0.87999594,0.16902204,0.18028775,-1.1094522,0.97892344,-0.60658187,-1.1253756,0.6587966,1.5823631,-0.24137412,-0.43966743,0.35701278,1.3773477,-1.0861616,-0.45089424,0.5186373,-1.3346783,0.44646993,0.6262529,-1.1453118,1.0491087,-1.1521513,0.6176902,0.39728662,-0.58793694,1.4265772,-0.8726442,-0.138542,0.059774864,-0.13035181,0.5803393,-1.6350105,-0.6110592,-0.279289,-0.40010694,0.57197833,1.5920161,-0.040783092,1.0322233,0.7598628,-1.4190278,-1.1391876,-0.61270946,-0.8318034,-1.5270927,-0.37430593,0.68126994,-0.7687971,0.017520646,1.4260111,0.78563005,0.94777733,-0.27867255,-1.6387383,-1.2435094,-0.5576301,1.3040438,1.3282303,-0.9388945,-0.7244321,0.84729475,-0.5733396,-1.6218113,1.0386075,-1.0322104,-0.093363404,1.7774235,0.27562883,-0.9290966,-1.0760798,-1.5799415,1.270554,1.2096363,1.76393,-0.113919005,-0.6171805,-0.596469,-0.25838053,-0.5816872,1.6621416,0.6827088,-1.278097,0.5689193,0.9320882,0.95695275,-0.31560704,-0.038120627,-0.8947504,0.88740575,0.88295966,-1.5357943,-1.2857558,-0.5464974,0.75019443,-1.3571628,-1.1066563,0.16301507,0.3632332,-1.463599,-0.64624965,1.2010205,-1.0542498,0.88892585,0.0037746518,-0.20116484,1.0747961,-1.0174136,-0.30977827,1.1916121,-0.1860414,-1.6581692,1.2090701,0.5520869,-0.41071948,1.5951772,-0.42428628,1.0420878,0.9950194,-1.430465,-0.14997552,-0.81909174,0.8984874,-1.3311177,-0.27997047,1.7916095,-1.5838658,-0.9995817,-1.1562806,-0.4182707,-1.5509242,-0.111337535,-0.46083495,1.7001698,-0.997518,-0.28265274,-1.1900907,-1.4494922,-0.87747604,-1.0069767,-1.6346066,-0.5901476,0.49534282,-0.6607743,1.5953785,-1.4393758,-0.98088557,0.85013086,-1.4696755,0.8545095,0.17186293,0.4705922,0.05466709,-1.1666942,1.3748175,-0.39438647,-1.6112418,-0.048840642,-1.2742246,-0.30296844,1.6586269,1.078566,0.3171556,1.4525533,1.3317087,-0.60636514,-0.54765856,-1.1114478,0.059592895,0.26926062,-1.6271582,-0.014966067,-1.4564,0.0514327,1.6529198,-1.044068,-0.8455011,0.63640636,1.2097193,-0.57838327,-0.33680788,0.026718305,0.43973947,0.15565789,1.5759166,-0.04963472,-0.5656485,0.3538958,-0.9405788,0.55580413,0.8694556,-1.0271555,0.45387995,1.3495573,-1.0243552,-0.6170088,0.354108,-1.631202,0.66588974,0.6492184,-1.223585,-1.0957676,-0.36249125,-0.030611476,-0.5420436,1.7680166,0.12229091,-0.9090883,-1.150815,-1.5134648,0.6517384,1.0317461,-1.142738,1.6264198,1.5441325,-0.24225211,1.705634,-0.089520246,-0.3399783,-1.2433902,-1.5496466,-1.4983344,-0.39619592,1.7024441,0.5182276,0.56916976,1.6403383,-0.7531714,0.13140737,1.7993916,0.9479835,-1.457243,-0.3000476,1.0256231,-1.2252848,1.6979905,0.98567915,-0.64796543,-0.09532631,-1.5874887,1.577016,1.3867294,0.1683,1.2887219,0.73185736,0.11606176,0.54732084,-0.75295156,0.16608498,-0.2812807,-0.14852187,-0.026186386,0.8137212,0.7894849,-1.235449,1.5478933,0.19043334,0.12058699,-1.2732099,-0.18595499,-0.36257094,1.2015488,0.22752982,-0.14001793,1.2365886,-1.0797635,-0.3182689,-1.3207928,-1.0425276,1.3154781,0.9604763,-0.93694943,1.1259098,-1.1669105,-0.5479365,-1.6803522,0.34245732,0.9891086,-1.0182903,-0.008119821,1.6892979,-0.36198446,-0.16812932,0.25263917,0.8137356,-0.562121,-0.21012723,0.6277207,0.20871499,-1.552998,-0.14431705,0.44738808,0.5223807,1.3580157,0.96552926,0.5913889,0.4796171,0.3522169,-1.2111194,-0.7976325,-1.4704944,0.5352414
Gata2,0.706336,0.94644046,-1.0621294,0.08399728,-1.1307691,0.91249907,-1.0729791,1.2532762,1.2541156,1.3617487,0.22271685,1.0392879,0.24237761,-1.1913548,0.7793164,0.72818244,0.40292695,1.0665444,-1.1230078,1.0628777,0.53504264,1.3632714,0.49649313,-1.1107229,-0.6287638,-0.9647675,-0.8688945,0.66045886,-0.70855516,-0.2636101,0.5083149,-1.1340483,1.0064898,-1.0652698,0.16473395,0.7598151,-1.0758198,-0.6384228,0.26298505,-1.6695997,-1.1698875,0.3817724,0.6490168,-0.91213304,-1.2323182,0.9491173,0.7716005,-1.0710917,0.08346346,-0.054614242,0.92127454,1.1739581,-0.3667358,0.39935905,1.5608757,0.36301044,-0.8690075,1.2004565,-0.035429016,-1.4813888,-1.2498499,1.1910024,-1.293186,-0.3883247,-0.03992072,1.1423919,1.4349982,0.11743256,-1.5306813,-0.37796336,0.62639105,-0.37598157,1.6219724,-0.9080478,-0.76780206,1.0841888,0.6320388,0.020279717,-1.039858,-0.21807341,1.5166861,-1.3443412,-1.4043679,-0.71854717,-0.45620874,-0.4120512,1.5636508,0.38544607,-1.179223,-0.52815044,-1.4677174,1.2249364,-0.5736713,-0.32628876,-1.2696626,1.4388276,-0.77281487,-1.509017,-0.19738768,-1.2220292,0.026083086,-0.6720941,0.31545752,-0.21019325,-1.5460483,0.51533484,-0.99417496,1.5629085,-1.5123386,-0.640373,-0.027063949,-1.5629877,-1.5653737,-1.5504229,-1.0952023,-1.6301569,-0.53559047,1.6764371,-1.3621804,-0.80040395,1.0321236,-0.77497375,0.63808113,0.42940632,1.3263922,0.3854321,0.32675862,1.5676364,1.3974115,1.6976057,1.7453762,-0.021561433,0.24312067,1.2399198,-1.3422079,0.9305446,-0.1921273,0.3623529,-1.4754443,0.13624968,0.87683666,-1.625302,1.4014509,-0.27618766,1.6456256,1.606776,-0.6058959,1.176164,1.7461597,-0.13127248,0.106965296,1.3002381,-1.0604411,0.050867435,-1.3645167,0.26421884,-0.11669682,-0.72485685,1.066515,-0.7752598,0.18299893,0.41605937,0.6538868,-0.23799379,1.5727249,1.2391206,1.2291877,1.2914027,-0.4019431,-0.7086734,1.5599957,-0.778882,-0.24131644,1.1462603,-1.3332437,-0.90233994,0.5069715,-0.8693061,-0.9491026,0.8912535,-0.7626552,0.28463015,-1.220128,0.7787621,0.22308059,-0.3777471,-1.5066408,1.4938796,1.7968678,-1.4878584,1.3342826,-0.5803141,-0.2518518,1.1637847,0.30990693,0.5894447,-0.42566893,-0.019305998,1.7327646,-0.12413309,-1.4227514,1.1543269,-0.77580947,-1.201453,0.8736029,-1.5274074,0.8653465,-0.53268915,-0.51742184,1.7228394,0.7051334,0.46723002,-0.8086426,0.52450126,0.7295438,-0.8512659,1.202571,0.55733126,-0.1609462,-1.647763,-0.15237191,1.276707,0.1464698,1.341417,-1.3739552,0.7396519,1.553754,0.98642385,1.5865077,-0.9311692,0.0056063943,0.91924995,-1.5060797,-1.2627066,0.1672155,1.7997949,0.35417897,0.6675966,-0.92171043,-1.6907036,-1.5440811,0.90395766,-0.8821069,1.0386157,-0.9640353,0.12952398,1.3478715,0.31911704,-0.20616622,-0.86369675,0.81478286,-1.4718225,1.3710414,1.1019636,-0.5848202,0.07540528,0.59655166,-0.11704326,0.07160854,-0.512073,0.8040133,0.5648617,-1.396428,1.2437925,0.9981014,0.8674592,-0.29337564,-0.57359654,-0.07370307,1.7176977,-1.1436137,0.48604214,-0.25090823,0.9251949,-0.66846293,1.7825084,-0.117413856,1.2520846,1.1992652,0.272728,-1.5452273,-0.9040158,0.20359866,0.09076421,-0.3177796,0.93525785,0.40783364,-0.9209961,-0.33121666,1.3225467,1.7481703,1.6294743,-1.3403027,0.41025227,0.34393638,0.35918665,1.4470054,-1.4264246,-0.28331292,1.5817662,1.4156399,0.23284227,0.2818132,-0.6696748,-0.90513855,1.6797426,-0.61345726,-0.5870537,0.7786343,-0.6907807,-0.19095244,0.9470865,0.7918563,-0.22190595,-0.6988922,-1.2591478,-0.7569915,1.3720262,0.006112113,-0.86449313,0.5616119,-0.4352661,0.62754744,1.2005606,0.05850734,0.87215513,1.4157264,1.6200328,1.200147,-1.5956037,1.558954,-0.72212297,0.057492573,0.5584729,0.77907544,0.9098187,-1.3058892,-1.5169806,-1.1042314,-1.4106518,0.85610515,0.3823976,1.3516198,0.7216587,0.09273357,-0.34800592,0.71787655,-0.26818362,0.19311664,0.916229,-1.0263287,-0.8413186,-0.5947626,1.413281,-0.88495773,1.75012,-1.4339738,-1.3346106,-0.4826412,-1.195676,-0.84628993,-0.6582665,0.08942256,-0.6112479,-0.27468637,-0.10482898,0.5178031,0.06709476,-0.78931123,-0.4521636,-1.4492652,0.3288912,0.15681383,0.32012495,1.5584391,0.7732417,0.5641794,-1.0260427,0.15926434,-0.877419,0.5148914,0.28578773,-0.33230698,0.2375709,0.66588455,-0.36702642,0.8891979,-0.94901115,-0.3927787,0.34608105,-0.24162312,0.7020067,0.7964581,1.5511798,-1.369483,1.3787813,-1.2475019,-0.06307737,-1.1833047,-1.6499058,0.47973177,-0.20390996,-1.1420728,0.8603098,0.54471874,1.2323613,-1.2081214,-1.1190679,-1.4054985,-1.1216078,0.22997034,-0.97682685,-1.5947373,-1.503082,-1.5857618,1.7844086,1.2039564,-0.0543973,0.8130652,0.12571163,-1.4140309,1.6923803,0.12271834,-0.10409591,-0.9609162,-1.4891968,1.080251,0.04499786,0.6677271,-0.26161325,-0.28291753,-1.0302,0.8459523,0.42341262,-0.2671158,-0.03188087,-1.6069624,1.3219635,-0.72850513,-0.89577806,0.31091708,1.6410952,-0.3829935,1.1972779,-1.500109,-0.1706554,0.12073336,-0.8031805,-0.92191136,1.5982877,0.2327321,-1.0694418,-0.38197395,0.37663564,0.42991886,0.5545993,1.4652969,0.864006,0.10995567,1.5710986,0.1817031,1.2631674,0.20272006,0.5789108,-0.1987312,0.7595522,0.73915726,-0.73983437,0.25218156,-0.3330998,0.1064042,1.7522479,-0.89650327,-1.2179106,-1.3532178,-1.0040249,0.8769545,1.3731202,0.20727195,-0.45503575,1.7831076,-0.1070282,0.25851625,-0.25726563,-1.4459376,-0.3011573,-0.5850026,-1.2979438,0.2567178,0.2120189,0.63484883,-1.0903988,-1.0662299,-1.5789741,1.4076531,0.10988134,-0.06494742,-0.64556736,0.13710622,1.7081075,-1.1301942,0.0058012726,0.66020656,-0.028399969,1.2332265,0.5518188,-0.558736,1.0218523,-0.86104906,1.6322347,-0.43304166,1.7091922,-0.8136952,-0.7644322,-0.05210231,-1.4020435,0.43010396,-0.25104377,1.5565826,1.1138124,0.972895,-0.838922,-1.1900887,-1.6746649,-0.5838675,-1.0576246,1.4677404,1.1637155,-1.2313443,0.73668927,-1.5298142,-0.7989207,-1.3487221,0.7912931,0.151761,0.15904781,-0.373703,0.392533,-1.6628203,0.21066394,0.32371122,-1.5568434,-0.2334338,0.5587012,0.53492165,-1.0216852,-1.1277741,1.5933441,1.0259265,0.97985786,0.94607365,-0.94416094,-1.4275955,0.8430496,-1.4693633,-0.6359658,1.7387288,1.6323215,-0.3002165,-1.1026767,1.3974998,0.24684684,-1.477581,0.3074491,-0.6351542,0.8480145,0.97949225,-1.5000614,-1.4733999,0.875016,0.36882964,1.522175,0.61344564,1.3924891,-1.0373642,-1.4550825,1.7629848,-0.4750169,1.5470164,-0.79566634,-0.12825587,-1.0986537,1.162198,-0.21562538,-1.2478681,-1.6420004,-0.77840465,1.360475,-0.18660209,0.7452613,-1.484564,-1.1170449,-1.6384354,-0.29967576,0.81548446,1.1558459,-0.4069217,-1.4574337,-1.2903618,-0.7772825,0.75091,-0.648472,-0.3083315,1.3450944,-0.89269906,1.7623535,-0.21696661,1.2194839,-1.5942826,1.7240111,-0.8535668,-0.20965211,-0.5708408,1.7398659,-1.3938137,0.100655995,-0.9725594,0.8218302,-1.6124158,-1.1677507,-0.46888644,-1.436212,-1.4889404,1.6956836,-0.48364016,-0.9050657,-1.6061422,1.2305119,0.83286357,-1.595428,-0.6624718,0.6932489,-0.54817367,-0.012397711,-0.13102534,1.5331151,1.3070606,1.6050942,-0.69215524,-1.0645726,1.776379,-1.19345,0.89540255,-1.3226498,0.4333394,0.007352571,-0.091637425,-0.7707381,-0.82888675,-1.1188654,1.4938284,-1.500322,-1.4895656,1.2367417,1.2448173,0.09448495,1.4653895,-0.30750597,0.15188052,-0.9251707,-1.2988925,1.6827031,0.14115092,-0.90993196,0.45670798,0.86813825,1.4937272,0.30994415,-0.18255904,0.6909048,-1.6036987,-0.81843406,1.5829313,-1.665912,-1.4528342,-0.42411658,0.4510966,1.1528296,-1.2843286,-0.8675399,-1.075015,-0.57597435,1.468401,-1.4234542,0.22420049,-0.11788167,-0.4183821,0.7031547,-1.3421831,0.79864836,0.36113912,-0.33548743,-1.2079351,1.1250854,0.78968555,0.3369044,1.2548155,-1.4296192,0.932038,-1.4117619,-1.5716779,1.0619655,0.75386184,0.31623182,-0.2390604,-0.016319994,1.2519596,1.3262423,1.7938441,-0.43982378,0.79091704,-1.318552,1.4053258,-1.165441,-0.97971773,-1.3650426,0.53002983,-0.75332785,0.95546156,0.84387046,1.1374214,1.6159338,0.8306315,0.87999594,0.16902204,0.18028775,-1.1094522,0.97892344,-0.60658187,-1.1253756,0.6587966,1.5823631,-0.24137412,-0.43966743,0.35701278,1.3773477,-1.0861616,-0.45089424,0.5186373,-1.3346783,0.44646993,0.6262529,-1.1453118,1.0491087,-1.1521513,0.6176902,0.39728662,-0.58793694,1.4265772,-0.8726442,-0.138542,0.059774864,-0.13035181,0.5803393,-1.6350105,-0.6110592,-0.279289,-0.40010694,0.57197833,1.5920161,-0.040783092,1.0322233,0.7598628,-1.4190278,-1.1391876,-0.61270946,-0.8318034,-1.5270927,-0.37430593,0.68126994,-0.7687971,0.017520646,1.4260111,0.78563005,0.94777733,-0.27867255,-1.6387383,-1.2435094,-0.5576301,1.3040438,1.3282303,-0.9388945,-0.7244321,0.84729475,-0.5733396,-1.6218113,1.0386075,-1.0322104,-0.093363404,1.7774235,0.27562883,-0.9290966,-1.0760798,-1.5799415,1.270554,1.2096363,1.76393,-0.113919005,-0.6171805,-0.596469,-0.25838053,-0.5816872,1.6621416,0.6827088,-1.278097,0.5689193,0.9320882,0.95695275,-0.31560704,-0.038120627,-0.8947504,0.88740575,0.88295966,-1.5357943,-1.2857558,-0.5464974,0.75019443,-1.3571628,-1.1066563,0.16301507,0.3632332,-1.463599,-0.64624965,1.2010205,-1.0542498,0.88892585,0.0037746518,-0.20116484,1.0747961,-1.0174136,-0.30977827,1.1916121,-0.1860414,-1.6581692,1.2090701,0.5520869,-0.41071948,1.5951772,-0.42428628,1.0420878,0.9950194,-1.430465,-0.14997552,-0.81909174,0.8984874,-1.3311177,-0.27997047,1.7916095,-1.5838658,-0.9995817,-1.1562806,-0.4182707,-1.5509242,-0.111337535,-0.46083495,1.7001698,-0.997518,-0.28265274,-1.1900907,-1.4494922,-0.87747604,-1.0069767,-1.6346066,-0.5901476,0.49534282,-0.6607743,1.5953785,-1.4393758,-0.98088557,0.85013086,-1.4696755,0.8545095,0.17186293,0.4705922,0.05466709,-1.1666942,1.3748175,-0.39438647,-1.6112418,-0.048840642,-1.2742246,-0.30296844,1.6586269,1.078566,0.3171556,1.4525533,1.3317087,-0.60636514,-0.54765856,-1.1114478,0.059592895,0.26926062,-1.6271582,-0.014966067,-1.4564,0.0514327,1.6529198,-1.044068,-0.8455011,0.63640636,1.2097193,-0.57838327,-0.33680788,0.026718305,0.43973947,0.15565789,1.5759166,-0.04963472,-0.5656485,0.3538958,-0.9405788,0.55580413,0.8694556,-1.0271555,0.45387995,1.3495573,-1.0243552,-0.6170088,0.354108,-1.631202,0.66588974,0.6492184,-1.223585,-1.0957676,-0.36249125,-0.030611476,-0.5420436,1.7680166,0.12229091,-0.9090883,-1.150815,-1.5134648,0.6517384,1.0317461,-1.142738,1.6264198,1.5441325,-0.24225211,1.705634,-0.089520246,-0.3399783,-1.2433902,-1.5496466,-1.4983344,-0.39619592,1.7024441,0.5182276,0.56916976,1.6403383,-0.7531714,0.13140737,1.7993916,0.9479835,-1.457243,-0.3000476,1.0256231,-1.2252848,1.6979905,0.98567915,-0.64796543,-0.09532631,-1.5874887,1.577016,1.3867294,0.1683,1.2887219,0.73185736,0.11606176,0.54732084,-0.75295156,0.16608498,-0.2812807,-0.14852187,-0.026186386,0.8137212,0.7894849,-1.235449,1.5478933,0.19043334,0.12058699,-1.2732099,-0.18595499,-0.36257094,1.2015488,0.22752982,-0.14001793,1.2365886,-1.0797635,-0.3182689,-1.3207928,-1.0425276,1.3154781,0.9604763,-0.93694943,1.1259098,-1.1669105,-0.5479365,-1.6803522,0.34245732,0.9891086,-1.0182903,-0.008119821,1.6892979,-0.36198446,-0.16812932,0.25263917,0.8137356,-0.562121,-0.21012723,0.6277207,0.20871499,-1.552998,-0.14431705,0.44738808,0.5223807,1.3580157,0.96552926,0.5913889,0.4796171,0.3522169,-1.2111194,-0.7976325,-1.4704944,0.5352414
Gfi1,0.706336,0.94644046,-1.0621294,0.08399728,-1.1307691,0.91249907,-1.0729791,1.2532762,1.2541156,1.3617487,0.22271685,1.0392879,0.24237761,-1.1913548,0.7793164,0.72818244,0.40292695,1.0665444,-1.1230078,1.0628777,0.53504264,1.3632714,0.49649313,-1.1107229,-0.6287638,-0.9647675,-0.8688945,0.66045886,-0.70855516,-0.2636101,0.5083149,-1.1340483,1.0064898,-1.0652698,0.16473395,0.7598151,-1.0758198,-0.6384228,0.26298505,-1.6695997,-1.1698875,0.3817724,0.6490168,-0.91213304,-1.2323182,0.9491173,0.7716005,-1.0710917,0.08346346,-0.054614242,0.92127454,1.1739581,-0.3667358,0.39935905,1.5608757,0.36301044,-0.8690075,1.2004565,-0.035429016,-1.4813888,-1.2498499,1.1910024,-1.293186,-0.3883247,-0.03992072,1.1423919,1.4349982,0.11743256,-1.5306813,-0.37796336,0.62639105,-0.37598157,1.6219724,-0.9080478,-0.76780206,1.0841888,0.6320388,0.020279717,-1.039858,-0.21807341,1.5166861,-1.3443412,-1.4043679,-0.71854717,-0.45620874,-0.4120512,1.5636508,0.38544607,-1.179223,-0.52815044,-1.4677174,1.2249364,-0.5736713,-0.32628876,-1.2696626,1.4388276,-0.77281487,-1.509017,-0.19738768,-1.2220292,0.026083086,-0.6720941,0.31545752,-0.21019325,-1.5460483,0.51533484,-0.99417496,1.5629085,-1.5123386,-0.640373,-0.027063949,-1.5629877,-1.5653737,-1.5504229,-1.0952023,-1.6301569,-0.53559047,1.6764371,-1.3621804,-0.80040395,1.0321236,-0.77497375,0.63808113,0.42940632,1.3263922,0.3854321,0.32675862,1.5676364,1.3974115,1.6976057,1.7453762,-0.021561433,0.24312067,1.2399198,-1.3422079,0.9305446,-0.1921273,0.3623529,-1.4754443,0.13624968,0.87683666,-1.625302,1.4014509,-0.27618766,1.6456256,1.606776,-0.6058959,1.176164,1.7461597,-0.13127248,0.106965296,1.3002381,-1.0604411,0.050867435,-1.3645167,0.26421884,-0.11669682,-0.72485685,1.066515,-0.7752598,0.18299893,0.41605937,0.6538868,-0.23799379,1.5727249,1.2391206,1.2291877,1.2914027,-0.4019431,-0.7086734,1.5599957,-0.778882,-0.24131644,1.1462603,-1.3332437,-0.90233994,0.5069715,-0.8693061,-0.9491026,0.8912535,-0.7626552,0.28463015,-1.220128,0.7787621,0.22308059,-0.3777471,-1.5066408,1.4938796,1.7968678,-1.4878584,1.3342826,-0.5803141,-0.2518518,1.1637847,0.30990693,0.5894447,-0.42566893,-0.019305998,1.7327646,-0.12413309,-1.4227514,1.1543269,-0.77580947,-1.201453,0.8736029,-1.5274074,0.8653465,-0.53268915,-0.51742184,1.7228394,0.7051334,0.46723002,-0.8086426,0.52450126,0.7295438,-0.8512659,1.202571,0.55733126,-0.1609462,-1.647763,-0.15237191,1.276707,0.1464698,1.341417,-1.3739552,0.7396519,1.553754,0.98642385,1.5865077,-0.9311692,0.0056063943,0.91924995,-1.5060797,-1.2627066,0.1672155,1.7997949,0.35417897,0.6675966,-0.92171043,-1.6907036,-1.5440811,0.90395766,-0.8821069,1.0386157,-0.9640353,0.12952398,1.3478715,0.31911704,-0.20616622,-0.86369675,0.81478286,-1.4718225,1.3710414,1.1019636,-0.5848202,0.07540528,0.59655166,-0.11704326,0.07160854,-0.512073,0.8040133,0.5648617,-1.396428,1.2437925,0.9981014,0.8674592,-0.29337564,-0.57359654,-0.07370307,1.7176977,-1.1436137,0.48604214,-0.25090823,0.9251949,-0.66846293,1.7825084,-0.117413856,1.2520846,1.1992652,0.272728,-1.5452273,-0.9040158,0.20359866,0.09076421,-0.3177796,0.93525785,0.40783364,-0.9209961,-0.33121666,1.3225467,1.7481703,1.6294743,-1.3403027,0.41025227,0.34393638,0.35918665,1.4470054,-1.4264246,-0.28331292,1.5817662,1.4156399,0.23284227,0.2818132,-0.6696748,-0.90513855,1.6797426,-0.61345726,-0.5870537,0.7786343,-0.6907807,-0.19095244,0.9470865,0.7918563,-0.22190595,-0.6988922,-1.2591478,-0.7569915,1.3720262,0.006112113,-0.86449313,0.5616119,-0.4352661,0.62754744,1.2005606,0.05850734,0.87215513,1.4157264,1.6200328,1.200147,-1.5956037,1.558954,-0.72212297,0.057492573,0.5584729,0.77907544,0.9098187,-1.3058892,-1.5169806,-1.1042314,-1.4106518,0.85610515,0.3823976,1.3516198,0.7216587,0.09273357,-0.34800592,0.71787655,-0.26818362,0.19311664,0.916229,-1.0263287,-0.8413186,-0.5947626,1.413281,-0.88495773,1.75012,-1.4339738,-1.3346106,-0.4826412,-1.195676,-0.84628993,-0.6582665,0.08942256,-0.6112479,-0.27468637,-0.10482898,0.5178031,0.06709476,-0.78931123,-0.4521636,-1.4492652,0.3288912,0.15681383,0.32012495,1.5584391,0.7732417,0.5641794,-1.0260427,0.15926434,-0.877419,0.5148914,0.28578773,-0.33230698,0.2375709,0.66588455,-0.36702642,0.8891979,-0.94901115,-0.3927787,0.34608105,-0.24162312,0.7020067,0.7964581,1.5511798,-1.369483,1.3787813,-1.2475019,-0.06307737,-1.1833047,-1.6499058,0.47973177,-0.20390996,-1.1420728,0.8603098,0.54471874,1.2323613,-1.2081214,-1.1190679,-1.4054985,-1.1216078,0.22997034,-0.97682685,-1.5947373,-1.503082,-1.5857618,1.7844086,1.2039564,-0.0543973,0.8130652,0.12571163,-1.4140309,1.6923803,0.12271834,-0.10409591,-0.9609162,-1.4891968,1.080251,0.04499786,0.6677271,-0.26161325,-0.28291753,-1.0302,0.8459523,0.42341262,-0.2671158,-0.03188087,-1.6069624,1.3219635,-0.72850513,-0.89577806,0.31091708,1.6410952,-0.3829935,1.1972779,-1.500109,-0.1706554,0.12073336,-0.8031805,-0.92191136,1.5982877,0.2327321,-1.0694418,-0.38197395,0.37663564,0.42991886,0.5545993,1.4652969,0.864006,0.10995567,1.5710986,0.1817031,1.2631674,0.20272006,0.5789108,-0.1987312,0.7595522,0.73915726,-0.73983437,0.25218156,-0.3330998,0.1064042,1.7522479,-0.89650327,-1.2179106,-1.3532178,-1.0040249,0.8769545,1.3731202,0.20727195,-0.45503575,1.7831076,-0.1070282,0.25851625,-0.25726563,-1.4459376,-0.3011573,-0.5850026,-1.2979438,0.2567178,0.2120189,0.63484883,-1.0903988,-1.0662299,-1.5789741,1.4076531,0.10988134,-0.06494742,-0.64556736,0.13710622,1.7081075,-1.1301942,0.0058012726,0.66020656,-0.028399969,1.2332265,0.5518188,-0.558736,1.0218523,-0.86104906,1.6322347,-0.43304166,1.7091922,-0.8136952,-0.7644322,-0.05210231,-1.4020435,0.43010396,-0.25104377,1.5565826,1.1138124,0.972895,-0.838922,-1.1900887,-1.6746649,-0.5838675,-1.0576246,1.4677404,1.1637155,-1.2313443,0.73668927,-1.5298142,-0.7989207,-1.3487221,0.7912931,0.151761,0.15904781,-0.373703,0.392533,-1.6628203,0.21066394,0.32371122,-1.5568434,-0.2334338,0.5587012,0.53492165,-1.0216852,-1.1277741,1.5933441,1.0259265,0.97985786,0.94607365,-0.94416094,-1.4275955,0.8430496,-1.4693633,-0.6359658,1.7387288,1.6323215,-0.3002165,-1.1026767,1.3974998,0.24684684,-1.477581,0.3074491,-0.6351542,0.8480145,0.97949225,-1.5000614,-1.4733999,0.875016,0.36882964,1.522175,0.61344564,1.3924891,-1.0373642,-1.4550825,1.7629848,-0.4750169,1.5470164,-0.79566634,-0.12825587,-1.0986537,1.162198,-0.21562538,-1.2478681,-1.6420004,-0.77840465,1.360475,-0.18660209,0.7452613,-1.484564,-1.1170449,-1.6384354,-0.29967576,0.81548446,1.1558459,-0.4069217,-1.4574337,-1.2903618,-0.7772825,0.75091,-0.648472,-0.3083315,1.3450944,-0.89269906,1.7623535,-0.21696661,1.2194839,-1.5942826,1.7240111,-0.8535668,-0.20965211,-0.5708408,1.7398659,-1.3938137,0.100655995,-0.9725594,0.8218302,-1.6124158,-1.1677507,-0.46888644,-1.436212,-1.4889404,1.6956836,-0.48364016,-0.9050657,-1.6061422,1.2305119,0.83286357,-1.595428,-0.6624718,0.6932489,-0.54817367,-0.012397711,-0.13102534,1.5331151,1.3070606,1.6050942,-0.69215524,-1.0645726,1.776379,-1.19345,0.89540255,-1.3226498,0.4333394,0.007352571,-0.091637425,-0.7707381,-0.82888675,-1.1188654,1.4938284,-1.500322,-1.4895656,1.2367417,1.2448173,0.09448495,1.4653895,-0.30750597,0.15188052,-0.9251707,-1.2988925,1.6827031,0.14115092,-0.90993196,0.45670798,0.86813825,1.4937272,0.30994415,-0.18255904,0.6909048,-1.6036987,-0.81843406,1.5829313,-1.665912,-1.4528342,-0.42411658,0.4510966,1.1528296,-1.2843286,-0.8675399,-1.075015,-0.57597435,1.468401,-1.4234542,0.22420049,-0.11788167,-0.4183821,0.7031547,-1.3421831,0.79864836,0.36113912,-0.33548743,-1.2079351,1.1250854,0.78968555,0.3369044,1.2548155,-1.4296192,0.932038,-1.4117619,-1.5716779,1.0619655,0.75386184,0.31623182,-0.2390604,-0.016319994,1.2519596,1.3262423,1.7938441,-0.43982378,0.79091704,-1.318552,1.4053258,-1.165441,-0.97971773,-1.3650426,0.53002983,-0.75332785,0.95546156,0.84387046,1.1374214,1.6159338,0.8306315,0.87999594,0.16902204,0.18028775,-1.1094522,0.97892344,-0.60658187,-1.1253756,0.6587966,1.5823631,-0.24137412,-0.43966743,0.35701278,1.3773477,-1.0861616,-0.45089424,0.5186373,-1.3346783,0.44646993,0.6262529,-1.1453118,1.0491087,-1.1521513,0.6176902,0.39728662,-0.58793694,1.4265772,-0.8726442,-0.138542,0.059774864,-0.13035181,0.5803393,-1.6350105,-0.6110592,-0.279289,-0.40010694,0.57197833,1.5920161,-0.040783092,1.0322233,0.7598628,-1.4190278,-1.1391876,-0.61270946,-0.8318034,-1.5270927,-0.37430593,0.68126994,-0.7687971,0.017520646,1.4260111,0.78563005,0.94777733,-0.27867255,-1.6387383,-1.2435094,-0.5576301,1.3040438,1.3282303,-0.9388945,-0.7244321,0.84729475,-0.5733396,-1.6218113,1.0386075,-1.0322104,-0.093363404,1.7774235,0.27562883,-0.9290966,-1.0760798,-1.5799415,1.270554,1.2096363,1.76393,-0.113919005,-0.6171805,-0.596469,-0.25838053,-0.5816872,1.6621416,0.6827088,-1.278097,0.5689193,0.9320882,0.95695275,-0.31560704,-0.038120627,-0.8947504,0.88740575,0.88295966,-1.5357943,-1.2857558,-0.5464974,0.75019443,-1.3571628,-1.1066563,0.16301507,0.3632332,-1.463599,-0.64624965,1.2010205,-1.0542498,0.88892585,0.0037746518,-0.20116484,1.0747961,-1.0174136,-0.30977827,1.1916121,-0.1860414,-1.6581692,1.2090701,0.5520869,-0.41071948,1.5951772,-0.42428628,1.0420878,0.9950194,-1.430465,-0.14997552,-0.81909174,0.8984874,-1.3311177,-0.27997047,1.7916095,-1.5838658,-0.9995817,-1.1562806,-0.4182707,-1.5509242,-0.111337535,-0.46083495,1.7001698,-0.997518,-0.28265274,-1.1900907,-1.4494922,-0.87747604,-1.0069767,-1.6346066,-0.5901476,0.49534282,-0.6607743,1.5953785,-1.4393758,-0.98088557,0.85013086,-1.4696755,0.8545095,0.17186293,0.4705922,0.05466709,-1.1666942,1.3748175,-0.39438647,-1.6112418,-0.048840642,-1.2742246,-0.30296844,1.6586269,1.078566,0.3171556,1.4525533,1.3317087,-0.60636514,-0.54765856,-1.1114478,0.059592895,0.26926062,-1.6271582,-0.014966067,-1.4564,0.0514327,1.6529198,-1.044068,-0.8455011,0.63640636,1.2097193,-0.57838327,-0.33680788,0.026718305,0.43973947,0.15565789,1.5759166,-0.04963472,-0.5656485,0.3538958,-0.9405788,0.55580413,0.8694556,-1.0271555,0.45387995,1.3495573,-1.0243552,-0.6170088,0.354108,-1.631202,0.66588974,0.6492184,-1.223585,-1.0957676,-0.36249125,-0.030611476,-0.5420436,1.7680166,0.12229091,-0.9090883,-1.150815,-1.5134648,0.6517384,1.0317461,-1.142738,1.6264198,1.5441325,-0.24225211,1.705634,-0.089520246,-0.3399783,-1.2433902,-1.5496466,-1.4983344,-0.39619592,1.7024441,0.5182276,0.56916976,1.6403383,-0.7531714,0.13140737,1.7993916,0.9479835,-1.457243,-0.3000476,1.0256231,-1.2252848,1.6979905,0.98567915,-0.64796543,-0.09532631,-1.5874887,1.577016,1.3867294,0.1683,1.2887219,0.73185736,0.11606176,0.54732084,-0.75295156,0.16608498,-0.2812807,-0.14852187,-0.026186386,0.8137212,0.7894849,-1.235449,1.5478933,0.19043334,0.12058699,-1.2732099,-0.18595499,-0.36257094,1.2015488,0.22752982,-0.14001793,1.2365886,-1.0797635,-0.3182689,-1.3207928,-1.0425276,1.3154781,0.9604763,-0.93694943,1.1259098,-1.1669105,-0.5479365,-1.6803522,0.34245732,0.9891086,-1.0182903,-0.008119821,1.6892979,-0.36198446,-0.16812932,0.25263917,0.8137356,-0.562121,-0.21012723,0.6277207,0.20871499,-1.552998,-0.14431705,0.44738808,0.5223807,1.3580157,0.96552926,0.5913889,0.4796171,0.3522169,-1.2111194,-0.7976325,-1.4704944,0.5352414
