,0,1,2,3,4,5,6,7,8,9,10,11,12,13,14,15,16,17,18,19,20,21,22,23,24,25,26,27,28,29,30,31,32,33,34,35,36,37,38,39,40,41,42,43,44,45,46,47,48,49,50,51,52,53,54,55,56,57,58,59,60,61,62,63,64,65,66,67,68,69,70,71,72,73,74,75,76,77,78,79,80,81,82,83,84,85,86,87,88,89,90,91,92,93,94,95,96,97,98,99,100,101,102,103,104,105,106,107,108,109,110,111,112,113,114,115,116,117,118,119,120,121,122,123,124,125,126,127,128,129,130,131,132,133,134,135,136,137,138,139,140,141,142,143,144,145,146,147,148,149,150,151,152,153,154,155,156,157,158,159,160,161,162,163,164,165,166,167,168,169,170,171,172,173,174,175,176,177,178,179,180,181,182,183,184,185,186,187,188,189,190,191,192,193,194,195,196,197,198,199,200,201,202,203,204,205,206,207,208,209,210,211,212,213,214,215,216,217,218,219,220,221,222,223,224,225,226,227,228,229,230,231,232,233,234,235,236,237,238,239,240,241,242,243,244,245,246,247,248,249,250,251,252,253,254,255,256,257,258,259,260,261,262,263,264,265,266,267,268,269,270,271,272,273,274,275,276,277,278,279,280,281,282,283,284,285,286,287,288,289,290,291,292,293,294,295,296,297,298,299,300,301,302,303,304,305,306,307,308,309,310,311,312,313,314,315,316,317,318,319,320,321,322,323,324,325,326,327,328,329,330,331,332,333,334,335,336,337,338,339,340,341,342,343,344,345,346,347,348,349,350,351,352,353,354,355,356,357,358,359,360,361,362,363,364,365,366,367,368,369,370,371,372,373,374,375,376,377,378,379,380,381,382,383,384,385,386,387,388,389,390,391,392,393,394,395,396,397,398,399,400,401,402,403,404,405,406,407,408,409,410,411,412,413,414,415,416,417,418,419,420,421,422,423,424,425,426,427,428,429,430,431,432,433,434,435,436,437,438,439,440,441,442,443,444,445,446,447,448,449,450,451,452,453,454,455,456,457,458,459,460,461,462,463,464,465,466,467,468,469,470,471,472,473,474,475,476,477,478,479,480,481,482,483,484,485,486,487,488,489,490,491,492,493,494,495,496,497,498,499,500,501,502,503,504,505,506,507,508,509,510,511,512,513,514,515,516,517,518,519,520,521,522,523,524,525,526,527,528,529,530,531,532,533,534,535,536,537,538,539,540,541,542,543,544,545,546,547,548,549,550,551,552,553,554,555,556,557,558,559,560,561,562,563,564,565,566,567,568,569,570,571,572,573,574,575,576,577,578,579,580,581,582,583,584,585,586,587,588,589,590,591,592,593,594,595,596,597,598,599,600,601,602,603,604,605,606,607,608,609,610,611,612,613,614,615,616,617,618,619,620,621,622,623,624,625,626,627,628,629,630,631,632,633,634,635,636,637,638,639,640,641,642,643,644,645,646,647,648,649,650,651,652,653,654,655,656,657,658,659,660,661,662,663,664,665,666,667,668,669,670,671,672,673,674,675,676,677,678,679,680,681,682,683,684,685,686,687,688,689,690,691,692,693,694,695,696,697,698,699,700,701,702,703,704,705,706,707,708,709,710,711,712,713,714,715,716,717,718,719,720,721,722,723,724,725,726,727,728,729,730,731,732,733,734,735,736,737,738,739,740,741,742,743,744,745,746,747,748,749,750,751,752,753,754,755,756,757,758,759,760,761,762,763,764,765,766,767,768,769,770,771,772,773,774,775,776,777,778,779,780,781,782,783,784,785,786,787,788,789,790,791,792,793,794,795,796,797,798,799,800,801,802,803,804,805,806,807,808,809,810,811,812,813,814,815,816,817,818,819,820,821,822,823,824,825,826,827,828,829,830,831,832,833,834,835,836,837,838,839,840,841,842,843,844,845,846,847,848,849,850,851,852,853,854,855,856,857,858,859,860,861,862,863,864,865,866,867,868,869,870,871,872,873,874,875,876,877,878,879,880,881,882,883,884,885,886,887,888,889,890,891,892,893,894,895,896,897,898,899,900,901,902,903,904,905,906,907,908,909,910,911,912,913,914,915,916,917,918,919,920,921,922,923,924,925,926,927,928,929,930,931,932,933,934,935,936,937,938,939,940,941,942,943,944,945,946,947,948,949,950,951,952,953,954,955,956,957,958,959,960,961,962,963,964,965,966,967,968,969,970,971,972,973,974,975,976,977,978,979,980,981,982,983,984,985,986,987,988,989,990,991,992,993,994,995,996,997,998,999,1000,1001,1002,1003,1004,1005,1006,1007,1008,1009,1010,1011,1012,1013,1014,1015,1016,1017,1018,1019,1020,1021,1022,1023
Coup,-0.89201117,1.385679,-1.5638235,-1.0075566,1.5591086,-0.59845245,-0.93880105,0.43269423,0.14630844,-1.0448631,0.8728702,-0.112639904,-1.0871114,-1.4881642,-1.257114,0.8317525,-1.6877359,-0.47724655,0.76231325,1.3601986,1.2297685,-1.0242597,0.77469015,0.54153025,0.64037126,-0.18465297,-1.4054285,1.1720185,-1.5769099,-1.6673441,-1.1380739,-0.1353108,1.6353441,0.5568759,-0.43991292,-1.2568604,-1.2269784,1.4260856,0.9013602,0.4952877,0.6976389,-0.8535547,0.10824705,-0.9101351,-0.24241325,-0.6836637,1.5680367,1.2960405,-0.4108529,-1.0852964,-0.70674396,-0.10786549,-0.2624543,1.4069694,0.18143857,-0.6836029,-1.1817758,0.92583084,-0.9880917,0.5411949,-0.38993526,1.5682242,-0.78415954,-0.24929461,-0.6516139,-0.97332627,0.65860313,1.2714895,-1.3513864,1.6217587,-0.80260986,0.4717497,-1.1105541,-0.86891377,-1.4265921,1.065622,0.6109652,-1.2848608,-0.7088323,1.6358165,-1.368906,-1.0691122,0.7650378,1.6146444,1.5940927,0.72929406,1.4135519,1.7064197,-0.912589,-0.5692126,1.1483728,0.3998005,0.29798463,-0.74899834,-0.36240682,1.491045,1.6011391,-1.509585,-0.95729065,1.5655261,1.2261254,-1.5921546,-1.2848822,0.14414896,0.59694624,-1.4153601,0.5142543,0.28437275,-1.3801742,1.5330954,0.0794248,1.7099293,1.3516967,0.16289,-0.8923794,0.9305906,-1.2214953,-0.5832791,-0.045969013,-0.8480149,0.99105763,-0.6410491,0.40782294,-1.5211699,1.5045445,0.48188838,-0.43661344,0.815724,1.3277686,1.4236525,-1.2671536,1.5730282,-1.274423,0.94692576,0.3606814,-0.23430958,-0.55006385,0.2790298,-0.7106364,0.7219377,1.3215493,0.10651884,-0.019453438,1.5224491,0.25631505,0.20123959,1.3048413,0.5514208,0.3206371,0.5744542,0.19943759,0.46098745,0.46613443,-1.2825902,-0.18245524,1.0254997,-1.1024327,-1.7018139,0.868303,-0.2599409,1.4884313,-0.8904213,0.26255554,-1.0980612,-0.052266955,-0.24727905,0.45454,1.4694918,0.10125692,-0.22219789,-0.5085688,1.0781174,-0.36326623,-1.1843079,-1.5208914,0.3259861,1.0293262,1.5594364,1.656577,1.6537263,-0.1192515,0.028524803,0.87978923,-0.39377433,-0.474515,-1.5711979,-1.3209835,0.2891176,-0.90311605,-0.2804372,-0.582559,1.1878932,-0.9622857,1.4524872,0.18335201,0.7035385,0.41476905,0.9093775,-0.8690467,0.8416607,-1.4526731,-0.4150532,-1.2989999,0.8611735,0.49195614,0.52628803,-0.06921797,1.1795677,-1.6051254,0.9898703,0.7476036,-1.049108,-0.45755675,0.11933761,-1.1030531,-0.28849953,-0.67200685,-0.08552787,-0.2463555,-0.5782996,0.2009638,-1.5024103,1.5928923,-0.5830219,0.053655166,0.23686178,0.6125596,-0.9623821,-0.6815106,-0.7052761,0.00059300795,-0.71296537,-1.3556626,0.33759847,1.4343313,-0.47186843,0.08173602,-1.0609558,1.5657477,1.4801682,0.9133791,0.61139005,-0.44599625,-1.3676785,-1.2687043,-0.20783369,-0.82754445,-0.47749424,0.83859956,1.5694151,-1.4736608,1.3978755,1.4938673,-0.20918046,1.1282077,0.52296144,0.69504756,0.4240644,1.480759,0.112520315,-1.6109726,0.8572482,0.31583086,-1.3849509,-0.899469,0.998999,0.7603917,0.5878731,-1.2793424,0.045237236,-0.36586073,0.10738739,-1.0279936,-1.0859578,0.93883574,-1.2086136,1.098764,-0.08048198,-0.3006867,-0.9991306,-1.1784407,-0.34152842,0.2796002,1.5440199,1.5926636,-1.6686856,-0.2771032,-0.68349314,-0.7213264,-0.67702216,1.0974426,1.2139752,0.8897226,0.30005312,0.015306607,-0.5835954,0.8219516,1.0422659,0.13534586,-0.45419937,0.68500805,0.3559866,-1.2704892,-0.12283359,-1.2229247,-1.1277379,0.51818,-1.0293678,0.9021374,-0.37032604,0.4735792,0.4365046,1.6280813,-1.2848634,1.4424627,0.73870283,0.64121485,-0.6934106,0.6524836,1.421241,1.2650827,-0.05842844,1.6032264,-0.9413564,-0.2733619,-1.4918103,-1.0150822,1.6808023,-0.15580691,-0.32412833,0.7552617,0.59516287,-1.2687858,-1.3612468,1.3481697,-1.6304672,-1.5083495,-1.5963953,-0.39279765,-1.209637,-0.4142016,-1.257699,-1.6399345,-0.22218466,-1.602885,1.1546592,-0.018220188,-1.6418569,0.28638792,1.1426427,0.3050473,1.2333009,0.44110703,-0.37664655,-0.5302806,0.96016955,-0.80195946,-0.20809212,1.5540287,-1.0123144,1.2226913,0.8127598,1.0681233,0.69489825,-0.35748643,-1.639513,0.14347062,-1.1655073,0.8431598,-0.5403037,-0.13085167,-1.1468741,1.0745107,0.17445318,-1.4623246,-0.3553216,-1.4085827,-0.6300772,0.7775784,-1.311868,-1.3119336,1.662725,0.9904196,1.4618158,-1.583268,0.78789717,0.22714734,-0.48401156,0.92640316,-1.4266206,-0.34414294,-0.14377153,1.6989124,0.039763596,1.2694889,1.5538284,0.00056426926,0.5696411,-0.22269076,0.40786883,-0.21854673,1.7393452,1.0036857,-0.2762324,1.6895528,1.189804,0.838453,-0.010978442,1.6173109,-1.2018908,1.5314418,-1.0464022,1.1360023,-1.117021,-1.3979789,-1.3291903,-0.66266024,0.5550081,0.2938939,1.331696,1.0959245,0.29988834,-1.6483499,-1.0950131,-0.718788,-1.5695187,0.33109564,1.2972082,0.64722705,0.42858803,1.459675,1.0066751,-1.4588131,-1.1115575,1.0880094,0.44502798,-0.9349169,0.64975554,1.0320609,-0.38832074,1.219147,-0.720834,-0.79934096,1.1270835,1.2275684,-0.38300052,-0.2779424,1.0906628,-0.19643797,0.46941155,-0.58505774,0.8625109,0.38327417,1.5783483,0.22231956,-1.3901677,-0.1772175,1.6331216,0.43396327,1.2331002,1.1788054,-0.7718512,-1.1680417,0.53263825,-0.65438783,1.4345771,-0.20203114,1.6422563,-1.5829043,0.8661005,-1.64346,-1.1254017,-1.1241312,1.4550697,-0.82761496,0.9587211,1.0122838,-1.2524937,-1.1117492,-1.5091072,-0.5820463,-0.97387207,-0.33268458,1.0654231,0.7250646,-0.9701022,-0.85638505,1.0177678,-1.1345693,0.006964346,-1.2950183,1.0332174,-0.2831545,-1.417713,-0.19572595,-0.8474984,0.4301072,0.8346765,-0.8002362,-0.17888471,1.1386552,1.4362184,1.6900182,-1.0090439,1.4153826,1.3414098,0.5032173,0.72723436,0.7261672,-0.16971421,-1.6140422,1.7636367,0.28660938,-0.41082314,-0.8088034,-0.022858774,-0.90830725,0.006618044,0.138647,0.58378536,-0.84097415,-0.71343845,1.0020938,-0.5354871,0.061972205,1.5475317,-1.697447,0.49619696,0.8340143,0.88149923,0.28988382,-1.5259061,1.4911342,0.60701257,-0.6790565,-1.2352414,-0.95938337,-0.82614535,0.6783936,1.0992349,0.42182368,-1.2732751,-0.9904712,-1.1531377,-0.42013693,-0.9886373,1.5150889,0.6650149,-0.8051762,0.79531676,-0.42307207,-0.5551099,-0.29988924,0.9608533,-1.5182688,-1.4505894,0.3761269,0.041609436,-0.10800669,-1.2499808,0.95903635,1.132456,-0.25414205,1.4454958,1.294702,1.1842724,0.6658236,0.9115347,-0.566246,1.2661899,0.7088043,0.4971015,-0.6999339,-1.1352366,-0.2906249,0.43042725,-1.6275401,-1.1155733,0.8093148,0.27625006,-0.773003,-0.7092921,1.5820997,0.4294018,-1.5122814,0.43651122,0.9185209,1.6463957,-0.20177993,-1.6567445,-1.0884311,-0.9885863,-1.4386358,0.26247507,0.8057808,-1.5431212,0.31317168,1.7253556,1.7480727,-0.20534033,-0.9246374,-0.15507525,-1.1224107,0.34061655,-1.4665391,0.79266113,0.8327083,1.7336991,-0.9076252,-1.4426156,0.35170236,0.25615895,0.39566332,0.99942285,0.5125916,-0.96639234,-0.84548676,0.9465304,1.4923958,-1.0556045,1.4034092,1.1936649,-0.34372073,1.3141359,-0.7817804,1.0590891,1.5895226,1.0987309,-0.3051828,0.3669928,-1.4204941,-1.1159004,-0.8519536,-1.1000183,-0.5823888,1.2462028,-0.6066984,-0.84334016,-0.8223538,-0.25745517,-0.24903227,1.2675369,-0.70117664,1.1703093,-0.88473535,-1.4790857,1.3043023,-1.6461318,0.8888361,0.7955669,-0.83815515,-1.2678624,-0.14954598,-1.4378129,-0.34903127,-0.25582746,-1.493923,0.86450046,-1.1781744,0.36439252,0.8743886,-0.6063062,0.042610303,0.50199723,0.30502334,1.3597448,0.30396357,0.9679791,0.9739861,-0.1570714,0.53932965,1.3633319,1.0752465,1.364008,-0.5831966,-0.6267577,0.28822613,1.762144,-0.5153067,-1.1468385,-0.17763968,-0.80200136,1.7649261,-0.4046296,0.007302378,-0.27919692,1.1320871,-0.94899017,0.016275013,-0.8137252,1.4592444,0.7238797,1.3258725,1.3212954,0.90931153,-1.5664561,-0.66929555,0.4416518,-0.61726815,-0.5147667,0.30210984,-0.49821964,-0.9335772,-0.5363681,-1.2293867,0.6445947,-0.5467431,1.2826887,-0.77249813,-1.3739474,-0.018664902,1.126801,-1.0667832,1.2032583,1.5106728,0.96008456,0.14879332,0.9459712,1.2160251,-0.8731215,0.69649476,-1.043894,0.96067053,0.41933566,-0.3333439,1.3821342,1.4724115,0.78278893,1.2883441,-1.4734676,-1.4868984,1.3195131,-1.2349409,-1.4067523,-1.3871006,-1.1625242,1.1941221,-1.2408869,-0.83914834,-0.96909744,1.0892543,1.2754611,-1.1031368,1.254084,0.11551588,-1.1137947,-0.44619206,0.90231955,-1.1896471,0.9164005,0.13068701,-0.08877029,1.4198005,0.50808454,-1.2501314,-1.2181027,0.2758219,-1.4100374,-1.4662293,1.3795074,0.22820443,0.22279365,-0.116322495,-1.6409813,1.3206933,0.551211,-0.3033134,-0.7865073,1.3285272,1.3513161,1.1829993,1.1635232,-0.89459205,-1.4873514,0.9587411,-0.34490335,-0.14555763,-0.5893436,-1.0587046,-1.202482,-1.3824294,1.202615,0.93474233,1.0712254,-0.81846243,0.14782782,0.9938568,-1.1763622,-0.17943156,0.7674753,-1.4762927,-1.2266217,0.60534495,-0.7135651,-0.31199142,0.5716347,1.0644356,1.3996091,0.41041493,0.8602135,-0.33750117,-0.8937991,1.167051,-1.0670371,-0.7874505,-0.18098132,-1.4999076,-0.8659155,0.66954565,0.026326869,1.4469028,-1.376103,0.49604002,-1.0741706,-0.49847227,0.2292851,1.5126085,-0.71782845,-1.1764028,-1.3590431,1.6766794,0.4648743,0.9176025,0.37195247,1.5396383,-1.0167919,-1.5234196,1.0046011,-0.50683564,1.5024657,1.318191,0.6199986,-0.33896682,1.1222912,0.18265608,-0.7413454,-0.5404282,-0.63864917,-1.1376013,1.7184219,-0.5905469,0.26385596,0.03698491,-1.296497,1.1248003,-1.6729203,-1.6147215,-0.40215316,-0.5520765,0.8325871,-0.71489704,-1.6011221,-0.47897124,-0.7021025,1.0064702,1.6798158,0.012393327,-1.4660959,1.3615621,-0.14228149,1.4931412,-1.6675322,-1.5273366,1.3117583,-1.2374725,0.54357105,1.0766906,-0.25372544,0.05120852,-0.09989496,0.93019015,-1.3163705,-1.4828274,0.115242556,-0.39781398,-0.043886647,0.20998669,0.44802704,-0.29219988,0.82645726,-1.6116791,-0.64951146,1.6000377,1.1813269,-1.4731541,-1.403884,-0.84134024,0.18050943,-0.4682917,-0.856659,1.5746549,-0.5815691,-0.57362336,-1.4678445,0.2824746,-0.5000688,-0.47583076,1.4813795,0.5348406,-0.41704977,-1.1877475,-0.5328749,0.723955,-1.5826974,-0.036064975,1.2246106,-0.14526199,1.7033557,0.21334258,-0.93229616,-0.7712229,-0.7602469,1.7567407,-0.09322363,1.3036252,1.054957,0.6695278,0.92294776,1.2051682,0.9714617,-0.39380386,1.7159376,0.53252167,1.1213804,1.6078166,1.1462067,0.24609782,-0.77872473,-1.5778002,-0.57852906,0.6252329,-0.64032567,-0.6141514,1.4787503,-0.3443809,0.07274643,0.02896662,-0.47001392,-0.81982094,1.1514987,-0.39910862,0.276389,-0.7059027,-0.2809028,-0.24727637,0.4049345,-0.24409203,-0.3718721,1.3837768,-1.575102,-0.7934288,-0.8196485,-0.6692581,1.1188947,0.8195277,-1.0649279,1.0344868,-1.3283986,-1.0309296,-1.243457,-0.64139974,-0.9515431,0.54531187,-1.2015088,1.6753153,-0.108816735,-0.5548823,-0.656116,-0.57949,0.7794919,-0.23513988,-0.38007563,-1.4886271,-1.2855084,-1.6224289,0.66817224,-0.4804648,-1.4878112,-1.0613506,-1.1384547,0.17205243,-0.09019023,1.2172929,-0.8773108,1.267859,-1.5579082,1.030879,-0.7816839,-1.5393782,-0.68189967,-1.0792322,-0.733575,-1.0897722,1.6036769,1.4794956,-1.5036286,-0.20949802,1.2837957,-0.8206798,0.3621214,-1.6734604,-1.1881669,-1.0415492,-0.20900431,1.2309972,0.22437918,-0.92764664,1.6908398,-0.7210568,0.0053463387,-0.72200334,-0.63072103,-0.17969827,-1.5622619,-0.4583631,1.3262811,1.160117,1.2252363,-0.7644867,1.3999372,0.08915619,-0.9095111,1.4659859,-0.89542353
Emx2,-0.89201117,1.385679,-1.5638235,-1.0075566,1.5591086,-0.59845245,-0.93880105,0.43269423,0.14630844,-1.0448631,0.8728702,-0.112639904,-1.0871114,-1.4881642,-1.257114,0.8317525,-1.6877359,-0.47724655,0.76231325,1.3601986,1.2297685,-1.0242597,0.77469015,0.54153025,0.64037126,-0.18465297,-1.4054285,1.1720185,-1.5769099,-1.6673441,-1.1380739,-0.1353108,1.6353441,0.5568759,-0.43991292,-1.2568604,-1.2269784,1.4260856,0.9013602,0.4952877,0.6976389,-0.8535547,0.10824705,-0.9101351,-0.24241325,-0.6836637,1.5680367,1.2960405,-0.4108529,-1.0852964,-0.70674396,-0.10786549,-0.2624543,1.4069694,0.18143857,-0.6836029,-1.1817758,0.92583084,-0.9880917,0.5411949,-0.38993526,1.5682242,-0.78415954,-0.24929461,-0.6516139,-0.97332627,0.65860313,1.2714895,-1.3513864,1.6217587,-0.80260986,0.4717497,-1.1105541,-0.86891377,-1.4265921,1.065622,0.6109652,-1.2848608,-0.7088323,1.6358165,-1.368906,-1.0691122,0.7650378,1.6146444,1.5940927,0.72929406,1.4135519,1.7064197,-0.912589,-0.5692126,1.1483728,0.3998005,0.29798463,-0.74899834,-0.36240682,1.491045,1.6011391,-1.509585,-0.95729065,1.5655261,1.2261254,-1.5921546,-1.2848822,0.14414896,0.59694624,-1.4153601,0.5142543,0.28437275,-1.3801742,1.5330954,0.0794248,1.7099293,1.3516967,0.16289,-0.8923794,0.9305906,-1.2214953,-0.5832791,-0.045969013,-0.8480149,0.99105763,-0.6410491,0.40782294,-1.5211699,1.5045445,0.48188838,-0.43661344,0.815724,1.3277686,1.4236525,-1.2671536,1.5730282,-1.274423,0.94692576,0.3606814,-0.23430958,-0.55006385,0.2790298,-0.7106364,0.7219377,1.3215493,0.10651884,-0.019453438,1.5224491,0.25631505,0.20123959,1.3048413,0.5514208,0.3206371,0.5744542,0.19943759,0.46098745,0.46613443,-1.2825902,-0.18245524,1.0254997,-1.1024327,-1.7018139,0.868303,-0.2599409,1.4884313,-0.8904213,0.26255554,-1.0980612,-0.052266955,-0.24727905,0.45454,1.4694918,0.10125692,-0.22219789,-0.5085688,1.0781174,-0.36326623,-1.1843079,-1.5208914,0.3259861,1.0293262,1.5594364,1.656577,1.6537263,-0.1192515,0.028524803,0.87978923,-0.39377433,-0.474515,-1.5711979,-1.3209835,0.2891176,-0.90311605,-0.2804372,-0.582559,1.1878932,-0.9622857,1.4524872,0.18335201,0.7035385,0.41476905,0.9093775,-0.8690467,0.8416607,-1.4526731,-0.4150532,-1.2989999,0.8611735,0.49195614,0.52628803,-0.06921797,1.1795677,-1.6051254,0.9898703,0.7476036,-1.049108,-0.45755675,0.11933761,-1.1030531,-0.28849953,-0.67200685,-0.08552787,-0.2463555,-0.5782996,0.2009638,-1.5024103,1.5928923,-0.5830219,0.053655166,0.23686178,0.6125596,-0.9623821,-0.6815106,-0.7052761,0.00059300795,-0.71296537,-1.3556626,0.33759847,1.4343313,-0.47186843,0.08173602,-1.0609558,1.5657477,1.4801682,0.9133791,0.61139005,-0.44599625,-1.3676785,-1.2687043,-0.20783369,-0.82754445,-0.47749424,0.83859956,1.5694151,-1.4736608,1.3978755,1.4938673,-0.20918046,1.1282077,0.52296144,0.69504756,0.4240644,1.480759,0.112520315,-1.6109726,0.8572482,0.31583086,-1.3849509,-0.899469,0.998999,0.7603917,0.5878731,-1.2793424,0.045237236,-0.36586073,0.10738739,-1.0279936,-1.0859578,0.93883574,-1.2086136,1.098764,-0.08048198,-0.3006867,-0.9991306,-1.1784407,-0.34152842,0.2796002,1.5440199,1.5926636,-1.6686856,-0.2771032,-0.68349314,-0.7213264,-0.67702216,1.0974426,1.2139752,0.8897226,0.30005312,0.015306607,-0.5835954,0.8219516,1.0422659,0.13534586,-0.45419937,0.68500805,0.3559866,-1.2704892,-0.12283359,-1.2229247,-1.1277379,0.51818,-1.0293678,0.9021374,-0.37032604,0.4735792,0.4365046,1.6280813,-1.2848634,1.4424627,0.73870283,0.64121485,-0.6934106,0.6524836,1.421241,1.2650827,-0.05842844,1.6032264,-0.9413564,-0.2733619,-1.4918103,-1.0150822,1.6808023,-0.15580691,-0.32412833,0.7552617,0.59516287,-1.2687858,-1.3612468,1.3481697,-1.6304672,-1.5083495,-1.5963953,-0.39279765,-1.209637,-0.4142016,-1.257699,-1.6399345,-0.22218466,-1.602885,1.1546592,-0.018220188,-1.6418569,0.28638792,1.1426427,0.3050473,1.2333009,0.44110703,-0.37664655,-0.5302806,0.96016955,-0.80195946,-0.20809212,1.5540287,-1.0123144,1.2226913,0.8127598,1.0681233,0.69489825,-0.35748643,-1.639513,0.14347062,-1.1655073,0.8431598,-0.5403037,-0.13085167,-1.1468741,1.0745107,0.17445318,-1.4623246,-0.3553216,-1.4085827,-0.6300772,0.7775784,-1.311868,-1.3119336,1.662725,0.9904196,1.4618158,-1.583268,0.78789717,0.22714734,-0.48401156,0.92640316,-1.4266206,-0.34414294,-0.14377153,1.6989124,0.039763596,1.2694889,1.5538284,0.00056426926,0.5696411,-0.22269076,0.40786883,-0.21854673,1.7393452,1.0036857,-0.2762324,1.6895528,1.189804,0.838453,-0.010978442,1.6173109,-1.2018908,1.5314418,-1.0464022,1.1360023,-1.117021,-1.3979789,-1.3291903,-0.66266024,0.5550081,0.2938939,1.331696,1.0959245,0.29988834,-1.6483499,-1.0950131,-0.718788,-1.5695187,0.33109564,1.2972082,0.64722705,0.42858803,1.459675,1.0066751,-1.4588131,-1.1115575,1.0880094,0.44502798,-0.9349169,0.64975554,1.0320609,-0.38832074,1.219147,-0.720834,-0.79934096,1.1270835,1.2275684,-0.38300052,-0.2779424,1.0906628,-0.19643797,0.46941155,-0.58505774,0.8625109,0.38327417,1.5783483,0.22231956,-1.3901677,-0.1772175,1.6331216,0.43396327,1.2331002,1.1788054,-0.7718512,-1.1680417,0.53263825,-0.65438783,1.4345771,-0.20203114,1.6422563,-1.5829043,0.8661005,-1.64346,-1.1254017,-1.1241312,1.4550697,-0.82761496,0.9587211,1.0122838,-1.2524937,-1.1117492,-1.5091072,-0.5820463,-0.97387207,-0.33268458,1.0654231,0.7250646,-0.9701022,-0.85638505,1.0177678,-1.1345693,0.006964346,-1.2950183,1.0332174,-0.2831545,-1.417713,-0.19572595,-0.8474984,0.4301072,0.8346765,-0.8002362,-0.17888471,1.1386552,1.4362184,1.6900182,-1.0090439,1.4153826,1.3414098,0.5032173,0.72723436,0.7261672,-0.16971421,-1.6140422,1.7636367,0.28660938,-0.41082314,-0.8088034,-0.022858774,-0.90830725,0.006618044,0.138647,0.58378536,-0.84097415,-0.71343845,1.0020938,-0.5354871,0.061972205,1.5475317,-1.697447,0.49619696,0.8340143,0.88149923,0.28988382,-1.5259061,1.4911342,0.60701257,-0.6790565,-1.2352414,-0.95938337,-0.82614535,0.6783936,1.0992349,0.42182368,-1.2732751,-0.9904712,-1.1531377,-0.42013693,-0.9886373,1.5150889,0.6650149,-0.8051762,0.79531676,-0.42307207,-0.5551099,-0.29988924,0.9608533,-1.5182688,-1.4505894,0.3761269,0.041609436,-0.10800669,-1.2499808,0.95903635,1.132456,-0.25414205,1.4454958,1.294702,1.1842724,0.6658236,0.9115347,-0.566246,1.2661899,0.7088043,0.4971015,-0.6999339,-1.1352366,-0.2906249,0.43042725,-1.6275401,-1.1155733,0.8093148,0.27625006,-0.773003,-0.7092921,1.5820997,0.4294018,-1.5122814,0.43651122,0.9185209,1.6463957,-0.20177993,-1.6567445,-1.0884311,-0.9885863,-1.4386358,0.26247507,0.8057808,-1.5431212,0.31317168,1.7253556,1.7480727,-0.20534033,-0.9246374,-0.15507525,-1.1224107,0.34061655,-1.4665391,0.79266113,0.8327083,1.7336991,-0.9076252,-1.4426156,0.35170236,0.25615895,0.39566332,0.99942285,0.5125916,-0.96639234,-0.84548676,0.9465304,1.4923958,-1.0556045,1.4034092,1.1936649,-0.34372073,1.3141359,-0.7817804,1.0590891,1.5895226,1.0987309,-0.3051828,0.3669928,-1.4204941,-1.1159004,-0.8519536,-1.1000183,-0.5823888,1.2462028,-0.6066984,-0.84334016,-0.8223538,-0.25745517,-0.24903227,1.2675369,-0.70117664,1.1703093,-0.88473535,-1.4790857,1.3043023,-1.6461318,0.8888361,0.7955669,-0.83815515,-1.2678624,-0.14954598,-1.4378129,-0.34903127,-0.25582746,-1.493923,0.86450046,-1.1781744,0.36439252,0.8743886,-0.6063062,0.042610303,0.50199723,0.30502334,1.3597448,0.30396357,0.9679791,0.9739861,-0.1570714,0.53932965,1.3633319,1.0752465,1.364008,-0.5831966,-0.6267577,0.28822613,1.762144,-0.5153067,-1.1468385,-0.17763968,-0.80200136,1.7649261,-0.4046296,0.007302378,-0.27919692,1.1320871,-0.94899017,0.016275013,-0.8137252,1.4592444,0.7238797,1.3258725,1.3212954,0.90931153,-1.5664561,-0.66929555,0.4416518,-0.61726815,-0.5147667,0.30210984,-0.49821964,-0.9335772,-0.5363681,-1.2293867,0.6445947,-0.5467431,1.2826887,-0.77249813,-1.3739474,-0.018664902,1.126801,-1.0667832,1.2032583,1.5106728,0.96008456,0.14879332,0.9459712,1.2160251,-0.8731215,0.69649476,-1.043894,0.96067053,0.41933566,-0.3333439,1.3821342,1.4724115,0.78278893,1.2883441,-1.4734676,-1.4868984,1.3195131,-1.2349409,-1.4067523,-1.3871006,-1.1625242,1.1941221,-1.2408869,-0.83914834,-0.96909744,1.0892543,1.2754611,-1.1031368,1.254084,0.11551588,-1.1137947,-0.44619206,0.90231955,-1.1896471,0.9164005,0.13068701,-0.08877029,1.4198005,0.50808454,-1.2501314,-1.2181027,0.2758219,-1.4100374,-1.4662293,1.3795074,0.22820443,0.22279365,-0.116322495,-1.6409813,1.3206933,0.551211,-0.3033134,-0.7865073,1.3285272,1.3513161,1.1829993,1.1635232,-0.89459205,-1.4873514,0.9587411,-0.34490335,-0.14555763,-0.5893436,-1.0587046,-1.202482,-1.3824294,1.202615,0.93474233,1.0712254,-0.81846243,0.14782782,0.9938568,-1.1763622,-0.17943156,0.7674753,-1.4762927,-1.2266217,0.60534495,-0.7135651,-0.31199142,0.5716347,1.0644356,1.3996091,0.41041493,0.8602135,-0.33750117,-0.8937991,1.167051,-1.0670371,-0.7874505,-0.18098132,-1.4999076,-0.8659155,0.66954565,0.026326869,1.4469028,-1.376103,0.49604002,-1.0741706,-0.49847227,0.2292851,1.5126085,-0.71782845,-1.1764028,-1.3590431,1.6766794,0.4648743,0.9176025,0.37195247,1.5396383,-1.0167919,-1.5234196,1.0046011,-0.50683564,1.5024657,1.318191,0.6199986,-0.33896682,1.1222912,0.18265608,-0.7413454,-0.5404282,-0.63864917,-1.1376013,1.7184219,-0.5905469,0.26385596,0.03698491,-1.296497,1.1248003,-1.6729203,-1.6147215,-0.40215316,-0.5520765,0.8325871,-0.71489704,-1.6011221,-0.47897124,-0.7021025,1.0064702,1.6798158,0.012393327,-1.4660959,1.3615621,-0.14228149,1.4931412,-1.6675322,-1.5273366,1.3117583,-1.2374725,0.54357105,1.0766906,-0.25372544,0.05120852,-0.09989496,0.93019015,-1.3163705,-1.4828274,0.115242556,-0.39781398,-0.043886647,0.20998669,0.44802704,-0.29219988,0.82645726,-1.6116791,-0.64951146,1.6000377,1.1813269,-1.4731541,-1.403884,-0.84134024,0.18050943,-0.4682917,-0.856659,1.5746549,-0.5815691,-0.57362336,-1.4678445,0.2824746,-0.5000688,-0.47583076,1.4813795,0.5348406,-0.41704977,-1.1877475,-0.5328749,0.723955,-1.5826974,-0.036064975,1.2246106,-0.14526199,1.7033557,0.21334258,-0.93229616,-0.7712229,-0.7602469,1.7567407,-0.09322363,1.3036252,1.054957,0.6695278,0.92294776,1.2051682,0.9714617,-0.39380386,1.7159376,0.53252167,1.1213804,1.6078166,1.1462067,0.24609782,-0.77872473,-1.5778002,-0.57852906,0.6252329,-0.64032567,-0.6141514,1.4787503,-0.3443809,0.07274643,0.02896662,-0.47001392,-0.81982094,1.1514987,-0.39910862,0.276389,-0.7059027,-0.2809028,-0.24727637,0.4049345,-0.24409203,-0.3718721,1.3837768,-1.575102,-0.7934288,-0.8196485,-0.6692581,1.1188947,0.8195277,-1.0649279,1.0344868,-1.3283986,-1.0309296,-1.243457,-0.64139974,-0.9515431,0.54531187,-1.2015088,1.6753153,-0.108816735,-0.5548823,-0.656116,-0.57949,0.7794919,-0.23513988,-0.38007563,-1.4886271,-1.2855084,-1.6224289,0.66817224,-0.4804648,-1.4878112,-1.0613506,-1.1384547,0.17205243,-0.09019023,1.2172929,-0.8773108,1.267859,-1.5579082,1.030879,-0.7816839,-1.5393782,-0.68189967,-1.0792322,-0.733575,-1.0897722,1.6036769,1.4794956,-1.5036286,-0.20949802,1.2837957,-0.8206798,0.3621214,-1.6734604,-1.1881669,-1.0415492,-0.20900431,1.2309972,0.22437918,-0.92764664,1.6908398,-0.7210568,0.0053463387,-0.72200334,-0.63072103,-0.17969827,-1.5622619,-0.4583631,1.3262811,1.160117,1.2252363,-0.7644867,1.3999372,0.08915619,-0.9095111,1.4659859,-0.89542353
Fgf8,-0.89201117,1.385679,-1.5638235,-1.0075566,1.5591086,-0.59845245,-0.93880105,0.43269423,0.14630844,-1.0448631,0.8728702,-0.112639904,-1.0871114,-1.4881642,-1.257114,0.8317525,-1.6877359,-0.47724655,0.76231325,1.3601986,1.2297685,-1.0242597,0.77469015,0.54153025,0.64037126,-0.18465297,-1.4054285,1.1720185,-1.5769099,-1.6673441,-1.1380739,-0.1353108,1.6353441,0.5568759,-0.43991292,-1.2568604,-1.2269784,1.4260856,0.9013602,0.4952877,0.6976389,-0.8535547,0.10824705,-0.9101351,-0.24241325,-0.6836637,1.5680367,1.2960405,-0.4108529,-1.0852964,-0.70674396,-0.10786549,-0.2624543,1.4069694,0.18143857,-0.6836029,-1.1817758,0.92583084,-0.9880917,0.5411949,-0.38993526,1.5682242,-0.78415954,-0.24929461,-0.6516139,-0.97332627,0.65860313,1.2714895,-1.3513864,1.6217587,-0.80260986,0.4717497,-1.1105541,-0.86891377,-1.4265921,1.065622,0.6109652,-1.2848608,-0.7088323,1.6358165,-1.368906,-1.0691122,0.7650378,1.6146444,1.5940927,0.72929406,1.4135519,1.7064197,-0.912589,-0.5692126,1.1483728,0.3998005,0.29798463,-0.74899834,-0.36240682,1.491045,1.6011391,-1.509585,-0.95729065,1.5655261,1.2261254,-1.5921546,-1.2848822,0.14414896,0.59694624,-1.4153601,0.5142543,0.28437275,-1.3801742,1.5330954,0.0794248,1.7099293,1.3516967,0.16289,-0.8923794,0.9305906,-1.2214953,-0.5832791,-0.045969013,-0.8480149,0.99105763,-0.6410491,0.40782294,-1.5211699,1.5045445,0.48188838,-0.43661344,0.815724,1.3277686,1.4236525,-1.2671536,1.5730282,-1.274423,0.94692576,0.3606814,-0.23430958,-0.55006385,0.2790298,-0.7106364,0.7219377,1.3215493,0.10651884,-0.019453438,1.5224491,0.25631505,0.20123959,1.3048413,0.5514208,0.3206371,0.5744542,0.19943759,0.46098745,0.46613443,-1.2825902,-0.18245524,1.0254997,-1.1024327,-1.7018139,0.868303,-0.2599409,1.4884313,-0.8904213,0.26255554,-1.0980612,-0.052266955,-0.24727905,0.45454,1.4694918,0.10125692,-0.22219789,-0.5085688,1.0781174,-0.36326623,-1.1843079,-1.5208914,0.3259861,1.0293262,1.5594364,1.656577,1.6537263,-0.1192515,0.028524803,0.87978923,-0.39377433,-0.474515,-1.5711979,-1.3209835,0.2891176,-0.90311605,-0.2804372,-0.582559,1.1878932,-0.9622857,1.4524872,0.18335201,0.7035385,0.41476905,0.9093775,-0.8690467,0.8416607,-1.4526731,-0.4150532,-1.2989999,0.8611735,0.49195614,0.52628803,-0.06921797,1.1795677,-1.6051254,0.9898703,0.7476036,-1.049108,-0.45755675,0.11933761,-1.1030531,-0.28849953,-0.67200685,-0.08552787,-0.2463555,-0.5782996,0.2009638,-1.5024103,1.5928923,-0.5830219,0.053655166,0.23686178,0.6125596,-0.9623821,-0.6815106,-0.7052761,0.00059300795,-0.71296537,-1.3556626,0.33759847,1.4343313,-0.47186843,0.08173602,-1.0609558,1.5657477,1.4801682,0.9133791,0.61139005,-0.44599625,-1.3676785,-1.2687043,-0.20783369,-0.82754445,-0.47749424,0.83859956,1.5694151,-1.4736608,1.3978755,1.4938673,-0.20918046,1.1282077,0.52296144,0.69504756,0.4240644,1.480759,0.112520315,-1.6109726,0.8572482,0.31583086,-1.3849509,-0.899469,0.998999,0.7603917,0.5878731,-1.2793424,0.045237236,-0.36586073,0.10738739,-1.0279936,-1.0859578,0.93883574,-1.2086136,1.098764,-0.08048198,-0.3006867,-0.9991306,-1.1784407,-0.34152842,0.2796002,1.5440199,1.5926636,-1.6686856,-0.2771032,-0.68349314,-0.7213264,-0.67702216,1.0974426,1.2139752,0.8897226,0.30005312,0.015306607,-0.5835954,0.8219516,1.0422659,0.13534586,-0.45419937,0.68500805,0.3559866,-1.2704892,-0.12283359,-1.2229247,-1.1277379,0.51818,-1.0293678,0.9021374,-0.37032604,0.4735792,0.4365046,1.6280813,-1.2848634,1.4424627,0.73870283,0.64121485,-0.6934106,0.6524836,1.421241,1.2650827,-0.05842844,1.6032264,-0.9413564,-0.2733619,-1.4918103,-1.0150822,1.6808023,-0.15580691,-0.32412833,0.7552617,0.59516287,-1.2687858,-1.3612468,1.3481697,-1.6304672,-1.5083495,-1.5963953,-0.39279765,-1.209637,-0.4142016,-1.257699,-1.6399345,-0.22218466,-1.602885,1.1546592,-0.018220188,-1.6418569,0.28638792,1.1426427,0.3050473,1.2333009,0.44110703,-0.37664655,-0.5302806,0.96016955,-0.80195946,-0.20809212,1.5540287,-1.0123144,1.2226913,0.8127598,1.0681233,0.69489825,-0.35748643,-1.639513,0.14347062,-1.1655073,0.8431598,-0.5403037,-0.13085167,-1.1468741,1.0745107,0.17445318,-1.4623246,-0.3553216,-1.4085827,-0.6300772,0.7775784,-1.311868,-1.3119336,1.662725,0.9904196,1.4618158,-1.583268,0.78789717,0.22714734,-0.48401156,0.92640316,-1.4266206,-0.34414294,-0.14377153,1.6989124,0.039763596,1.2694889,1.5538284,0.00056426926,0.5696411,-0.22269076,0.40786883,-0.21854673,1.7393452,1.0036857,-0.2762324,1.6895528,1.189804,0.838453,-0.010978442,1.6173109,-1.2018908,1.5314418,-1.0464022,1.1360023,-1.117021,-1.3979789,-1.3291903,-0.66266024,0.5550081,0.2938939,1.331696,1.0959245,0.29988834,-1.6483499,-1.0950131,-0.718788,-1.5695187,0.33109564,1.2972082,0.64722705,0.42858803,1.459675,1.0066751,-1.4588131,-1.1115575,1.0880094,0.44502798,-0.9349169,0.64975554,1.0320609,-0.38832074,1.219147,-0.720834,-0.79934096,1.1270835,1.2275684,-0.38300052,-0.2779424,1.0906628,-0.19643797,0.46941155,-0.58505774,0.8625109,0.38327417,1.5783483,0.22231956,-1.3901677,-0.1772175,1.6331216,0.43396327,1.2331002,1.1788054,-0.7718512,-1.1680417,0.53263825,-0.65438783,1.4345771,-0.20203114,1.6422563,-1.5829043,0.8661005,-1.64346,-1.1254017,-1.1241312,1.4550697,-0.82761496,0.9587211,1.0122838,-1.2524937,-1.1117492,-1.5091072,-0.5820463,-0.97387207,-0.33268458,1.0654231,0.7250646,-0.9701022,-0.85638505,1.0177678,-1.1345693,0.006964346,-1.2950183,1.0332174,-0.2831545,-1.417713,-0.19572595,-0.8474984,0.4301072,0.8346765,-0.8002362,-0.17888471,1.1386552,1.4362184,1.6900182,-1.0090439,1.4153826,1.3414098,0.5032173,0.72723436,0.7261672,-0.16971421,-1.6140422,1.7636367,0.28660938,-0.41082314,-0.8088034,-0.022858774,-0.90830725,0.006618044,0.138647,0.58378536,-0.84097415,-0.71343845,1.0020938,-0.5354871,0.061972205,1.5475317,-1.697447,0.49619696,0.8340143,0.88149923,0.28988382,-1.5259061,1.4911342,0.60701257,-0.6790565,-1.2352414,-0.95938337,-0.82614535,0.6783936,1.0992349,0.42182368,-1.2732751,-0.9904712,-1.1531377,-0.42013693,-0.9886373,1.5150889,0.6650149,-0.8051762,0.79531676,-0.42307207,-0.5551099,-0.29988924,0.9608533,-1.5182688,-1.4505894,0.3761269,0.041609436,-0.10800669,-1.2499808,0.95903635,1.132456,-0.25414205,1.4454958,1.294702,1.1842724,0.6658236,0.9115347,-0.566246,1.2661899,0.7088043,0.4971015,-0.6999339,-1.1352366,-0.2906249,0.43042725,-1.6275401,-1.1155733,0.8093148,0.27625006,-0.773003,-0.7092921,1.5820997,0.4294018,-1.5122814,0.43651122,0.9185209,1.6463957,-0.20177993,-1.6567445,-1.0884311,-0.9885863,-1.4386358,0.26247507,0.8057808,-1.5431212,0.31317168,1.7253556,1.7480727,-0.20534033,-0.9246374,-0.15507525,-1.1224107,0.34061655,-1.4665391,0.79266113,0.8327083,1.7336991,-0.9076252,-1.4426156,0.35170236,0.25615895,0.39566332,0.99942285,0.5125916,-0.96639234,-0.84548676,0.9465304,1.4923958,-1.0556045,1.4034092,1.1936649,-0.34372073,1.3141359,-0.7817804,1.0590891,1.5895226,1.0987309,-0.3051828,0.3669928,-1.4204941,-1.1159004,-0.8519536,-1.1000183,-0.5823888,1.2462028,-0.6066984,-0.84334016,-0.8223538,-0.25745517,-0.24903227,1.2675369,-0.70117664,1.1703093,-0.88473535,-1.4790857,1.3043023,-1.6461318,0.8888361,0.7955669,-0.83815515,-1.2678624,-0.14954598,-1.4378129,-0.34903127,-0.25582746,-1.493923,0.86450046,-1.1781744,0.36439252,0.8743886,-0.6063062,0.042610303,0.50199723,0.30502334,1.3597448,0.30396357,0.9679791,0.9739861,-0.1570714,0.53932965,1.3633319,1.0752465,1.364008,-0.5831966,-0.6267577,0.28822613,1.762144,-0.5153067,-1.1468385,-0.17763968,-0.80200136,1.7649261,-0.4046296,0.007302378,-0.27919692,1.1320871,-0.94899017,0.016275013,-0.8137252,1.4592444,0.7238797,1.3258725,1.3212954,0.90931153,-1.5664561,-0.66929555,0.4416518,-0.61726815,-0.5147667,0.30210984,-0.49821964,-0.9335772,-0.5363681,-1.2293867,0.6445947,-0.5467431,1.2826887,-0.77249813,-1.3739474,-0.018664902,1.126801,-1.0667832,1.2032583,1.5106728,0.96008456,0.14879332,0.9459712,1.2160251,-0.8731215,0.69649476,-1.043894,0.96067053,0.41933566,-0.3333439,1.3821342,1.4724115,0.78278893,1.2883441,-1.4734676,-1.4868984,1.3195131,-1.2349409,-1.4067523,-1.3871006,-1.1625242,1.1941221,-1.2408869,-0.83914834,-0.96909744,1.0892543,1.2754611,-1.1031368,1.254084,0.11551588,-1.1137947,-0.44619206,0.90231955,-1.1896471,0.9164005,0.13068701,-0.08877029,1.4198005,0.50808454,-1.2501314,-1.2181027,0.2758219,-1.4100374,-1.4662293,1.3795074,0.22820443,0.22279365,-0.116322495,-1.6409813,1.3206933,0.551211,-0.3033134,-0.7865073,1.3285272,1.3513161,1.1829993,1.1635232,-0.89459205,-1.4873514,0.9587411,-0.34490335,-0.14555763,-0.5893436,-1.0587046,-1.202482,-1.3824294,1.202615,0.93474233,1.0712254,-0.81846243,0.14782782,0.9938568,-1.1763622,-0.17943156,0.7674753,-1.4762927,-1.2266217,0.60534495,-0.7135651,-0.31199142,0.5716347,1.0644356,1.3996091,0.41041493,0.8602135,-0.33750117,-0.8937991,1.167051,-1.0670371,-0.7874505,-0.18098132,-1.4999076,-0.8659155,0.66954565,0.026326869,1.4469028,-1.376103,0.49604002,-1.0741706,-0.49847227,0.2292851,1.5126085,-0.71782845,-1.1764028,-1.3590431,1.6766794,0.4648743,0.9176025,0.37195247,1.5396383,-1.0167919,-1.5234196,1.0046011,-0.50683564,1.5024657,1.318191,0.6199986,-0.33896682,1.1222912,0.18265608,-0.7413454,-0.5404282,-0.63864917,-1.1376013,1.7184219,-0.5905469,0.26385596,0.03698491,-1.296497,1.1248003,-1.6729203,-1.6147215,-0.40215316,-0.5520765,0.8325871,-0.71489704,-1.6011221,-0.47897124,-0.7021025,1.0064702,1.6798158,0.012393327,-1.4660959,1.3615621,-0.14228149,1.4931412,-1.6675322,-1.5273366,1.3117583,-1.2374725,0.54357105,1.0766906,-0.25372544,0.05120852,-0.09989496,0.93019015,-1.3163705,-1.4828274,0.115242556,-0.39781398,-0.043886647,0.20998669,0.44802704,-0.29219988,0.82645726,-1.6116791,-0.64951146,1.6000377,1.1813269,-1.4731541,-1.403884,-0.84134024,0.18050943,-0.4682917,-0.856659,1.5746549,-0.5815691,-0.57362336,-1.4678445,0.2824746,-0.5000688,-0.47583076,1.4813795,0.5348406,-0.41704977,-1.1877475,-0.5328749,0.723955,-1.5826974,-0.036064975,1.2246106,-0.14526199,1.7033557,0.21334258,-0.93229616,-0.7712229,-0.7602469,1.7567407,-0.09322363,1.3036252,1.054957,0.6695278,0.92294776,1.2051682,0.9714617,-0.39380386,1.7159376,0.53252167,1.1213804,1.6078166,1.1462067,0.24609782,-0.77872473,-1.5778002,-0.57852906,0.6252329,-0.64032567,-0.6141514,1.4787503,-0.3443809,0.07274643,0.02896662,-0.47001392,-0.81982094,1.1514987,-0.39910862,0.276389,-0.7059027,-0.2809028,-0.24727637,0.4049345,-0.24409203,-0.3718721,1.3837768,-1.575102,-0.7934288,-0.8196485,-0.6692581,1.1188947,0.8195277,-1.0649279,1.0344868,-1.3283986,-1.0309296,-1.243457,-0.64139974,-0.9515431,0.54531187,-1.2015088,1.6753153,-0.108816735,-0.5548823,-0.656116,-0.57949,0.7794919,-0.23513988,-0.38007563,-1.4886271,-1.2855084,-1.6224289,0.66817224,-0.4804648,-1.4878112,-1.0613506,-1.1384547,0.17205243,-0.09019023,1.2172929,-0.8773108,1.267859,-1.5579082,1.030879,-0.7816839,-1.5393782,-0.68189967,-1.0792322,-0.733575,-1.0897722,1.6036769,1.4794956,-1.5036286,-0.20949802,1.2837957,-0.8206798,0.3621214,-1.6734604,-1.1881669,-1.0415492,-0.20900431,1.2309972,0.22437918,-0.92764664,1.6908398,-0.7210568,0.0053463387,-0.72200334,-0.63072103,-0.17969827,-1.5622619,-0.4583631,1.3262811,1.160117,1.2252363,-0.7644867,1.3999372,0.08915619,-0.9095111,1.4659859,-0.89542353
Pax6,-0.89201117,1.385679,-1.5638235,-1.0075566,1.5591086,-0.59845245,-0.93880105,0.43269423,0.14630844,-1.0448631,0.8728702,-0.112639904,-1.0871114,-1.4881642,-1.257114,0.8317525,-1.6877359,-0.47724655,0.76231325,1.3601986,1.2297685,-1.0242597,0.77469015,0.54153025,0.64037126,-0.18465297,-1.4054285,1.1720185,-1.5769099,-1.6673441,-1.1380739,-0.1353108,1.6353441,0.5568759,-0.43991292,-1.2568604,-1.2269784,1.4260856,0.9013602,0.4952877,0.6976389,-0.8535547,0.10824705,-0.9101351,-0.24241325,-0.6836637,1.5680367,1.2960405,-0.4108529,-1.0852964,-0.70674396,-0.10786549,-0.2624543,1.4069694,0.18143857,-0.6836029,-1.1817758,0.92583084,-0.9880917,0.5411949,-0.38993526,1.5682242,-0.78415954,-0.24929461,-0.6516139,-0.97332627,0.65860313,1.2714895,-1.3513864,1.6217587,-0.80260986,0.4717497,-1.1105541,-0.86891377,-1.4265921,1.065622,0.6109652,-1.2848608,-0.7088323,1.6358165,-1.368906,-1.0691122,0.7650378,1.6146444,1.5940927,0.72929406,1.4135519,1.7064197,-0.912589,-0.5692126,1.1483728,0.3998005,0.29798463,-0.74899834,-0.36240682,1.491045,1.6011391,-1.509585,-0.95729065,1.5655261,1.2261254,-1.5921546,-1.2848822,0.14414896,0.59694624,-1.4153601,0.5142543,0.28437275,-1.3801742,1.5330954,0.0794248,1.7099293,1.3516967,0.16289,-0.8923794,0.9305906,-1.2214953,-0.5832791,-0.045969013,-0.8480149,0.99105763,-0.6410491,0.40782294,-1.5211699,1.5045445,0.48188838,-0.43661344,0.815724,1.3277686,1.4236525,-1.2671536,1.5730282,-1.274423,0.94692576,0.3606814,-0.23430958,-0.55006385,0.2790298,-0.7106364,0.7219377,1.3215493,0.10651884,-0.019453438,1.5224491,0.25631505,0.20123959,1.3048413,0.5514208,0.3206371,0.5744542,0.19943759,0.46098745,0.46613443,-1.2825902,-0.18245524,1.0254997,-1.1024327,-1.7018139,0.868303,-0.2599409,1.4884313,-0.8904213,0.26255554,-1.0980612,-0.052266955,-0.24727905,0.45454,1.4694918,0.10125692,-0.22219789,-0.5085688,1.0781174,-0.36326623,-1.1843079,-1.5208914,0.3259861,1.0293262,1.5594364,1.656577,1.6537263,-0.1192515,0.028524803,0.87978923,-0.39377433,-0.474515,-1.5711979,-1.3209835,0.2891176,-0.90311605,-0.2804372,-0.582559,1.1878932,-0.9622857,1.4524872,0.18335201,0.7035385,0.41476905,0.9093775,-0.8690467,0.8416607,-1.4526731,-0.4150532,-1.2989999,0.8611735,0.49195614,0.52628803,-0.06921797,1.1795677,-1.6051254,0.9898703,0.7476036,-1.049108,-0.45755675,0.11933761,-1.1030531,-0.28849953,-0.67200685,-0.08552787,-0.2463555,-0.5782996,0.2009638,-1.5024103,1.5928923,-0.5830219,0.053655166,0.23686178,0.6125596,-0.9623821,-0.6815106,-0.7052761,0.00059300795,-0.71296537,-1.3556626,0.33759847,1.4343313,-0.47186843,0.08173602,-1.0609558,1.5657477,1.4801682,0.9133791,0.61139005,-0.44599625,-1.3676785,-1.2687043,-0.20783369,-0.82754445,-0.47749424,0.83859956,1.5694151,-1.4736608,1.3978755,1.4938673,-0.20918046,1.1282077,0.52296144,0.69504756,0.4240644,1.480759,0.112520315,-1.6109726,0.8572482,0.31583086,-1.3849509,-0.899469,0.998999,0.7603917,0.5878731,-1.2793424,0.045237236,-0.36586073,0.10738739,-1.0279936,-1.0859578,0.93883574,-1.2086136,1.098764,-0.08048198,-0.3006867,-0.9991306,-1.1784407,-0.34152842,0.2796002,1.5440199,1.5926636,-1.6686856,-0.2771032,-0.68349314,-0.7213264,-0.67702216,1.0974426,1.2139752,0.8897226,0.30005312,0.015306607,-0.5835954,0.8219516,1.0422659,0.13534586,-0.45419937,0.68500805,0.3559866,-1.2704892,-0.12283359,-1.2229247,-1.1277379,0.51818,-1.0293678,0.9021374,-0.37032604,0.4735792,0.4365046,1.6280813,-1.2848634,1.4424627,0.73870283,0.64121485,-0.6934106,0.6524836,1.421241,1.2650827,-0.05842844,1.6032264,-0.9413564,-0.2733619,-1.4918103,-1.0150822,1.6808023,-0.15580691,-0.32412833,0.7552617,0.59516287,-1.2687858,-1.3612468,1.3481697,-1.6304672,-1.5083495,-1.5963953,-0.39279765,-1.209637,-0.4142016,-1.257699,-1.6399345,-0.22218466,-1.602885,1.1546592,-0.018220188,-1.6418569,0.28638792,1.1426427,0.3050473,1.2333009,0.44110703,-0.37664655,-0.5302806,0.96016955,-0.80195946,-0.20809212,1.5540287,-1.0123144,1.2226913,0.8127598,1.0681233,0.69489825,-0.35748643,-1.639513,0.14347062,-1.1655073,0.8431598,-0.5403037,-0.13085167,-1.1468741,1.0745107,0.17445318,-1.4623246,-0.3553216,-1.4085827,-0.6300772,0.7775784,-1.311868,-1.3119336,1.662725,0.9904196,1.4618158,-1.583268,0.78789717,0.22714734,-0.48401156,0.92640316,-1.4266206,-0.34414294,-0.14377153,1.6989124,0.039763596,1.2694889,1.5538284,0.00056426926,0.5696411,-0.22269076,0.40786883,-0.21854673,1.7393452,1.0036857,-0.2762324,1.6895528,1.189804,0.838453,-0.010978442,1.6173109,-1.2018908,1.5314418,-1.0464022,1.1360023,-1.117021,-1.3979789,-1.3291903,-0.66266024,0.5550081,0.2938939,1.331696,1.0959245,0.29988834,-1.6483499,-1.0950131,-0.718788,-1.5695187,0.33109564,1.2972082,0.64722705,0.42858803,1.459675,1.0066751,-1.4588131,-1.1115575,1.0880094,0.44502798,-0.9349169,0.64975554,1.0320609,-0.38832074,1.219147,-0.720834,-0.79934096,1.1270835,1.2275684,-0.38300052,-0.2779424,1.0906628,-0.19643797,0.46941155,-0.58505774,0.8625109,0.38327417,1.5783483,0.22231956,-1.3901677,-0.1772175,1.6331216,0.43396327,1.2331002,1.1788054,-0.7718512,-1.1680417,0.53263825,-0.65438783,1.4345771,-0.20203114,1.6422563,-1.5829043,0.8661005,-1.64346,-1.1254017,-1.1241312,1.4550697,-0.82761496,0.9587211,1.0122838,-1.2524937,-1.1117492,-1.5091072,-0.5820463,-0.97387207,-0.33268458,1.0654231,0.7250646,-0.9701022,-0.85638505,1.0177678,-1.1345693,0.006964346,-1.2950183,1.0332174,-0.2831545,-1.417713,-0.19572595,-0.8474984,0.4301072,0.8346765,-0.8002362,-0.17888471,1.1386552,1.4362184,1.6900182,-1.0090439,1.4153826,1.3414098,0.5032173,0.72723436,0.7261672,-0.16971421,-1.6140422,1.7636367,0.28660938,-0.41082314,-0.8088034,-0.022858774,-0.90830725,0.006618044,0.138647,0.58378536,-0.84097415,-0.71343845,1.0020938,-0.5354871,0.061972205,1.5475317,-1.697447,0.49619696,0.8340143,0.88149923,0.28988382,-1.5259061,1.4911342,0.60701257,-0.6790565,-1.2352414,-0.95938337,-0.82614535,0.6783936,1.0992349,0.42182368,-1.2732751,-0.9904712,-1.1531377,-0.42013693,-0.9886373,1.5150889,0.6650149,-0.8051762,0.79531676,-0.42307207,-0.5551099,-0.29988924,0.9608533,-1.5182688,-1.4505894,0.3761269,0.041609436,-0.10800669,-1.2499808,0.95903635,1.132456,-0.25414205,1.4454958,1.294702,1.1842724,0.6658236,0.9115347,-0.566246,1.2661899,0.7088043,0.4971015,-0.6999339,-1.1352366,-0.2906249,0.43042725,-1.6275401,-1.1155733,0.8093148,0.27625006,-0.773003,-0.7092921,1.5820997,0.4294018,-1.5122814,0.43651122,0.9185209,1.6463957,-0.20177993,-1.6567445,-1.0884311,-0.9885863,-1.4386358,0.26247507,0.8057808,-1.5431212,0.31317168,1.7253556,1.7480727,-0.20534033,-0.9246374,-0.15507525,-1.1224107,0.34061655,-1.4665391,0.79266113,0.8327083,1.7336991,-0.9076252,-1.4426156,0.35170236,0.25615895,0.39566332,0.99942285,0.5125916,-0.96639234,-0.84548676,0.9465304,1.4923958,-1.0556045,1.4034092,1.1936649,-0.34372073,1.3141359,-0.7817804,1.0590891,1.5895226,1.0987309,-0.3051828,0.3669928,-1.4204941,-1.1159004,-0.8519536,-1.1000183,-0.5823888,1.2462028,-0.6066984,-0.84334016,-0.8223538,-0.25745517,-0.24903227,1.2675369,-0.70117664,1.1703093,-0.88473535,-1.4790857,1.3043023,-1.6461318,0.8888361,0.7955669,-0.83815515,-1.2678624,-0.14954598,-1.4378129,-0.34903127,-0.25582746,-1.493923,0.86450046,-1.1781744,0.36439252,0.8743886,-0.6063062,0.042610303,0.50199723,0.30502334,1.3597448,0.30396357,0.9679791,0.9739861,-0.1570714,0.53932965,1.3633319,1.0752465,1.364008,-0.5831966,-0.6267577,0.28822613,1.762144,-0.5153067,-1.1468385,-0.17763968,-0.80200136,1.7649261,-0.4046296,0.007302378,-0.27919692,1.1320871,-0.94899017,0.016275013,-0.8137252,1.4592444,0.7238797,1.3258725,1.3212954,0.90931153,-1.5664561,-0.66929555,0.4416518,-0.61726815,-0.5147667,0.30210984,-0.49821964,-0.9335772,-0.5363681,-1.2293867,0.6445947,-0.5467431,1.2826887,-0.77249813,-1.3739474,-0.018664902,1.126801,-1.0667832,1.2032583,1.5106728,0.96008456,0.14879332,0.9459712,1.2160251,-0.8731215,0.69649476,-1.043894,0.96067053,0.41933566,-0.3333439,1.3821342,1.4724115,0.78278893,1.2883441,-1.4734676,-1.4868984,1.3195131,-1.2349409,-1.4067523,-1.3871006,-1.1625242,1.1941221,-1.2408869,-0.83914834,-0.96909744,1.0892543,1.2754611,-1.1031368,1.254084,0.11551588,-1.1137947,-0.44619206,0.90231955,-1.1896471,0.9164005,0.13068701,-0.08877029,1.4198005,0.50808454,-1.2501314,-1.2181027,0.2758219,-1.4100374,-1.4662293,1.3795074,0.22820443,0.22279365,-0.116322495,-1.6409813,1.3206933,0.551211,-0.3033134,-0.7865073,1.3285272,1.3513161,1.1829993,1.1635232,-0.89459205,-1.4873514,0.9587411,-0.34490335,-0.14555763,-0.5893436,-1.0587046,-1.202482,-1.3824294,1.202615,0.93474233,1.0712254,-0.81846243,0.14782782,0.9938568,-1.1763622,-0.17943156,0.7674753,-1.4762927,-1.2266217,0.60534495,-0.7135651,-0.31199142,0.5716347,1.0644356,1.3996091,0.41041493,0.8602135,-0.33750117,-0.8937991,1.167051,-1.0670371,-0.7874505,-0.18098132,-1.4999076,-0.8659155,0.66954565,0.026326869,1.4469028,-1.376103,0.49604002,-1.0741706,-0.49847227,0.2292851,1.5126085,-0.71782845,-1.1764028,-1.3590431,1.6766794,0.4648743,0.9176025,0.37195247,1.5396383,-1.0167919,-1.5234196,1.0046011,-0.50683564,1.5024657,1.318191,0.6199986,-0.33896682,1.1222912,0.18265608,-0.7413454,-0.5404282,-0.63864917,-1.1376013,1.7184219,-0.5905469,0.26385596,0.03698491,-1.296497,1.1248003,-1.6729203,-1.6147215,-0.40215316,-0.5520765,0.8325871,-0.71489704,-1.6011221,-0.47897124,-0.7021025,1.0064702,1.6798158,0.012393327,-1.4660959,1.3615621,-0.14228149,1.4931412,-1.6675322,-1.5273366,1.3117583,-1.2374725,0.54357105,1.0766906,-0.25372544,0.05120852,-0.09989496,0.93019015,-1.3163705,-1.4828274,0.115242556,-0.39781398,-0.043886647,0.20998669,0.44802704,-0.29219988,0.82645726,-1.6116791,-0.64951146,1.6000377,1.1813269,-1.4731541,-1.403884,-0.84134024,0.18050943,-0.4682917,-0.856659,1.5746549,-0.5815691,-0.57362336,-1.4678445,0.2824746,-0.5000688,-0.47583076,1.4813795,0.5348406,-0.41704977,-1.1877475,-0.5328749,0.723955,-1.5826974,-0.036064975,1.2246106,-0.14526199,1.7033557,0.21334258,-0.93229616,-0.7712229,-0.7602469,1.7567407,-0.09322363,1.3036252,1.054957,0.6695278,0.92294776,1.2051682,0.9714617,-0.39380386,1.7159376,0.53252167,1.1213804,1.6078166,1.1462067,0.24609782,-0.77872473,-1.5778002,-0.57852906,0.6252329,-0.64032567,-0.6141514,1.4787503,-0.3443809,0.07274643,0.02896662,-0.47001392,-0.81982094,1.1514987,-0.39910862,0.276389,-0.7059027,-0.2809028,-0.24727637,0.4049345,-0.24409203,-0.3718721,1.3837768,-1.575102,-0.7934288,-0.8196485,-0.6692581,1.1188947,0.8195277,-1.0649279,1.0344868,-1.3283986,-1.0309296,-1.243457,-0.64139974,-0.9515431,0.54531187,-1.2015088,1.6753153,-0.108816735,-0.5548823,-0.656116,-0.57949,0.7794919,-0.23513988,-0.38007563,-1.4886271,-1.2855084,-1.6224289,0.66817224,-0.4804648,-1.4878112,-1.0613506,-1.1384547,0.17205243,-0.09019023,1.2172929,-0.8773108,1.267859,-1.5579082,1.030879,-0.7816839,-1.5393782,-0.68189967,-1.0792322,-0.733575,-1.0897722,1.6036769,1.4794956,-1.5036286,-0.20949802,1.2837957,-0.8206798,0.3621214,-1.6734604,-1.1881669,-1.0415492,-0.20900431,1.2309972,0.22437918,-0.92764664,1.6908398,-0.7210568,0.0053463387,-0.72200334,-0.63072103,-0.17969827,-1.5622619,-0.4583631,1.3262811,1.160117,1.2252363,-0.7644867,1.3999372,0.08915619,-0.9095111,1.4659859,-0.89542353
Sp8,-0.89201117,1.385679,-1.5638235,-1.0075566,1.5591086,-0.59845245,-0.93880105,0.43269423,0.14630844,-1.0448631,0.8728702,-0.112639904,-1.0871114,-1.4881642,-1.257114,0.8317525,-1.6877359,-0.47724655,0.76231325,1.3601986,1.2297685,-1.0242597,0.77469015,0.54153025,0.64037126,-0.18465297,-1.4054285,1.1720185,-1.5769099,-1.6673441,-1.1380739,-0.1353108,1.6353441,0.5568759,-0.43991292,-1.2568604,-1.2269784,1.4260856,0.9013602,0.4952877,0.6976389,-0.8535547,0.10824705,-0.9101351,-0.24241325,-0.6836637,1.5680367,1.2960405,-0.4108529,-1.0852964,-0.70674396,-0.10786549,-0.2624543,1.4069694,0.18143857,-0.6836029,-1.1817758,0.92583084,-0.9880917,0.5411949,-0.38993526,1.5682242,-0.78415954,-0.24929461,-0.6516139,-0.97332627,0.65860313,1.2714895,-1.3513864,1.6217587,-0.80260986,0.4717497,-1.1105541,-0.86891377,-1.4265921,1.065622,0.6109652,-1.2848608,-0.7088323,1.6358165,-1.368906,-1.0691122,0.7650378,1.6146444,1.5940927,0.72929406,1.4135519,1.7064197,-0.912589,-0.5692126,1.1483728,0.3998005,0.29798463,-0.74899834,-0.36240682,1.491045,1.6011391,-1.509585,-0.95729065,1.5655261,1.2261254,-1.5921546,-1.2848822,0.14414896,0.59694624,-1.4153601,0.5142543,0.28437275,-1.3801742,1.5330954,0.0794248,1.7099293,1.3516967,0.16289,-0.8923794,0.9305906,-1.2214953,-0.5832791,-0.045969013,-0.8480149,0.99105763,-0.6410491,0.40782294,-1.5211699,1.5045445,0.48188838,-0.43661344,0.815724,1.3277686,1.4236525,-1.2671536,1.5730282,-1.274423,0.94692576,0.3606814,-0.23430958,-0.55006385,0.2790298,-0.7106364,0.7219377,1.3215493,0.10651884,-0.019453438,1.5224491,0.25631505,0.20123959,1.3048413,0.5514208,0.3206371,0.5744542,0.19943759,0.46098745,0.46613443,-1.2825902,-0.18245524,1.0254997,-1.1024327,-1.7018139,0.868303,-0.2599409,1.4884313,-0.8904213,0.26255554,-1.0980612,-0.052266955,-0.24727905,0.45454,1.4694918,0.10125692,-0.22219789,-0.5085688,1.0781174,-0.36326623,-1.1843079,-1.5208914,0.3259861,1.0293262,1.5594364,1.656577,1.6537263,-0.1192515,0.028524803,0.87978923,-0.39377433,-0.474515,-1.5711979,-1.3209835,0.2891176,-0.90311605,-0.2804372,-0.582559,1.1878932,-0.9622857,1.4524872,0.18335201,0.7035385,0.41476905,0.9093775,-0.8690467,0.8416607,-1.4526731,-0.4150532,-1.2989999,0.8611735,0.49195614,0.52628803,-0.06921797,1.1795677,-1.6051254,0.9898703,0.7476036,-1.049108,-0.45755675,0.11933761,-1.1030531,-0.28849953,-0.67200685,-0.08552787,-0.2463555,-0.5782996,0.2009638,-1.5024103,1.5928923,-0.5830219,0.053655166,0.23686178,0.6125596,-0.9623821,-0.6815106,-0.7052761,0.00059300795,-0.71296537,-1.3556626,0.33759847,1.4343313,-0.47186843,0.08173602,-1.0609558,1.5657477,1.4801682,0.9133791,0.61139005,-0.44599625,-1.3676785,-1.2687043,-0.20783369,-0.82754445,-0.47749424,0.83859956,1.5694151,-1.4736608,1.3978755,1.4938673,-0.20918046,1.1282077,0.52296144,0.69504756,0.4240644,1.480759,0.112520315,-1.6109726,0.8572482,0.31583086,-1.3849509,-0.899469,0.998999,0.7603917,0.5878731,-1.2793424,0.045237236,-0.36586073,0.10738739,-1.0279936,-1.0859578,0.93883574,-1.2086136,1.098764,-0.08048198,-0.3006867,-0.9991306,-1.1784407,-0.34152842,0.2796002,1.5440199,1.5926636,-1.6686856,-0.2771032,-0.68349314,-0.7213264,-0.67702216,1.0974426,1.2139752,0.8897226,0.30005312,0.015306607,-0.5835954,0.8219516,1.0422659,0.13534586,-0.45419937,0.68500805,0.3559866,-1.2704892,-0.12283359,-1.2229247,-1.1277379,0.51818,-1.0293678,0.9021374,-0.37032604,0.4735792,0.4365046,1.6280813,-1.2848634,1.4424627,0.73870283,0.64121485,-0.6934106,0.6524836,1.421241,1.2650827,-0.05842844,1.6032264,-0.9413564,-0.2733619,-1.4918103,-1.0150822,1.6808023,-0.15580691,-0.32412833,0.7552617,0.59516287,-1.2687858,-1.3612468,1.3481697,-1.6304672,-1.5083495,-1.5963953,-0.39279765,-1.209637,-0.4142016,-1.257699,-1.6399345,-0.22218466,-1.602885,1.1546592,-0.018220188,-1.6418569,0.28638792,1.1426427,0.3050473,1.2333009,0.44110703,-0.37664655,-0.5302806,0.96016955,-0.80195946,-0.20809212,1.5540287,-1.0123144,1.2226913,0.8127598,1.0681233,0.69489825,-0.35748643,-1.639513,0.14347062,-1.1655073,0.8431598,-0.5403037,-0.13085167,-1.1468741,1.0745107,0.17445318,-1.4623246,-0.3553216,-1.4085827,-0.6300772,0.7775784,-1.311868,-1.3119336,1.662725,0.9904196,1.4618158,-1.583268,0.78789717,0.22714734,-0.48401156,0.92640316,-1.4266206,-0.34414294,-0.14377153,1.6989124,0.039763596,1.2694889,1.5538284,0.00056426926,0.5696411,-0.22269076,0.40786883,-0.21854673,1.7393452,1.0036857,-0.2762324,1.6895528,1.189804,0.838453,-0.010978442,1.6173109,-1.2018908,1.5314418,-1.0464022,1.1360023,-1.117021,-1.3979789,-1.3291903,-0.66266024,0.5550081,0.2938939,1.331696,1.0959245,0.29988834,-1.6483499,-1.0950131,-0.718788,-1.5695187,0.33109564,1.2972082,0.64722705,0.42858803,1.459675,1.0066751,-1.4588131,-1.1115575,1.0880094,0.44502798,-0.9349169,0.64975554,1.0320609,-0.38832074,1.219147,-0.720834,-0.79934096,1.1270835,1.2275684,-0.38300052,-0.2779424,1.0906628,-0.19643797,0.46941155,-0.58505774,0.8625109,0.38327417,1.5783483,0.22231956,-1.3901677,-0.1772175,1.6331216,0.43396327,1.2331002,1.1788054,-0.7718512,-1.1680417,0.53263825,-0.65438783,1.4345771,-0.20203114,1.6422563,-1.5829043,0.8661005,-1.64346,-1.1254017,-1.1241312,1.4550697,-0.82761496,0.9587211,1.0122838,-1.2524937,-1.1117492,-1.5091072,-0.5820463,-0.97387207,-0.33268458,1.0654231,0.7250646,-0.9701022,-0.85638505,1.0177678,-1.1345693,0.006964346,-1.2950183,1.0332174,-0.2831545,-1.417713,-0.19572595,-0.8474984,0.4301072,0.8346765,-0.8002362,-0.17888471,1.1386552,1.4362184,1.6900182,-1.0090439,1.4153826,1.3414098,0.5032173,0.72723436,0.7261672,-0.16971421,-1.6140422,1.7636367,0.28660938,-0.41082314,-0.8088034,-0.022858774,-0.90830725,0.006618044,0.138647,0.58378536,-0.84097415,-0.71343845,1.0020938,-0.5354871,0.061972205,1.5475317,-1.697447,0.49619696,0.8340143,0.88149923,0.28988382,-1.5259061,1.4911342,0.60701257,-0.6790565,-1.2352414,-0.95938337,-0.82614535,0.6783936,1.0992349,0.42182368,-1.2732751,-0.9904712,-1.1531377,-0.42013693,-0.9886373,1.5150889,0.6650149,-0.8051762,0.79531676,-0.42307207,-0.5551099,-0.29988924,0.9608533,-1.5182688,-1.4505894,0.3761269,0.041609436,-0.10800669,-1.2499808,0.95903635,1.132456,-0.25414205,1.4454958,1.294702,1.1842724,0.6658236,0.9115347,-0.566246,1.2661899,0.7088043,0.4971015,-0.6999339,-1.1352366,-0.2906249,0.43042725,-1.6275401,-1.1155733,0.8093148,0.27625006,-0.773003,-0.7092921,1.5820997,0.4294018,-1.5122814,0.43651122,0.9185209,1.6463957,-0.20177993,-1.6567445,-1.0884311,-0.9885863,-1.4386358,0.26247507,0.8057808,-1.5431212,0.31317168,1.7253556,1.7480727,-0.20534033,-0.9246374,-0.15507525,-1.1224107,0.34061655,-1.4665391,0.79266113,0.8327083,1.7336991,-0.9076252,-1.4426156,0.35170236,0.25615895,0.39566332,0.99942285,0.5125916,-0.96639234,-0.84548676,0.9465304,1.4923958,-1.0556045,1.4034092,1.1936649,-0.34372073,1.3141359,-0.7817804,1.0590891,1.5895226,1.0987309,-0.3051828,0.3669928,-1.4204941,-1.1159004,-0.8519536,-1.1000183,-0.5823888,1.2462028,-0.6066984,-0.84334016,-0.8223538,-0.25745517,-0.24903227,1.2675369,-0.70117664,1.1703093,-0.88473535,-1.4790857,1.3043023,-1.6461318,0.8888361,0.7955669,-0.83815515,-1.2678624,-0.14954598,-1.4378129,-0.34903127,-0.25582746,-1.493923,0.86450046,-1.1781744,0.36439252,0.8743886,-0.6063062,0.042610303,0.50199723,0.30502334,1.3597448,0.30396357,0.9679791,0.9739861,-0.1570714,0.53932965,1.3633319,1.0752465,1.364008,-0.5831966,-0.6267577,0.28822613,1.762144,-0.5153067,-1.1468385,-0.17763968,-0.80200136,1.7649261,-0.4046296,0.007302378,-0.27919692,1.1320871,-0.94899017,0.016275013,-0.8137252,1.4592444,0.7238797,1.3258725,1.3212954,0.90931153,-1.5664561,-0.66929555,0.4416518,-0.61726815,-0.5147667,0.30210984,-0.49821964,-0.9335772,-0.5363681,-1.2293867,0.6445947,-0.5467431,1.2826887,-0.77249813,-1.3739474,-0.018664902,1.126801,-1.0667832,1.2032583,1.5106728,0.96008456,0.14879332,0.9459712,1.2160251,-0.8731215,0.69649476,-1.043894,0.96067053,0.41933566,-0.3333439,1.3821342,1.4724115,0.78278893,1.2883441,-1.4734676,-1.4868984,1.3195131,-1.2349409,-1.4067523,-1.3871006,-1.1625242,1.1941221,-1.2408869,-0.83914834,-0.96909744,1.0892543,1.2754611,-1.1031368,1.254084,0.11551588,-1.1137947,-0.44619206,0.90231955,-1.1896471,0.9164005,0.13068701,-0.08877029,1.4198005,0.50808454,-1.2501314,-1.2181027,0.2758219,-1.4100374,-1.4662293,1.3795074,0.22820443,0.22279365,-0.116322495,-1.6409813,1.3206933,0.551211,-0.3033134,-0.7865073,1.3285272,1.3513161,1.1829993,1.1635232,-0.89459205,-1.4873514,0.9587411,-0.34490335,-0.14555763,-0.5893436,-1.0587046,-1.202482,-1.3824294,1.202615,0.93474233,1.0712254,-0.81846243,0.14782782,0.9938568,-1.1763622,-0.17943156,0.7674753,-1.4762927,-1.2266217,0.60534495,-0.7135651,-0.31199142,0.5716347,1.0644356,1.3996091,0.41041493,0.8602135,-0.33750117,-0.8937991,1.167051,-1.0670371,-0.7874505,-0.18098132,-1.4999076,-0.8659155,0.66954565,0.026326869,1.4469028,-1.376103,0.49604002,-1.0741706,-0.49847227,0.2292851,1.5126085,-0.71782845,-1.1764028,-1.3590431,1.6766794,0.4648743,0.9176025,0.37195247,1.5396383,-1.0167919,-1.5234196,1.0046011,-0.50683564,1.5024657,1.318191,0.6199986,-0.33896682,1.1222912,0.18265608,-0.7413454,-0.5404282,-0.63864917,-1.1376013,1.7184219,-0.5905469,0.26385596,0.03698491,-1.296497,1.1248003,-1.6729203,-1.6147215,-0.40215316,-0.5520765,0.8325871,-0.71489704,-1.6011221,-0.47897124,-0.7021025,1.0064702,1.6798158,0.012393327,-1.4660959,1.3615621,-0.14228149,1.4931412,-1.6675322,-1.5273366,1.3117583,-1.2374725,0.54357105,1.0766906,-0.25372544,0.05120852,-0.09989496,0.93019015,-1.3163705,-1.4828274,0.115242556,-0.39781398,-0.043886647,0.20998669,0.44802704,-0.29219988,0.82645726,-1.6116791,-0.64951146,1.6000377,1.1813269,-1.4731541,-1.403884,-0.84134024,0.18050943,-0.4682917,-0.856659,1.5746549,-0.5815691,-0.57362336,-1.4678445,0.2824746,-0.5000688,-0.47583076,1.4813795,0.5348406,-0.41704977,-1.1877475,-0.5328749,0.723955,-1.5826974,-0.036064975,1.2246106,-0.14526199,1.7033557,0.21334258,-0.93229616,-0.7712229,-0.7602469,1.7567407,-0.09322363,1.3036252,1.054957,0.6695278,0.92294776,1.2051682,0.9714617,-0.39380386,1.7159376,0.53252167,1.1213804,1.6078166,1.1462067,0.24609782,-0.77872473,-1.5778002,-0.57852906,0.6252329,-0.64032567,-0.6141514,1.4787503,-0.3443809,0.07274643,0.02896662,-0.47001392,-0.81982094,1.1514987,-0.39910862,0.276389,-0.7059027,-0.2809028,-0.24727637,0.4049345,-0.24409203,-0.3718721,1.3837768,-1.575102,-0.7934288,-0.8196485,-0.6692581,1.1188947,0.8195277,-1.0649279,1.0344868,-1.3283986,-1.0309296,-1.243457,-0.64139974,-0.9515431,0.54531187,-1.2015088,1.6753153,-0.108816735,-0.5548823,-0.656116,-0.57949,0.7794919,-0.23513988,-0.38007563,-1.4886271,-1.2855084,-1.6224289,0.66817224,-0.4804648,-1.4878112,-1.0613506,-1.1384547,0.17205243,-0.09019023,1.2172929,-0.8773108,1.267859,-1.5579082,1.030879,-0.7816839,-1.5393782,-0.68189967,-1.0792322,-0.733575,-1.0897722,1.6036769,1.4794956,-1.5036286,-0.20949802,1.2837957,-0.8206798,0.3621214,-1.6734604,-1.1881669,-1.0415492,-0.20900431,1.2309972,0.22437918,-0.92764664,1.6908398,-0.7210568,0.0053463387,-0.72200334,-0.63072103,-0.17969827,-1.5622619,-0.4583631,1.3262811,1.160117,1.2252363,-0.7644867,1.3999372,0.08915619,-0.9095111,1.4659859,-0.89542353
