,0,1,2,3,4,5,6,7,8,9,10,11,12,13,14,15,16,17,18,19,20,21,22,23,24,25,26,27,28,29,30,31,32,33,34,35,36,37,38,39,40,41,42,43,44,45,46,47,48,49,50,51,52,53,54,55,56,57,58,59,60,61,62,63,64,65,66,67,68,69,70,71,72,73,74,75,76,77,78,79,80,81,82,83,84,85,86,87,88,89,90,91,92,93,94,95,96,97,98,99,100,101,102,103,104,105,106,107,108,109,110,111,112,113,114,115,116,117,118,119,120,121,122,123,124,125,126,127,128,129,130,131,132,133,134,135,136,137,138,139,140,141,142,143,144,145,146,147,148,149,150,151,152,153,154,155,156,157,158,159,160,161,162,163,164,165,166,167,168,169,170,171,172,173,174,175,176,177,178,179,180,181,182,183,184,185,186,187,188,189,190,191,192,193,194,195,196,197,198,199,200,201,202,203,204,205,206,207,208,209,210,211,212,213,214,215,216,217,218,219,220,221,222,223,224,225,226,227,228,229,230,231,232,233,234,235,236,237,238,239,240,241,242,243,244,245,246,247,248,249,250,251,252,253,254,255,256,257,258,259,260,261,262,263,264,265,266,267,268,269,270,271,272,273,274,275,276,277,278,279,280,281,282,283,284,285,286,287,288,289,290,291,292,293,294,295,296,297,298,299,300,301,302,303,304,305,306,307,308,309,310,311,312,313,314,315,316,317,318,319,320,321,322,323,324,325,326,327,328,329,330,331,332,333,334,335,336,337,338,339,340,341,342,343,344,345,346,347,348,349,350,351,352,353,354,355,356,357,358,359,360,361,362,363,364,365,366,367,368,369,370,371,372,373,374,375,376,377,378,379,380,381,382,383,384,385,386,387,388,389,390,391,392,393,394,395,396,397,398,399,400,401,402,403,404,405,406,407,408,409,410,411,412,413,414,415,416,417,418,419,420,421,422,423,424,425,426,427,428,429,430,431,432,433,434,435,436,437,438,439,440,441,442,443,444,445,446,447,448,449,450,451,452,453,454,455,456,457,458,459,460,461,462,463,464,465,466,467,468,469,470,471,472,473,474,475,476,477,478,479,480,481,482,483,484,485,486,487,488,489,490,491,492,493,494,495,496,497,498,499,500,501,502,503,504,505,506,507,508,509,510,511,512,513,514,515,516,517,518,519,520,521,522,523,524,525,526,527,528,529,530,531,532,533,534,535,536,537,538,539,540,541,542,543,544,545,546,547,548,549,550,551,552,553,554,555,556,557,558,559,560,561,562,563,564,565,566,567,568,569,570,571,572,573,574,575,576,577,578,579,580,581,582,583,584,585,586,587,588,589,590,591,592,593,594,595,596,597,598,599,600,601,602,603,604,605,606,607,608,609,610,611,612,613,614,615,616,617,618,619,620,621,622,623,624,625,626,627,628,629,630,631,632,633,634,635,636,637,638,639,640,641,642,643,644,645,646,647,648,649,650,651,652,653,654,655,656,657,658,659,660,661,662,663,664,665,666,667,668,669,670,671,672,673,674,675,676,677,678,679,680,681,682,683,684,685,686,687,688,689,690,691,692,693,694,695,696,697,698,699,700,701,702,703,704,705,706,707,708,709,710,711,712,713,714,715,716,717,718,719,720,721,722,723,724,725,726,727,728,729,730,731,732,733,734,735,736,737,738,739,740,741,742,743,744,745,746,747,748,749,750,751,752,753,754,755,756,757,758,759,760,761,762,763,764,765,766,767,768,769,770,771,772,773,774,775,776,777,778,779,780,781,782,783,784,785,786,787,788,789,790,791,792,793,794,795,796,797,798,799,800,801,802,803,804,805,806,807,808,809,810,811,812,813,814,815,816,817,818,819,820,821,822,823,824,825,826,827,828,829,830,831,832,833,834,835,836,837,838,839,840,841,842,843,844,845,846,847,848,849,850,851,852,853,854,855,856,857,858,859,860,861,862,863,864,865,866,867,868,869,870,871,872,873,874,875,876,877,878,879,880,881,882,883,884,885,886,887,888,889,890,891,892,893,894,895,896,897,898,899,900,901,902,903,904,905,906,907,908,909,910,911,912,913,914,915,916,917,918,919,920,921,922,923,924,925,926,927,928,929,930,931,932,933,934,935,936,937,938,939,940,941,942,943,944,945,946,947,948,949,950,951,952,953,954,955,956,957,958,959,960,961,962,963,964,965,966,967,968,969,970,971,972,973,974,975,976,977,978,979,980,981,982,983,984,985,986,987,988,989,990,991,992,993,994,995,996,997,998,999,1000,1001,1002,1003,1004,1005,1006,1007,1008,1009,1010,1011,1012,1013,1014,1015,1016,1017,1018,1019,1020,1021,1022,1023
Dbx1,-0.103240125,0.30223593,-0.60197663,1.299355,-1.184395,-1.2538694,1.5219145,0.83221483,0.016176173,-0.32268524,1.5859994,-1.4734528,-1.1224369,-1.3716285,0.6866158,0.09229201,-0.7473878,1.7736876,1.0776992,0.97177154,0.08115142,-0.59174067,-1.4823157,-0.60480565,0.6198271,0.53915185,1.2354383,-1.5429349,-1.5972837,0.9886828,-0.36743182,-0.54845136,-0.6728236,1.6244026,-0.86943215,1.2805221,1.4054236,0.6562294,-0.49382,0.5128295,0.81485933,-0.89545774,-1.4289465,0.15713641,0.26189414,-0.23532589,-0.30873093,1.1608592,-1.4100939,1.4756382,-1.6060046,-0.27117196,-0.71614313,-0.35076734,1.7088305,-0.1257366,-0.70305127,1.3333721,-0.7442219,-1.6782496,0.6478502,1.395303,0.37916297,0.9743149,0.104991116,-0.9001488,-1.6324283,-0.4022361,1.6283311,-0.9507908,0.17442596,0.1595815,0.100442454,1.4579331,-0.16196285,-0.44219962,-0.855568,1.405779,0.20074919,1.167394,1.3585905,0.32909894,-0.96965635,-0.77092946,-0.0278172,0.16243029,0.18218595,-0.3848581,-0.575511,0.1026397,-0.82730836,-1.4365959,-1.0086164,-1.3227751,-1.0303919,1.0718447,0.8598977,-1.6482714,1.3140042,-0.72063553,-1.2692486,-0.99198294,-1.0675386,-0.06465006,1.6995867,-1.7173886,-0.7189295,-1.158103,1.0213912,0.593263,-0.7861079,0.6166122,1.2689416,1.4052373,0.89084184,-1.4989369,-1.3910078,-0.6613976,0.7011448,-1.5201272,-0.94294053,1.2016318,1.7786171,1.1929848,0.8766018,0.9666953,-1.528447,-1.3157833,1.1408402,-1.5106077,-1.6813235,1.4540793,-0.8638117,0.32986584,-1.1834326,-0.94049233,-1.5956906,0.90565306,-0.1176941,0.98535454,0.57607526,1.2474511,1.7153466,1.4512947,-0.18422136,-0.7020702,1.4361483,-0.36822894,0.015478836,-1.1749355,-1.294583,-0.13321196,0.52046096,1.2092339,-0.8721008,0.40117446,0.5772307,-1.4716461,-0.2842836,0.7391745,1.4293301,0.9805471,1.6381677,1.2127062,0.32099974,-1.23204,-0.34744912,-0.12733439,1.5512486,0.5426778,-1.6688001,-0.08647231,1.2910199,1.529574,0.6421557,0.5443731,-0.66359603,-1.5512395,1.6348201,1.2260534,-1.3832824,-0.8535434,0.98966897,-0.63392556,-0.21653895,-0.17240357,0.08988809,-0.25776,-1.29609,-0.14467287,1.010901,-1.2789251,1.3380513,-0.69026566,-0.63327783,-1.2531061,-1.592045,0.7439832,-0.79248476,-0.92403746,-0.90088147,1.1414984,1.341126,-0.55846614,-0.23557962,0.5156157,-1.2549663,-0.44875082,-0.40469044,1.4862785,-1.30533,0.36829457,-0.24062186,-1.078592,-1.385818,-0.636067,1.0104709,0.2946236,-1.0009328,-0.16812967,1.2742897,-1.0924287,0.88581,-0.3091693,-1.2436225,0.38331568,-0.6122512,0.68218714,1.6756088,-0.6471424,0.7921963,-1.2919222,0.0053456,1.5409495,-1.4407424,-0.88838905,-0.5537713,1.669201,-0.35569745,0.047868896,-1.3545127,0.77849865,-0.6589231,0.21788037,0.93558395,-0.5828551,1.7505689,0.80273825,-0.5189962,1.5997071,0.40720284,-0.39685065,-1.6455331,-1.3389186,-1.2389004,0.007962296,-0.10938508,0.10211985,0.37904152,0.6750275,-1.0269326,-1.579309,-1.0449455,1.679232,1.4486495,0.5950983,1.3365359,1.3960419,1.4156783,-0.31856298,0.511879,0.84312713,1.6237175,-1.4550533,0.7489267,0.46334818,-0.036274936,-1.2681234,1.4382011,-1.417512,-1.0633564,-1.0523655,0.63433194,-0.2026508,1.4948478,0.9320761,1.1397282,0.0639484,0.24870184,1.7790873,-0.21540998,-1.009709,1.2354248,-1.2942697,1.4080877,-0.3885141,1.0899457,0.16963387,1.4179988,-0.7249088,1.4531833,-0.58598095,1.5663304,-1.5428259,1.5298984,-1.6372348,-1.0479497,1.6693019,1.0669742,-1.4173967,-0.17535447,1.5618082,1.0741456,-1.1892364,-0.005331012,0.729618,-0.8044273,-1.5993531,1.1075456,0.9330914,-1.1974322,-1.4412597,0.9112652,-1.712194,1.7157038,0.65838796,0.8436699,-0.5334437,0.69598246,-0.47705156,0.802001,-1.3563423,1.4973499,-1.1696097,-1.1518924,1.6461022,-0.7612716,-0.06805462,0.24059613,0.85596716,1.2478248,1.5995016,1.167343,1.5904691,-0.18315056,-0.16577762,0.06036342,0.56802815,0.512543,1.733299,-1.5015613,-0.4706999,-1.4140735,0.8307849,-0.48332322,-0.91236633,-0.39000434,-0.118022405,-1.3836857,-0.31431928,0.116327256,1.4386805,0.9461738,-0.2410386,1.2415057,-1.147797,-0.0026756686,1.6856883,-1.6443592,1.4875897,1.7139697,0.65242094,1.7320038,1.4829236,0.65325814,0.5142458,0.09717547,-1.6326238,-0.8566459,-1.2039477,-0.15791473,1.5491405,0.24859326,0.96968085,1.0529425,-1.7333287,0.47362298,-0.33701637,-0.52826935,0.77483463,0.8555691,0.6976647,0.86538225,0.64294547,-1.5221426,1.1518601,-1.7110803,-0.13516429,0.37540886,0.08602627,0.72581565,0.4713749,-1.2736293,1.3317857,0.41198757,-0.7712025,0.011438901,-0.7715676,-1.5336928,-0.9433909,0.6996703,-0.3052119,0.6493661,-0.33798382,0.09366821,-0.59409,-0.825895,-0.7713672,0.80196404,1.5376207,-1.1912618,-0.8664542,-0.94148266,1.2140144,-0.90773886,-0.061097838,1.7015915,-0.45695713,-0.63232803,0.6873783,-1.6297631,0.974633,1.0899812,0.6757206,-1.5450318,1.5605582,0.5554809,0.68058306,-0.18437028,1.5644604,0.73172605,-1.525743,-1.2163867,1.3574419,0.4204321,1.0756645,-0.9622701,-1.7074323,-1.0840085,0.5578413,0.080928154,-1.4161627,0.81955063,1.0777538,-1.5499836,0.010366219,-1.2671247,-0.9177224,0.6402864,-0.944125,-0.9994755,0.7001862,-0.51476324,-1.0893732,1.230621,-0.026531117,0.537552,-1.651995,-0.7753954,1.338821,0.062566124,-1.357316,-0.87466514,0.5807704,1.1151404,1.4440697,1.4671574,1.0426282,0.66622585,1.5875597,0.7436585,-0.46414873,-0.045084488,0.08721574,0.29747742,-0.6253862,-1.1019481,1.3812099,-0.23685877,-0.89980036,-1.164301,-0.007960939,0.6065533,1.4494872,-1.3424885,-1.5183358,-0.18673535,-1.0038788,-1.57751,-0.7034711,-0.81210595,-1.1043209,0.080387294,-0.09564713,-0.7627234,-1.1746383,-0.6132731,-1.6488831,0.8611018,-1.1377808,1.7714342,-0.8926157,0.5380036,-0.35652795,-0.27967718,0.2897664,-1.7071607,0.68310565,-1.2440919,-0.8899574,0.30722293,-0.8237387,-1.1160119,1.3034825,1.763372,1.6741847,-0.5191827,0.71221167,-1.0788457,0.05909918,-1.5268726,-1.1247449,-0.035259593,0.56916827,-0.93280166,1.6249037,-0.11115826,-1.6740588,0.35423756,-0.21411423,0.088046454,-1.6816115,1.2624283,-0.015918149,-1.5561653,-0.23086923,-1.0775343,-0.63468325,0.93177843,-0.3931386,-1.0230626,1.6100076,-0.8364513,0.37361157,-0.9897558,-0.03786894,0.98954904,1.033688,0.27246237,-0.28873038,-0.47909865,-0.8304355,1.4738737,1.0795941,-1.4154469,-1.113256,-0.023131598,-1.0533981,0.75569826,1.115534,0.40489995,0.6083706,-1.0612098,-0.9601881,-0.8024913,-0.21428604,0.6427781,0.9838628,-1.5180299,-0.009394262,0.64455104,0.73954874,-0.967465,-0.20763446,-0.08990584,-0.14608625,-0.7456054,-0.45486617,-0.96510917,0.3918879,-0.11817364,-1.1794965,1.0560046,-1.3195975,-1.2781595,0.078201815,-0.77938724,0.07607661,1.2701015,-1.4906167,-1.204604,1.5282661,0.87216324,-0.13854787,-0.2190899,1.0300683,-0.3973669,-1.5434074,-0.8723645,0.36228615,1.1535306,-0.61210525,-1.5669812,1.238905,-0.9931766,0.931824,0.799035,-1.1575202,-1.4960933,-1.2400455,0.4843609,-0.09459922,-1.3332741,0.33126912,-0.8163908,0.4446211,0.32496095,0.30800703,0.22892058,-0.5824512,-0.9367679,0.99644136,1.5351876,-1.5207734,-1.2425501,-1.5712274,-0.76294893,0.47847092,-0.0014063889,1.2432917,-1.2147343,0.43572816,-0.33931422,-0.6393079,-0.6725144,0.94152373,-1.1958681,-0.47389612,0.8076381,1.6533366,0.7933095,0.93408364,-1.095495,-0.8345646,-0.6094694,0.0889574,0.33721727,-0.37264907,-0.92568547,-0.67420524,-1.5122906,0.33572388,-0.26775083,0.12549031,0.3699623,-0.3015072,-0.22639051,1.7775849,-0.02415639,0.52054876,1.0083507,0.65284437,-1.1673135,-0.11188416,0.67758304,1.0009631,-0.38137797,0.24503978,1.5078892,0.555947,0.11474207,0.8729957,1.0872685,-1.026767,0.5203776,0.39357287,-0.7729566,-1.3467212,-0.3621455,0.69447225,1.560858,-1.4194225,-0.36840075,1.6362234,0.40597957,1.1004831,0.33908537,-0.8297508,-0.8323779,-1.3984817,-1.6437638,-1.061368,-0.17836814,1.5927396,0.6235558,0.840946,0.015103913,-1.1829034,1.504222,-0.45179093,1.760162,-0.696607,0.910692,-0.11703899,1.0279183,-0.7543188,-1.4215053,0.8790034,1.0537213,0.9183284,-0.52449846,0.6577066,-0.012305438,1.4216961,0.15758988,1.0483298,-0.16760203,-1.0557969,-1.1528299,0.39365435,-1.3535615,-0.4115571,0.17295064,1.6389848,0.04498797,0.59381974,0.47136167,0.27119163,-0.22554132,-0.5758113,-0.44796756,1.5341403,1.5537124,0.8334757,1.7510593,-1.6015717,-0.7232646,1.2438033,-0.45862025,1.3174293,1.6367931,0.078782365,0.4502298,1.0483235,0.49256283,-0.7817739,0.4256678,-0.54295015,-1.4906583,-0.88987637,-1.2192271,-1.1922165,-0.8136198,-1.6691984,0.23688954,1.1681218,-1.5912404,1.2603108,0.83986795,0.3728571,-0.32727277,0.99250436,-0.44482514,0.90327436,1.6655254,0.8847433,-1.3369465,1.0093192,1.3658471,0.58728874,-1.5992119,0.27991083,-1.2891815,0.18644916,-0.24973221,1.2939615,0.6737735,0.612354,-0.1609139,1.4538529,1.2312516,1.1921093,0.6052708,-0.6776453,-0.47426245,1.0451871,0.64636475,-1.0688148,-0.25963396,1.160184,0.8642825,1.3861717,1.0161326,-0.015508569,0.06331912,-0.58983314,-0.40273893,1.2492917,-0.8007665,-0.6802922,0.58901656,-0.11580394,-0.54831654,-1.0362161,0.81598157,-1.209017,-1.406894,1.1024303,1.3391577,-0.36167502,-1.692431,-1.5371653,-1.557561,0.6484975,-1.3436399,-1.3201793,-1.2321852,1.1463048,-1.0300196,-0.07346886,-0.7491763,-0.51583004,0.038728528,-0.08323053,0.5702336,0.5849875,0.4379844,-1.0717152,-0.19162825,-0.106485456,-1.3645195,-0.32732233,0.64044493,1.1962835,-1.4752223,-0.79862446,1.6205456,0.2968952,1.5644029,-0.30764776,-1.3794256,0.7449258,0.72814524,-1.0805506,-1.4375287,-0.58674693,1.3217136,-1.6423583,-1.0252129,-0.6006804,1.067752,-0.55160576,1.712234,-1.3084055,-0.49138355,-1.5482321,1.554679,-0.9436383,0.36877933,-1.1940732,1.479708,-0.04485114,-0.51031667,-0.28485888,-1.6386129,-0.7778949,-1.6473411,-0.017130088,-0.8135589,0.61383945,-0.9525932,-1.1510004,1.2559966,1.4787474,0.6296631,-1.4613981,0.63467383,-1.0638925,0.9997951,0.25303143,0.0145966625,1.0400681,0.09444326,1.4022899,0.75634605,-1.0539451,1.292538,-0.56795835,0.37607765,-1.3012613,1.3427904,0.2893165,-1.5111338,0.53894496,0.7857669,1.446882,-0.79620373,-0.22900027,0.08658267,-0.6547837,0.42067215,-0.54489493,1.7022505,1.2769285,-1.4879708,-0.3797407,-1.2163205,-0.7587507,-0.9018758,0.08934681,-0.5758204,-0.6554998,-1.0908197,-0.37939388,0.5517199,0.91426414,-0.049703725,-0.40333125,-0.8021078,1.3125421,1.2013423,-0.10467533,0.05119133,0.23566374,-0.932634,-1.7248834,1.1643701,1.4104059,-0.23933452,-1.0844324,0.11507288,-1.4420842,0.4852082,0.295485,0.787644,-0.8166061,-0.22681081,1.7387341,-0.14270563,0.809447,0.41308275,-0.48957655,0.890716,-1.349734,0.79092383,-0.92312735,0.873246,-0.7086936,0.35199222,0.97357875,0.25008518,-1.1561695,1.6805549,-0.49776626,-0.025608616,0.16705814,0.26495063,1.1810166,0.91413915,-0.1578137,0.8192269,-0.09529887,1.072738,-1.0658753,-1.0839201,0.060730778,0.6416279,0.14422537,1.0594796,0.5879401,0.61769915,-0.503296,0.8676503,1.5997261,0.45853674,-0.7839439,-1.4592202,-0.7048425,-1.1491363,0.45563167,-1.6206505,1.1141741,-0.47278228,-0.9132594,-0.27263552,-1.1001652,-1.4574978,0.19076677,-0.101077534,-1.3468676,1.306662,-0.579298,0.13021624,0.8589077,1.1087635,1.0933137,0.9924611,1.4185538,1.4704115,-1.5520352,1.1019232,-1.720603,0.26249066,-0.11880565,-0.0013402259,-1.0656997,-0.045993764,0.42546302,1.0223432,1.5718637,-1.2425354,1.1472754,1.6191273,-1.4752816
Dbx2,-0.103240125,0.30223593,-0.60197663,1.299355,-1.184395,-1.2538694,1.5219145,0.83221483,0.016176173,-0.32268524,1.5859994,-1.4734528,-1.1224369,-1.3716285,0.6866158,0.09229201,-0.7473878,1.7736876,1.0776992,0.97177154,0.08115142,-0.59174067,-1.4823157,-0.60480565,0.6198271,0.53915185,1.2354383,-1.5429349,-1.5972837,0.9886828,-0.36743182,-0.54845136,-0.6728236,1.6244026,-0.86943215,1.2805221,1.4054236,0.6562294,-0.49382,0.5128295,0.81485933,-0.89545774,-1.4289465,0.15713641,0.26189414,-0.23532589,-0.30873093,1.1608592,-1.4100939,1.4756382,-1.6060046,-0.27117196,-0.71614313,-0.35076734,1.7088305,-0.1257366,-0.70305127,1.3333721,-0.7442219,-1.6782496,0.6478502,1.395303,0.37916297,0.9743149,0.104991116,-0.9001488,-1.6324283,-0.4022361,1.6283311,-0.9507908,0.17442596,0.1595815,0.100442454,1.4579331,-0.16196285,-0.44219962,-0.855568,1.405779,0.20074919,1.167394,1.3585905,0.32909894,-0.96965635,-0.77092946,-0.0278172,0.16243029,0.18218595,-0.3848581,-0.575511,0.1026397,-0.82730836,-1.4365959,-1.0086164,-1.3227751,-1.0303919,1.0718447,0.8598977,-1.6482714,1.3140042,-0.72063553,-1.2692486,-0.99198294,-1.0675386,-0.06465006,1.6995867,-1.7173886,-0.7189295,-1.158103,1.0213912,0.593263,-0.7861079,0.6166122,1.2689416,1.4052373,0.89084184,-1.4989369,-1.3910078,-0.6613976,0.7011448,-1.5201272,-0.94294053,1.2016318,1.7786171,1.1929848,0.8766018,0.9666953,-1.528447,-1.3157833,1.1408402,-1.5106077,-1.6813235,1.4540793,-0.8638117,0.32986584,-1.1834326,-0.94049233,-1.5956906,0.90565306,-0.1176941,0.98535454,0.57607526,1.2474511,1.7153466,1.4512947,-0.18422136,-0.7020702,1.4361483,-0.36822894,0.015478836,-1.1749355,-1.294583,-0.13321196,0.52046096,1.2092339,-0.8721008,0.40117446,0.5772307,-1.4716461,-0.2842836,0.7391745,1.4293301,0.9805471,1.6381677,1.2127062,0.32099974,-1.23204,-0.34744912,-0.12733439,1.5512486,0.5426778,-1.6688001,-0.08647231,1.2910199,1.529574,0.6421557,0.5443731,-0.66359603,-1.5512395,1.6348201,1.2260534,-1.3832824,-0.8535434,0.98966897,-0.63392556,-0.21653895,-0.17240357,0.08988809,-0.25776,-1.29609,-0.14467287,1.010901,-1.2789251,1.3380513,-0.69026566,-0.63327783,-1.2531061,-1.592045,0.7439832,-0.79248476,-0.92403746,-0.90088147,1.1414984,1.341126,-0.55846614,-0.23557962,0.5156157,-1.2549663,-0.44875082,-0.40469044,1.4862785,-1.30533,0.36829457,-0.24062186,-1.078592,-1.385818,-0.636067,1.0104709,0.2946236,-1.0009328,-0.16812967,1.2742897,-1.0924287,0.88581,-0.3091693,-1.2436225,0.38331568,-0.6122512,0.68218714,1.6756088,-0.6471424,0.7921963,-1.2919222,0.0053456,1.5409495,-1.4407424,-0.88838905,-0.5537713,1.669201,-0.35569745,0.047868896,-1.3545127,0.77849865,-0.6589231,0.21788037,0.93558395,-0.5828551,1.7505689,0.80273825,-0.5189962,1.5997071,0.40720284,-0.39685065,-1.6455331,-1.3389186,-1.2389004,0.007962296,-0.10938508,0.10211985,0.37904152,0.6750275,-1.0269326,-1.579309,-1.0449455,1.679232,1.4486495,0.5950983,1.3365359,1.3960419,1.4156783,-0.31856298,0.511879,0.84312713,1.6237175,-1.4550533,0.7489267,0.46334818,-0.036274936,-1.2681234,1.4382011,-1.417512,-1.0633564,-1.0523655,0.63433194,-0.2026508,1.4948478,0.9320761,1.1397282,0.0639484,0.24870184,1.7790873,-0.21540998,-1.009709,1.2354248,-1.2942697,1.4080877,-0.3885141,1.0899457,0.16963387,1.4179988,-0.7249088,1.4531833,-0.58598095,1.5663304,-1.5428259,1.5298984,-1.6372348,-1.0479497,1.6693019,1.0669742,-1.4173967,-0.17535447,1.5618082,1.0741456,-1.1892364,-0.005331012,0.729618,-0.8044273,-1.5993531,1.1075456,0.9330914,-1.1974322,-1.4412597,0.9112652,-1.712194,1.7157038,0.65838796,0.8436699,-0.5334437,0.69598246,-0.47705156,0.802001,-1.3563423,1.4973499,-1.1696097,-1.1518924,1.6461022,-0.7612716,-0.06805462,0.24059613,0.85596716,1.2478248,1.5995016,1.167343,1.5904691,-0.18315056,-0.16577762,0.06036342,0.56802815,0.512543,1.733299,-1.5015613,-0.4706999,-1.4140735,0.8307849,-0.48332322,-0.91236633,-0.39000434,-0.118022405,-1.3836857,-0.31431928,0.116327256,1.4386805,0.9461738,-0.2410386,1.2415057,-1.147797,-0.0026756686,1.6856883,-1.6443592,1.4875897,1.7139697,0.65242094,1.7320038,1.4829236,0.65325814,0.5142458,0.09717547,-1.6326238,-0.8566459,-1.2039477,-0.15791473,1.5491405,0.24859326,0.96968085,1.0529425,-1.7333287,0.47362298,-0.33701637,-0.52826935,0.77483463,0.8555691,0.6976647,0.86538225,0.64294547,-1.5221426,1.1518601,-1.7110803,-0.13516429,0.37540886,0.08602627,0.72581565,0.4713749,-1.2736293,1.3317857,0.41198757,-0.7712025,0.011438901,-0.7715676,-1.5336928,-0.9433909,0.6996703,-0.3052119,0.6493661,-0.33798382,0.09366821,-0.59409,-0.825895,-0.7713672,0.80196404,1.5376207,-1.1912618,-0.8664542,-0.94148266,1.2140144,-0.90773886,-0.061097838,1.7015915,-0.45695713,-0.63232803,0.6873783,-1.6297631,0.974633,1.0899812,0.6757206,-1.5450318,1.5605582,0.5554809,0.68058306,-0.18437028,1.5644604,0.73172605,-1.525743,-1.2163867,1.3574419,0.4204321,1.0756645,-0.9622701,-1.7074323,-1.0840085,0.5578413,0.080928154,-1.4161627,0.81955063,1.0777538,-1.5499836,0.010366219,-1.2671247,-0.9177224,0.6402864,-0.944125,-0.9994755,0.7001862,-0.51476324,-1.0893732,1.230621,-0.026531117,0.537552,-1.651995,-0.7753954,1.338821,0.062566124,-1.357316,-0.87466514,0.5807704,1.1151404,1.4440697,1.4671574,1.0426282,0.66622585,1.5875597,0.7436585,-0.46414873,-0.045084488,0.08721574,0.29747742,-0.6253862,-1.1019481,1.3812099,-0.23685877,-0.89980036,-1.164301,-0.007960939,0.6065533,1.4494872,-1.3424885,-1.5183358,-0.18673535,-1.0038788,-1.57751,-0.7034711,-0.81210595,-1.1043209,0.080387294,-0.09564713,-0.7627234,-1.1746383,-0.6132731,-1.6488831,0.8611018,-1.1377808,1.7714342,-0.8926157,0.5380036,-0.35652795,-0.27967718,0.2897664,-1.7071607,0.68310565,-1.2440919,-0.8899574,0.30722293,-0.8237387,-1.1160119,1.3034825,1.763372,1.6741847,-0.5191827,0.71221167,-1.0788457,0.05909918,-1.5268726,-1.1247449,-0.035259593,0.56916827,-0.93280166,1.6249037,-0.11115826,-1.6740588,0.35423756,-0.21411423,0.088046454,-1.6816115,1.2624283,-0.015918149,-1.5561653,-0.23086923,-1.0775343,-0.63468325,0.93177843,-0.3931386,-1.0230626,1.6100076,-0.8364513,0.37361157,-0.9897558,-0.03786894,0.98954904,1.033688,0.27246237,-0.28873038,-0.47909865,-0.8304355,1.4738737,1.0795941,-1.4154469,-1.113256,-0.023131598,-1.0533981,0.75569826,1.115534,0.40489995,0.6083706,-1.0612098,-0.9601881,-0.8024913,-0.21428604,0.6427781,0.9838628,-1.5180299,-0.009394262,0.64455104,0.73954874,-0.967465,-0.20763446,-0.08990584,-0.14608625,-0.7456054,-0.45486617,-0.96510917,0.3918879,-0.11817364,-1.1794965,1.0560046,-1.3195975,-1.2781595,0.078201815,-0.77938724,0.07607661,1.2701015,-1.4906167,-1.204604,1.5282661,0.87216324,-0.13854787,-0.2190899,1.0300683,-0.3973669,-1.5434074,-0.8723645,0.36228615,1.1535306,-0.61210525,-1.5669812,1.238905,-0.9931766,0.931824,0.799035,-1.1575202,-1.4960933,-1.2400455,0.4843609,-0.09459922,-1.3332741,0.33126912,-0.8163908,0.4446211,0.32496095,0.30800703,0.22892058,-0.5824512,-0.9367679,0.99644136,1.5351876,-1.5207734,-1.2425501,-1.5712274,-0.76294893,0.47847092,-0.0014063889,1.2432917,-1.2147343,0.43572816,-0.33931422,-0.6393079,-0.6725144,0.94152373,-1.1958681,-0.47389612,0.8076381,1.6533366,0.7933095,0.93408364,-1.095495,-0.8345646,-0.6094694,0.0889574,0.33721727,-0.37264907,-0.92568547,-0.67420524,-1.5122906,0.33572388,-0.26775083,0.12549031,0.3699623,-0.3015072,-0.22639051,1.7775849,-0.02415639,0.52054876,1.0083507,0.65284437,-1.1673135,-0.11188416,0.67758304,1.0009631,-0.38137797,0.24503978,1.5078892,0.555947,0.11474207,0.8729957,1.0872685,-1.026767,0.5203776,0.39357287,-0.7729566,-1.3467212,-0.3621455,0.69447225,1.560858,-1.4194225,-0.36840075,1.6362234,0.40597957,1.1004831,0.33908537,-0.8297508,-0.8323779,-1.3984817,-1.6437638,-1.061368,-0.17836814,1.5927396,0.6235558,0.840946,0.015103913,-1.1829034,1.504222,-0.45179093,1.760162,-0.696607,0.910692,-0.11703899,1.0279183,-0.7543188,-1.4215053,0.8790034,1.0537213,0.9183284,-0.52449846,0.6577066,-0.012305438,1.4216961,0.15758988,1.0483298,-0.16760203,-1.0557969,-1.1528299,0.39365435,-1.3535615,-0.4115571,0.17295064,1.6389848,0.04498797,0.59381974,0.47136167,0.27119163,-0.22554132,-0.5758113,-0.44796756,1.5341403,1.5537124,0.8334757,1.7510593,-1.6015717,-0.7232646,1.2438033,-0.45862025,1.3174293,1.6367931,0.078782365,0.4502298,1.0483235,0.49256283,-0.7817739,0.4256678,-0.54295015,-1.4906583,-0.88987637,-1.2192271,-1.1922165,-0.8136198,-1.6691984,0.23688954,1.1681218,-1.5912404,1.2603108,0.83986795,0.3728571,-0.32727277,0.99250436,-0.44482514,0.90327436,1.6655254,0.8847433,-1.3369465,1.0093192,1.3658471,0.58728874,-1.5992119,0.27991083,-1.2891815,0.18644916,-0.24973221,1.2939615,0.6737735,0.612354,-0.1609139,1.4538529,1.2312516,1.1921093,0.6052708,-0.6776453,-0.47426245,1.0451871,0.64636475,-1.0688148,-0.25963396,1.160184,0.8642825,1.3861717,1.0161326,-0.015508569,0.06331912,-0.58983314,-0.40273893,1.2492917,-0.8007665,-0.6802922,0.58901656,-0.11580394,-0.54831654,-1.0362161,0.81598157,-1.209017,-1.406894,1.1024303,1.3391577,-0.36167502,-1.692431,-1.5371653,-1.557561,0.6484975,-1.3436399,-1.3201793,-1.2321852,1.1463048,-1.0300196,-0.07346886,-0.7491763,-0.51583004,0.038728528,-0.08323053,0.5702336,0.5849875,0.4379844,-1.0717152,-0.19162825,-0.106485456,-1.3645195,-0.32732233,0.64044493,1.1962835,-1.4752223,-0.79862446,1.6205456,0.2968952,1.5644029,-0.30764776,-1.3794256,0.7449258,0.72814524,-1.0805506,-1.4375287,-0.58674693,1.3217136,-1.6423583,-1.0252129,-0.6006804,1.067752,-0.55160576,1.712234,-1.3084055,-0.49138355,-1.5482321,1.554679,-0.9436383,0.36877933,-1.1940732,1.479708,-0.04485114,-0.51031667,-0.28485888,-1.6386129,-0.7778949,-1.6473411,-0.017130088,-0.8135589,0.61383945,-0.9525932,-1.1510004,1.2559966,1.4787474,0.6296631,-1.4613981,0.63467383,-1.0638925,0.9997951,0.25303143,0.0145966625,1.0400681,0.09444326,1.4022899,0.75634605,-1.0539451,1.292538,-0.56795835,0.37607765,-1.3012613,1.3427904,0.2893165,-1.5111338,0.53894496,0.7857669,1.446882,-0.79620373,-0.22900027,0.08658267,-0.6547837,0.42067215,-0.54489493,1.7022505,1.2769285,-1.4879708,-0.3797407,-1.2163205,-0.7587507,-0.9018758,0.08934681,-0.5758204,-0.6554998,-1.0908197,-0.37939388,0.5517199,0.91426414,-0.049703725,-0.40333125,-0.8021078,1.3125421,1.2013423,-0.10467533,0.05119133,0.23566374,-0.932634,-1.7248834,1.1643701,1.4104059,-0.23933452,-1.0844324,0.11507288,-1.4420842,0.4852082,0.295485,0.787644,-0.8166061,-0.22681081,1.7387341,-0.14270563,0.809447,0.41308275,-0.48957655,0.890716,-1.349734,0.79092383,-0.92312735,0.873246,-0.7086936,0.35199222,0.97357875,0.25008518,-1.1561695,1.6805549,-0.49776626,-0.025608616,0.16705814,0.26495063,1.1810166,0.91413915,-0.1578137,0.8192269,-0.09529887,1.072738,-1.0658753,-1.0839201,0.060730778,0.6416279,0.14422537,1.0594796,0.5879401,0.61769915,-0.503296,0.8676503,1.5997261,0.45853674,-0.7839439,-1.4592202,-0.7048425,-1.1491363,0.45563167,-1.6206505,1.1141741,-0.47278228,-0.9132594,-0.27263552,-1.1001652,-1.4574978,0.19076677,-0.101077534,-1.3468676,1.306662,-0.579298,0.13021624,0.8589077,1.1087635,1.0933137,0.9924611,1.4185538,1.4704115,-1.5520352,1.1019232,-1.720603,0.26249066,-0.11880565,-0.0013402259,-1.0656997,-0.045993764,0.42546302,1.0223432,1.5718637,-1.2425354,1.1472754,1.6191273,-1.4752816
Irx3,-0.103240125,0.30223593,-0.60197663,1.299355,-1.184395,-1.2538694,1.5219145,0.83221483,0.016176173,-0.32268524,1.5859994,-1.4734528,-1.1224369,-1.3716285,0.6866158,0.09229201,-0.7473878,1.7736876,1.0776992,0.97177154,0.08115142,-0.59174067,-1.4823157,-0.60480565,0.6198271,0.53915185,1.2354383,-1.5429349,-1.5972837,0.9886828,-0.36743182,-0.54845136,-0.6728236,1.6244026,-0.86943215,1.2805221,1.4054236,0.6562294,-0.49382,0.5128295,0.81485933,-0.89545774,-1.4289465,0.15713641,0.26189414,-0.23532589,-0.30873093,1.1608592,-1.4100939,1.4756382,-1.6060046,-0.27117196,-0.71614313,-0.35076734,1.7088305,-0.1257366,-0.70305127,1.3333721,-0.7442219,-1.6782496,0.6478502,1.395303,0.37916297,0.9743149,0.104991116,-0.9001488,-1.6324283,-0.4022361,1.6283311,-0.9507908,0.17442596,0.1595815,0.100442454,1.4579331,-0.16196285,-0.44219962,-0.855568,1.405779,0.20074919,1.167394,1.3585905,0.32909894,-0.96965635,-0.77092946,-0.0278172,0.16243029,0.18218595,-0.3848581,-0.575511,0.1026397,-0.82730836,-1.4365959,-1.0086164,-1.3227751,-1.0303919,1.0718447,0.8598977,-1.6482714,1.3140042,-0.72063553,-1.2692486,-0.99198294,-1.0675386,-0.06465006,1.6995867,-1.7173886,-0.7189295,-1.158103,1.0213912,0.593263,-0.7861079,0.6166122,1.2689416,1.4052373,0.89084184,-1.4989369,-1.3910078,-0.6613976,0.7011448,-1.5201272,-0.94294053,1.2016318,1.7786171,1.1929848,0.8766018,0.9666953,-1.528447,-1.3157833,1.1408402,-1.5106077,-1.6813235,1.4540793,-0.8638117,0.32986584,-1.1834326,-0.94049233,-1.5956906,0.90565306,-0.1176941,0.98535454,0.57607526,1.2474511,1.7153466,1.4512947,-0.18422136,-0.7020702,1.4361483,-0.36822894,0.015478836,-1.1749355,-1.294583,-0.13321196,0.52046096,1.2092339,-0.8721008,0.40117446,0.5772307,-1.4716461,-0.2842836,0.7391745,1.4293301,0.9805471,1.6381677,1.2127062,0.32099974,-1.23204,-0.34744912,-0.12733439,1.5512486,0.5426778,-1.6688001,-0.08647231,1.2910199,1.529574,0.6421557,0.5443731,-0.66359603,-1.5512395,1.6348201,1.2260534,-1.3832824,-0.8535434,0.98966897,-0.63392556,-0.21653895,-0.17240357,0.08988809,-0.25776,-1.29609,-0.14467287,1.010901,-1.2789251,1.3380513,-0.69026566,-0.63327783,-1.2531061,-1.592045,0.7439832,-0.79248476,-0.92403746,-0.90088147,1.1414984,1.341126,-0.55846614,-0.23557962,0.5156157,-1.2549663,-0.44875082,-0.40469044,1.4862785,-1.30533,0.36829457,-0.24062186,-1.078592,-1.385818,-0.636067,1.0104709,0.2946236,-1.0009328,-0.16812967,1.2742897,-1.0924287,0.88581,-0.3091693,-1.2436225,0.38331568,-0.6122512,0.68218714,1.6756088,-0.6471424,0.7921963,-1.2919222,0.0053456,1.5409495,-1.4407424,-0.88838905,-0.5537713,1.669201,-0.35569745,0.047868896,-1.3545127,0.77849865,-0.6589231,0.21788037,0.93558395,-0.5828551,1.7505689,0.80273825,-0.5189962,1.5997071,0.40720284,-0.39685065,-1.6455331,-1.3389186,-1.2389004,0.007962296,-0.10938508,0.10211985,0.37904152,0.6750275,-1.0269326,-1.579309,-1.0449455,1.679232,1.4486495,0.5950983,1.3365359,1.3960419,1.4156783,-0.31856298,0.511879,0.84312713,1.6237175,-1.4550533,0.7489267,0.46334818,-0.036274936,-1.2681234,1.4382011,-1.417512,-1.0633564,-1.0523655,0.63433194,-0.2026508,1.4948478,0.9320761,1.1397282,0.0639484,0.24870184,1.7790873,-0.21540998,-1.009709,1.2354248,-1.2942697,1.4080877,-0.3885141,1.0899457,0.16963387,1.4179988,-0.7249088,1.4531833,-0.58598095,1.5663304,-1.5428259,1.5298984,-1.6372348,-1.0479497,1.6693019,1.0669742,-1.4173967,-0.17535447,1.5618082,1.0741456,-1.1892364,-0.005331012,0.729618,-0.8044273,-1.5993531,1.1075456,0.9330914,-1.1974322,-1.4412597,0.9112652,-1.712194,1.7157038,0.65838796,0.8436699,-0.5334437,0.69598246,-0.47705156,0.802001,-1.3563423,1.4973499,-1.1696097,-1.1518924,1.6461022,-0.7612716,-0.06805462,0.24059613,0.85596716,1.2478248,1.5995016,1.167343,1.5904691,-0.18315056,-0.16577762,0.06036342,0.56802815,0.512543,1.733299,-1.5015613,-0.4706999,-1.4140735,0.8307849,-0.48332322,-0.91236633,-0.39000434,-0.118022405,-1.3836857,-0.31431928,0.116327256,1.4386805,0.9461738,-0.2410386,1.2415057,-1.147797,-0.0026756686,1.6856883,-1.6443592,1.4875897,1.7139697,0.65242094,1.7320038,1.4829236,0.65325814,0.5142458,0.09717547,-1.6326238,-0.8566459,-1.2039477,-0.15791473,1.5491405,0.24859326,0.96968085,1.0529425,-1.7333287,0.47362298,-0.33701637,-0.52826935,0.77483463,0.8555691,0.6976647,0.86538225,0.64294547,-1.5221426,1.1518601,-1.7110803,-0.13516429,0.37540886,0.08602627,0.72581565,0.4713749,-1.2736293,1.3317857,0.41198757,-0.7712025,0.011438901,-0.7715676,-1.5336928,-0.9433909,0.6996703,-0.3052119,0.6493661,-0.33798382,0.09366821,-0.59409,-0.825895,-0.7713672,0.80196404,1.5376207,-1.1912618,-0.8664542,-0.94148266,1.2140144,-0.90773886,-0.061097838,1.7015915,-0.45695713,-0.63232803,0.6873783,-1.6297631,0.974633,1.0899812,0.6757206,-1.5450318,1.5605582,0.5554809,0.68058306,-0.18437028,1.5644604,0.73172605,-1.525743,-1.2163867,1.3574419,0.4204321,1.0756645,-0.9622701,-1.7074323,-1.0840085,0.5578413,0.080928154,-1.4161627,0.81955063,1.0777538,-1.5499836,0.010366219,-1.2671247,-0.9177224,0.6402864,-0.944125,-0.9994755,0.7001862,-0.51476324,-1.0893732,1.230621,-0.026531117,0.537552,-1.651995,-0.7753954,1.338821,0.062566124,-1.357316,-0.87466514,0.5807704,1.1151404,1.4440697,1.4671574,1.0426282,0.66622585,1.5875597,0.7436585,-0.46414873,-0.045084488,0.08721574,0.29747742,-0.6253862,-1.1019481,1.3812099,-0.23685877,-0.89980036,-1.164301,-0.007960939,0.6065533,1.4494872,-1.3424885,-1.5183358,-0.18673535,-1.0038788,-1.57751,-0.7034711,-0.81210595,-1.1043209,0.080387294,-0.09564713,-0.7627234,-1.1746383,-0.6132731,-1.6488831,0.8611018,-1.1377808,1.7714342,-0.8926157,0.5380036,-0.35652795,-0.27967718,0.2897664,-1.7071607,0.68310565,-1.2440919,-0.8899574,0.30722293,-0.8237387,-1.1160119,1.3034825,1.763372,1.6741847,-0.5191827,0.71221167,-1.0788457,0.05909918,-1.5268726,-1.1247449,-0.035259593,0.56916827,-0.93280166,1.6249037,-0.11115826,-1.6740588,0.35423756,-0.21411423,0.088046454,-1.6816115,1.2624283,-0.015918149,-1.5561653,-0.23086923,-1.0775343,-0.63468325,0.93177843,-0.3931386,-1.0230626,1.6100076,-0.8364513,0.37361157,-0.9897558,-0.03786894,0.98954904,1.033688,0.27246237,-0.28873038,-0.47909865,-0.8304355,1.4738737,1.0795941,-1.4154469,-1.113256,-0.023131598,-1.0533981,0.75569826,1.115534,0.40489995,0.6083706,-1.0612098,-0.9601881,-0.8024913,-0.21428604,0.6427781,0.9838628,-1.5180299,-0.009394262,0.64455104,0.73954874,-0.967465,-0.20763446,-0.08990584,-0.14608625,-0.7456054,-0.45486617,-0.96510917,0.3918879,-0.11817364,-1.1794965,1.0560046,-1.3195975,-1.2781595,0.078201815,-0.77938724,0.07607661,1.2701015,-1.4906167,-1.204604,1.5282661,0.87216324,-0.13854787,-0.2190899,1.0300683,-0.3973669,-1.5434074,-0.8723645,0.36228615,1.1535306,-0.61210525,-1.5669812,1.238905,-0.9931766,0.931824,0.799035,-1.1575202,-1.4960933,-1.2400455,0.4843609,-0.09459922,-1.3332741,0.33126912,-0.8163908,0.4446211,0.32496095,0.30800703,0.22892058,-0.5824512,-0.9367679,0.99644136,1.5351876,-1.5207734,-1.2425501,-1.5712274,-0.76294893,0.47847092,-0.0014063889,1.2432917,-1.2147343,0.43572816,-0.33931422,-0.6393079,-0.6725144,0.94152373,-1.1958681,-0.47389612,0.8076381,1.6533366,0.7933095,0.93408364,-1.095495,-0.8345646,-0.6094694,0.0889574,0.33721727,-0.37264907,-0.92568547,-0.67420524,-1.5122906,0.33572388,-0.26775083,0.12549031,0.3699623,-0.3015072,-0.22639051,1.7775849,-0.02415639,0.52054876,1.0083507,0.65284437,-1.1673135,-0.11188416,0.67758304,1.0009631,-0.38137797,0.24503978,1.5078892,0.555947,0.11474207,0.8729957,1.0872685,-1.026767,0.5203776,0.39357287,-0.7729566,-1.3467212,-0.3621455,0.69447225,1.560858,-1.4194225,-0.36840075,1.6362234,0.40597957,1.1004831,0.33908537,-0.8297508,-0.8323779,-1.3984817,-1.6437638,-1.061368,-0.17836814,1.5927396,0.6235558,0.840946,0.015103913,-1.1829034,1.504222,-0.45179093,1.760162,-0.696607,0.910692,-0.11703899,1.0279183,-0.7543188,-1.4215053,0.8790034,1.0537213,0.9183284,-0.52449846,0.6577066,-0.012305438,1.4216961,0.15758988,1.0483298,-0.16760203,-1.0557969,-1.1528299,0.39365435,-1.3535615,-0.4115571,0.17295064,1.6389848,0.04498797,0.59381974,0.47136167,0.27119163,-0.22554132,-0.5758113,-0.44796756,1.5341403,1.5537124,0.8334757,1.7510593,-1.6015717,-0.7232646,1.2438033,-0.45862025,1.3174293,1.6367931,0.078782365,0.4502298,1.0483235,0.49256283,-0.7817739,0.4256678,-0.54295015,-1.4906583,-0.88987637,-1.2192271,-1.1922165,-0.8136198,-1.6691984,0.23688954,1.1681218,-1.5912404,1.2603108,0.83986795,0.3728571,-0.32727277,0.99250436,-0.44482514,0.90327436,1.6655254,0.8847433,-1.3369465,1.0093192,1.3658471,0.58728874,-1.5992119,0.27991083,-1.2891815,0.18644916,-0.24973221,1.2939615,0.6737735,0.612354,-0.1609139,1.4538529,1.2312516,1.1921093,0.6052708,-0.6776453,-0.47426245,1.0451871,0.64636475,-1.0688148,-0.25963396,1.160184,0.8642825,1.3861717,1.0161326,-0.015508569,0.06331912,-0.58983314,-0.40273893,1.2492917,-0.8007665,-0.6802922,0.58901656,-0.11580394,-0.54831654,-1.0362161,0.81598157,-1.209017,-1.406894,1.1024303,1.3391577,-0.36167502,-1.692431,-1.5371653,-1.557561,0.6484975,-1.3436399,-1.3201793,-1.2321852,1.1463048,-1.0300196,-0.07346886,-0.7491763,-0.51583004,0.038728528,-0.08323053,0.5702336,0.5849875,0.4379844,-1.0717152,-0.19162825,-0.106485456,-1.3645195,-0.32732233,0.64044493,1.1962835,-1.4752223,-0.79862446,1.6205456,0.2968952,1.5644029,-0.30764776,-1.3794256,0.7449258,0.72814524,-1.0805506,-1.4375287,-0.58674693,1.3217136,-1.6423583,-1.0252129,-0.6006804,1.067752,-0.55160576,1.712234,-1.3084055,-0.49138355,-1.5482321,1.554679,-0.9436383,0.36877933,-1.1940732,1.479708,-0.04485114,-0.51031667,-0.28485888,-1.6386129,-0.7778949,-1.6473411,-0.017130088,-0.8135589,0.61383945,-0.9525932,-1.1510004,1.2559966,1.4787474,0.6296631,-1.4613981,0.63467383,-1.0638925,0.9997951,0.25303143,0.0145966625,1.0400681,0.09444326,1.4022899,0.75634605,-1.0539451,1.292538,-0.56795835,0.37607765,-1.3012613,1.3427904,0.2893165,-1.5111338,0.53894496,0.7857669,1.446882,-0.79620373,-0.22900027,0.08658267,-0.6547837,0.42067215,-0.54489493,1.7022505,1.2769285,-1.4879708,-0.3797407,-1.2163205,-0.7587507,-0.9018758,0.08934681,-0.5758204,-0.6554998,-1.0908197,-0.37939388,0.5517199,0.91426414,-0.049703725,-0.40333125,-0.8021078,1.3125421,1.2013423,-0.10467533,0.05119133,0.23566374,-0.932634,-1.7248834,1.1643701,1.4104059,-0.23933452,-1.0844324,0.11507288,-1.4420842,0.4852082,0.295485,0.787644,-0.8166061,-0.22681081,1.7387341,-0.14270563,0.809447,0.41308275,-0.48957655,0.890716,-1.349734,0.79092383,-0.92312735,0.873246,-0.7086936,0.35199222,0.97357875,0.25008518,-1.1561695,1.6805549,-0.49776626,-0.025608616,0.16705814,0.26495063,1.1810166,0.91413915,-0.1578137,0.8192269,-0.09529887,1.072738,-1.0658753,-1.0839201,0.060730778,0.6416279,0.14422537,1.0594796,0.5879401,0.61769915,-0.503296,0.8676503,1.5997261,0.45853674,-0.7839439,-1.4592202,-0.7048425,-1.1491363,0.45563167,-1.6206505,1.1141741,-0.47278228,-0.9132594,-0.27263552,-1.1001652,-1.4574978,0.19076677,-0.101077534,-1.3468676,1.306662,-0.579298,0.13021624,0.8589077,1.1087635,1.0933137,0.9924611,1.4185538,1.4704115,-1.5520352,1.1019232,-1.720603,0.26249066,-0.11880565,-0.0013402259,-1.0656997,-0.045993764,0.42546302,1.0223432,1.5718637,-1.2425354,1.1472754,1.6191273,-1.4752816
Nkx22,-0.103240125,0.30223593,-0.60197663,1.299355,-1.184395,-1.2538694,1.5219145,0.83221483,0.016176173,-0.32268524,1.5859994,-1.4734528,-1.1224369,-1.3716285,0.6866158,0.09229201,-0.7473878,1.7736876,1.0776992,0.97177154,0.08115142,-0.59174067,-1.4823157,-0.60480565,0.6198271,0.53915185,1.2354383,-1.5429349,-1.5972837,0.9886828,-0.36743182,-0.54845136,-0.6728236,1.6244026,-0.86943215,1.2805221,1.4054236,0.6562294,-0.49382,0.5128295,0.81485933,-0.89545774,-1.4289465,0.15713641,0.26189414,-0.23532589,-0.30873093,1.1608592,-1.4100939,1.4756382,-1.6060046,-0.27117196,-0.71614313,-0.35076734,1.7088305,-0.1257366,-0.70305127,1.3333721,-0.7442219,-1.6782496,0.6478502,1.395303,0.37916297,0.9743149,0.104991116,-0.9001488,-1.6324283,-0.4022361,1.6283311,-0.9507908,0.17442596,0.1595815,0.100442454,1.4579331,-0.16196285,-0.44219962,-0.855568,1.405779,0.20074919,1.167394,1.3585905,0.32909894,-0.96965635,-0.77092946,-0.0278172,0.16243029,0.18218595,-0.3848581,-0.575511,0.1026397,-0.82730836,-1.4365959,-1.0086164,-1.3227751,-1.0303919,1.0718447,0.8598977,-1.6482714,1.3140042,-0.72063553,-1.2692486,-0.99198294,-1.0675386,-0.06465006,1.6995867,-1.7173886,-0.7189295,-1.158103,1.0213912,0.593263,-0.7861079,0.6166122,1.2689416,1.4052373,0.89084184,-1.4989369,-1.3910078,-0.6613976,0.7011448,-1.5201272,-0.94294053,1.2016318,1.7786171,1.1929848,0.8766018,0.9666953,-1.528447,-1.3157833,1.1408402,-1.5106077,-1.6813235,1.4540793,-0.8638117,0.32986584,-1.1834326,-0.94049233,-1.5956906,0.90565306,-0.1176941,0.98535454,0.57607526,1.2474511,1.7153466,1.4512947,-0.18422136,-0.7020702,1.4361483,-0.36822894,0.015478836,-1.1749355,-1.294583,-0.13321196,0.52046096,1.2092339,-0.8721008,0.40117446,0.5772307,-1.4716461,-0.2842836,0.7391745,1.4293301,0.9805471,1.6381677,1.2127062,0.32099974,-1.23204,-0.34744912,-0.12733439,1.5512486,0.5426778,-1.6688001,-0.08647231,1.2910199,1.529574,0.6421557,0.5443731,-0.66359603,-1.5512395,1.6348201,1.2260534,-1.3832824,-0.8535434,0.98966897,-0.63392556,-0.21653895,-0.17240357,0.08988809,-0.25776,-1.29609,-0.14467287,1.010901,-1.2789251,1.3380513,-0.69026566,-0.63327783,-1.2531061,-1.592045,0.7439832,-0.79248476,-0.92403746,-0.90088147,1.1414984,1.341126,-0.55846614,-0.23557962,0.5156157,-1.2549663,-0.44875082,-0.40469044,1.4862785,-1.30533,0.36829457,-0.24062186,-1.078592,-1.385818,-0.636067,1.0104709,0.2946236,-1.0009328,-0.16812967,1.2742897,-1.0924287,0.88581,-0.3091693,-1.2436225,0.38331568,-0.6122512,0.68218714,1.6756088,-0.6471424,0.7921963,-1.2919222,0.0053456,1.5409495,-1.4407424,-0.88838905,-0.5537713,1.669201,-0.35569745,0.047868896,-1.3545127,0.77849865,-0.6589231,0.21788037,0.93558395,-0.5828551,1.7505689,0.80273825,-0.5189962,1.5997071,0.40720284,-0.39685065,-1.6455331,-1.3389186,-1.2389004,0.007962296,-0.10938508,0.10211985,0.37904152,0.6750275,-1.0269326,-1.579309,-1.0449455,1.679232,1.4486495,0.5950983,1.3365359,1.3960419,1.4156783,-0.31856298,0.511879,0.84312713,1.6237175,-1.4550533,0.7489267,0.46334818,-0.036274936,-1.2681234,1.4382011,-1.417512,-1.0633564,-1.0523655,0.63433194,-0.2026508,1.4948478,0.9320761,1.1397282,0.0639484,0.24870184,1.7790873,-0.21540998,-1.009709,1.2354248,-1.2942697,1.4080877,-0.3885141,1.0899457,0.16963387,1.4179988,-0.7249088,1.4531833,-0.58598095,1.5663304,-1.5428259,1.5298984,-1.6372348,-1.0479497,1.6693019,1.0669742,-1.4173967,-0.17535447,1.5618082,1.0741456,-1.1892364,-0.005331012,0.729618,-0.8044273,-1.5993531,1.1075456,0.9330914,-1.1974322,-1.4412597,0.9112652,-1.712194,1.7157038,0.65838796,0.8436699,-0.5334437,0.69598246,-0.47705156,0.802001,-1.3563423,1.4973499,-1.1696097,-1.1518924,1.6461022,-0.7612716,-0.06805462,0.24059613,0.85596716,1.2478248,1.5995016,1.167343,1.5904691,-0.18315056,-0.16577762,0.06036342,0.56802815,0.512543,1.733299,-1.5015613,-0.4706999,-1.4140735,0.8307849,-0.48332322,-0.91236633,-0.39000434,-0.118022405,-1.3836857,-0.31431928,0.116327256,1.4386805,0.9461738,-0.2410386,1.2415057,-1.147797,-0.0026756686,1.6856883,-1.6443592,1.4875897,1.7139697,0.65242094,1.7320038,1.4829236,0.65325814,0.5142458,0.09717547,-1.6326238,-0.8566459,-1.2039477,-0.15791473,1.5491405,0.24859326,0.96968085,1.0529425,-1.7333287,0.47362298,-0.33701637,-0.52826935,0.77483463,0.8555691,0.6976647,0.86538225,0.64294547,-1.5221426,1.1518601,-1.7110803,-0.13516429,0.37540886,0.08602627,0.72581565,0.4713749,-1.2736293,1.3317857,0.41198757,-0.7712025,0.011438901,-0.7715676,-1.5336928,-0.9433909,0.6996703,-0.3052119,0.6493661,-0.33798382,0.09366821,-0.59409,-0.825895,-0.7713672,0.80196404,1.5376207,-1.1912618,-0.8664542,-0.94148266,1.2140144,-0.90773886,-0.061097838,1.7015915,-0.45695713,-0.63232803,0.6873783,-1.6297631,0.974633,1.0899812,0.6757206,-1.5450318,1.5605582,0.5554809,0.68058306,-0.18437028,1.5644604,0.73172605,-1.525743,-1.2163867,1.3574419,0.4204321,1.0756645,-0.9622701,-1.7074323,-1.0840085,0.5578413,0.080928154,-1.4161627,0.81955063,1.0777538,-1.5499836,0.010366219,-1.2671247,-0.9177224,0.6402864,-0.944125,-0.9994755,0.7001862,-0.51476324,-1.0893732,1.230621,-0.026531117,0.537552,-1.651995,-0.7753954,1.338821,0.062566124,-1.357316,-0.87466514,0.5807704,1.1151404,1.4440697,1.4671574,1.0426282,0.66622585,1.5875597,0.7436585,-0.46414873,-0.045084488,0.08721574,0.29747742,-0.6253862,-1.1019481,1.3812099,-0.23685877,-0.89980036,-1.164301,-0.007960939,0.6065533,1.4494872,-1.3424885,-1.5183358,-0.18673535,-1.0038788,-1.57751,-0.7034711,-0.81210595,-1.1043209,0.080387294,-0.09564713,-0.7627234,-1.1746383,-0.6132731,-1.6488831,0.8611018,-1.1377808,1.7714342,-0.8926157,0.5380036,-0.35652795,-0.27967718,0.2897664,-1.7071607,0.68310565,-1.2440919,-0.8899574,0.30722293,-0.8237387,-1.1160119,1.3034825,1.763372,1.6741847,-0.5191827,0.71221167,-1.0788457,0.05909918,-1.5268726,-1.1247449,-0.035259593,0.56916827,-0.93280166,1.6249037,-0.11115826,-1.6740588,0.35423756,-0.21411423,0.088046454,-1.6816115,1.2624283,-0.015918149,-1.5561653,-0.23086923,-1.0775343,-0.63468325,0.93177843,-0.3931386,-1.0230626,1.6100076,-0.8364513,0.37361157,-0.9897558,-0.03786894,0.98954904,1.033688,0.27246237,-0.28873038,-0.47909865,-0.8304355,1.4738737,1.0795941,-1.4154469,-1.113256,-0.023131598,-1.0533981,0.75569826,1.115534,0.40489995,0.6083706,-1.0612098,-0.9601881,-0.8024913,-0.21428604,0.6427781,0.9838628,-1.5180299,-0.009394262,0.64455104,0.73954874,-0.967465,-0.20763446,-0.08990584,-0.14608625,-0.7456054,-0.45486617,-0.96510917,0.3918879,-0.11817364,-1.1794965,1.0560046,-1.3195975,-1.2781595,0.078201815,-0.77938724,0.07607661,1.2701015,-1.4906167,-1.204604,1.5282661,0.87216324,-0.13854787,-0.2190899,1.0300683,-0.3973669,-1.5434074,-0.8723645,0.36228615,1.1535306,-0.61210525,-1.5669812,1.238905,-0.9931766,0.931824,0.799035,-1.1575202,-1.4960933,-1.2400455,0.4843609,-0.09459922,-1.3332741,0.33126912,-0.8163908,0.4446211,0.32496095,0.30800703,0.22892058,-0.5824512,-0.9367679,0.99644136,1.5351876,-1.5207734,-1.2425501,-1.5712274,-0.76294893,0.47847092,-0.0014063889,1.2432917,-1.2147343,0.43572816,-0.33931422,-0.6393079,-0.6725144,0.94152373,-1.1958681,-0.47389612,0.8076381,1.6533366,0.7933095,0.93408364,-1.095495,-0.8345646,-0.6094694,0.0889574,0.33721727,-0.37264907,-0.92568547,-0.67420524,-1.5122906,0.33572388,-0.26775083,0.12549031,0.3699623,-0.3015072,-0.22639051,1.7775849,-0.02415639,0.52054876,1.0083507,0.65284437,-1.1673135,-0.11188416,0.67758304,1.0009631,-0.38137797,0.24503978,1.5078892,0.555947,0.11474207,0.8729957,1.0872685,-1.026767,0.5203776,0.39357287,-0.7729566,-1.3467212,-0.3621455,0.69447225,1.560858,-1.4194225,-0.36840075,1.6362234,0.40597957,1.1004831,0.33908537,-0.8297508,-0.8323779,-1.3984817,-1.6437638,-1.061368,-0.17836814,1.5927396,0.6235558,0.840946,0.015103913,-1.1829034,1.504222,-0.45179093,1.760162,-0.696607,0.910692,-0.11703899,1.0279183,-0.7543188,-1.4215053,0.8790034,1.0537213,0.9183284,-0.52449846,0.6577066,-0.012305438,1.4216961,0.15758988,1.0483298,-0.16760203,-1.0557969,-1.1528299,0.39365435,-1.3535615,-0.4115571,0.17295064,1.6389848,0.04498797,0.59381974,0.47136167,0.27119163,-0.22554132,-0.5758113,-0.44796756,1.5341403,1.5537124,0.8334757,1.7510593,-1.6015717,-0.7232646,1.2438033,-0.45862025,1.3174293,1.6367931,0.078782365,0.4502298,1.0483235,0.49256283,-0.7817739,0.4256678,-0.54295015,-1.4906583,-0.88987637,-1.2192271,-1.1922165,-0.8136198,-1.6691984,0.23688954,1.1681218,-1.5912404,1.2603108,0.83986795,0.3728571,-0.32727277,0.99250436,-0.44482514,0.90327436,1.6655254,0.8847433,-1.3369465,1.0093192,1.3658471,0.58728874,-1.5992119,0.27991083,-1.2891815,0.18644916,-0.24973221,1.2939615,0.6737735,0.612354,-0.1609139,1.4538529,1.2312516,1.1921093,0.6052708,-0.6776453,-0.47426245,1.0451871,0.64636475,-1.0688148,-0.25963396,1.160184,0.8642825,1.3861717,1.0161326,-0.015508569,0.06331912,-0.58983314,-0.40273893,1.2492917,-0.8007665,-0.6802922,0.58901656,-0.11580394,-0.54831654,-1.0362161,0.81598157,-1.209017,-1.406894,1.1024303,1.3391577,-0.36167502,-1.692431,-1.5371653,-1.557561,0.6484975,-1.3436399,-1.3201793,-1.2321852,1.1463048,-1.0300196,-0.07346886,-0.7491763,-0.51583004,0.038728528,-0.08323053,0.5702336,0.5849875,0.4379844,-1.0717152,-0.19162825,-0.106485456,-1.3645195,-0.32732233,0.64044493,1.1962835,-1.4752223,-0.79862446,1.6205456,0.2968952,1.5644029,-0.30764776,-1.3794256,0.7449258,0.72814524,-1.0805506,-1.4375287,-0.58674693,1.3217136,-1.6423583,-1.0252129,-0.6006804,1.067752,-0.55160576,1.712234,-1.3084055,-0.49138355,-1.5482321,1.554679,-0.9436383,0.36877933,-1.1940732,1.479708,-0.04485114,-0.51031667,-0.28485888,-1.6386129,-0.7778949,-1.6473411,-0.017130088,-0.8135589,0.61383945,-0.9525932,-1.1510004,1.2559966,1.4787474,0.6296631,-1.4613981,0.63467383,-1.0638925,0.9997951,0.25303143,0.0145966625,1.0400681,0.09444326,1.4022899,0.75634605,-1.0539451,1.292538,-0.56795835,0.37607765,-1.3012613,1.3427904,0.2893165,-1.5111338,0.53894496,0.7857669,1.446882,-0.79620373,-0.22900027,0.08658267,-0.6547837,0.42067215,-0.54489493,1.7022505,1.2769285,-1.4879708,-0.3797407,-1.2163205,-0.7587507,-0.9018758,0.08934681,-0.5758204,-0.6554998,-1.0908197,-0.37939388,0.5517199,0.91426414,-0.049703725,-0.40333125,-0.8021078,1.3125421,1.2013423,-0.10467533,0.05119133,0.23566374,-0.932634,-1.7248834,1.1643701,1.4104059,-0.23933452,-1.0844324,0.11507288,-1.4420842,0.4852082,0.295485,0.787644,-0.8166061,-0.22681081,1.7387341,-0.14270563,0.809447,0.41308275,-0.48957655,0.890716,-1.349734,0.79092383,-0.92312735,0.873246,-0.7086936,0.35199222,0.97357875,0.25008518,-1.1561695,1.6805549,-0.49776626,-0.025608616,0.16705814,0.26495063,1.1810166,0.91413915,-0.1578137,0.8192269,-0.09529887,1.072738,-1.0658753,-1.0839201,0.060730778,0.6416279,0.14422537,1.0594796,0.5879401,0.61769915,-0.503296,0.8676503,1.5997261,0.45853674,-0.7839439,-1.4592202,-0.7048425,-1.1491363,0.45563167,-1.6206505,1.1141741,-0.47278228,-0.9132594,-0.27263552,-1.1001652,-1.4574978,0.19076677,-0.101077534,-1.3468676,1.306662,-0.579298,0.13021624,0.8589077,1.1087635,1.0933137,0.9924611,1.4185538,1.4704115,-1.5520352,1.1019232,-1.720603,0.26249066,-0.11880565,-0.0013402259,-1.0656997,-0.045993764,0.42546302,1.0223432,1.5718637,-1.2425354,1.1472754,1.6191273,-1.4752816
Nkx61,-0.103240125,0.30223593,-0.60197663,1.299355,-1.184395,-1.2538694,1.5219145,0.83221483,0.016176173,-0.32268524,1.5859994,-1.4734528,-1.1224369,-1.3716285,0.6866158,0.09229201,-0.7473878,1.7736876,1.0776992,0.97177154,0.08115142,-0.59174067,-1.4823157,-0.60480565,0.6198271,0.53915185,1.2354383,-1.5429349,-1.5972837,0.9886828,-0.36743182,-0.54845136,-0.6728236,1.6244026,-0.86943215,1.2805221,1.4054236,0.6562294,-0.49382,0.5128295,0.81485933,-0.89545774,-1.4289465,0.15713641,0.26189414,-0.23532589,-0.30873093,1.1608592,-1.4100939,1.4756382,-1.6060046,-0.27117196,-0.71614313,-0.35076734,1.7088305,-0.1257366,-0.70305127,1.3333721,-0.7442219,-1.6782496,0.6478502,1.395303,0.37916297,0.9743149,0.104991116,-0.9001488,-1.6324283,-0.4022361,1.6283311,-0.9507908,0.17442596,0.1595815,0.100442454,1.4579331,-0.16196285,-0.44219962,-0.855568,1.405779,0.20074919,1.167394,1.3585905,0.32909894,-0.96965635,-0.77092946,-0.0278172,0.16243029,0.18218595,-0.3848581,-0.575511,0.1026397,-0.82730836,-1.4365959,-1.0086164,-1.3227751,-1.0303919,1.0718447,0.8598977,-1.6482714,1.3140042,-0.72063553,-1.2692486,-0.99198294,-1.0675386,-0.06465006,1.6995867,-1.7173886,-0.7189295,-1.158103,1.0213912,0.593263,-0.7861079,0.6166122,1.2689416,1.4052373,0.89084184,-1.4989369,-1.3910078,-0.6613976,0.7011448,-1.5201272,-0.94294053,1.2016318,1.7786171,1.1929848,0.8766018,0.9666953,-1.528447,-1.3157833,1.1408402,-1.5106077,-1.6813235,1.4540793,-0.8638117,0.32986584,-1.1834326,-0.94049233,-1.5956906,0.90565306,-0.1176941,0.98535454,0.57607526,1.2474511,1.7153466,1.4512947,-0.18422136,-0.7020702,1.4361483,-0.36822894,0.015478836,-1.1749355,-1.294583,-0.13321196,0.52046096,1.2092339,-0.8721008,0.40117446,0.5772307,-1.4716461,-0.2842836,0.7391745,1.4293301,0.9805471,1.6381677,1.2127062,0.32099974,-1.23204,-0.34744912,-0.12733439,1.5512486,0.5426778,-1.6688001,-0.08647231,1.2910199,1.529574,0.6421557,0.5443731,-0.66359603,-1.5512395,1.6348201,1.2260534,-1.3832824,-0.8535434,0.98966897,-0.63392556,-0.21653895,-0.17240357,0.08988809,-0.25776,-1.29609,-0.14467287,1.010901,-1.2789251,1.3380513,-0.69026566,-0.63327783,-1.2531061,-1.592045,0.7439832,-0.79248476,-0.92403746,-0.90088147,1.1414984,1.341126,-0.55846614,-0.23557962,0.5156157,-1.2549663,-0.44875082,-0.40469044,1.4862785,-1.30533,0.36829457,-0.24062186,-1.078592,-1.385818,-0.636067,1.0104709,0.2946236,-1.0009328,-0.16812967,1.2742897,-1.0924287,0.88581,-0.3091693,-1.2436225,0.38331568,-0.6122512,0.68218714,1.6756088,-0.6471424,0.7921963,-1.2919222,0.0053456,1.5409495,-1.4407424,-0.88838905,-0.5537713,1.669201,-0.35569745,0.047868896,-1.3545127,0.77849865,-0.6589231,0.21788037,0.93558395,-0.5828551,1.7505689,0.80273825,-0.5189962,1.5997071,0.40720284,-0.39685065,-1.6455331,-1.3389186,-1.2389004,0.007962296,-0.10938508,0.10211985,0.37904152,0.6750275,-1.0269326,-1.579309,-1.0449455,1.679232,1.4486495,0.5950983,1.3365359,1.3960419,1.4156783,-0.31856298,0.511879,0.84312713,1.6237175,-1.4550533,0.7489267,0.46334818,-0.036274936,-1.2681234,1.4382011,-1.417512,-1.0633564,-1.0523655,0.63433194,-0.2026508,1.4948478,0.9320761,1.1397282,0.0639484,0.24870184,1.7790873,-0.21540998,-1.009709,1.2354248,-1.2942697,1.4080877,-0.3885141,1.0899457,0.16963387,1.4179988,-0.7249088,1.4531833,-0.58598095,1.5663304,-1.5428259,1.5298984,-1.6372348,-1.0479497,1.6693019,1.0669742,-1.4173967,-0.17535447,1.5618082,1.0741456,-1.1892364,-0.005331012,0.729618,-0.8044273,-1.5993531,1.1075456,0.9330914,-1.1974322,-1.4412597,0.9112652,-1.712194,1.7157038,0.65838796,0.8436699,-0.5334437,0.69598246,-0.47705156,0.802001,-1.3563423,1.4973499,-1.1696097,-1.1518924,1.6461022,-0.7612716,-0.06805462,0.24059613,0.85596716,1.2478248,1.5995016,1.167343,1.5904691,-0.18315056,-0.16577762,0.06036342,0.56802815,0.512543,1.733299,-1.5015613,-0.4706999,-1.4140735,0.8307849,-0.48332322,-0.91236633,-0.39000434,-0.118022405,-1.3836857,-0.31431928,0.116327256,1.4386805,0.9461738,-0.2410386,1.2415057,-1.147797,-0.0026756686,1.6856883,-1.6443592,1.4875897,1.7139697,0.65242094,1.7320038,1.4829236,0.65325814,0.5142458,0.09717547,-1.6326238,-0.8566459,-1.2039477,-0.15791473,1.5491405,0.24859326,0.96968085,1.0529425,-1.7333287,0.47362298,-0.33701637,-0.52826935,0.77483463,0.8555691,0.6976647,0.86538225,0.64294547,-1.5221426,1.1518601,-1.7110803,-0.13516429,0.37540886,0.08602627,0.72581565,0.4713749,-1.2736293,1.3317857,0.41198757,-0.7712025,0.011438901,-0.7715676,-1.5336928,-0.9433909,0.6996703,-0.3052119,0.6493661,-0.33798382,0.09366821,-0.59409,-0.825895,-0.7713672,0.80196404,1.5376207,-1.1912618,-0.8664542,-0.94148266,1.2140144,-0.90773886,-0.061097838,1.7015915,-0.45695713,-0.63232803,0.6873783,-1.6297631,0.974633,1.0899812,0.6757206,-1.5450318,1.5605582,0.5554809,0.68058306,-0.18437028,1.5644604,0.73172605,-1.525743,-1.2163867,1.3574419,0.4204321,1.0756645,-0.9622701,-1.7074323,-1.0840085,0.5578413,0.080928154,-1.4161627,0.81955063,1.0777538,-1.5499836,0.010366219,-1.2671247,-0.9177224,0.6402864,-0.944125,-0.9994755,0.7001862,-0.51476324,-1.0893732,1.230621,-0.026531117,0.537552,-1.651995,-0.7753954,1.338821,0.062566124,-1.357316,-0.87466514,0.5807704,1.1151404,1.4440697,1.4671574,1.0426282,0.66622585,1.5875597,0.7436585,-0.46414873,-0.045084488,0.08721574,0.29747742,-0.6253862,-1.1019481,1.3812099,-0.23685877,-0.89980036,-1.164301,-0.007960939,0.6065533,1.4494872,-1.3424885,-1.5183358,-0.18673535,-1.0038788,-1.57751,-0.7034711,-0.81210595,-1.1043209,0.080387294,-0.09564713,-0.7627234,-1.1746383,-0.6132731,-1.6488831,0.8611018,-1.1377808,1.7714342,-0.8926157,0.5380036,-0.35652795,-0.27967718,0.2897664,-1.7071607,0.68310565,-1.2440919,-0.8899574,0.30722293,-0.8237387,-1.1160119,1.3034825,1.763372,1.6741847,-0.5191827,0.71221167,-1.0788457,0.05909918,-1.5268726,-1.1247449,-0.035259593,0.56916827,-0.93280166,1.6249037,-0.11115826,-1.6740588,0.35423756,-0.21411423,0.088046454,-1.6816115,1.2624283,-0.015918149,-1.5561653,-0.23086923,-1.0775343,-0.63468325,0.93177843,-0.3931386,-1.0230626,1.6100076,-0.8364513,0.37361157,-0.9897558,-0.03786894,0.98954904,1.033688,0.27246237,-0.28873038,-0.47909865,-0.8304355,1.4738737,1.0795941,-1.4154469,-1.113256,-0.023131598,-1.0533981,0.75569826,1.115534,0.40489995,0.6083706,-1.0612098,-0.9601881,-0.8024913,-0.21428604,0.6427781,0.9838628,-1.5180299,-0.009394262,0.64455104,0.73954874,-0.967465,-0.20763446,-0.08990584,-0.14608625,-0.7456054,-0.45486617,-0.96510917,0.3918879,-0.11817364,-1.1794965,1.0560046,-1.3195975,-1.2781595,0.078201815,-0.77938724,0.07607661,1.2701015,-1.4906167,-1.204604,1.5282661,0.87216324,-0.13854787,-0.2190899,1.0300683,-0.3973669,-1.5434074,-0.8723645,0.36228615,1.1535306,-0.61210525,-1.5669812,1.238905,-0.9931766,0.931824,0.799035,-1.1575202,-1.4960933,-1.2400455,0.4843609,-0.09459922,-1.3332741,0.33126912,-0.8163908,0.4446211,0.32496095,0.30800703,0.22892058,-0.5824512,-0.9367679,0.99644136,1.5351876,-1.5207734,-1.2425501,-1.5712274,-0.76294893,0.47847092,-0.0014063889,1.2432917,-1.2147343,0.43572816,-0.33931422,-0.6393079,-0.6725144,0.94152373,-1.1958681,-0.47389612,0.8076381,1.6533366,0.7933095,0.93408364,-1.095495,-0.8345646,-0.6094694,0.0889574,0.33721727,-0.37264907,-0.92568547,-0.67420524,-1.5122906,0.33572388,-0.26775083,0.12549031,0.3699623,-0.3015072,-0.22639051,1.7775849,-0.02415639,0.52054876,1.0083507,0.65284437,-1.1673135,-0.11188416,0.67758304,1.0009631,-0.38137797,0.24503978,1.5078892,0.555947,0.11474207,0.8729957,1.0872685,-1.026767,0.5203776,0.39357287,-0.7729566,-1.3467212,-0.3621455,0.69447225,1.560858,-1.4194225,-0.36840075,1.6362234,0.40597957,1.1004831,0.33908537,-0.8297508,-0.8323779,-1.3984817,-1.6437638,-1.061368,-0.17836814,1.5927396,0.6235558,0.840946,0.015103913,-1.1829034,1.504222,-0.45179093,1.760162,-0.696607,0.910692,-0.11703899,1.0279183,-0.7543188,-1.4215053,0.8790034,1.0537213,0.9183284,-0.52449846,0.6577066,-0.012305438,1.4216961,0.15758988,1.0483298,-0.16760203,-1.0557969,-1.1528299,0.39365435,-1.3535615,-0.4115571,0.17295064,1.6389848,0.04498797,0.59381974,0.47136167,0.27119163,-0.22554132,-0.5758113,-0.44796756,1.5341403,1.5537124,0.8334757,1.7510593,-1.6015717,-0.7232646,1.2438033,-0.45862025,1.3174293,1.6367931,0.078782365,0.4502298,1.0483235,0.49256283,-0.7817739,0.4256678,-0.54295015,-1.4906583,-0.88987637,-1.2192271,-1.1922165,-0.8136198,-1.6691984,0.23688954,1.1681218,-1.5912404,1.2603108,0.83986795,0.3728571,-0.32727277,0.99250436,-0.44482514,0.90327436,1.6655254,0.8847433,-1.3369465,1.0093192,1.3658471,0.58728874,-1.5992119,0.27991083,-1.2891815,0.18644916,-0.24973221,1.2939615,0.6737735,0.612354,-0.1609139,1.4538529,1.2312516,1.1921093,0.6052708,-0.6776453,-0.47426245,1.0451871,0.64636475,-1.0688148,-0.25963396,1.160184,0.8642825,1.3861717,1.0161326,-0.015508569,0.06331912,-0.58983314,-0.40273893,1.2492917,-0.8007665,-0.6802922,0.58901656,-0.11580394,-0.54831654,-1.0362161,0.81598157,-1.209017,-1.406894,1.1024303,1.3391577,-0.36167502,-1.692431,-1.5371653,-1.557561,0.6484975,-1.3436399,-1.3201793,-1.2321852,1.1463048,-1.0300196,-0.07346886,-0.7491763,-0.51583004,0.038728528,-0.08323053,0.5702336,0.5849875,0.4379844,-1.0717152,-0.19162825,-0.106485456,-1.3645195,-0.32732233,0.64044493,1.1962835,-1.4752223,-0.79862446,1.6205456,0.2968952,1.5644029,-0.30764776,-1.3794256,0.7449258,0.72814524,-1.0805506,-1.4375287,-0.58674693,1.3217136,-1.6423583,-1.0252129,-0.6006804,1.067752,-0.55160576,1.712234,-1.3084055,-0.49138355,-1.5482321,1.554679,-0.9436383,0.36877933,-1.1940732,1.479708,-0.04485114,-0.51031667,-0.28485888,-1.6386129,-0.7778949,-1.6473411,-0.017130088,-0.8135589,0.61383945,-0.9525932,-1.1510004,1.2559966,1.4787474,0.6296631,-1.4613981,0.63467383,-1.0638925,0.9997951,0.25303143,0.0145966625,1.0400681,0.09444326,1.4022899,0.75634605,-1.0539451,1.292538,-0.56795835,0.37607765,-1.3012613,1.3427904,0.2893165,-1.5111338,0.53894496,0.7857669,1.446882,-0.79620373,-0.22900027,0.08658267,-0.6547837,0.42067215,-0.54489493,1.7022505,1.2769285,-1.4879708,-0.3797407,-1.2163205,-0.7587507,-0.9018758,0.08934681,-0.5758204,-0.6554998,-1.0908197,-0.37939388,0.5517199,0.91426414,-0.049703725,-0.40333125,-0.8021078,1.3125421,1.2013423,-0.10467533,0.05119133,0.23566374,-0.932634,-1.7248834,1.1643701,1.4104059,-0.23933452,-1.0844324,0.11507288,-1.4420842,0.4852082,0.295485,0.787644,-0.8166061,-0.22681081,1.7387341,-0.14270563,0.809447,0.41308275,-0.48957655,0.890716,-1.349734,0.79092383,-0.92312735,0.873246,-0.7086936,0.35199222,0.97357875,0.25008518,-1.1561695,1.6805549,-0.49776626,-0.025608616,0.16705814,0.26495063,1.1810166,0.91413915,-0.1578137,0.8192269,-0.09529887,1.072738,-1.0658753,-1.0839201,0.060730778,0.6416279,0.14422537,1.0594796,0.5879401,0.61769915,-0.503296,0.8676503,1.5997261,0.45853674,-0.7839439,-1.4592202,-0.7048425,-1.1491363,0.45563167,-1.6206505,1.1141741,-0.47278228,-0.9132594,-0.27263552,-1.1001652,-1.4574978,0.19076677,-0.101077534,-1.3468676,1.306662,-0.579298,0.13021624,0.8589077,1.1087635,1.0933137,0.9924611,1.4185538,1.4704115,-1.5520352,1.1019232,-1.720603,0.26249066,-0.11880565,-0.0013402259,-1.0656997,-0.045993764,0.42546302,1.0223432,1.5718637,-1.2425354,1.1472754,1.6191273,-1.4752816
Nkx62,-0.103240125,0.30223593,-0.60197663,1.299355,-1.184395,-1.2538694,1.5219145,0.83221483,0.016176173,-0.32268524,1.5859994,-1.4734528,-1.1224369,-1.3716285,0.6866158,0.09229201,-0.7473878,1.7736876,1.0776992,0.97177154,0.08115142,-0.59174067,-1.4823157,-0.60480565,0.6198271,0.53915185,1.2354383,-1.5429349,-1.5972837,0.9886828,-0.36743182,-0.54845136,-0.6728236,1.6244026,-0.86943215,1.2805221,1.4054236,0.6562294,-0.49382,0.5128295,0.81485933,-0.89545774,-1.4289465,0.15713641,0.26189414,-0.23532589,-0.30873093,1.1608592,-1.4100939,1.4756382,-1.6060046,-0.27117196,-0.71614313,-0.35076734,1.7088305,-0.1257366,-0.70305127,1.3333721,-0.7442219,-1.6782496,0.6478502,1.395303,0.37916297,0.9743149,0.104991116,-0.9001488,-1.6324283,-0.4022361,1.6283311,-0.9507908,0.17442596,0.1595815,0.100442454,1.4579331,-0.16196285,-0.44219962,-0.855568,1.405779,0.20074919,1.167394,1.3585905,0.32909894,-0.96965635,-0.77092946,-0.0278172,0.16243029,0.18218595,-0.3848581,-0.575511,0.1026397,-0.82730836,-1.4365959,-1.0086164,-1.3227751,-1.0303919,1.0718447,0.8598977,-1.6482714,1.3140042,-0.72063553,-1.2692486,-0.99198294,-1.0675386,-0.06465006,1.6995867,-1.7173886,-0.7189295,-1.158103,1.0213912,0.593263,-0.7861079,0.6166122,1.2689416,1.4052373,0.89084184,-1.4989369,-1.3910078,-0.6613976,0.7011448,-1.5201272,-0.94294053,1.2016318,1.7786171,1.1929848,0.8766018,0.9666953,-1.528447,-1.3157833,1.1408402,-1.5106077,-1.6813235,1.4540793,-0.8638117,0.32986584,-1.1834326,-0.94049233,-1.5956906,0.90565306,-0.1176941,0.98535454,0.57607526,1.2474511,1.7153466,1.4512947,-0.18422136,-0.7020702,1.4361483,-0.36822894,0.015478836,-1.1749355,-1.294583,-0.13321196,0.52046096,1.2092339,-0.8721008,0.40117446,0.5772307,-1.4716461,-0.2842836,0.7391745,1.4293301,0.9805471,1.6381677,1.2127062,0.32099974,-1.23204,-0.34744912,-0.12733439,1.5512486,0.5426778,-1.6688001,-0.08647231,1.2910199,1.529574,0.6421557,0.5443731,-0.66359603,-1.5512395,1.6348201,1.2260534,-1.3832824,-0.8535434,0.98966897,-0.63392556,-0.21653895,-0.17240357,0.08988809,-0.25776,-1.29609,-0.14467287,1.010901,-1.2789251,1.3380513,-0.69026566,-0.63327783,-1.2531061,-1.592045,0.7439832,-0.79248476,-0.92403746,-0.90088147,1.1414984,1.341126,-0.55846614,-0.23557962,0.5156157,-1.2549663,-0.44875082,-0.40469044,1.4862785,-1.30533,0.36829457,-0.24062186,-1.078592,-1.385818,-0.636067,1.0104709,0.2946236,-1.0009328,-0.16812967,1.2742897,-1.0924287,0.88581,-0.3091693,-1.2436225,0.38331568,-0.6122512,0.68218714,1.6756088,-0.6471424,0.7921963,-1.2919222,0.0053456,1.5409495,-1.4407424,-0.88838905,-0.5537713,1.669201,-0.35569745,0.047868896,-1.3545127,0.77849865,-0.6589231,0.21788037,0.93558395,-0.5828551,1.7505689,0.80273825,-0.5189962,1.5997071,0.40720284,-0.39685065,-1.6455331,-1.3389186,-1.2389004,0.007962296,-0.10938508,0.10211985,0.37904152,0.6750275,-1.0269326,-1.579309,-1.0449455,1.679232,1.4486495,0.5950983,1.3365359,1.3960419,1.4156783,-0.31856298,0.511879,0.84312713,1.6237175,-1.4550533,0.7489267,0.46334818,-0.036274936,-1.2681234,1.4382011,-1.417512,-1.0633564,-1.0523655,0.63433194,-0.2026508,1.4948478,0.9320761,1.1397282,0.0639484,0.24870184,1.7790873,-0.21540998,-1.009709,1.2354248,-1.2942697,1.4080877,-0.3885141,1.0899457,0.16963387,1.4179988,-0.7249088,1.4531833,-0.58598095,1.5663304,-1.5428259,1.5298984,-1.6372348,-1.0479497,1.6693019,1.0669742,-1.4173967,-0.17535447,1.5618082,1.0741456,-1.1892364,-0.005331012,0.729618,-0.8044273,-1.5993531,1.1075456,0.9330914,-1.1974322,-1.4412597,0.9112652,-1.712194,1.7157038,0.65838796,0.8436699,-0.5334437,0.69598246,-0.47705156,0.802001,-1.3563423,1.4973499,-1.1696097,-1.1518924,1.6461022,-0.7612716,-0.06805462,0.24059613,0.85596716,1.2478248,1.5995016,1.167343,1.5904691,-0.18315056,-0.16577762,0.06036342,0.56802815,0.512543,1.733299,-1.5015613,-0.4706999,-1.4140735,0.8307849,-0.48332322,-0.91236633,-0.39000434,-0.118022405,-1.3836857,-0.31431928,0.116327256,1.4386805,0.9461738,-0.2410386,1.2415057,-1.147797,-0.0026756686,1.6856883,-1.6443592,1.4875897,1.7139697,0.65242094,1.7320038,1.4829236,0.65325814,0.5142458,0.09717547,-1.6326238,-0.8566459,-1.2039477,-0.15791473,1.5491405,0.24859326,0.96968085,1.0529425,-1.7333287,0.47362298,-0.33701637,-0.52826935,0.77483463,0.8555691,0.6976647,0.86538225,0.64294547,-1.5221426,1.1518601,-1.7110803,-0.13516429,0.37540886,0.08602627,0.72581565,0.4713749,-1.2736293,1.3317857,0.41198757,-0.7712025,0.011438901,-0.7715676,-1.5336928,-0.9433909,0.6996703,-0.3052119,0.6493661,-0.33798382,0.09366821,-0.59409,-0.825895,-0.7713672,0.80196404,1.5376207,-1.1912618,-0.8664542,-0.94148266,1.2140144,-0.90773886,-0.061097838,1.7015915,-0.45695713,-0.63232803,0.6873783,-1.6297631,0.974633,1.0899812,0.6757206,-1.5450318,1.5605582,0.5554809,0.68058306,-0.18437028,1.5644604,0.73172605,-1.525743,-1.2163867,1.3574419,0.4204321,1.0756645,-0.9622701,-1.7074323,-1.0840085,0.5578413,0.080928154,-1.4161627,0.81955063,1.0777538,-1.5499836,0.010366219,-1.2671247,-0.9177224,0.6402864,-0.944125,-0.9994755,0.7001862,-0.51476324,-1.0893732,1.230621,-0.026531117,0.537552,-1.651995,-0.7753954,1.338821,0.062566124,-1.357316,-0.87466514,0.5807704,1.1151404,1.4440697,1.4671574,1.0426282,0.66622585,1.5875597,0.7436585,-0.46414873,-0.045084488,0.08721574,0.29747742,-0.6253862,-1.1019481,1.3812099,-0.23685877,-0.89980036,-1.164301,-0.007960939,0.6065533,1.4494872,-1.3424885,-1.5183358,-0.18673535,-1.0038788,-1.57751,-0.7034711,-0.81210595,-1.1043209,0.080387294,-0.09564713,-0.7627234,-1.1746383,-0.6132731,-1.6488831,0.8611018,-1.1377808,1.7714342,-0.8926157,0.5380036,-0.35652795,-0.27967718,0.2897664,-1.7071607,0.68310565,-1.2440919,-0.8899574,0.30722293,-0.8237387,-1.1160119,1.3034825,1.763372,1.6741847,-0.5191827,0.71221167,-1.0788457,0.05909918,-1.5268726,-1.1247449,-0.035259593,0.56916827,-0.93280166,1.6249037,-0.11115826,-1.6740588,0.35423756,-0.21411423,0.088046454,-1.6816115,1.2624283,-0.015918149,-1.5561653,-0.23086923,-1.0775343,-0.63468325,0.93177843,-0.3931386,-1.0230626,1.6100076,-0.8364513,0.37361157,-0.9897558,-0.03786894,0.98954904,1.033688,0.27246237,-0.28873038,-0.47909865,-0.8304355,1.4738737,1.0795941,-1.4154469,-1.113256,-0.023131598,-1.0533981,0.75569826,1.115534,0.40489995,0.6083706,-1.0612098,-0.9601881,-0.8024913,-0.21428604,0.6427781,0.9838628,-1.5180299,-0.009394262,0.64455104,0.73954874,-0.967465,-0.20763446,-0.08990584,-0.14608625,-0.7456054,-0.45486617,-0.96510917,0.3918879,-0.11817364,-1.1794965,1.0560046,-1.3195975,-1.2781595,0.078201815,-0.77938724,0.07607661,1.2701015,-1.4906167,-1.204604,1.5282661,0.87216324,-0.13854787,-0.2190899,1.0300683,-0.3973669,-1.5434074,-0.8723645,0.36228615,1.1535306,-0.61210525,-1.5669812,1.238905,-0.9931766,0.931824,0.799035,-1.1575202,-1.4960933,-1.2400455,0.4843609,-0.09459922,-1.3332741,0.33126912,-0.8163908,0.4446211,0.32496095,0.30800703,0.22892058,-0.5824512,-0.9367679,0.99644136,1.5351876,-1.5207734,-1.2425501,-1.5712274,-0.76294893,0.47847092,-0.0014063889,1.2432917,-1.2147343,0.43572816,-0.33931422,-0.6393079,-0.6725144,0.94152373,-1.1958681,-0.47389612,0.8076381,1.6533366,0.7933095,0.93408364,-1.095495,-0.8345646,-0.6094694,0.0889574,0.33721727,-0.37264907,-0.92568547,-0.67420524,-1.5122906,0.33572388,-0.26775083,0.12549031,0.3699623,-0.3015072,-0.22639051,1.7775849,-0.02415639,0.52054876,1.0083507,0.65284437,-1.1673135,-0.11188416,0.67758304,1.0009631,-0.38137797,0.24503978,1.5078892,0.555947,0.11474207,0.8729957,1.0872685,-1.026767,0.5203776,0.39357287,-0.7729566,-1.3467212,-0.3621455,0.69447225,1.560858,-1.4194225,-0.36840075,1.6362234,0.40597957,1.1004831,0.33908537,-0.8297508,-0.8323779,-1.3984817,-1.6437638,-1.061368,-0.17836814,1.5927396,0.6235558,0.840946,0.015103913,-1.1829034,1.504222,-0.45179093,1.760162,-0.696607,0.910692,-0.11703899,1.0279183,-0.7543188,-1.4215053,0.8790034,1.0537213,0.9183284,-0.52449846,0.6577066,-0.012305438,1.4216961,0.15758988,1.0483298,-0.16760203,-1.0557969,-1.1528299,0.39365435,-1.3535615,-0.4115571,0.17295064,1.6389848,0.04498797,0.59381974,0.47136167,0.27119163,-0.22554132,-0.5758113,-0.44796756,1.5341403,1.5537124,0.8334757,1.7510593,-1.6015717,-0.7232646,1.2438033,-0.45862025,1.3174293,1.6367931,0.078782365,0.4502298,1.0483235,0.49256283,-0.7817739,0.4256678,-0.54295015,-1.4906583,-0.88987637,-1.2192271,-1.1922165,-0.8136198,-1.6691984,0.23688954,1.1681218,-1.5912404,1.2603108,0.83986795,0.3728571,-0.32727277,0.99250436,-0.44482514,0.90327436,1.6655254,0.8847433,-1.3369465,1.0093192,1.3658471,0.58728874,-1.5992119,0.27991083,-1.2891815,0.18644916,-0.24973221,1.2939615,0.6737735,0.612354,-0.1609139,1.4538529,1.2312516,1.1921093,0.6052708,-0.6776453,-0.47426245,1.0451871,0.64636475,-1.0688148,-0.25963396,1.160184,0.8642825,1.3861717,1.0161326,-0.015508569,0.06331912,-0.58983314,-0.40273893,1.2492917,-0.8007665,-0.6802922,0.58901656,-0.11580394,-0.54831654,-1.0362161,0.81598157,-1.209017,-1.406894,1.1024303,1.3391577,-0.36167502,-1.692431,-1.5371653,-1.557561,0.6484975,-1.3436399,-1.3201793,-1.2321852,1.1463048,-1.0300196,-0.07346886,-0.7491763,-0.51583004,0.038728528,-0.08323053,0.5702336,0.5849875,0.4379844,-1.0717152,-0.19162825,-0.106485456,-1.3645195,-0.32732233,0.64044493,1.1962835,-1.4752223,-0.79862446,1.6205456,0.2968952,1.5644029,-0.30764776,-1.3794256,0.7449258,0.72814524,-1.0805506,-1.4375287,-0.58674693,1.3217136,-1.6423583,-1.0252129,-0.6006804,1.067752,-0.55160576,1.712234,-1.3084055,-0.49138355,-1.5482321,1.554679,-0.9436383,0.36877933,-1.1940732,1.479708,-0.04485114,-0.51031667,-0.28485888,-1.6386129,-0.7778949,-1.6473411,-0.017130088,-0.8135589,0.61383945,-0.9525932,-1.1510004,1.2559966,1.4787474,0.6296631,-1.4613981,0.63467383,-1.0638925,0.9997951,0.25303143,0.0145966625,1.0400681,0.09444326,1.4022899,0.75634605,-1.0539451,1.292538,-0.56795835,0.37607765,-1.3012613,1.3427904,0.2893165,-1.5111338,0.53894496,0.7857669,1.446882,-0.79620373,-0.22900027,0.08658267,-0.6547837,0.42067215,-0.54489493,1.7022505,1.2769285,-1.4879708,-0.3797407,-1.2163205,-0.7587507,-0.9018758,0.08934681,-0.5758204,-0.6554998,-1.0908197,-0.37939388,0.5517199,0.91426414,-0.049703725,-0.40333125,-0.8021078,1.3125421,1.2013423,-0.10467533,0.05119133,0.23566374,-0.932634,-1.7248834,1.1643701,1.4104059,-0.23933452,-1.0844324,0.11507288,-1.4420842,0.4852082,0.295485,0.787644,-0.8166061,-0.22681081,1.7387341,-0.14270563,0.809447,0.41308275,-0.48957655,0.890716,-1.349734,0.79092383,-0.92312735,0.873246,-0.7086936,0.35199222,0.97357875,0.25008518,-1.1561695,1.6805549,-0.49776626,-0.025608616,0.16705814,0.26495063,1.1810166,0.91413915,-0.1578137,0.8192269,-0.09529887,1.072738,-1.0658753,-1.0839201,0.060730778,0.6416279,0.14422537,1.0594796,0.5879401,0.61769915,-0.503296,0.8676503,1.5997261,0.45853674,-0.7839439,-1.4592202,-0.7048425,-1.1491363,0.45563167,-1.6206505,1.1141741,-0.47278228,-0.9132594,-0.27263552,-1.1001652,-1.4574978,0.19076677,-0.101077534,-1.3468676,1.306662,-0.579298,0.13021624,0.8589077,1.1087635,1.0933137,0.9924611,1.4185538,1.4704115,-1.5520352,1.1019232,-1.720603,0.26249066,-0.11880565,-0.0013402259,-1.0656997,-0.045993764,0.42546302,1.0223432,1.5718637,-1.2425354,1.1472754,1.6191273,-1.4752816
Olig2,-0.103240125,0.30223593,-0.60197663,1.299355,-1.184395,-1.2538694,1.5219145,0.83221483,0.016176173,-0.32268524,1.5859994,-1.4734528,-1.1224369,-1.3716285,0.6866158,0.09229201,-0.7473878,1.7736876,1.0776992,0.97177154,0.08115142,-0.59174067,-1.4823157,-0.60480565,0.6198271,0.53915185,1.2354383,-1.5429349,-1.5972837,0.9886828,-0.36743182,-0.54845136,-0.6728236,1.6244026,-0.86943215,1.2805221,1.4054236,0.6562294,-0.49382,0.5128295,0.81485933,-0.89545774,-1.4289465,0.15713641,0.26189414,-0.23532589,-0.30873093,1.1608592,-1.4100939,1.4756382,-1.6060046,-0.27117196,-0.71614313,-0.35076734,1.7088305,-0.1257366,-0.70305127,1.3333721,-0.7442219,-1.6782496,0.6478502,1.395303,0.37916297,0.9743149,0.104991116,-0.9001488,-1.6324283,-0.4022361,1.6283311,-0.9507908,0.17442596,0.1595815,0.100442454,1.4579331,-0.16196285,-0.44219962,-0.855568,1.405779,0.20074919,1.167394,1.3585905,0.32909894,-0.96965635,-0.77092946,-0.0278172,0.16243029,0.18218595,-0.3848581,-0.575511,0.1026397,-0.82730836,-1.4365959,-1.0086164,-1.3227751,-1.0303919,1.0718447,0.8598977,-1.6482714,1.3140042,-0.72063553,-1.2692486,-0.99198294,-1.0675386,-0.06465006,1.6995867,-1.7173886,-0.7189295,-1.158103,1.0213912,0.593263,-0.7861079,0.6166122,1.2689416,1.4052373,0.89084184,-1.4989369,-1.3910078,-0.6613976,0.7011448,-1.5201272,-0.94294053,1.2016318,1.7786171,1.1929848,0.8766018,0.9666953,-1.528447,-1.3157833,1.1408402,-1.5106077,-1.6813235,1.4540793,-0.8638117,0.32986584,-1.1834326,-0.94049233,-1.5956906,0.90565306,-0.1176941,0.98535454,0.57607526,1.2474511,1.7153466,1.4512947,-0.18422136,-0.7020702,1.4361483,-0.36822894,0.015478836,-1.1749355,-1.294583,-0.13321196,0.52046096,1.2092339,-0.8721008,0.40117446,0.5772307,-1.4716461,-0.2842836,0.7391745,1.4293301,0.9805471,1.6381677,1.2127062,0.32099974,-1.23204,-0.34744912,-0.12733439,1.5512486,0.5426778,-1.6688001,-0.08647231,1.2910199,1.529574,0.6421557,0.5443731,-0.66359603,-1.5512395,1.6348201,1.2260534,-1.3832824,-0.8535434,0.98966897,-0.63392556,-0.21653895,-0.17240357,0.08988809,-0.25776,-1.29609,-0.14467287,1.010901,-1.2789251,1.3380513,-0.69026566,-0.63327783,-1.2531061,-1.592045,0.7439832,-0.79248476,-0.92403746,-0.90088147,1.1414984,1.341126,-0.55846614,-0.23557962,0.5156157,-1.2549663,-0.44875082,-0.40469044,1.4862785,-1.30533,0.36829457,-0.24062186,-1.078592,-1.385818,-0.636067,1.0104709,0.2946236,-1.0009328,-0.16812967,1.2742897,-1.0924287,0.88581,-0.3091693,-1.2436225,0.38331568,-0.6122512,0.68218714,1.6756088,-0.6471424,0.7921963,-1.2919222,0.0053456,1.5409495,-1.4407424,-0.88838905,-0.5537713,1.669201,-0.35569745,0.047868896,-1.3545127,0.77849865,-0.6589231,0.21788037,0.93558395,-0.5828551,1.7505689,0.80273825,-0.5189962,1.5997071,0.40720284,-0.39685065,-1.6455331,-1.3389186,-1.2389004,0.007962296,-0.10938508,0.10211985,0.37904152,0.6750275,-1.0269326,-1.579309,-1.0449455,1.679232,1.4486495,0.5950983,1.3365359,1.3960419,1.4156783,-0.31856298,0.511879,0.84312713,1.6237175,-1.4550533,0.7489267,0.46334818,-0.036274936,-1.2681234,1.4382011,-1.417512,-1.0633564,-1.0523655,0.63433194,-0.2026508,1.4948478,0.9320761,1.1397282,0.0639484,0.24870184,1.7790873,-0.21540998,-1.009709,1.2354248,-1.2942697,1.4080877,-0.3885141,1.0899457,0.16963387,1.4179988,-0.7249088,1.4531833,-0.58598095,1.5663304,-1.5428259,1.5298984,-1.6372348,-1.0479497,1.6693019,1.0669742,-1.4173967,-0.17535447,1.5618082,1.0741456,-1.1892364,-0.005331012,0.729618,-0.8044273,-1.5993531,1.1075456,0.9330914,-1.1974322,-1.4412597,0.9112652,-1.712194,1.7157038,0.65838796,0.8436699,-0.5334437,0.69598246,-0.47705156,0.802001,-1.3563423,1.4973499,-1.1696097,-1.1518924,1.6461022,-0.7612716,-0.06805462,0.24059613,0.85596716,1.2478248,1.5995016,1.167343,1.5904691,-0.18315056,-0.16577762,0.06036342,0.56802815,0.512543,1.733299,-1.5015613,-0.4706999,-1.4140735,0.8307849,-0.48332322,-0.91236633,-0.39000434,-0.118022405,-1.3836857,-0.31431928,0.116327256,1.4386805,0.9461738,-0.2410386,1.2415057,-1.147797,-0.0026756686,1.6856883,-1.6443592,1.4875897,1.7139697,0.65242094,1.7320038,1.4829236,0.65325814,0.5142458,0.09717547,-1.6326238,-0.8566459,-1.2039477,-0.15791473,1.5491405,0.24859326,0.96968085,1.0529425,-1.7333287,0.47362298,-0.33701637,-0.52826935,0.77483463,0.8555691,0.6976647,0.86538225,0.64294547,-1.5221426,1.1518601,-1.7110803,-0.13516429,0.37540886,0.08602627,0.72581565,0.4713749,-1.2736293,1.3317857,0.41198757,-0.7712025,0.011438901,-0.7715676,-1.5336928,-0.9433909,0.6996703,-0.3052119,0.6493661,-0.33798382,0.09366821,-0.59409,-0.825895,-0.7713672,0.80196404,1.5376207,-1.1912618,-0.8664542,-0.94148266,1.2140144,-0.90773886,-0.061097838,1.7015915,-0.45695713,-0.63232803,0.6873783,-1.6297631,0.974633,1.0899812,0.6757206,-1.5450318,1.5605582,0.5554809,0.68058306,-0.18437028,1.5644604,0.73172605,-1.525743,-1.2163867,1.3574419,0.4204321,1.0756645,-0.9622701,-1.7074323,-1.0840085,0.5578413,0.080928154,-1.4161627,0.81955063,1.0777538,-1.5499836,0.010366219,-1.2671247,-0.9177224,0.6402864,-0.944125,-0.9994755,0.7001862,-0.51476324,-1.0893732,1.230621,-0.026531117,0.537552,-1.651995,-0.7753954,1.338821,0.062566124,-1.357316,-0.87466514,0.5807704,1.1151404,1.4440697,1.4671574,1.0426282,0.66622585,1.5875597,0.7436585,-0.46414873,-0.045084488,0.08721574,0.29747742,-0.6253862,-1.1019481,1.3812099,-0.23685877,-0.89980036,-1.164301,-0.007960939,0.6065533,1.4494872,-1.3424885,-1.5183358,-0.18673535,-1.0038788,-1.57751,-0.7034711,-0.81210595,-1.1043209,0.080387294,-0.09564713,-0.7627234,-1.1746383,-0.6132731,-1.6488831,0.8611018,-1.1377808,1.7714342,-0.8926157,0.5380036,-0.35652795,-0.27967718,0.2897664,-1.7071607,0.68310565,-1.2440919,-0.8899574,0.30722293,-0.8237387,-1.1160119,1.3034825,1.763372,1.6741847,-0.5191827,0.71221167,-1.0788457,0.05909918,-1.5268726,-1.1247449,-0.035259593,0.56916827,-0.93280166,1.6249037,-0.11115826,-1.6740588,0.35423756,-0.21411423,0.088046454,-1.6816115,1.2624283,-0.015918149,-1.5561653,-0.23086923,-1.0775343,-0.63468325,0.93177843,-0.3931386,-1.0230626,1.6100076,-0.8364513,0.37361157,-0.9897558,-0.03786894,0.98954904,1.033688,0.27246237,-0.28873038,-0.47909865,-0.8304355,1.4738737,1.0795941,-1.4154469,-1.113256,-0.023131598,-1.0533981,0.75569826,1.115534,0.40489995,0.6083706,-1.0612098,-0.9601881,-0.8024913,-0.21428604,0.6427781,0.9838628,-1.5180299,-0.009394262,0.64455104,0.73954874,-0.967465,-0.20763446,-0.08990584,-0.14608625,-0.7456054,-0.45486617,-0.96510917,0.3918879,-0.11817364,-1.1794965,1.0560046,-1.3195975,-1.2781595,0.078201815,-0.77938724,0.07607661,1.2701015,-1.4906167,-1.204604,1.5282661,0.87216324,-0.13854787,-0.2190899,1.0300683,-0.3973669,-1.5434074,-0.8723645,0.36228615,1.1535306,-0.61210525,-1.5669812,1.238905,-0.9931766,0.931824,0.799035,-1.1575202,-1.4960933,-1.2400455,0.4843609,-0.09459922,-1.3332741,0.33126912,-0.8163908,0.4446211,0.32496095,0.30800703,0.22892058,-0.5824512,-0.9367679,0.99644136,1.5351876,-1.5207734,-1.2425501,-1.5712274,-0.76294893,0.47847092,-0.0014063889,1.2432917,-1.2147343,0.43572816,-0.33931422,-0.6393079,-0.6725144,0.94152373,-1.1958681,-0.47389612,0.8076381,1.6533366,0.7933095,0.93408364,-1.095495,-0.8345646,-0.6094694,0.0889574,0.33721727,-0.37264907,-0.92568547,-0.67420524,-1.5122906,0.33572388,-0.26775083,0.12549031,0.3699623,-0.3015072,-0.22639051,1.7775849,-0.02415639,0.52054876,1.0083507,0.65284437,-1.1673135,-0.11188416,0.67758304,1.0009631,-0.38137797,0.24503978,1.5078892,0.555947,0.11474207,0.8729957,1.0872685,-1.026767,0.5203776,0.39357287,-0.7729566,-1.3467212,-0.3621455,0.69447225,1.560858,-1.4194225,-0.36840075,1.6362234,0.40597957,1.1004831,0.33908537,-0.8297508,-0.8323779,-1.3984817,-1.6437638,-1.061368,-0.17836814,1.5927396,0.6235558,0.840946,0.015103913,-1.1829034,1.504222,-0.45179093,1.760162,-0.696607,0.910692,-0.11703899,1.0279183,-0.7543188,-1.4215053,0.8790034,1.0537213,0.9183284,-0.52449846,0.6577066,-0.012305438,1.4216961,0.15758988,1.0483298,-0.16760203,-1.0557969,-1.1528299,0.39365435,-1.3535615,-0.4115571,0.17295064,1.6389848,0.04498797,0.59381974,0.47136167,0.27119163,-0.22554132,-0.5758113,-0.44796756,1.5341403,1.5537124,0.8334757,1.7510593,-1.6015717,-0.7232646,1.2438033,-0.45862025,1.3174293,1.6367931,0.078782365,0.4502298,1.0483235,0.49256283,-0.7817739,0.4256678,-0.54295015,-1.4906583,-0.88987637,-1.2192271,-1.1922165,-0.8136198,-1.6691984,0.23688954,1.1681218,-1.5912404,1.2603108,0.83986795,0.3728571,-0.32727277,0.99250436,-0.44482514,0.90327436,1.6655254,0.8847433,-1.3369465,1.0093192,1.3658471,0.58728874,-1.5992119,0.27991083,-1.2891815,0.18644916,-0.24973221,1.2939615,0.6737735,0.612354,-0.1609139,1.4538529,1.2312516,1.1921093,0.6052708,-0.6776453,-0.47426245,1.0451871,0.64636475,-1.0688148,-0.25963396,1.160184,0.8642825,1.3861717,1.0161326,-0.015508569,0.06331912,-0.58983314,-0.40273893,1.2492917,-0.8007665,-0.6802922,0.58901656,-0.11580394,-0.54831654,-1.0362161,0.81598157,-1.209017,-1.406894,1.1024303,1.3391577,-0.36167502,-1.692431,-1.5371653,-1.557561,0.6484975,-1.3436399,-1.3201793,-1.2321852,1.1463048,-1.0300196,-0.07346886,-0.7491763,-0.51583004,0.038728528,-0.08323053,0.5702336,0.5849875,0.4379844,-1.0717152,-0.19162825,-0.106485456,-1.3645195,-0.32732233,0.64044493,1.1962835,-1.4752223,-0.79862446,1.6205456,0.2968952,1.5644029,-0.30764776,-1.3794256,0.7449258,0.72814524,-1.0805506,-1.4375287,-0.58674693,1.3217136,-1.6423583,-1.0252129,-0.6006804,1.067752,-0.55160576,1.712234,-1.3084055,-0.49138355,-1.5482321,1.554679,-0.9436383,0.36877933,-1.1940732,1.479708,-0.04485114,-0.51031667,-0.28485888,-1.6386129,-0.7778949,-1.6473411,-0.017130088,-0.8135589,0.61383945,-0.9525932,-1.1510004,1.2559966,1.4787474,0.6296631,-1.4613981,0.63467383,-1.0638925,0.9997951,0.25303143,0.0145966625,1.0400681,0.09444326,1.4022899,0.75634605,-1.0539451,1.292538,-0.56795835,0.37607765,-1.3012613,1.3427904,0.2893165,-1.5111338,0.53894496,0.7857669,1.446882,-0.79620373,-0.22900027,0.08658267,-0.6547837,0.42067215,-0.54489493,1.7022505,1.2769285,-1.4879708,-0.3797407,-1.2163205,-0.7587507,-0.9018758,0.08934681,-0.5758204,-0.6554998,-1.0908197,-0.37939388,0.5517199,0.91426414,-0.049703725,-0.40333125,-0.8021078,1.3125421,1.2013423,-0.10467533,0.05119133,0.23566374,-0.932634,-1.7248834,1.1643701,1.4104059,-0.23933452,-1.0844324,0.11507288,-1.4420842,0.4852082,0.295485,0.787644,-0.8166061,-0.22681081,1.7387341,-0.14270563,0.809447,0.41308275,-0.48957655,0.890716,-1.349734,0.79092383,-0.92312735,0.873246,-0.7086936,0.35199222,0.97357875,0.25008518,-1.1561695,1.6805549,-0.49776626,-0.025608616,0.16705814,0.26495063,1.1810166,0.91413915,-0.1578137,0.8192269,-0.09529887,1.072738,-1.0658753,-1.0839201,0.060730778,0.6416279,0.14422537,1.0594796,0.5879401,0.61769915,-0.503296,0.8676503,1.5997261,0.45853674,-0.7839439,-1.4592202,-0.7048425,-1.1491363,0.45563167,-1.6206505,1.1141741,-0.47278228,-0.9132594,-0.27263552,-1.1001652,-1.4574978,0.19076677,-0.101077534,-1.3468676,1.306662,-0.579298,0.13021624,0.8589077,1.1087635,1.0933137,0.9924611,1.4185538,1.4704115,-1.5520352,1.1019232,-1.720603,0.26249066,-0.11880565,-0.0013402259,-1.0656997,-0.045993764,0.42546302,1.0223432,1.5718637,-1.2425354,1.1472754,1.6191273,-1.4752816
Pax6,-0.103240125,0.30223593,-0.60197663,1.299355,-1.184395,-1.2538694,1.5219145,0.83221483,0.016176173,-0.32268524,1.5859994,-1.4734528,-1.1224369,-1.3716285,0.6866158,0.09229201,-0.7473878,1.7736876,1.0776992,0.97177154,0.08115142,-0.59174067,-1.4823157,-0.60480565,0.6198271,0.53915185,1.2354383,-1.5429349,-1.5972837,0.9886828,-0.36743182,-0.54845136,-0.6728236,1.6244026,-0.86943215,1.2805221,1.4054236,0.6562294,-0.49382,0.5128295,0.81485933,-0.89545774,-1.4289465,0.15713641,0.26189414,-0.23532589,-0.30873093,1.1608592,-1.4100939,1.4756382,-1.6060046,-0.27117196,-0.71614313,-0.35076734,1.7088305,-0.1257366,-0.70305127,1.3333721,-0.7442219,-1.6782496,0.6478502,1.395303,0.37916297,0.9743149,0.104991116,-0.9001488,-1.6324283,-0.4022361,1.6283311,-0.9507908,0.17442596,0.1595815,0.100442454,1.4579331,-0.16196285,-0.44219962,-0.855568,1.405779,0.20074919,1.167394,1.3585905,0.32909894,-0.96965635,-0.77092946,-0.0278172,0.16243029,0.18218595,-0.3848581,-0.575511,0.1026397,-0.82730836,-1.4365959,-1.0086164,-1.3227751,-1.0303919,1.0718447,0.8598977,-1.6482714,1.3140042,-0.72063553,-1.2692486,-0.99198294,-1.0675386,-0.06465006,1.6995867,-1.7173886,-0.7189295,-1.158103,1.0213912,0.593263,-0.7861079,0.6166122,1.2689416,1.4052373,0.89084184,-1.4989369,-1.3910078,-0.6613976,0.7011448,-1.5201272,-0.94294053,1.2016318,1.7786171,1.1929848,0.8766018,0.9666953,-1.528447,-1.3157833,1.1408402,-1.5106077,-1.6813235,1.4540793,-0.8638117,0.32986584,-1.1834326,-0.94049233,-1.5956906,0.90565306,-0.1176941,0.98535454,0.57607526,1.2474511,1.7153466,1.4512947,-0.18422136,-0.7020702,1.4361483,-0.36822894,0.015478836,-1.1749355,-1.294583,-0.13321196,0.52046096,1.2092339,-0.8721008,0.40117446,0.5772307,-1.4716461,-0.2842836,0.7391745,1.4293301,0.9805471,1.6381677,1.2127062,0.32099974,-1.23204,-0.34744912,-0.12733439,1.5512486,0.5426778,-1.6688001,-0.08647231,1.2910199,1.529574,0.6421557,0.5443731,-0.66359603,-1.5512395,1.6348201,1.2260534,-1.3832824,-0.8535434,0.98966897,-0.63392556,-0.21653895,-0.17240357,0.08988809,-0.25776,-1.29609,-0.14467287,1.010901,-1.2789251,1.3380513,-0.69026566,-0.63327783,-1.2531061,-1.592045,0.7439832,-0.79248476,-0.92403746,-0.90088147,1.1414984,1.341126,-0.55846614,-0.23557962,0.5156157,-1.2549663,-0.44875082,-0.40469044,1.4862785,-1.30533,0.36829457,-0.24062186,-1.078592,-1.385818,-0.636067,1.0104709,0.2946236,-1.0009328,-0.16812967,1.2742897,-1.0924287,0.88581,-0.3091693,-1.2436225,0.38331568,-0.6122512,0.68218714,1.6756088,-0.6471424,0.7921963,-1.2919222,0.0053456,1.5409495,-1.4407424,-0.88838905,-0.5537713,1.669201,-0.35569745,0.047868896,-1.3545127,0.77849865,-0.6589231,0.21788037,0.93558395,-0.5828551,1.7505689,0.80273825,-0.5189962,1.5997071,0.40720284,-0.39685065,-1.6455331,-1.3389186,-1.2389004,0.007962296,-0.10938508,0.10211985,0.37904152,0.6750275,-1.0269326,-1.579309,-1.0449455,1.679232,1.4486495,0.5950983,1.3365359,1.3960419,1.4156783,-0.31856298,0.511879,0.84312713,1.6237175,-1.4550533,0.7489267,0.46334818,-0.036274936,-1.2681234,1.4382011,-1.417512,-1.0633564,-1.0523655,0.63433194,-0.2026508,1.4948478,0.9320761,1.1397282,0.0639484,0.24870184,1.7790873,-0.21540998,-1.009709,1.2354248,-1.2942697,1.4080877,-0.3885141,1.0899457,0.16963387,1.4179988,-0.7249088,1.4531833,-0.58598095,1.5663304,-1.5428259,1.5298984,-1.6372348,-1.0479497,1.6693019,1.0669742,-1.4173967,-0.17535447,1.5618082,1.0741456,-1.1892364,-0.005331012,0.729618,-0.8044273,-1.5993531,1.1075456,0.9330914,-1.1974322,-1.4412597,0.9112652,-1.712194,1.7157038,0.65838796,0.8436699,-0.5334437,0.69598246,-0.47705156,0.802001,-1.3563423,1.4973499,-1.1696097,-1.1518924,1.6461022,-0.7612716,-0.06805462,0.24059613,0.85596716,1.2478248,1.5995016,1.167343,1.5904691,-0.18315056,-0.16577762,0.06036342,0.56802815,0.512543,1.733299,-1.5015613,-0.4706999,-1.4140735,0.8307849,-0.48332322,-0.91236633,-0.39000434,-0.118022405,-1.3836857,-0.31431928,0.116327256,1.4386805,0.9461738,-0.2410386,1.2415057,-1.147797,-0.0026756686,1.6856883,-1.6443592,1.4875897,1.7139697,0.65242094,1.7320038,1.4829236,0.65325814,0.5142458,0.09717547,-1.6326238,-0.8566459,-1.2039477,-0.15791473,1.5491405,0.24859326,0.96968085,1.0529425,-1.7333287,0.47362298,-0.33701637,-0.52826935,0.77483463,0.8555691,0.6976647,0.86538225,0.64294547,-1.5221426,1.1518601,-1.7110803,-0.13516429,0.37540886,0.08602627,0.72581565,0.4713749,-1.2736293,1.3317857,0.41198757,-0.7712025,0.011438901,-0.7715676,-1.5336928,-0.9433909,0.6996703,-0.3052119,0.6493661,-0.33798382,0.09366821,-0.59409,-0.825895,-0.7713672,0.80196404,1.5376207,-1.1912618,-0.8664542,-0.94148266,1.2140144,-0.90773886,-0.061097838,1.7015915,-0.45695713,-0.63232803,0.6873783,-1.6297631,0.974633,1.0899812,0.6757206,-1.5450318,1.5605582,0.5554809,0.68058306,-0.18437028,1.5644604,0.73172605,-1.525743,-1.2163867,1.3574419,0.4204321,1.0756645,-0.9622701,-1.7074323,-1.0840085,0.5578413,0.080928154,-1.4161627,0.81955063,1.0777538,-1.5499836,0.010366219,-1.2671247,-0.9177224,0.6402864,-0.944125,-0.9994755,0.7001862,-0.51476324,-1.0893732,1.230621,-0.026531117,0.537552,-1.651995,-0.7753954,1.338821,0.062566124,-1.357316,-0.87466514,0.5807704,1.1151404,1.4440697,1.4671574,1.0426282,0.66622585,1.5875597,0.7436585,-0.46414873,-0.045084488,0.08721574,0.29747742,-0.6253862,-1.1019481,1.3812099,-0.23685877,-0.89980036,-1.164301,-0.007960939,0.6065533,1.4494872,-1.3424885,-1.5183358,-0.18673535,-1.0038788,-1.57751,-0.7034711,-0.81210595,-1.1043209,0.080387294,-0.09564713,-0.7627234,-1.1746383,-0.6132731,-1.6488831,0.8611018,-1.1377808,1.7714342,-0.8926157,0.5380036,-0.35652795,-0.27967718,0.2897664,-1.7071607,0.68310565,-1.2440919,-0.8899574,0.30722293,-0.8237387,-1.1160119,1.3034825,1.763372,1.6741847,-0.5191827,0.71221167,-1.0788457,0.05909918,-1.5268726,-1.1247449,-0.035259593,0.56916827,-0.93280166,1.6249037,-0.11115826,-1.6740588,0.35423756,-0.21411423,0.088046454,-1.6816115,1.2624283,-0.015918149,-1.5561653,-0.23086923,-1.0775343,-0.63468325,0.93177843,-0.3931386,-1.0230626,1.6100076,-0.8364513,0.37361157,-0.9897558,-0.03786894,0.98954904,1.033688,0.27246237,-0.28873038,-0.47909865,-0.8304355,1.4738737,1.0795941,-1.4154469,-1.113256,-0.023131598,-1.0533981,0.75569826,1.115534,0.40489995,0.6083706,-1.0612098,-0.9601881,-0.8024913,-0.21428604,0.6427781,0.9838628,-1.5180299,-0.009394262,0.64455104,0.73954874,-0.967465,-0.20763446,-0.08990584,-0.14608625,-0.7456054,-0.45486617,-0.96510917,0.3918879,-0.11817364,-1.1794965,1.0560046,-1.3195975,-1.2781595,0.078201815,-0.77938724,0.07607661,1.2701015,-1.4906167,-1.204604,1.5282661,0.87216324,-0.13854787,-0.2190899,1.0300683,-0.3973669,-1.5434074,-0.8723645,0.36228615,1.1535306,-0.61210525,-1.5669812,1.238905,-0.9931766,0.931824,0.799035,-1.1575202,-1.4960933,-1.2400455,0.4843609,-0.09459922,-1.3332741,0.33126912,-0.8163908,0.4446211,0.32496095,0.30800703,0.22892058,-0.5824512,-0.9367679,0.99644136,1.5351876,-1.5207734,-1.2425501,-1.5712274,-0.76294893,0.47847092,-0.0014063889,1.2432917,-1.2147343,0.43572816,-0.33931422,-0.6393079,-0.6725144,0.94152373,-1.1958681,-0.47389612,0.8076381,1.6533366,0.7933095,0.93408364,-1.095495,-0.8345646,-0.6094694,0.0889574,0.33721727,-0.37264907,-0.92568547,-0.67420524,-1.5122906,0.33572388,-0.26775083,0.12549031,0.3699623,-0.3015072,-0.22639051,1.7775849,-0.02415639,0.52054876,1.0083507,0.65284437,-1.1673135,-0.11188416,0.67758304,1.0009631,-0.38137797,0.24503978,1.5078892,0.555947,0.11474207,0.8729957,1.0872685,-1.026767,0.5203776,0.39357287,-0.7729566,-1.3467212,-0.3621455,0.69447225,1.560858,-1.4194225,-0.36840075,1.6362234,0.40597957,1.1004831,0.33908537,-0.8297508,-0.8323779,-1.3984817,-1.6437638,-1.061368,-0.17836814,1.5927396,0.6235558,0.840946,0.015103913,-1.1829034,1.504222,-0.45179093,1.760162,-0.696607,0.910692,-0.11703899,1.0279183,-0.7543188,-1.4215053,0.8790034,1.0537213,0.9183284,-0.52449846,0.6577066,-0.012305438,1.4216961,0.15758988,1.0483298,-0.16760203,-1.0557969,-1.1528299,0.39365435,-1.3535615,-0.4115571,0.17295064,1.6389848,0.04498797,0.59381974,0.47136167,0.27119163,-0.22554132,-0.5758113,-0.44796756,1.5341403,1.5537124,0.8334757,1.7510593,-1.6015717,-0.7232646,1.2438033,-0.45862025,1.3174293,1.6367931,0.078782365,0.4502298,1.0483235,0.49256283,-0.7817739,0.4256678,-0.54295015,-1.4906583,-0.88987637,-1.2192271,-1.1922165,-0.8136198,-1.6691984,0.23688954,1.1681218,-1.5912404,1.2603108,0.83986795,0.3728571,-0.32727277,0.99250436,-0.44482514,0.90327436,1.6655254,0.8847433,-1.3369465,1.0093192,1.3658471,0.58728874,-1.5992119,0.27991083,-1.2891815,0.18644916,-0.24973221,1.2939615,0.6737735,0.612354,-0.1609139,1.4538529,1.2312516,1.1921093,0.6052708,-0.6776453,-0.47426245,1.0451871,0.64636475,-1.0688148,-0.25963396,1.160184,0.8642825,1.3861717,1.0161326,-0.015508569,0.06331912,-0.58983314,-0.40273893,1.2492917,-0.8007665,-0.6802922,0.58901656,-0.11580394,-0.54831654,-1.0362161,0.81598157,-1.209017,-1.406894,1.1024303,1.3391577,-0.36167502,-1.692431,-1.5371653,-1.557561,0.6484975,-1.3436399,-1.3201793,-1.2321852,1.1463048,-1.0300196,-0.07346886,-0.7491763,-0.51583004,0.038728528,-0.08323053,0.5702336,0.5849875,0.4379844,-1.0717152,-0.19162825,-0.106485456,-1.3645195,-0.32732233,0.64044493,1.1962835,-1.4752223,-0.79862446,1.6205456,0.2968952,1.5644029,-0.30764776,-1.3794256,0.7449258,0.72814524,-1.0805506,-1.4375287,-0.58674693,1.3217136,-1.6423583,-1.0252129,-0.6006804,1.067752,-0.55160576,1.712234,-1.3084055,-0.49138355,-1.5482321,1.554679,-0.9436383,0.36877933,-1.1940732,1.479708,-0.04485114,-0.51031667,-0.28485888,-1.6386129,-0.7778949,-1.6473411,-0.017130088,-0.8135589,0.61383945,-0.9525932,-1.1510004,1.2559966,1.4787474,0.6296631,-1.4613981,0.63467383,-1.0638925,0.9997951,0.25303143,0.0145966625,1.0400681,0.09444326,1.4022899,0.75634605,-1.0539451,1.292538,-0.56795835,0.37607765,-1.3012613,1.3427904,0.2893165,-1.5111338,0.53894496,0.7857669,1.446882,-0.79620373,-0.22900027,0.08658267,-0.6547837,0.42067215,-0.54489493,1.7022505,1.2769285,-1.4879708,-0.3797407,-1.2163205,-0.7587507,-0.9018758,0.08934681,-0.5758204,-0.6554998,-1.0908197,-0.37939388,0.5517199,0.91426414,-0.049703725,-0.40333125,-0.8021078,1.3125421,1.2013423,-0.10467533,0.05119133,0.23566374,-0.932634,-1.7248834,1.1643701,1.4104059,-0.23933452,-1.0844324,0.11507288,-1.4420842,0.4852082,0.295485,0.787644,-0.8166061,-0.22681081,1.7387341,-0.14270563,0.809447,0.41308275,-0.48957655,0.890716,-1.349734,0.79092383,-0.92312735,0.873246,-0.7086936,0.35199222,0.97357875,0.25008518,-1.1561695,1.6805549,-0.49776626,-0.025608616,0.16705814,0.26495063,1.1810166,0.91413915,-0.1578137,0.8192269,-0.09529887,1.072738,-1.0658753,-1.0839201,0.060730778,0.6416279,0.14422537,1.0594796,0.5879401,0.61769915,-0.503296,0.8676503,1.5997261,0.45853674,-0.7839439,-1.4592202,-0.7048425,-1.1491363,0.45563167,-1.6206505,1.1141741,-0.47278228,-0.9132594,-0.27263552,-1.1001652,-1.4574978,0.19076677,-0.101077534,-1.3468676,1.306662,-0.579298,0.13021624,0.8589077,1.1087635,1.0933137,0.9924611,1.4185538,1.4704115,-1.5520352,1.1019232,-1.720603,0.26249066,-0.11880565,-0.0013402259,-1.0656997,-0.045993764,0.42546302,1.0223432,1.5718637,-1.2425354,1.1472754,1.6191273,-1.4752816
