,0,1,2,3,4,5,6,7,8,9,10,11,12,13,14,15,16,17,18,19,20,21,22,23,24,25,26,27,28,29,30,31,32,33,34,35,36,37,38,39,40,41,42,43,44,45,46,47,48,49,50,51,52,53,54,55,56,57,58,59,60,61,62,63,64,65,66,67,68,69,70,71,72,73,74,75,76,77,78,79,80,81,82,83,84,85,86,87,88,89,90,91,92,93,94,95,96,97,98,99,100,101,102,103,104,105,106,107,108,109,110,111,112,113,114,115,116,117,118,119,120,121,122,123,124,125,126,127,128,129,130,131,132,133,134,135,136,137,138,139,140,141,142,143,144,145,146,147,148,149,150,151,152,153,154,155,156,157,158,159,160,161,162,163,164,165,166,167,168,169,170,171,172,173,174,175,176,177,178,179,180,181,182,183,184,185,186,187,188,189,190,191,192,193,194,195,196,197,198,199,200,201,202,203,204,205,206,207,208,209,210,211,212,213,214,215,216,217,218,219,220,221,222,223,224,225,226,227,228,229,230,231,232,233,234,235,236,237,238,239,240,241,242,243,244,245,246,247,248,249,250,251,252,253,254,255,256,257,258,259,260,261,262,263,264,265,266,267,268,269,270,271,272,273,274,275,276,277,278,279,280,281,282,283,284,285,286,287,288,289,290,291,292,293,294,295,296,297,298,299,300,301,302,303,304,305,306,307,308,309,310,311,312,313,314,315,316,317,318,319,320,321,322,323,324,325,326,327,328,329,330,331,332,333,334,335,336,337,338,339,340,341,342,343,344,345,346,347,348,349,350,351,352,353,354,355,356,357,358,359,360,361,362,363,364,365,366,367,368,369,370,371,372,373,374,375,376,377,378,379,380,381,382,383,384,385,386,387,388,389,390,391,392,393,394,395,396,397,398,399,400,401,402,403,404,405,406,407,408,409,410,411,412,413,414,415,416,417,418,419,420,421,422,423,424,425,426,427,428,429,430,431,432,433,434,435,436,437,438,439,440,441,442,443,444,445,446,447,448,449,450,451,452,453,454,455,456,457,458,459,460,461,462,463,464,465,466,467,468,469,470,471,472,473,474,475,476,477,478,479,480,481,482,483,484,485,486,487,488,489,490,491,492,493,494,495,496,497,498,499,500,501,502,503,504,505,506,507,508,509,510,511,512,513,514,515,516,517,518,519,520,521,522,523,524,525,526,527,528,529,530,531,532,533,534,535,536,537,538,539,540,541,542,543,544,545,546,547,548,549,550,551,552,553,554,555,556,557,558,559,560,561,562,563,564,565,566,567,568,569,570,571,572,573,574,575,576,577,578,579,580,581,582,583,584,585,586,587,588,589,590,591,592,593,594,595,596,597,598,599,600,601,602,603,604,605,606,607,608,609,610,611,612,613,614,615,616,617,618,619,620,621,622,623,624,625,626,627,628,629,630,631,632,633,634,635,636,637,638,639,640,641,642,643,644,645,646,647,648,649,650,651,652,653,654,655,656,657,658,659,660,661,662,663,664,665,666,667,668,669,670,671,672,673,674,675,676,677,678,679,680,681,682,683,684,685,686,687,688,689,690,691,692,693,694,695,696,697,698,699,700,701,702,703,704,705,706,707,708,709,710,711,712,713,714,715,716,717,718,719,720,721,722,723,724,725,726,727,728,729,730,731,732,733,734,735,736,737,738,739,740,741,742,743,744,745,746,747,748,749,750,751,752,753,754,755,756,757,758,759,760,761,762,763,764,765,766,767,768,769,770,771,772,773,774,775,776,777,778,779,780,781,782,783,784,785,786,787,788,789,790,791,792,793,794,795,796,797,798,799,800,801,802,803,804,805,806,807,808,809,810,811,812,813,814,815,816,817,818,819,820,821,822,823,824,825,826,827,828,829,830,831,832,833,834,835,836,837,838,839,840,841,842,843,844,845,846,847,848,849,850,851,852,853,854,855,856,857,858,859,860,861,862,863,864,865,866,867,868,869,870,871,872,873,874,875,876,877,878,879,880,881,882,883,884,885,886,887,888,889,890,891,892,893,894,895,896,897,898,899,900,901,902,903,904,905,906,907,908,909,910,911,912,913,914,915,916,917,918,919,920,921,922,923,924,925,926,927,928,929,930,931,932,933,934,935,936,937,938,939,940,941,942,943,944,945,946,947,948,949,950,951,952,953,954,955,956,957,958,959,960,961,962,963,964,965,966,967,968,969,970,971,972,973,974,975,976,977,978,979,980,981,982,983,984,985,986,987,988,989,990,991,992,993,994,995,996,997,998,999,1000,1001,1002,1003,1004,1005,1006,1007,1008,1009,1010,1011,1012,1013,1014,1015,1016,1017,1018,1019,1020,1021,1022,1023
AMH,-0.22022437,-1.4780585,-0.18805178,0.8458104,0.9127721,-1.1187681,0.6288657,-1.2402512,-1.4904517,0.74338,0.5635154,-1.4813116,1.2379428,1.29069,-0.25188854,0.7633695,-0.0825486,-1.5764996,0.9133578,0.4070726,1.2014039,1.2739766,0.71514463,-0.19884774,-0.5439397,-1.5743401,1.6548802,-0.5908455,1.3913889,0.9260391,1.4098967,-1.3205135,0.16780788,-1.4262793,1.0827534,-1.5495907,-1.56809,0.7868365,1.2787589,0.69300604,0.21716465,-0.26778612,-1.5313251,0.062575184,0.21276428,-0.63224083,-1.1942582,-0.57112837,1.0672376,0.4460142,0.5410107,0.68408644,0.07007091,0.76265967,1.6247482,0.81563246,0.4608116,-0.17782801,0.19124986,-0.3254014,0.8776363,0.8419362,-1.4438236,-1.3782426,1.3262273,-1.4686211,0.19687307,-0.5360463,1.5574415,0.7826072,0.31264463,-1.4135536,1.5226232,-0.5081698,0.71513915,-1.5691837,-1.5053629,-0.4100359,-0.40600044,0.77825737,-1.6149284,-0.009061869,-1.577264,0.6589322,0.74062324,-0.006779641,-1.5344971,-0.48571357,-0.8205132,0.8912384,0.22539358,-0.40848997,-0.79362625,1.2706783,-1.2102498,0.43356428,0.36975235,1.0215509,1.2150453,1.5336732,0.15189281,1.4418753,-1.1766421,-0.86385405,0.63261056,-0.21260817,-1.2003798,-0.12215169,-1.6932076,0.90938306,-0.33511963,1.2522086,1.3638835,0.91022307,-0.57826006,-0.5107445,-0.82642686,1.6117284,-0.60827106,-1.5176886,0.61915505,0.78607786,0.6864382,-0.8508081,-1.2889314,0.69262445,-0.37266412,1.4630157,0.17476259,-0.18646587,-1.1130741,-0.54927534,-1.2316718,-0.57585037,0.6017244,-1.0080974,-1.3878875,-1.2994334,-0.67440397,-0.06443509,-0.6277214,1.3522991,-1.6189638,-0.37721044,-1.201174,1.0324771,-1.1616669,1.4620767,1.5590873,0.72391945,0.60456616,0.97853565,1.2085652,1.418134,-1.4127637,-0.95090765,-0.8472633,-0.44436374,0.77729785,1.6554773,-0.85088176,-0.91329914,-1.0609647,1.2679489,1.5169749,1.5240252,-1.717854,0.99932295,0.9794801,1.1332777,0.6838068,-1.6131812,1.2486191,1.3702831,1.3459852,0.6710362,0.07791072,1.5566328,0.720882,0.883288,-0.99385166,-0.9940256,-0.77293056,-0.9543944,0.37911773,0.23452945,-0.025568897,-1.1818253,-1.4101359,-0.62570643,-1.5577618,1.1268114,-1.0040088,-0.8221168,-1.07065,-0.02172054,1.30668,-1.1281985,-0.5986181,-1.3673203,-1.6218958,-1.2775714,1.0128263,-0.14473957,1.3528636,-1.6827277,-1.022191,-1.394548,1.426064,-0.9207286,-0.8733322,1.563592,0.596517,-1.1677624,-0.2091041,-1.1594491,1.556622,-1.2443619,-0.3640935,-0.15246257,-1.5950387,1.255752,-0.92302024,-1.6586634,-0.12081631,-0.8987908,-1.511202,-0.36334705,0.0009274711,0.10586703,-0.8109574,-1.2061763,-0.27745116,0.9024194,-0.04966705,1.0874188,-1.5154382,0.21107626,0.24414045,1.6451434,1.4986849,0.8420031,-0.028613705,-0.09414036,0.49408984,-0.7494368,0.33725667,1.2085009,-1.6659282,-0.7541574,1.4221069,-0.79709435,-0.65679616,-0.8793582,-1.6488985,0.37389874,0.9118813,-1.357155,1.0027918,-0.09694483,-0.153705,1.6459863,0.8034167,-0.08013714,-0.10204153,-1.2685673,0.21886817,-1.2208112,-0.3298438,1.0353056,-0.14474791,-1.5374749,-0.8820664,1.4048717,1.1074961,0.55347735,1.1706632,0.51596874,0.19946983,1.124286,0.34190735,1.4154339,-0.63297343,-0.18199578,0.7609574,1.6116738,0.18144213,0.16809182,-1.4304628,0.35890812,-0.5819046,-0.7473521,-0.14391541,0.5566842,-0.22111678,-1.7511562,-1.4890157,1.3549464,0.878586,0.51145303,-0.6957421,0.53873134,1.3317915,-1.6257089,0.006690937,-1.412901,1.1236906,-0.96168214,1.368431,-0.7057353,1.4049371,-1.4728662,0.3887642,1.3366293,1.3285897,-1.544249,-1.2109195,-0.10399109,1.13106,-1.646348,-1.6954123,0.91524416,-1.0582062,-1.6937433,-0.86239296,0.071787074,0.8481942,-1.2706652,-0.15607509,-0.6270644,-1.345806,-1.3743432,0.3271546,-1.3998832,-0.118923016,-0.95995826,1.0659208,1.0758536,-0.5617699,1.0297356,-0.7020578,1.1603925,-0.4901235,1.4433773,-0.41768596,0.5150015,-1.2471751,0.4712865,-1.5715227,-0.13682066,-0.40099567,-0.32424623,-1.3804715,0.3591525,0.6916325,-1.0500413,-1.5605603,1.482558,0.57170177,0.50920343,1.2102456,1.4430155,1.6316599,1.0158961,-1.5032175,0.7108857,-0.4788628,0.35801402,-0.19607547,0.9975583,1.1830012,-0.72159207,-1.1734409,0.29569402,-0.27224618,1.355562,0.98142433,-0.25955838,0.733623,0.70323426,-1.2795638,-0.40075842,1.3910141,0.5520343,0.2005353,-0.10387958,-0.08489382,0.049787078,-1.5298703,-0.24331555,0.2916219,-0.8769284,0.41778803,-0.102568865,-0.44175312,-0.44645151,-0.40383908,-0.6447397,-1.555468,-0.59699875,-1.5988584,-0.11035446,0.6912589,-0.37124676,0.0817919,-1.0643784,-0.44766948,-1.1619804,1.0019336,-0.46348566,1.5946816,-0.6942799,1.4007028,0.77629846,1.4898549,1.5641308,-0.50453705,-0.8660793,1.4766942,-0.93128216,-1.4720855,-0.34193859,1.6447184,0.70366806,-0.6530834,0.115653336,1.3900219,-1.5384957,-1.37505,-0.5274474,-0.16543864,0.3007724,-0.92743427,-1.646539,-0.19990304,0.40804005,1.0224887,1.5773361,1.3590953,-0.30680662,0.7270002,-1.2070998,1.3966432,0.37499174,-0.51851237,-1.640113,0.04663831,1.598882,-1.2615331,0.40708137,0.9708047,-0.50234574,-0.21249361,1.1351466,1.2679887,0.82190573,0.28961685,0.57264835,0.78891516,0.24374317,1.3356091,0.18201534,-0.81445855,-1.3536851,0.070568286,0.048996776,-0.7217325,1.5475137,-1.273814,0.54733086,-1.6574317,-0.22878231,-0.21539573,1.4777143,-0.69285583,-1.6126788,-1.725081,-1.4131728,0.3777893,-1.5812477,-1.4857243,-0.25423542,-1.2585852,1.559357,1.0215782,-0.28263244,1.2294419,-0.88387007,-1.6417464,-0.98732907,-1.5606928,-0.49027637,-1.3533856,0.092904426,0.89202845,-1.1405481,1.1641712,-0.88807476,-0.8048932,1.2821578,1.4171885,1.0655113,0.4891976,0.5347456,1.654146,1.1599438,0.51609594,1.3176441,-1.0121638,-0.3155356,-0.7637668,-1.7001112,0.9692543,0.20033312,0.6907395,-1.4735943,0.15224423,0.68032736,-0.16603343,-0.20197368,-0.35634074,-0.6254838,0.40283346,-0.8891325,-0.77734953,-1.2552412,1.1980574,0.7170555,0.17979303,-0.69298244,1.6511718,1.566613,-1.6228218,0.14887205,1.5623682,1.084284,-0.7971629,-0.40327445,1.3172902,0.050876006,-1.3714217,0.38141078,-0.4830306,0.61919254,0.35386217,-1.6643903,0.6444805,-1.0401691,0.37500826,0.82114726,0.25238714,-1.3131071,1.1310381,0.95177835,1.0220846,-0.15314892,-1.4431503,-0.4779469,0.96111256,-0.17974803,0.84296703,0.96707827,-1.7388607,1.1918232,0.9764589,-0.5732282,-1.2492797,1.0032325,-0.22959667,-0.8208429,1.0633448,-0.61330646,-0.067113385,-1.1581944,-1.6987678,-1.1256797,1.5522379,-1.3879678,-0.70766693,1.372181,0.87501776,0.112074055,-1.4051518,1.3726118,-1.2208351,0.61604095,-1.262178,-1.214434,-0.67154264,-0.71580863,1.147111,1.0195457,0.6139762,0.15171015,0.73991853,-1.7264329,-0.6569352,0.5532272,-0.2612511,0.6470724,0.39961234,1.2245063,-1.077823,0.24228773,0.5382529,0.7017232,1.3580271,-1.3768497,-1.3479936,1.1150999,1.0214407,0.90947723,-0.87251496,0.6947114,-0.13191803,0.7173814,0.087286495,-0.32416406,-0.24207331,1.5126357,-1.224988,1.1771777,0.16691463,0.2284755,-0.7572934,-1.7059039,0.63983715,1.442015,1.5978861,-0.82088417,-1.1024007,-0.37085947,0.16028625,-0.4437086,-0.55026215,0.3687421,1.2661865,-1.4787987,-0.039704613,0.84893477,0.7936149,0.11818303,1.3039961,1.5687267,1.078923,-0.1917546,-0.4530546,0.15720864,-1.6845137,-0.5891669,-0.10355894,0.8643137,-0.019507617,0.16281126,-0.61362976,-0.7368265,1.4378614,-0.67196155,0.097175546,-1.0010138,-0.4533365,0.7885682,0.4737316,1.349906,-1.7426064,1.0153284,0.57606375,0.12608664,-1.5547324,-1.5626107,-1.2543788,-0.66894037,-0.41219258,1.5718546,-0.22908646,0.78510386,0.02431645,0.5410158,0.8499328,0.51730084,-1.0162414,-0.84298253,-1.7186849,0.8342307,0.33177269,-1.2902981,0.121961474,1.2754412,1.6617222,-1.7129166,1.0571024,-0.7891543,1.3814381,-0.49907202,-1.17944,1.0466031,0.9458688,1.2855161,-1.6339751,1.0323223,-1.6215174,0.7081514,0.8137435,-1.2125211,-0.7090644,-0.50477165,0.50398844,-1.403613,0.14135431,0.31306416,-1.2545009,-0.43303332,-0.019296436,0.9277785,-1.0974666,0.26645926,0.4897592,0.012319051,-0.90397495,-1.5952575,1.5294862,-1.6679184,1.1061424,1.1472917,1.1142501,0.37762153,-0.6774826,1.0049833,1.0848465,1.0045193,1.133343,-0.6036012,-0.59845483,-0.06080994,1.1122981,-0.31135723,-0.5504554,-0.04788607,-0.59374076,1.2882594,1.534759,1.3623803,1.313777,-0.97606266,0.69753563,-0.71641874,-0.8035713,-1.2714351,-0.59051037,1.0603901,-0.4627068,-1.4859034,0.10745618,0.8716953,0.4282574,-0.14778009,0.06445646,0.2273727,0.4807701,-1.2485602,1.5133446,1.5907472,1.2693197,1.2529589,1.5618467,-1.1206084,1.0012907,1.5210139,1.2086525,0.6677242,0.4387221,-0.9168411,-1.6534315,1.0701094,-0.602973,-1.6678607,-0.6208474,0.016915306,1.2635417,-1.0893743,0.32844737,-0.2933939,0.34816778,-1.5908154,-1.3432548,0.35504773,-1.5869768,1.0151062,-0.8518047,-1.1674618,0.2728999,0.47655788,-0.7216224,-1.6481912,0.18336558,1.4781659,0.88638914,1.4839985,0.11036748,-0.668826,-0.92443323,-0.46419606,-1.4004574,-0.93105453,0.060148027,-0.51130056,-0.49723947,1.316382,-0.75778854,1.4813988,-1.6764364,-1.5830857,0.027625035,0.6294659,-1.1889349,-1.4163833,-0.41976374,-0.049293198,0.28409353,1.553566,-1.3790606,-1.6475022,0.85693157,1.2747842,-0.89953727,0.40666062,0.33946043,-1.1880947,-0.606931,-0.44030237,1.5802574,-0.83739704,0.30410627,-0.056330074,-0.89362943,-0.6720987,-1.4928184,-1.1107832,-0.0034364078,-1.4809287,-1.2717177,-0.9813875,1.2378234,1.3038288,1.1331999,-0.93478584,0.15930048,-0.9253106,0.9025476,-1.6601903,-0.54063404,0.11826925,0.8414052,0.90029365,-1.0187442,-0.70476454,0.4560696,0.29822883,0.019179802,-0.5227095,-0.10720162,0.9917213,-0.88839763,-1.2464572,0.52919066,-0.38732147,-1.6031383,0.81744504,1.1599224,1.5550938,1.1666862,0.36152318,1.1657835,0.6927107,-0.38698348,-0.7617286,-1.2515996,0.46053743,1.2123971,0.17544506,-0.09181349,0.81324404,-0.84485227,-0.70286065,0.8036642,-1.5399237,-0.3544042,1.0025629,-1.132328,0.57349765,-1.0125439,0.22485566,-1.0846002,-0.8580617,-1.359069,0.77031827,1.4902297,-1.6317831,1.2053471,1.5520034,0.03231057,0.06526817,-1.3873402,0.0053967354,1.1018629,0.5150158,0.32859272,1.046932,-1.7172982,1.4200909,1.5158259,-0.66806406,0.3913298,0.5726906,-1.0648891,0.11374353,0.16421857,-0.21321726,1.5138152,0.9526221,-1.4776422,1.6274815,0.8300124,0.63897127,1.0298392,0.99965584,-1.3802443,-1.3692755,-0.81840175,0.21599968,0.5391793,-1.159743,0.15505156,0.5024117,0.38645855,-1.1955837,1.4026655,1.4411948,0.550098,1.2319827,-0.85313475,-0.09187586,1.4298582,-0.21230385,-1.4813012,-0.71506214,0.19137889,1.0746903,1.6297214,1.0440917,-0.8780369,1.2659532,-0.8366979,1.53068,0.096138194,0.75097644,-1.0382897,1.3503606,0.052546304,1.5296808,0.47135785,0.7672718,-0.19103585,1.448717,0.43192905,0.8207367,-0.28473628,-0.12303046,-0.7070586,1.5430442,0.694626,0.1570639,-0.24920191,-0.9673724,0.22070642,0.08012691,-0.0839804,-0.91884226,-0.9466893,1.3791026,0.86049426,0.0021399285,1.0510918,0.6209811,0.83492297,0.8041773,1.2201377,-0.040104147,1.3955836,-1.2395971,0.034460306,0.4714141,1.4714239,0.79957044,0.55047065,-1.377572,-0.59514093,1.2308052,-0.3717517,-1.5036367,-1.0636768,0.17428093,1.3733797,-1.3733289,-0.3472204,-0.10051616,-0.7365823,-1.5701104,-0.84508586,0.8202858,-0.43707165,0.8782974,1.4109144,0.71139,-1.3723612,-0.22348364,-0.18722335,0.89473975,0.69374925,0.71581835,-1.6494465,-1.4770831,1.6212897,0.5977678
CBX2,1.0530258,0.47663635,0.7930515,1.1882824,0.18672827,-1.3292387,1.6044351,0.15822709,-0.8730434,0.28418276,-0.40113127,-0.31394622,1.6658942,-0.45372793,-1.3709713,0.39932084,0.23523839,1.3258891,-1.1083546,-0.6004075,0.37126642,1.3133483,-1.4275888,1.4537959,1.3107246,1.0587819,-1.4948437,-0.6267602,0.42206103,0.3158058,0.29270285,1.4707669,-0.3252244,0.018284393,1.3759081,-0.5455673,-0.1470618,0.39211392,-0.8710133,-0.56971925,1.3514901,-0.48023278,-0.83918107,-1.7100145,1.6197542,-1.112527,0.2864588,-0.642494,0.72930443,1.1085645,-1.746587,0.660035,0.2923593,-0.311726,0.861613,-1.2083411,-1.6541702,-0.11841364,0.5848785,-1.7199293,1.2857467,1.4024628,0.45672655,0.027943341,-0.37779424,-0.75715625,-1.6362283,0.80531085,-0.37068814,1.602152,-1.6776643,-1.7065475,-0.5517384,0.9792656,1.6204774,-0.11180562,0.50666445,0.96677953,1.1830685,0.32330966,-0.7572302,1.4255198,-1.2964051,-1.4005896,1.0686712,1.2563827,0.54132897,1.2879919,1.1673928,-0.08101663,0.9574783,1.6015046,-1.0704015,1.390451,-1.6747673,1.3630586,-1.5729676,1.1897726,-1.4320645,-0.9728683,-0.018822035,0.5271705,-1.280792,1.347172,0.8274106,-1.1357574,0.51951015,0.19747642,1.2357996,-0.68637556,0.31679562,0.5569424,1.4101298,0.73105186,-0.40710828,-1.3037624,-0.13718231,-1.2759206,0.9730184,-0.962911,0.6071079,-1.2245253,1.1948861,-0.8430601,1.6167912,0.9624504,1.0524255,0.27756545,-0.79194915,0.6092421,1.3978964,-0.3178483,-0.09386542,0.12139516,-1.469888,0.950338,1.679645,-0.54497784,0.9522043,-1.6762402,-0.90126806,-1.2677749,-1.4039414,0.04854291,1.0623968,-0.046598215,0.545473,0.9964177,-0.060079493,1.2269135,-0.96299154,-0.1892726,0.749572,-0.059529647,-1.266002,-0.64025694,0.9566647,-0.66534835,-0.5427919,-1.4075053,0.30468565,-0.7655844,1.6939933,0.54958194,-1.5284024,-1.7019757,0.6576935,1.2185726,-0.05173497,-0.9325111,0.050166477,-1.089483,-1.2405988,0.5016221,0.36357605,-1.6890512,-0.4146274,1.5762318,1.113821,-1.330693,-1.1070703,-0.57590353,-0.771622,0.8840414,0.12000242,0.67213774,-0.19875102,-1.1299381,0.9680892,-0.281654,0.44664285,-0.076262996,1.3652445,-1.2716311,1.6484952,0.16580144,1.4301561,-0.7174243,-1.1432112,-1.6865761,-1.3469768,0.7510756,0.90253353,-1.7147723,-0.36724973,0.5337313,-1.018421,-1.6662292,1.5411942,-1.225542,-1.2262055,0.1859944,1.1807662,-0.6397757,-0.36248496,1.2832,-1.0873867,0.65151066,1.017418,0.30864525,0.2098586,1.336796,-0.26568997,0.6357516,-0.7146012,-0.80825216,-1.6400622,0.47109482,0.07782951,0.5051563,1.4305587,-0.79750854,-1.5017773,-1.7352318,-0.41412228,-0.13412273,-0.8119098,-1.6502788,0.890561,1.007388,-0.3345664,0.8450639,-0.9721549,-1.7171143,-0.80946475,-0.34993213,0.19962262,-0.982505,0.23872685,0.69780546,0.4999258,-1.3917997,-0.5149139,-1.0513549,-0.69992137,1.3959366,-0.32208648,0.027480878,-0.23370486,0.48994595,-0.27155587,-0.85124594,1.2105291,0.45236263,-0.09297635,0.2585748,0.51973414,1.0863259,-0.95329404,0.51390535,-1.0342087,0.72188777,-0.51320505,-0.98519367,-1.7429165,-1.6998516,1.1106378,-0.3037263,-0.27483165,-0.25048375,-0.57084614,1.3782942,-0.6539589,0.10329772,-1.4529567,-1.3189064,1.6627389,-0.8792525,0.71389174,-0.7625158,1.0469167,1.1980412,-0.23758735,1.0922526,1.6344001,1.3389736,0.21562186,0.5907269,-0.86595875,0.1173414,-1.5929921,0.033016827,1.1684126,1.4667499,0.030166006,-0.52877134,-0.31076398,-1.6774349,-0.0830128,1.5266532,-0.25368038,1.5503267,-1.2434983,1.0485642,-0.25644958,0.9510104,-1.4422623,1.2133814,-0.7526036,0.0065606395,-1.0710263,0.75598735,0.45193294,-1.2675426,-0.51135993,-0.81964517,0.809789,-1.3199651,0.8403766,0.90474296,1.3131182,-1.3662989,0.64317226,0.062095694,1.2303562,1.4652811,1.4055692,-0.10722366,0.22416918,-1.3240409,0.9800223,-0.029468356,0.09159251,-0.17513412,-0.76257724,1.6859548,0.26607376,-1.1500517,-0.8872501,1.303534,0.18297128,0.058897,0.18003207,0.10186458,0.20721388,-1.4492987,-1.7335426,-1.6513845,1.008529,-0.08981289,-0.6484601,-1.5007204,1.0835642,-1.2676057,-0.40145034,-0.37419552,-0.33333746,-0.69627935,1.2321289,1.3109281,1.4597334,0.39334178,1.4389708,-1.5817338,0.7856059,-0.54399717,0.8372119,-0.8595956,0.03105198,0.307588,-0.6236876,1.4665891,0.23809458,-0.9429582,0.4518505,-1.1255969,-1.3466027,-0.75236243,-0.04528049,-0.40288326,1.652263,-0.27823913,-1.5052557,0.7843049,0.599979,0.04269618,1.1573594,0.82256854,-0.11713939,1.117505,-1.1682702,-1.3190284,-0.16898815,1.0361594,-0.1455489,-1.6668524,1.375337,-0.11239462,0.32544,0.46474728,-1.5407864,-0.027510721,-0.12237239,1.5645244,1.5957266,-1.3204006,1.2802361,1.4971372,0.008247267,0.71685547,0.79564494,-0.28094876,-0.03600836,-0.71640533,0.3757004,1.1301973,-1.5399755,0.9424252,0.10336098,-1.1134431,-0.6290199,0.28816128,-0.14399807,1.4875786,-0.9315179,-0.18885076,0.6508596,0.36501867,1.1770136,1.6060945,-0.2085124,-0.6471784,-0.7552112,-0.36760256,0.63997996,-1.0260206,0.43881232,-0.36182857,0.5049442,1.1909748,-0.75334054,-1.5706986,-1.4939926,0.6903861,-0.37371248,-1.24775,-0.026798273,0.9660835,0.36846465,-1.2743175,-0.23568538,0.46143854,-1.5768611,0.43586648,-0.54139274,-0.890284,0.8132822,-0.4100166,-0.504896,-0.50507283,1.6014111,-0.13213748,-1.0675231,-0.18366309,-1.1969023,-0.37986568,1.4069918,1.5950522,-0.082818046,-1.3540059,-1.4432396,0.7884508,-0.082684085,1.6475916,1.3908514,0.381258,-0.01671004,0.36150402,-0.75523347,1.6693808,1.5397966,-0.2711884,1.6899749,-1.6357269,0.9326072,0.216425,0.44871196,-1.087022,-0.15238588,-1.24029,-0.6680246,1.0878296,-1.2339383,1.0496031,0.55656075,-1.258977,-0.3847559,-1.461624,-0.4437275,-0.55947644,-0.9391556,-0.2666186,-1.1388433,0.09898242,1.1371672,0.367664,1.4243919,0.33542085,0.7089537,-1.0690106,-0.21072188,-1.4671009,1.213644,-1.4586067,0.260646,1.6442189,-1.6117793,-0.3753587,1.009877,0.23635313,-1.1769216,1.402449,0.7877977,0.34974214,-0.7758404,1.2011893,0.032413606,-0.53270555,-1.1492223,-0.88239187,-1.1163619,0.9664801,1.4482089,-0.51037115,-0.16621129,0.3973764,1.3113967,0.87374955,-1.06369,-1.0018902,-0.51162416,0.5786818,1.2109603,0.6736793,1.4611742,1.3256572,-0.7627241,1.025843,0.5227876,1.3908194,0.32824528,0.10546535,-0.8444396,0.48609066,0.51281106,0.93181145,1.5539929,-1.3344277,1.4603949,1.5802295,1.1893631,-1.128863,-1.6635683,-0.23936734,-1.508517,0.6971969,-1.1699541,-1.0744557,1.6988783,0.87725407,0.8660779,-0.43220675,-1.2513001,0.7975537,-1.5344644,0.22295758,0.929339,0.9533263,1.4754548,-1.1939743,1.6645772,-0.16408263,-0.10519266,-0.46921548,-1.0860145,0.21784331,-0.98656106,1.2278602,-0.91329664,1.6102307,1.2851961,-1.1146482,-0.8365293,-1.0006692,0.043681078,0.51325786,-0.34558862,-1.1014879,-1.3139185,0.80511075,1.16937,0.14481053,0.96660084,-0.08193413,1.4044203,1.3369362,-1.6923462,0.16780317,-0.065426044,1.467426,-0.14598785,1.390945,-1.5843654,-1.4567975,1.3331109,1.5780181,-1.1686175,0.8810504,-0.3209254,-1.4443651,0.15199889,-1.1750629,1.2291744,1.2031106,-0.55255413,1.6338587,-1.3117373,0.512457,0.20666671,0.10301661,-1.6572978,0.97806674,-0.79156435,-0.9257368,1.2247517,-0.8715197,1.3155698,-1.3596985,1.0994272,-1.2888029,0.99327195,1.3691132,1.3475429,0.5294521,0.42323205,-0.0037540854,1.578423,0.4737033,-0.97617006,-1.5914893,-0.051428515,-0.50495183,-1.59482,1.1897877,1.4295114,1.1674793,-0.705426,0.20847803,-1.7436259,0.79420084,-1.6887269,-0.9159395,-0.83258545,0.8721501,1.2573854,0.5280047,0.042705044,0.025582599,0.9502409,0.71731365,-1.2980974,0.1014864,1.5195209,-0.41518405,0.74808216,1.6969848,-0.42920384,0.2693971,0.87346184,0.79815835,-0.13991258,-1.7437392,-1.0569102,0.57872266,-0.9055865,1.1374035,1.1477406,1.6380093,-0.27381378,-0.20023611,-1.5314909,1.6571679,-1.3473514,-0.3404092,0.34228113,0.13440615,-1.7074107,-1.5016451,-1.5839547,-1.556174,0.37601635,0.5212005,-0.53631127,1.4042615,0.6532861,-0.16296934,-1.1966795,1.0982337,-0.116521746,-0.45307136,0.6459425,1.3903309,-0.24061108,-1.0295992,-0.39408636,0.7954957,-0.3838339,1.5737456,1.4030727,1.6194751,0.5328158,0.26779932,1.4439121,-1.0353012,0.074223794,1.2200453,-1.4353254,-0.31361607,0.7375886,0.19522181,1.3614737,-0.13258757,-0.48936826,-0.73412913,-1.3474827,-0.9315553,-0.15140241,-1.2540278,-1.5256698,-0.96931744,0.50474125,0.02226231,-0.3450625,0.65370977,-1.185807,-0.5574537,-1.092363,-0.6235258,-1.0017508,-0.6223619,-0.0020311864,-1.1580267,0.18920545,-0.51803166,0.95139766,0.19517606,0.7638306,-0.44234258,0.709415,0.79940194,-0.61529034,0.479908,-0.19606034,0.33486503,-1.3542155,0.9327286,-0.8290308,0.4100566,-0.6086627,-1.6280491,-0.8513541,1.5519109,-1.3832872,1.1565769,-1.3693075,0.29634628,-0.59870166,0.59377,-0.2063967,0.7339765,1.4576758,-1.6685201,0.8186481,1.5496933,0.36737445,-1.602762,1.6780902,-1.4945652,0.1719981,-1.3181597,-1.7231941,-1.027151,1.3788494,1.2169517,1.6192925,-1.6426392,1.4155391,-1.066448,0.67545146,-0.38872352,-0.80935925,-0.47770694,0.2870715,-0.86229944,1.7082494,-1.604106,0.5132129,-0.9613451,-0.35108602,-1.0579897,-1.3118737,-1.1922287,-1.6726648,-1.0432601,0.20197923,-1.2235777,1.5423133,-1.62269,0.6742075,-0.57276607,0.97662926,-1.7465788,1.5328101,-0.28876036,-0.8803944,-1.1182032,-1.1163415,0.4162856,-1.0619572,-0.6170938,0.1425555,1.6317006,0.26108146,-1.1303666,0.89034003,0.5599935,0.5857239,0.8466555,1.0532368,0.7002365,0.34308797,-0.5378063,1.6906903,0.36935,1.209093,-1.7201685,1.1887563,0.7956099,-0.88101804,1.2750121,0.7989436,-1.4981196,0.5099901,-0.084450476,0.34224898,-0.9567236,0.4745297,0.16156262,1.1581099,1.0015186,-0.7124013,-0.7898472,-1.0533106,-0.4675237,-0.7431251,1.0067604,-1.0449288,-1.3340087,-0.66835624,0.60842615,1.0203975,0.7196389,-1.3084629,0.7916219,-0.23651363,0.36142632,1.4008957,-1.2811831,-0.24021478,-1.4948262,0.38790354,0.8096686,0.013487684,-1.282889,-1.1293758,-1.175215,-0.98873657,1.325038,0.012173252,0.22363232,-1.6237277,-0.34084386,1.1981844,0.9508274,0.08766014,0.85154104,-0.7582252,0.8694437,1.1115266,1.1645154,0.52627814,0.46615347,-0.23931666,-0.5369574,-0.52781814,-0.8660395,0.6874442,1.452747,-1.4194161,0.06903614,0.1852224,0.7757906,-1.0695624,1.3321488,-0.31366467,-1.6874139,0.3329884,-1.6011993,-0.72222465,-0.075713776,0.84618914,-1.4876705,-1.258784,0.5104909,0.97962886,1.5229379,-0.11756311,-0.4561431,0.78073174,-1.6615579,0.08904237,-0.030501682,1.5478671,-1.1716146,0.31502035,-1.5696357,1.1759598,0.18399577,0.07140842,1.1910586,0.18443947,-0.42046958,-0.10593746,0.06732354,1.4664572,-1.489458,1.6342566,-1.5030574,0.9602189,1.1064888,-0.57073855,-0.775408,1.2541841,-1.6477411,-0.11307863,-1.1777239,1.5250138,0.37736374,0.29833156,-0.4870308,1.2384435,1.6710635,0.96198815,1.0827793,-0.63827884,0.95548797,0.3255109,-0.7015303,-0.60362303,-0.9174534,0.771094,0.85448813,1.6055443,-0.50605255,-1.7374686,0.15942632,-1.4543642,0.07813473,-1.6047422,-1.7159065,-1.2415189,-0.89075303,-1.554514,0.49218613,0.6546858,0.8498921,0.28020978,-0.22100505,-1.5936663,1.06827,-1.2137238,0.9149421,-0.48721877,1.2928436,-0.3492949,1.0576236,0.9237959,0.004825993,0.45677602,0.6161147,-0.23641966,0.61559635,-0.61914337,-0.18830603,-0.4960288,1.6116167,0.3706772,-0.8940644,-1.1921886,0.011816306,-1.4998984,-1.0885752,0.590114,-0.86320627
CTNNB1,-0.74663156,0.029826118,0.29195482,1.5075247,-0.7127625,-0.28716213,-0.40894198,-0.1862246,-1.0459266,-0.6197132,-0.45903194,-0.75192434,0.34028074,-0.79412353,-0.28517953,0.045598328,0.30802372,1.0765128,-0.96391517,-1.1320162,-0.5719623,1.266162,0.6384392,1.4394629,0.9563954,1.2546464,0.53140444,-1.2870646,-1.0030621,1.1264158,1.182279,-1.6266769,-1.5492493,1.6274925,-0.34299007,-0.6273554,-0.9682125,-1.6815101,-0.32029194,-0.81519747,-0.6202453,-0.67748547,1.2218195,-0.80599815,-1.2151726,-0.25192377,0.8955677,0.55750865,0.7281007,1.6057285,-0.06687009,0.62699026,0.34797874,-0.17298724,0.6969381,-0.01681065,1.1576401,1.6196562,1.1778314,-0.37151593,-0.51834506,-0.7225796,-0.61937785,1.3406353,0.52876216,-0.9213852,0.94837606,-0.029120088,-1.0622976,0.6803326,0.30170456,-0.4270407,-0.7477369,-0.8239947,0.36163524,-1.1269776,1.6559956,1.3474107,-0.9520227,-0.27102506,-0.6791677,0.48181328,0.64206797,-0.19519578,0.50866234,1.6329522,0.58661485,-1.1461679,-1.2078304,1.3056865,-0.31429428,1.1387198,0.9879754,0.264469,-0.6044291,1.5105164,0.55893,-1.1332046,1.070274,-1.6155367,0.73883605,-0.07952017,0.24265355,0.6965216,-1.37215,-1.269055,0.12808107,-1.6146349,1.2978506,-0.1913698,0.79294,-0.9557919,-0.4191272,-0.52356416,0.14010562,-0.84498006,-0.7710396,-0.030914858,1.5603104,1.2189804,-1.2032174,-1.3530539,0.48899642,0.91315264,0.046378706,-0.14246555,0.3610429,1.3191147,0.1173625,1.0537914,1.3981788,-1.1124576,-1.1508176,1.3981181,-0.60904425,1.2667766,0.21304758,0.33696163,-0.8457466,-0.8910591,-0.24144003,1.3608844,-0.58024734,-0.44072124,-0.2612747,-0.5920702,-1.5901027,0.48464602,0.9953016,-1.2640727,1.3214921,1.5006143,-0.6450282,-1.5839787,-0.42049626,0.84481883,-0.047268435,-0.1705879,1.2480896,1.3148968,-1.2505037,-1.0290712,1.0462053,0.58333707,0.6178492,-0.15605617,-1.6264335,1.3883046,0.9025799,-0.8368275,-0.9581937,-1.0665494,-1.5684257,-0.7693991,-1.6859804,-1.6575545,-0.6776733,1.5442109,1.3942025,0.064722806,-0.96413475,0.8210544,0.36216167,-0.58881646,0.2283017,-0.7798684,0.30979508,1.6362432,1.6535664,0.15555204,-0.22504596,0.8446797,-1.012715,-0.18809384,-0.5247499,0.93797743,0.84090334,1.2041364,1.2807893,0.4995587,0.030031033,-1.0126297,1.6269083,1.6228317,1.5176886,-0.56386,-0.7736554,1.1080897,-1.2601968,1.3801209,0.023946518,-0.9647523,0.12146096,1.5145268,0.8826651,-1.3212116,-0.46955985,1.6791508,0.75874716,0.6083888,0.9661106,0.34806806,1.4370092,0.79312295,-1.435709,-0.91273654,0.7128491,-1.2104403,0.24543709,1.3692522,-1.5522243,-1.4185761,-1.1081152,0.36713332,-1.148455,-0.9262195,-0.27625838,1.4025965,-0.9557463,0.81742054,0.1402324,-0.1612494,-0.8787407,0.27984175,-0.4024802,1.3080642,1.6668026,1.1375401,0.5679478,-1.5991738,-1.302854,1.6539915,1.5630189,-0.10076827,1.1802969,-0.3881076,0.70565474,0.25872043,0.6320449,-0.4180898,0.33230683,0.62965655,-1.6635137,0.7623197,-0.97677225,-0.051679462,0.28164932,-0.42260015,1.5381248,1.4872675,0.5322526,1.38674,1.4656739,-1.0276378,-0.06670242,1.1795596,1.1589229,1.3221252,0.47936633,0.6331881,-0.59938955,0.9270993,0.95789343,-0.29013732,-0.5689096,0.53237915,0.045916382,0.22869423,-1.1456605,1.3982263,-1.2358627,0.9561237,1.1977664,0.53562015,-0.12691963,0.21242124,0.03539133,1.3254491,-0.8181717,-0.36490965,-1.4984938,0.4462418,0.49959347,0.92520344,-1.1374922,1.6919181,-0.7936606,1.1021866,-0.7851904,0.7790482,0.5443753,1.5779831,-1.1832252,-1.4396777,1.1142066,0.9454601,0.40214804,1.4162546,-0.018271292,-1.529523,-1.0817504,-0.7555702,-1.1693693,-0.28121108,-0.09557789,-1.363441,1.185379,-1.0186573,-0.15206209,-1.6884545,-1.5141367,-0.78015506,-1.1191938,-1.6728709,0.9864527,0.4533173,-1.4142406,1.1814369,-0.16213822,0.31947303,1.1321106,-1.300072,0.65510404,0.43197235,1.6555809,0.93107224,-1.1536891,-0.503025,-1.6998217,0.67021817,1.0245299,-1.1160842,0.4578535,-0.94790655,0.6501796,1.378164,-0.9815072,0.987065,1.1232818,1.1798058,0.078514256,-1.1617144,-0.899114,0.3155709,-0.53344005,-0.87473845,1.5510015,-0.0068106013,-1.1622025,0.11568107,-0.57351965,0.04042707,-0.54032385,1.3364064,-0.24174526,1.37033,-0.012872124,-0.8687472,-0.4037048,-0.25375393,0.6383311,-1.5806642,-1.4777311,1.0402205,1.4643818,-0.12652649,-1.4250828,-1.3742284,1.0805734,0.98773366,-0.46460205,-1.1432469,0.4970112,0.004578866,-0.8047917,0.10370108,1.3855977,-0.06529469,0.8391682,-0.8995393,-0.9115811,-0.95342433,-1.464475,0.6915422,-0.035365567,-1.5436442,0.8088219,-0.46439004,0.18114604,0.40425435,-0.48708734,0.9016288,1.4488051,-0.4348862,0.5392427,1.187608,-1.596292,1.1598641,-1.2505872,-0.9954995,-0.51930916,-1.6016066,-0.20808212,0.44786358,-1.1371591,-1.5628494,1.5189391,-1.1483443,1.6063136,-1.3581818,1.3890933,1.4070078,-1.6831306,-0.30977014,0.74841094,-1.3590744,1.6296147,-1.6898216,0.33525112,1.2075708,-0.71792746,-1.5055684,-1.3702939,0.4463238,1.0399092,-1.10027,-1.1930056,1.4280753,-1.3004113,-0.21480519,0.88982135,1.6692302,-1.2103153,-0.7815006,-0.49954492,-0.5662439,1.0611403,-0.4703543,-1.6662736,-1.5066515,-1.3936406,1.4503564,1.0170016,-1.5801151,-1.5453873,-0.12184746,-1.4523743,0.81314665,-0.11062913,0.8602783,-1.130137,-0.38629553,-0.58600223,1.4497476,0.6268181,0.12917216,0.5823705,-1.3363353,0.83301526,0.33075318,-0.47137275,-0.89667517,-1.3887495,0.18676375,-1.12187,-0.7187721,-0.09599931,0.18732029,0.5168033,0.8675534,-1.4308664,-0.32111034,0.32713437,1.4397019,0.41197369,1.6800219,-0.2923041,0.6848112,0.027999401,1.1739848,-0.04414366,1.6308248,0.58554393,-0.29677373,1.45407,-1.5570303,1.1031317,1.4651985,-0.26935297,-0.36970225,-0.49999282,1.3051847,0.8601682,1.3549422,-0.2439462,-0.6991258,1.4733242,-0.6943162,1.1776149,-1.4796276,-0.47806507,-1.1081426,-1.5415999,-1.332096,1.460752,0.3727966,-0.5966957,-1.6465073,-0.1990861,-0.9093757,-0.24755101,0.09387969,0.35674745,1.0766565,-0.5774093,-1.2519832,-1.6061114,0.24026175,1.3246145,-0.9685016,-0.27169207,-0.3738066,0.80888474,0.7387764,0.43306792,0.8386717,-0.8238826,-0.7265427,-1.0218236,-0.95675826,-0.8968982,-1.6911922,-1.5848788,-1.3830298,1.0039239,0.47121128,0.84801847,1.0101312,-1.6412218,0.8289241,-0.8744428,0.919907,-0.806748,-0.7608739,-1.1528219,0.6509523,0.33273235,-1.1904501,1.047632,-0.0026466113,1.0375379,0.23651654,0.81217253,-1.4234868,-1.2522923,-1.064656,1.0461879,-1.701274,0.8384784,-0.098824136,1.4034033,-1.2918769,-1.192875,1.2863172,-0.092803724,1.0623416,-1.4014238,1.4859276,1.6644764,0.15980801,1.6572772,1.6511923,1.0721433,-1.0142332,0.3254216,-0.26984662,-0.54142535,-0.8639349,-1.183347,1.1869148,-1.2080047,0.76764065,1.56717,0.7656627,0.7333721,0.5734589,-1.247182,0.8840287,-0.5460659,-0.3030145,-1.3696744,0.73831874,-0.48035043,1.1716145,0.5464468,-0.05631575,-0.34007242,-1.2030909,1.4161302,1.1311225,-0.96865785,1.3189725,1.0250413,0.35525832,0.40710786,-1.6913905,1.6053782,0.78228146,-0.2482449,-0.94090146,-1.5494174,-0.8903306,0.70484424,1.6772714,-0.0322996,0.7147983,-1.0008894,0.6675582,1.6217645,-1.2762271,0.39011982,-0.102012396,-0.61381483,-0.057836216,0.78277045,0.74059373,-0.3655655,-1.4865259,0.84763145,-0.46556598,-0.82307065,1.0328711,0.74309546,1.1673299,-0.76242185,-0.5670456,-1.1565167,-1.2545731,-0.2812418,-1.5451461,-0.057976622,-0.78826267,-1.1637503,-1.135833,1.4373792,-0.11391282,1.5294493,1.4069132,1.229898,0.38715008,-0.3879981,0.527327,0.86775386,-0.85551554,0.626004,1.0345737,-0.2978121,1.539165,-0.12704884,0.32159984,-1.4589684,-0.6261196,-1.647521,0.7802718,1.2289307,0.45484897,0.97718376,0.9508401,-1.5207096,-0.81427735,-1.35232,-0.22204918,-0.76369816,0.75471383,-0.17079748,-1.3134695,0.9442762,1.0487723,0.9414559,-0.38747758,0.71102154,-0.016588438,0.64288455,1.4996172,0.01659569,0.076840356,0.75701696,1.0314223,-0.31692743,-0.6366575,1.0952004,1.2732065,-1.6432045,1.3252183,-1.158206,-1.3003156,-1.650655,1.6321787,-0.06925701,0.3033707,-0.62944806,0.64367527,1.5395292,-0.07615834,-1.1180651,0.069974646,1.5505952,-0.70116687,0.0053380826,-0.011682732,0.9224109,0.40913603,-0.08918508,-1.5597566,-1.1837113,-0.4571668,0.04250652,1.3745633,-0.48480073,-0.43078142,-0.75741804,-1.2666134,-1.3444895,-1.4907871,-0.9573286,-0.59044987,1.4263728,-1.686934,-1.4637046,-1.2381054,-0.8951126,0.09885682,1.503945,0.84680384,0.7658438,-0.8570344,-0.1177787,-1.5658908,-0.17867088,-1.2452214,0.04712022,-1.6964201,-0.349122,-0.66728866,-1.0986404,0.26555946,1.031131,1.1154034,-1.2360872,0.050528858,1.6679527,-0.056314934,-1.0517915,0.40136197,-1.3937136,-0.9844374,-0.121105134,0.09276498,-0.6277282,-0.12517267,-0.6192409,-0.2212102,0.026172888,0.7756197,0.017743569,-0.47566697,1.6726841,0.42500734,1.5298756,-1.3706739,-0.8393489,-0.0025709132,-1.4471308,0.81842065,-1.1661315,0.66214496,1.0523674,0.97867674,0.33585793,-0.2281337,0.4099754,-1.3754172,0.9799323,1.0644575,-1.3799167,1.1179067,0.86418325,-1.535122,1.4546946,-0.84249383,-1.2264069,-1.6471297,1.3628793,0.44754308,-1.4438515,-0.7317834,1.3230623,-1.6208026,0.80599767,-1.192307,1.5139415,1.3950806,0.517284,0.45193258,-0.15800741,0.39679283,-1.2406855,-0.02520354,1.5136632,-1.3106478,-1.603345,0.9893197,-0.45437065,0.2693116,-0.5704793,-0.78974813,-0.43657127,1.0401238,0.8010944,-1.1600791,0.7261776,-1.518988,-0.89868116,-1.4977684,-0.6025275,-0.43205404,1.6580939,0.90344536,-0.1117184,-1.5068595,-1.2289321,-0.86459416,1.3650823,1.4749047,-0.086113624,1.4532437,-0.020390626,-0.3965603,-0.30076984,-0.5851055,0.11530299,0.40185988,0.961835,-1.0692273,1.1221225,0.5443433,-1.3092899,0.817344,-1.303598,-0.055037435,1.2074053,0.6714745,-0.62519944,1.6003247,-0.06522489,0.8718085,0.8285269,0.96304846,0.6868536,0.09894391,1.159254,0.9664321,0.31364813,1.1269449,-1.3405766,-0.6483304,-1.3627297,-1.4383523,0.7336349,0.6131095,0.53431845,-0.43489474,-0.74308145,0.938397,-1.201311,-1.2837877,0.97887415,0.8203672,0.83875144,-0.34298578,0.55752695,0.016185457,0.7317029,1.5296342,-0.46203178,1.6262327,1.3664685,-1.6679096,-1.2865583,-0.75974965,-1.4387095,1.4017066,1.4404638,0.17194286,-0.5452324,1.0458055,-0.13118516,0.17449562,-0.9262081,-0.48740664,-1.1528434,-0.7130453,0.0981672,1.4906776,1.5226767,-1.2196908,-1.3592799,-1.5401593,1.2303046,0.972392,-1.1081334,0.49574125,-0.49323413,-0.480464,-1.1543494,1.1658808,0.86994743,-0.33876768,0.16822673,1.6243631,0.63390684,-0.23343621,-1.1025888,0.24697018,-0.015977973,-0.39500624,-1.6932126,1.5712103,-0.07905317,1.4793961,-0.9120001,-1.0729383,0.98200685,0.35218504,1.642761,0.51027524,-1.7167231,-0.36082605,-1.6953721,-0.2934953,-0.48851767,-0.6012854,0.15334357,1.5593625,0.7931355,-0.2866021,-0.29461735,-1.093418,0.049668916,0.34383854,-1.5288111,-1.4153086,0.74341106,0.8404843,1.00104,-1.5762557,1.5171744,0.22230205,-0.7755489,1.1218302,0.03872387,1.0943362,-1.6273462,0.7707746,0.8575021,0.10843463,1.5989113,0.1519922,1.6907576,-0.59032816,-0.45180526,-1.2653842,-1.2656727,1.0477128,-0.0084863305,-1.1163821,-1.6010449,0.8396181,-1.1915612,-1.6362071,-1.409207,-0.71603984,0.80439925,1.3698868,-0.6345231,0.46967536,-1.5886681,-0.20838633,1.6178066,-0.8012461,-0.32702717,1.1198788,0.9929011,0.62682235,0.36564624,1.312972,-0.8399688,0.39958978,1.6395596,-0.09299846,-0.9842113,-1.6076145,-1.5370191,0.4186805
DHH,-0.8193395,0.21002534,0.65263563,-1.119259,1.0191926,1.2216817,0.5232169,1.6105623,-0.76740867,-0.72536904,0.7867603,1.6115559,-0.13095886,-1.5779752,0.82257134,-1.3934964,-0.21213461,1.6628757,-1.7856126,0.08633306,-0.063717276,-0.3868418,1.1087356,-0.20958757,0.89281,-1.2608559,1.5155269,-0.20868392,1.56689,1.1602257,-1.4582802,-1.558064,0.19703223,0.8117137,-0.4650236,-0.0027088546,-0.8637072,0.66386014,-1.6000232,0.053068012,1.5353569,1.494103,-0.96547407,-1.5485414,-1.2058719,0.82563287,-0.47330403,-0.4380368,-1.424448,1.1587632,-0.2158018,0.30248028,-1.2519878,-0.9564458,1.208045,-1.2598028,0.7839605,-0.5391041,0.23147003,-1.6357567,0.8607447,-1.1718109,0.3066618,-1.455483,-1.3235861,-0.74420947,0.11128732,0.8924438,0.31817105,-1.4635742,-1.6019341,-1.5402805,-0.9922689,0.19962649,1.2013538,0.7789528,0.44510806,-1.62892,1.5168997,0.002878129,-1.4593967,-1.2511958,0.6727583,0.138632,0.37249792,0.7418435,-1.6922289,1.1212964,-1.4000007,0.5181407,0.5208023,-0.50207996,-0.100118764,0.26866102,0.48633745,1.5668068,-0.69367087,-0.80680496,-1.0247453,-0.34310928,-1.1815461,-1.4353247,1.5282323,0.9781201,0.5052725,-0.11381399,-0.984263,1.109992,1.4568559,-0.23428352,-1.4651208,0.71715486,-0.36769685,-0.24281998,0.62731326,-0.92485225,-0.08589176,-0.2773522,1.473503,-1.0453191,1.2805609,-1.5234832,-0.24576819,0.35837194,-1.1513616,1.1254343,1.4656603,0.010662135,1.2941358,1.4470664,-0.61277026,0.84845686,-0.46484077,-0.8391085,0.0075880885,0.87056875,-0.614145,1.5475471,-0.3379449,0.027971927,0.08316771,1.2510811,0.3070237,-1.1923276,-0.20545328,1.0174326,0.16545716,1.5659535,0.28311014,1.1124697,-0.09703474,-0.52956647,1.6707699,0.25557745,-0.118132964,-1.1541407,1.5338682,1.4344362,0.88210005,1.6666595,-1.224916,-0.2790345,1.1701039,-0.5264954,1.4249648,-0.92601645,-0.012397896,-0.4123788,-1.3452231,1.1838266,-1.3334286,-0.28802454,0.1876229,-0.20631927,-1.6729974,1.3525594,-0.17961098,0.95272404,-1.3874022,1.1570258,1.5941927,-1.7877082,-1.2602032,-1.590175,1.1898922,1.6248664,1.6528971,-1.7747415,0.8621891,0.93137544,-0.8811546,0.43981975,0.5775115,0.27863437,-0.8365037,0.80638856,1.0308518,-0.96841943,1.3813218,-1.3826368,0.006772628,0.28765765,0.12028838,1.5637012,-0.19033468,0.8790971,-0.17785715,1.233315,0.3739109,1.074838,0.73616546,0.81922257,0.15292826,0.2833374,-1.2643032,0.42058805,0.51754606,1.4766859,1.3852485,1.6055862,0.41957504,0.20312022,0.9181783,-0.025226908,-1.2039382,1.140824,-1.5100644,1.0185695,-0.9437328,0.72518826,0.25410083,0.970038,0.64397293,0.6302276,-0.47317028,0.5699224,0.720079,0.34763455,-0.43905026,-0.21804562,-1.3506693,-0.08664837,0.8182763,1.5655011,1.6204944,1.526125,1.1810591,-0.4834294,-0.55375165,-0.63533795,-0.914866,1.0709461,0.87964344,0.46757016,1.3659973,1.3888685,-0.50983506,-1.1778654,-1.4975928,0.017311653,-1.2842423,-1.4884797,-1.6066811,-1.1755588,-0.3938829,1.1185449,-0.80704206,0.17054959,-1.2111368,-0.1100553,-1.071664,0.918442,0.7050477,-1.5926914,1.0508238,-0.14001629,0.41589352,-0.04835973,0.80260926,1.3878534,-0.0025838637,0.567168,0.6072491,1.056856,-1.6010034,-1.1984227,-0.1391116,1.067281,0.17919357,-1.0135319,-0.6213071,0.36290762,-1.0872823,0.68047196,-0.3318257,-1.5485281,1.4500693,-0.9915722,1.0366099,0.94811535,-0.5419199,1.0036681,0.8376963,0.26734388,-0.8307574,1.1295775,-1.7271038,0.574172,0.2805082,-0.6779741,-0.418237,-0.72982174,0.8880031,-0.48316586,-1.7291858,-1.3154845,0.9569738,-0.3835232,-0.5651298,1.6067425,-0.44631267,-0.6418771,1.1670387,-0.1796349,0.6124948,-0.010445652,-0.26803023,1.1798078,1.1857777,1.525083,-0.18859187,1.4553075,1.5905795,-1.7358377,0.56642634,0.10570532,-1.6769767,0.3379243,0.07781553,-0.1667826,-0.25754133,-1.0109717,-0.74761814,-1.1693172,1.0628757,-0.42846945,1.2061608,-0.47759557,0.26472387,1.2272526,0.98642415,0.42780018,-0.71547246,-1.4568745,0.48710465,-1.7527364,1.3671936,0.9615833,0.19695902,1.393823,1.6565412,0.13657868,-0.28042477,-0.26749033,1.2234011,0.12425026,-1.0220847,-1.3731996,-1.5367053,0.96088386,-1.4614568,0.531922,1.3637494,-1.4896448,-0.6870652,0.54472,-1.5846304,0.4816381,-1.4017926,-0.0112453075,1.1134765,-1.5017424,0.46488088,0.6981852,-0.14264797,0.94948447,1.6451838,-1.5539235,0.20010816,1.6612096,0.43739188,-1.5432851,-1.6056087,-0.42996687,-1.3426,-1.4768838,-0.5581359,-1.515648,-1.1171931,-1.3544664,-1.3194124,0.602718,-0.9685675,1.3959053,-1.3708717,-0.44587904,-0.38323203,1.6403811,-0.8944737,0.9660605,-1.7818829,0.008024831,0.15842,1.6181597,-0.81779546,-1.1478926,-1.1042725,-0.41663224,0.4084011,-0.32729396,-0.7333329,1.0746827,-0.8322573,1.2625699,-1.2410142,-0.34069198,-0.47007462,1.222846,1.228405,0.37553933,1.4019704,-0.16522923,0.9155293,1.1122218,1.4837456,-1.6266791,-1.0408592,-0.8493545,0.21966176,0.7858845,0.5486821,-1.3907204,0.37864682,-1.3965758,-0.62070626,-0.6413717,-1.5162603,1.2875235,-0.23041458,-0.8637677,0.86184406,0.79338545,-0.25332114,0.25002414,0.9293812,-0.4521413,0.38634637,1.485356,-0.8194794,-0.03875866,-0.8827211,-0.046783503,-1.0217271,0.94551677,-0.12679648,-0.8254173,-1.6227307,0.6304306,0.82181096,0.08566277,0.35940167,0.5773445,1.5154651,1.2200437,0.63193613,-0.8021056,0.9366172,-0.29358906,-0.39906475,-0.48234397,-0.4153994,0.71105546,0.73506486,1.1840001,0.8803312,1.4271181,-0.71524405,0.20598795,-1.5254827,-0.9692715,0.06311622,-1.3056216,-1.4224285,-0.18068849,-0.021211367,-0.6328812,0.7470957,1.064317,-1.4719656,1.1072862,-0.44689122,-0.7998185,1.3015871,1.171873,0.79342145,0.7329016,-0.748471,-1.0216897,0.6833181,-0.9317946,-1.3814877,-1.0131346,-1.4780642,-0.20509203,0.5320031,-0.032537777,-1.6528867,-0.5748247,-1.3874007,-1.518506,1.2238197,0.647819,-1.5603112,-0.56837714,-1.7341056,-0.21860944,1.5478954,0.110055074,1.0723864,0.16808096,-0.55908054,0.7309393,1.3240786,-0.14691912,1.601225,-1.0563585,-0.3348357,-1.1097169,-1.3008544,-1.7397059,-1.4640192,1.1069713,-0.08549453,-1.4796392,0.2684632,-0.9474597,1.0497068,-0.88666296,1.4248369,-0.42757225,0.85255414,1.3892876,-0.66897285,-1.1047661,-0.096988365,-0.31589687,-0.13742846,1.5636593,-1.1655464,-0.21358918,-1.594204,-0.9818212,0.31401443,-1.3223135,-0.6408129,-0.7322685,0.9099478,-0.53221416,-0.21605407,0.71606094,0.7442491,-1.2924688,1.0796404,0.5506167,1.6470051,0.9620386,1.5749778,0.89202136,0.6062995,-0.3815404,1.4094508,0.4155154,-1.5616189,1.4045262,0.37395996,-0.94292235,1.4307853,-0.845798,1.4892,1.6160811,-0.70941734,1.6472945,0.90400827,1.4813241,-0.6665292,-1.6800649,0.4476493,-1.2141616,-1.4867123,-1.0515002,1.505738,0.78893733,-1.0271463,0.41998494,-0.06270112,-0.99130476,1.0414416,0.8523173,-0.8358307,-0.10665619,-1.3806739,0.6281966,-0.52290386,-0.8388999,0.73980415,-1.6309654,-1.5948596,-0.07388278,-1.4532685,1.4251506,-0.4608743,-1.3990673,0.76408106,-1.7605217,0.5256549,0.25355053,-0.32947332,0.17509358,0.31486654,1.5775338,-0.63708144,0.40587398,1.553569,-0.66312104,1.6777407,-1.6204058,1.011192,-1.1825246,-0.122216925,1.6318985,-1.0147319,1.2491273,1.0949224,0.88050234,0.5903692,-0.86218065,0.84508085,0.43612778,0.08787601,0.8956343,-0.99792427,1.5729206,1.0214547,-1.4292789,0.79547906,-0.19277754,0.42945477,-1.7442069,0.081080295,1.1413897,0.16775382,-0.46233946,1.4563799,-0.66237074,1.3210858,-0.5538748,1.1030444,0.45325935,-0.5810493,0.26527768,-1.5402184,0.6299165,1.0212024,0.20240231,0.6040201,0.57661986,-1.7542447,-0.5324405,-0.5515201,0.5425116,-0.34681743,-0.88770247,0.5357252,-0.922271,0.26484033,1.2563481,-1.5559474,1.4482194,0.82774943,-0.1018073,0.44658428,-0.56359273,-1.3092088,0.72179824,-1.1584572,-0.16036643,0.91824406,1.1179581,-0.89156055,-0.44148666,0.6525502,1.5007246,-1.4065496,1.6428884,0.109276414,1.3040218,1.0222462,0.66096723,1.0461398,0.7137421,0.6955259,0.8753981,-1.5043604,0.8332139,-0.6615956,0.3871413,-0.7897928,0.063402385,-0.68448174,1.4764479,0.6875256,0.4344659,-0.78776276,-1.3189416,-1.0206116,-1.586897,-1.5152899,-0.7888124,-0.2209718,-0.21661705,1.4089296,1.6588167,1.3318659,0.62407804,0.9639078,-0.46786946,-1.349446,1.4938482,0.65405697,0.06937432,1.1806647,0.02656582,-1.3663206,0.18693867,0.10575169,-1.4600407,-1.1624966,1.5629947,-0.54469407,0.17585415,0.0190033,-0.8695071,0.23805924,0.032922722,-0.14348839,0.026056083,1.5064986,-0.3618079,-1.2671858,0.9168737,-0.6004455,1.0193948,0.43528283,0.41637102,1.0503523,0.7674685,0.8860848,-1.561327,-1.5905406,-1.2523338,-1.0541053,-1.5507659,0.63101065,1.0014828,-1.7462379,1.2308631,1.0223005,-1.708822,-1.6827812,1.6627926,-1.0732809,-1.6668701,1.053405,-0.6558233,1.3700178,0.88363487,1.0949934,-0.676053,-0.14234474,-0.7852642,-1.7511785,0.43573952,0.8154354,0.40541565,-0.5293862,-1.2231493,-1.1479564,0.7759211,-1.2625374,0.6834171,1.4894449,0.14636672,-1.1338391,-1.2165707,1.3032509,0.14081946,-0.7426098,0.7708873,1.2107891,1.4714327,-0.20443422,-0.9584415,0.0102324635,-0.31980053,1.5567163,-0.5368576,-0.88198525,-0.6189649,0.06263289,-1.0601529,-0.129262,0.09304933,-0.75012195,-1.0065451,0.9047979,1.4566762,-0.42481932,-1.0791179,-0.72657716,1.20561,1.0337554,1.2690413,-1.6968491,0.9834754,0.13472253,-0.23732284,-0.99534523,0.9890155,-1.4097949,-0.28319854,1.5733472,-0.901145,-1.1608442,0.82420164,-1.6379695,1.5617915,-0.31662685,0.1645816,0.28622594,-1.5607829,0.21327657,0.9136102,-0.2604956,1.1612978,-0.29923862,1.3506916,-1.3384955,-1.4389907,-0.1254041,-1.2194939,0.6653698,-0.9386635,0.8163421,-1.2471219,1.6229331,1.1407629,1.6195431,0.21934105,-0.42063445,-1.1626972,-0.022966037,-0.055496316,1.1983234,1.0869244,1.0546597,1.4559379,0.54405344,-1.5386617,1.5162827,-0.2705444,1.0927724,-1.0378301,-1.5074971,1.4311697,-0.24055931,-0.5223503,-0.8852199,-0.23875056,-0.21588457,-1.5597249,1.1653215,-1.1243893,-1.4350858,0.63349366,-0.7137055,0.6541264,-0.16160364,-1.1344604,0.2081174,0.9454658,1.2139753,-0.48776874,0.6532155,-0.14895058,0.26458618,-1.1853212,0.58331686,0.5234259,-0.15769814,-0.60373443,0.26021752,-0.8586124,-0.9532555,1.4066923,-0.27833423,-0.6325784,0.71831805,-0.7115642,0.057294436,-0.24676397,-0.6462768,-0.13828658,0.44263488,-1.5200946,0.32852367,-1.1977464,0.10779441,-0.74657893,-0.4056432,1.6151499,-0.66853005,1.6044433,-0.47802874,-0.5670374,-0.5162269,0.4782124,-1.5303398,1.2590976,-1.6863631,0.72986865,0.23472315,-1.621522,-1.5984883,0.6481576,-0.52272296,1.0683916,0.60054886,1.2162609,0.6618599,-1.7068837,1.3074596,-0.44648945,0.62488294,1.1426197,1.4872894,-0.49997967,-1.4429386,-0.5692716,-0.051962446,0.5820193,-1.430094,0.35762888,-0.7825568,0.027122147,-0.8072298,-1.1251619,0.06285916,1.465441,-0.26354071,0.58992416,0.6700049,0.24052413,-1.4053417,-1.6706438,0.2614298,0.80425495,0.5514914,1.171138,-0.17606796,-1.1784449,0.56169766,-0.38079745,-1.5598123,-0.4057503,-1.5206201,1.0066087,-1.1390496,-0.2200983,-0.50346637,0.43373948,0.71151775,0.77695805,1.5561465,0.95573676,0.41712427,-1.4891019,-1.1960765,-0.023278411,-1.7277704,1.4714614,0.86285233,0.37118807,1.1718172,-1.3209288,-1.0001278,-0.49528715,1.2695222,-0.45531583,-0.61785454,0.7018988,1.1973388,-0.020413792,1.421554,-1.0848933,-0.2123561,-1.7839224,0.5083427,-0.6216218,-1.1648986,1.0245723,-0.013293426,0.7177582,-0.3091323,-1.1310579
DKK1,1.0879871,-0.58075315,-0.2155209,-0.63421357,-1.173362,-1.6568146,0.26700282,1.0877638,1.4896115,-0.006436613,-1.3615841,-0.899427,-1.0623498,0.64706665,0.4862301,0.08347504,-0.18391761,1.2996174,1.0458072,1.1444896,-0.65556633,-1.6677969,-0.62874377,0.6201934,-1.2643684,0.10580206,-1.5166236,-0.5828067,-1.4034439,1.3846824,-0.606769,-0.7375754,1.6809615,0.52141386,1.6713403,-1.4963727,1.4402328,0.96652836,-0.17707796,0.21556634,-1.1757839,-0.46159932,1.5862534,-0.9809157,-1.2482775,-0.43811306,-0.12888788,-0.6301621,-0.51641667,0.02866177,0.07289522,-1.4167795,-0.9475936,1.0743816,0.46208948,0.44689935,-0.3347603,-0.31443393,-0.07139004,-1.5413601,-1.1567024,-0.77624494,0.31045574,0.8458957,1.2841027,0.89756733,-1.152204,-0.95034933,-0.11141628,1.7201626,0.7256036,0.20048049,-1.2402773,-1.1865923,-0.8516078,-0.2314536,-1.5522152,-0.07433774,-0.3603357,-0.88490725,-1.650771,0.33105257,-0.678123,-1.6411868,0.5461315,0.43094793,-0.87957007,-1.4988717,-0.23586108,-0.2872237,0.47838557,-0.8134927,-1.5591874,-1.3288727,1.2540245,1.4600365,-0.753613,1.6065482,-1.1133101,1.2463918,0.17942229,1.6041073,0.42411503,0.6598543,-0.29621145,1.0603216,-0.14926496,0.6231271,-0.9553903,-1.4699398,1.5979489,-0.31662104,1.1720207,1.6649077,-0.60830706,-1.2197984,-1.330934,1.3507736,-0.18749547,-0.36660117,-0.8158344,1.1698321,-1.4275557,0.56573963,0.52687025,-0.1243603,1.3937529,-0.41492924,1.6823633,1.4537462,-1.112223,-1.4930423,-0.40565133,1.0639229,-1.2802134,-0.57986367,0.6370093,1.3454492,-1.1798731,0.19449273,-0.59116775,1.4200017,-0.7638165,-1.6579437,-0.9365636,0.9720147,-0.9349908,-1.3275858,-0.873247,1.4719362,-0.18208049,-1.5452683,0.75974214,-0.955851,0.2879912,-1.3461523,0.23429582,1.1369485,0.42328542,1.6751422,1.435583,-1.2486473,1.5378727,-0.9998739,1.218604,0.6157359,-1.1373425,-0.40631053,-0.23561254,1.228853,-0.36049497,0.69862527,-0.6376117,-0.4362175,1.1039672,-1.3242197,-0.0014947564,1.4189007,-0.14459963,0.8839333,-0.6653973,-1.4421793,-0.79749423,-1.0167415,-0.0013358963,1.333317,-1.232948,-1.1428815,-0.4722751,0.84889275,-1.4676625,1.483171,0.29735532,0.10140819,-1.500723,-1.5017856,-0.6577678,1.1231055,0.27760574,0.34284034,0.7095599,0.729363,-0.63643247,-0.23904598,1.3890816,-1.1372865,-0.35494933,-0.6985358,0.020251606,-0.5141971,0.45810586,-1.2320987,-0.61415035,0.3741868,0.2894542,1.2721133,-0.44635382,-0.5044489,0.25410342,-1.1371806,-0.86705583,1.6403836,0.011900075,-0.075859584,-0.599216,-0.090349376,1.4662498,1.3743272,-0.56673867,-1.2192489,-1.4845588,1.4771106,-0.4907086,0.88579494,-0.48725468,1.5159076,-0.97655183,-0.7168538,1.3125336,1.2090244,-1.0850483,-0.9553274,1.5162367,0.25614747,-0.03187567,1.2897873,1.5392913,-0.2040559,-0.045289572,0.707176,1.3767236,1.6911588,1.2906212,0.085026495,-0.29000422,0.24947338,0.42965457,1.0548985,-0.8222131,-1.0962919,-0.49664944,0.47851947,0.11870996,-1.4413021,-1.1835513,-1.1651735,-1.6695689,1.02486,1.1937035,-1.5864668,0.40867916,-0.29497954,0.8749695,-0.2954052,-1.3865304,0.115652494,-0.2375369,1.7219292,-0.29662028,0.8394211,-0.67260396,-1.4089376,0.8376936,-1.2277695,-0.035996456,-0.35138324,-0.9160556,1.1885141,-1.3677255,1.6125103,-1.2372239,1.6491816,-1.3813651,1.4711424,0.056327283,-0.51734793,1.5680739,1.111188,0.41883495,1.6789732,-1.6583418,0.8092098,0.2227097,-0.15126826,0.33793154,0.6120673,-0.16324429,-1.5221593,1.2670139,-1.5022091,-0.16545697,1.1073318,-0.29827276,0.4683164,0.7196205,0.77988046,0.6965319,-0.157597,-1.1547401,-0.87025464,-0.7201385,0.92014897,1.4768878,-0.67448187,1.5961171,-1.5513412,0.11271006,-1.61116,0.44896287,1.2475586,-0.16890477,0.9917114,0.27105257,-0.8854459,-1.3918791,-0.66537493,-0.99330443,1.6097505,-0.24929874,1.3538219,-0.51811016,0.000117565934,1.13531,-1.0619552,1.0309482,0.6588064,1.6826687,-1.0918887,-1.5682712,1.0507591,0.32444867,0.31551874,-0.05728633,0.30086154,-1.5847934,-0.10927382,0.86464894,1.04746,-0.8215186,0.5369792,-0.6222182,0.6194433,0.27367342,1.1429149,1.4948918,-0.8122306,1.615946,0.113067545,1.4407045,-1.4041754,0.8451897,0.5563745,0.7437565,0.3269559,1.3433329,1.5715686,-1.1643859,-1.0063785,-0.9302098,0.2877177,0.95751095,0.048763756,1.4404308,0.89855725,0.77027243,-0.5572475,-1.2341,0.6675385,0.28206858,-0.90723014,0.24203728,1.2524897,-1.4033493,0.184664,1.0454688,-1.129755,-0.8707114,-0.552803,-1.2773439,1.5519419,-1.3892478,0.60550314,1.1615093,-0.12783875,-0.29476735,1.2417928,0.45694983,0.90549284,-0.17154835,0.7621311,1.1894474,-0.33334985,-1.3696437,-0.4005904,-1.5906926,-0.23050918,-1.0537877,-0.91310245,-0.8461893,-1.6016744,-1.4867258,-1.5488296,1.6446844,1.0956174,0.87618476,-0.07160449,-1.5933307,-0.35494792,-1.6255685,0.73155445,-0.49667013,1.6159753,-1.0364951,1.4098688,1.552989,0.13437791,-1.1696995,-0.36051363,-1.629174,-0.7956336,0.52870005,0.70544297,-1.4248222,-0.75385565,0.9413098,-0.63787526,-1.4775255,1.004894,-0.26765674,-0.8952549,0.6156186,-1.114205,-0.6997103,0.053260278,0.9126802,1.2967509,-0.61936915,-0.099921666,-0.5042848,1.5806179,-1.3269666,0.6575134,0.9075414,0.17960185,0.17033714,0.72529805,-0.054000616,-0.7588484,-1.2621503,0.11083501,-1.6655611,-0.23825067,0.6054829,0.7455942,1.0795623,-0.95037043,-0.58890724,0.41644436,1.3549054,1.2943137,1.7263278,-0.3133765,-1.5533429,0.22617233,-0.54671276,0.7743342,1.4729556,-0.90576375,-1.0624379,1.0159467,-1.5183439,-1.5762514,0.27393395,-0.55702096,0.91959596,1.5575539,-1.6674858,-1.3971541,1.0665476,1.7162112,1.3472161,-0.7967864,0.015327807,0.77536833,-1.434846,1.0671943,0.9072076,-0.61341304,0.6631473,-0.89903647,-0.33052123,-0.84017646,0.22485033,0.01888944,1.4253019,-0.6937493,-0.48809198,1.2762481,0.3987725,1.73047,0.7444404,0.8537742,-1.2121134,1.5479641,1.1522498,-0.021648679,-1.2592993,-1.4889643,-0.5723771,0.3987336,0.6424423,0.48645753,0.91150326,1.1197842,-1.5431964,-1.4050139,1.3386245,0.82222664,-0.05163032,0.35246682,-0.11150149,-1.472872,-1.4253135,-0.7925232,-0.5558807,0.92430747,-1.4961758,-0.5969954,-1.1065912,-1.6633834,0.6996539,-0.54113024,0.70461094,0.7938667,0.8579759,-1.4749434,-1.3526704,-0.8498291,-1.5332267,-0.75848854,-1.1672821,-0.8711563,-1.5601383,-1.5064934,0.103073664,1.5599487,0.69583195,-0.6967474,-0.8231525,0.05902504,1.619856,-1.4481544,1.6391485,0.81656235,-0.020567305,-0.98415256,0.79406226,-0.02101345,0.33048308,1.3616391,0.7507292,1.2976338,-0.013014734,0.064220905,1.483934,0.9597143,-1.2201487,0.77731115,0.552849,-0.7027952,0.4488582,-0.32743517,0.3688972,1.2172438,-1.5203428,0.3990235,-0.23380646,-1.5420706,1.1636387,1.6055984,-1.6297742,0.9341247,-0.32898724,-1.0362173,0.8891596,-0.20619836,-1.2381933,1.2285789,-0.29093403,-0.84947383,-0.6003041,-0.59779376,-1.1033384,0.24737273,-1.2015222,-1.3448052,-1.1269879,0.4181685,1.3292966,-1.1215124,0.9869225,-1.112363,0.278048,0.4553665,-1.3407624,0.16258106,0.5478266,-0.33378038,1.6714904,0.21582523,0.7173744,-0.19081508,0.26974723,-1.3572528,0.935106,0.6422153,0.31038737,-0.46179858,0.15816508,1.2090191,1.2539107,1.2303416,-0.93398124,0.5669797,1.4491725,1.2202814,-1.4865319,-0.62374943,0.91786027,-0.6215191,-0.641431,0.30670056,-0.5970094,1.1510056,-1.2384427,-1.0328503,1.5080466,-0.96516985,-0.71014136,-0.8952588,-1.3469497,-0.65322345,-0.17523193,1.6520832,1.3788704,1.3303655,-0.84491384,-1.2705467,1.2893795,0.45720506,-0.44660985,1.5878146,-0.45825255,-0.5898941,0.04087216,-0.6531528,1.6412418,0.13350976,-1.300676,-0.15936778,-0.91427594,0.93732077,-0.0070138187,1.3819339,-0.029825121,-0.87199944,-0.16228081,0.7834159,-0.33173203,1.6004925,0.9774194,-1.4352344,-1.0303907,-0.5655086,0.5816892,-0.041383035,0.10402479,-1.1638447,-0.12780082,-1.0865707,-1.0848984,0.69970465,-0.56161344,0.10879906,-0.080492035,1.5686754,-1.0268621,1.3980902,1.4321988,0.2751766,1.3129587,1.3575804,-0.7733608,0.6911989,-1.4451715,-1.6219797,-1.1577525,-0.99931145,-1.5181069,-0.50515234,0.78031623,0.89205945,0.3265394,-1.1059827,1.5310867,-1.5739827,0.9229946,1.6441792,-0.9749925,-0.30178124,-1.6145046,-0.86538744,0.48861805,-0.19744308,-0.75170976,-1.3775452,-1.3472459,0.8259916,-0.4532748,-0.20463575,-1.4868553,0.3468516,-0.29062343,0.082457975,-0.75622517,0.6813145,-1.2908411,-1.4293083,-1.0515132,0.77201945,1.1448636,0.32219118,1.0480199,1.1068965,-0.32158095,-1.6000171,0.23991512,0.23795281,0.9223359,-0.6457147,-1.3894984,-0.4687859,-1.2176721,0.7702094,-1.2814908,-1.1560329,-1.323517,-1.6508095,0.6554969,1.360815,-0.2666437,-1.2281864,0.031212028,0.10928294,-1.1960496,-0.068046704,-1.2736267,0.37899718,-0.25880447,-0.16915372,0.43985215,0.7904164,-0.6494189,1.7048006,-0.18501604,1.5207275,1.3917068,0.8989782,-1.2422652,-0.68110484,1.0685319,-0.066487744,0.9414385,0.12305148,0.24446762,-0.52269477,0.17413452,-1.0159763,0.6516784,-0.6773066,-1.5365326,0.1324148,1.7235202,0.7901001,1.1032705,0.66761684,1.1176007,-1.4584574,-0.42366627,-0.1685826,1.5412395,-0.07185809,-0.7014048,1.3373007,0.6386522,-1.533432,-0.15694252,-0.6457769,-0.61536014,1.5578941,1.2875538,-1.0964518,0.22989729,0.25484818,-0.52807885,-1.531982,0.81088257,1.6179659,0.7936313,0.6357295,0.7669064,-1.6244596,1.3663721,1.4829869,-0.95388526,-0.05165751,-0.15263201,1.5108402,0.26854005,-1.5629925,-0.966388,1.6254323,-0.8298801,1.0047487,-0.9477979,-1.3192198,-1.352167,1.683467,1.608607,-1.3688694,0.48947686,1.4175577,-0.084538974,-0.31614992,-0.28573677,0.81291467,-0.5425427,1.1009817,1.4760689,0.5569659,-0.7661227,0.90894145,1.5976524,0.6010361,-1.6094047,-0.46342528,0.79424,1.0784364,1.6552076,1.0048068,-0.71563387,1.2761927,-0.20968027,-1.2925912,0.87270635,-1.4322596,-0.59154636,-0.074211344,-0.5393391,0.6428692,1.7260698,-1.2393595,0.11797816,1.5253643,-0.26445743,1.0835365,-1.4059056,0.775264,0.75859356,1.0527151,-0.6053478,1.4609615,1.5359498,-1.0331182,-0.92951965,0.51796424,1.6659716,-0.9873699,0.33611453,-0.78510207,-0.9630463,0.8983558,0.81856865,-0.16646937,1.2391361,0.29866472,1.2017112,-1.3172168,-0.60068303,-1.1385107,0.70989347,-1.0787323,0.29133227,-0.15768121,0.26253328,-0.4611812,-0.034664523,-0.37386262,-0.45872164,0.22744359,0.02050927,-0.89294726,-0.30890554,-0.17618325,-0.07689652,-0.3832462,-0.24384032,0.19130665,-0.6410575,-0.48750627,-0.8264321,1.6878701,-0.09667734,1.6150792,0.5789036,1.6710725,0.1741816,0.040463556,-0.24995038,-0.15773985,0.25529477,-0.93205935,0.08257261,0.61333615,1.3668361,-0.21990828,-0.64804256,0.5377561,1.7223357,-0.20228593,-1.5360245,-1.6051792,1.6479967,-0.1151662,-0.5984611,-1.6248448,1.2249292,-0.69726455,1.4826282,0.40372658,0.43864763,-0.6692825,1.6167561,-1.6471063,0.73778373,-0.7223619,1.0874879,-1.5508943,-0.91568494,0.83563125,0.05012349,-0.025837429,1.5672073,-1.5316899,0.9140418,0.44647408,1.3348702,-0.109233655,-1.4839079,1.4630737,1.5225884,1.1048104,1.1164372,-0.6860136,1.5185621,0.6207187,1.5301539,-0.62637836,-1.0576577,1.4243333,-1.4620554,0.9664403,0.96462345,-1.6422442,0.856691,-0.79114014,0.8465774,-0.8075734,-0.7283507,-1.4990827,-0.80219126,0.11784912,0.0071710446,-1.4072587,0.30780548,-0.44215083,0.7871597,-1.4592106,-1.1601315,-0.83328587,-0.08779608,-0.5901195,-0.9895704,1.1255151,0.29793617,-0.14150201,1.0038161,0.3429345,-0.60266304,-0.45512226,1.4670589,1.1005378,1.3031867,-1.3737348
DMRT1,-1.6607522,0.18693538,0.35318965,1.0983515,-1.2416117,-0.59157085,-0.2195951,-0.5679537,0.91982514,-0.10022923,0.90369976,1.682519,-0.47513834,-0.27574795,0.6530745,1.6205148,1.0930306,1.4867251,-0.692705,0.101656385,-0.46212143,-0.26135233,-1.2151732,0.46327093,0.7849144,1.4713303,-1.6194927,0.90273106,1.0524687,-1.1987283,-0.52815795,-1.0714463,1.3016932,-0.4446382,0.01909635,-0.5403806,0.61175275,0.37541717,-0.59196854,-0.50383043,-0.7108541,0.053110395,-0.612644,-0.5302604,0.6051151,-0.19203807,-0.23485038,-1.0459746,0.4341271,-0.37841213,-1.1701369,-0.35719717,1.0675063,1.4399893,-1.6082238,0.5268621,1.2194555,-0.43664402,-1.2949998,-0.08439752,0.86583555,-0.2305627,-1.4789548,1.2736349,1.615221,1.027674,-1.6495416,1.0246662,-0.747914,1.0725583,-1.5928681,-1.3336838,0.3933009,1.5479115,0.54645824,1.3279558,0.34827834,-0.2807276,-1.0859544,1.4513602,0.580526,-1.0885673,0.26089343,-1.0988688,1.6241293,-0.81433195,-0.7860046,-0.65413195,0.29237345,-0.91149837,-0.97139215,1.5666574,-0.11071415,-1.2940906,-0.97161263,-0.5075007,0.36901164,-0.48301864,-0.22542216,1.2448313,1.1561514,-0.53910804,-0.94614685,-0.8766119,0.35303932,0.4420692,-0.47088182,-0.32936817,-1.061019,0.2287953,-1.0430619,-1.2013077,0.28370637,1.6360986,0.8099412,-0.6027002,1.5397061,0.8440111,-1.2604738,-0.08869391,-0.9434822,-1.1610941,-0.80693823,-1.1718296,-0.6882154,-1.3163943,0.43523973,-1.4485322,1.0271124,0.23860613,0.35659534,-1.6048303,1.123504,1.540687,0.95235616,-0.89101386,-1.3808783,-0.43195078,-0.32135183,-1.1070503,-1.6668696,-1.58119,1.4471527,0.985715,-0.19710316,1.0036047,-1.0857351,1.6293505,0.67498165,0.093296275,1.3968351,1.240652,-1.6142445,-0.28727555,-1.3335882,1.2849134,-0.17148095,-1.2594852,-1.3829104,0.47152445,1.4580631,1.4290414,1.4138933,-1.4870782,-0.4773185,0.7249496,0.16183065,-1.2849873,1.4073498,-0.918933,-0.14562218,-0.0032436475,-1.1887425,1.3589143,-0.8907012,0.81535167,1.6598824,1.3600516,0.65595514,-0.48274565,-1.4165345,1.6673225,1.5033326,-1.0835528,-0.5517678,0.8153877,-1.4637651,1.1663707,0.13909909,1.2820786,0.91799504,0.90193653,-1.5321059,1.7110673,-0.78655785,-0.5503779,1.3313534,1.2153369,-1.1060523,-1.0561616,-1.6310371,0.651245,-1.2292157,0.5608999,0.13156196,0.101844124,1.1997521,0.10735794,1.2513378,-0.15876667,-1.1695276,-1.2220796,1.6778638,-1.6877191,-1.133551,-0.07480048,1.3658664,-1.5122409,1.6653769,1.4232181,1.6804261,1.357929,-0.71469975,-0.9927384,-0.14269859,1.2974495,-1.5069636,-1.0975827,1.5331432,0.24669833,0.36410642,0.64938384,-0.15661867,0.50523055,-1.6363916,0.18007256,-1.255623,-0.57720816,0.8641873,0.18710583,-0.42918688,1.6360148,-1.2143282,0.22698802,1.6387975,0.12349966,0.31825703,1.2740808,-0.2898084,-1.5562716,-0.48517638,1.6570735,-1.5542257,0.95755774,-0.12762131,0.7256544,1.5285022,-0.008534518,-0.018494843,1.5128629,0.5785147,0.8218042,1.1179469,-0.27989975,-0.04224772,-1.2023084,-0.9569954,-0.57741934,-1.2065306,-0.13785665,-1.6172186,1.2701812,0.6565735,0.8583969,0.22244325,-0.050994303,-0.5632305,-0.28415647,0.080464624,-1.4207028,1.5322759,0.8163826,0.57637036,-1.6483293,-0.982413,-1.3290505,-0.731762,0.68289053,1.2479031,-0.7299646,1.5395254,0.14404029,-0.5867031,0.045584872,0.9076479,-0.822462,1.4575384,-0.72494674,0.3201768,-0.19095269,0.23690584,1.0625722,0.6567171,0.9425028,-0.8099039,-0.6462769,1.1241163,1.1033865,1.1339556,0.30993494,0.8552599,-1.5393977,-0.027167592,-1.6962668,0.023649052,1.1403233,0.6702448,0.90619427,-1.6904424,-0.32367375,1.1840887,-0.4942946,-1.3507291,-1.4999795,-1.0533953,0.74755794,0.014058928,1.0666132,1.3296745,-1.3042132,-0.7195509,-0.89172786,-1.2090386,0.99212927,0.42327178,-0.19243819,-1.1214988,0.4880087,0.7233698,-0.061188553,-1.5193573,1.2700948,0.90977937,0.40634915,0.27136046,1.0035943,-1.2527887,0.064084716,0.12101359,0.20199618,-0.8088374,-1.5437211,-1.1227003,0.67647946,1.4008218,1.285671,1.3850024,0.5473146,1.2292682,-0.7139484,-0.19902396,0.5309656,-0.41523463,-0.7852996,0.8345189,1.0576037,0.2684987,0.544832,1.2320107,-0.16906059,-0.4256563,-1.2632236,-0.49582952,-1.1417469,0.52883613,-0.07960174,-0.48394108,0.34230137,1.4926814,-0.60096127,0.3639939,-1.0891814,-0.66814685,0.26861912,-1.5665216,0.20361347,1.0725226,0.47746724,-1.0766888,-0.89238846,-1.1530932,1.5282508,0.6708542,-1.3679497,-1.2402458,1.1347603,1.22214,-0.10490988,0.2160912,-1.4267237,-1.2159535,-1.3191702,0.36504942,-0.635053,0.38806126,1.2937821,-0.8097776,-0.48778653,-1.476267,0.4902824,-0.9047885,-1.228393,0.6075043,0.9455291,0.96426374,0.20737086,0.26484486,1.0106486,0.60044074,0.57826984,1.5607243,-1.3625703,-0.97033644,-0.16811208,-0.71624774,-1.4970598,0.56494045,-1.6817704,-1.0589935,-0.8158109,-0.6586509,1.3945454,0.3133933,0.7792409,1.7046263,-0.3141231,-0.12613581,-1.4714401,0.5217736,-1.3700831,0.5578361,0.84880066,0.18002659,-0.5361035,0.4229634,0.8286046,0.47305408,-1.6490371,0.7619288,-0.51770186,1.0610532,-1.41682,0.9962654,1.2284331,-0.50994956,-1.227505,-0.9939579,-0.57869387,1.0307075,-1.0157175,0.29291287,1.2749007,-1.3758429,-0.45998114,-0.5337812,1.6635327,-0.48984748,1.015063,-0.0724981,1.3991622,-0.900985,-1.4778106,-1.1973095,-0.46563652,0.5351855,-0.82394564,1.1713021,0.9224158,0.43306345,-0.29774705,-1.3589034,-1.4764063,-0.5621974,0.3378882,-1.4430698,-0.19571285,0.47165155,-0.015853783,1.0233725,-0.57312554,0.3766769,1.0032725,-0.3413268,0.8492162,0.9483233,-0.27240494,-1.3499795,-0.18022652,-0.36399874,0.43118316,1.4341978,0.49635008,-0.19660237,0.34049714,0.67583287,0.67640424,-0.65343124,1.4286898,1.0761005,-1.2263758,0.29271924,1.5932945,-0.53782225,0.9498341,1.2497083,-0.6239794,-0.93509823,0.257705,1.0091585,0.741216,-1.6647339,0.28655127,1.4243404,0.7026863,1.4146821,1.6207464,-1.5709271,1.2699476,-0.11102477,0.7887706,-1.3363737,-0.28995812,1.1241348,-1.249423,1.2238201,-0.5955939,-1.4906366,0.13876754,1.3536032,-0.2839852,0.45383114,0.48576286,-0.6705481,1.5048523,-0.060127567,1.5421711,-1.3151821,0.7402887,-0.017883599,-0.44501185,-1.2803024,-0.88798285,-1.664145,0.2955228,-0.78551906,-0.6524607,0.030856032,-1.3696682,-0.057565834,0.22743084,0.26399645,-1.2308768,1.5262637,-0.99721813,1.6832403,-0.8365969,0.37321037,-1.593758,1.0103631,-0.59429634,0.7912695,0.75019467,-0.48727456,0.22241783,0.63661194,-0.30753428,-1.6979265,0.3103194,-0.14358422,-0.22602609,1.4398358,0.0705279,1.5811934,0.024079261,0.6867881,1.2525282,-0.87114424,0.7757081,-0.8249013,1.6866897,1.6897324,-0.6044765,-0.13455491,-1.1583551,-1.1210102,-1.6199597,-1.0103186,0.31002748,-0.14132659,0.4778531,1.5082995,-0.776531,-0.3631719,-0.8155758,-1.5757957,-0.8607478,-1.1253043,1.5698894,1.0004225,-1.19409,-1.1626755,0.072079904,0.8033644,1.525358,-1.6450646,0.85340947,-1.3592558,0.293182,-1.1248176,-0.8829949,0.66743165,1.5513031,-0.41988942,1.320399,-1.1806985,1.0817212,0.04601325,0.49092785,1.5363758,0.21273312,1.1274948,-1.5129372,0.12384932,1.5631901,0.9449671,1.3105719,1.4473168,1.4715961,-0.12327161,0.3502447,0.58288336,1.6253613,1.6493262,0.6991802,0.53334653,-1.3116152,1.5880629,0.92719406,0.89626414,0.67410773,0.84579325,-0.55156404,0.44709095,-1.1581565,-0.6646191,0.5516163,0.5159599,1.0568966,-0.38774654,-0.3917061,-1.0426078,0.37267584,0.44028124,0.7522717,-1.4483647,-0.17124541,0.8065988,-0.69553316,-0.54002213,-0.73465705,1.3252715,1.5740463,1.570829,-1.3766412,-0.35437936,-1.0317551,1.4281244,-0.71566457,0.58052826,-1.5707475,-0.7815753,0.5486105,0.6311942,-1.1113102,-0.9620691,1.5742267,0.0022640568,-0.52936435,-0.635733,0.53756297,-1.5830781,0.13087037,-1.431837,1.1482301,1.6913285,1.5640937,-0.6567728,-0.6640333,0.93736756,-1.2580547,-0.43040445,0.6801976,-0.41203377,0.47358048,1.415747,-1.3467593,-1.5094773,-1.4359118,-0.085909866,0.16791725,0.66289324,1.712922,0.5806833,-0.16299698,1.5251653,1.136013,-0.74893105,1.6230164,-0.8935388,0.5980601,-1.2707973,0.22514737,0.032978605,-1.0375613,1.4232534,-0.6480742,-0.9786003,0.40030548,-0.49913958,-0.40208343,-1.5992122,-1.303923,0.81921506,1.2174277,0.2519343,-0.87251866,0.048341066,1.0753524,-0.27844068,0.46421555,1.0554596,-1.6521616,-0.94581467,-1.3667063,-0.10392477,-0.779715,-1.1928096,0.3340259,0.55090624,0.81737334,-1.2574813,0.9506022,-0.29545727,-1.2114389,1.1767865,0.8516929,0.7611454,-1.1002775,1.3623294,-0.3651529,0.3534661,-1.2733401,-1.6061776,0.46611926,1.3444759,-0.06532162,0.787018,1.5408065,1.6471941,1.3030216,-0.86887157,0.15359543,-1.1460449,0.1686963,0.1161155,-0.6991148,0.29692817,0.8800669,-0.038874794,-0.5666264,0.949375,0.4066984,-1.5184107,-0.6419109,-1.6951954,-1.5334662,0.9725654,-1.3030782,-1.670027,0.01929203,-0.78998244,0.88810104,1.0524836,-1.6922684,-1.0724951,-0.04176991,-0.6027193,1.6099128,0.07422669,-1.3411151,1.3571012,0.5804867,0.47050518,-1.6936986,-1.5607177,-1.1105446,1.1822939,-0.91353774,-0.4733097,-0.06503684,-1.6901402,-1.2316262,-0.9943006,1.231708,0.2037752,-0.096964315,-1.3595747,-0.91756845,0.298159,1.4355488,0.87548286,-1.0756378,1.1182598,0.04025637,0.51487374,-0.055656236,-1.2233082,-1.3123099,-1.0255944,-0.14690875,0.9325482,1.6400846,0.20176512,-1.2529124,-0.10114397,-1.3693593,0.10851899,1.5293075,-1.5700849,1.1034805,0.40057766,-0.19707489,0.816466,-0.976529,0.8505371,-1.5876232,0.47390354,-0.21923468,-1.4954562,0.44138676,-0.9615607,-1.2888216,-0.96136975,-0.2944638,1.1823647,0.89431685,-1.2908916,1.3994662,-0.51172125,-0.46593982,-0.7538859,-0.32961085,1.0034468,-0.251071,-0.0076411455,1.3699421,-0.5789066,0.67040896,0.550713,1.6422541,1.241548,-0.6334953,1.0502018,-0.70921123,0.65857947,-0.63022023,0.22671118,-1.6790185,1.6704019,-1.6901783,-0.3742103,0.0605753,0.95111614,1.4154148,-1.3078045,0.6706073,-0.94404316,0.40352726,1.7074803,-1.0838526,1.478499,0.86655563,0.3434364,-1.6415402,0.99271715,-0.48169523,0.91327375,1.5955652,-0.18122302,-0.27376533,0.63952416,1.2895498,-1.161628,1.6752827,-0.8226294,-1.2483662,-0.39556822,-1.2129701,-0.54662377,-1.2100949,0.46075597,0.07021281,0.9230313,-0.78967124,-0.72993654,-0.7145963,-1.6660237,1.2293574,-0.6998466,1.0001235,1.4672498,-1.1331602,-0.9150161,-0.7321946,1.5988476,-1.1837399,-1.3367742,0.9361491,-0.5973277,-0.028224302,-1.251428,-0.46428567,1.4018462,-0.45011866,-1.329353,-1.0893801,-0.25499618,-0.3793844,-1.2119907,-1.0485964,1.3810997,-0.5690952,-1.5953375,1.4662992,0.44296947,1.4749604,-1.5428333,1.1403121,1.1140286,0.64507884,1.2237052,0.1509568,-0.80874854,0.0683862,0.99141854,1.2261746,-0.21405241,-1.5622156,-1.1425997,-0.027487552,0.3805256,-0.9912269,-1.3632923,0.14876406,-1.1364806,-0.2235445,0.07857435,-1.0972799,0.17351383,-1.6648519,0.4438529,0.8968452,1.054992,1.0056607,0.9321326,-0.6618226,-0.10156605,0.6412951,-1.6496432,0.5534545,-1.2726469,-0.8796095,1.3194284,1.6566148,1.4947331,-1.4058543,-0.5562257,-0.64673334,1.1351867,-0.52196044,1.4050491,-1.4816798,1.5502788,-0.16014925,0.17449732,-0.06697961,-1.1882594,1.2399306,-1.2368289,1.2795516,0.3675123,-0.86189866,1.53405,1.0712605,-0.7823573,-0.4483974,0.3767021,-0.91879094,-0.5606635,-0.47778103,-1.0025312,-1.0633706,-0.80104506,1.3926387,-1.0458076,-1.0228727,-0.7730129,0.48914963,-0.7062176,-1.1863177,1.2578136,1.0565629,1.559102,-0.3140698
FGF9,0.9130427,-1.1389055,-1.5530015,-0.5603848,-0.63206613,0.11464453,1.4069511,-1.5939529,-0.79434,1.5914825,-0.18888707,0.6815955,0.63305163,0.28881764,-0.9153218,-0.26744625,-1.5040349,1.4645518,0.82502776,-0.16350791,-0.4595752,0.36859038,-0.7800527,-0.3890905,1.6063849,0.9900003,0.74497575,0.34080207,-1.6929423,-1.6288596,-1.4336175,0.85481256,0.9479098,0.19009465,-1.5272743,-1.6322562,0.56318116,-1.5055423,1.0162357,0.69046307,0.99441266,-0.66446495,-0.48006174,1.656215,-0.91062796,-0.7444287,-0.6858653,-1.0196308,-0.5092829,0.61242926,-1.5386542,0.88169974,0.32836416,0.6619386,1.6673745,-0.7248451,-1.6133325,-0.83742934,-0.57798046,1.0704912,1.6111844,1.1941569,-1.5186609,1.4509907,-0.054223664,0.68429106,-0.30918047,-0.2400507,0.9704483,-0.7321364,-0.5704312,-1.5164412,-1.3399874,1.0964624,0.7667078,0.40861765,-0.10049751,-0.12014929,0.3716992,-1.4020822,0.4288603,1.3479512,1.2711337,-0.12967215,1.3545702,0.60985905,-0.9796587,-1.4043771,-1.5745783,-0.4338705,1.077621,0.55236846,-1.6177409,-1.1546168,1.4942571,1.6708928,-1.1991323,0.33448416,-0.7492621,-1.2639449,0.22894804,-0.9974853,-1.3109525,-1.456506,0.6513652,-1.3053176,0.9124939,1.558583,-1.335115,0.65105176,-1.4920387,-0.5756453,1.3336838,1.3639435,-1.4889632,-0.8959729,1.143965,1.0739102,0.6593035,-0.29072732,1.5600566,0.27726838,0.0074141463,0.27905095,1.5768093,0.3593435,-0.12538536,-0.6015381,0.09019065,-0.80684817,-1.0267806,-0.052538205,-1.2501012,0.12307612,1.5608628,1.4468695,0.25142244,-0.49429286,0.22175074,-1.1330992,-1.4195532,-0.8269152,-1.6213439,-1.1227525,0.10134774,0.61226946,0.80225605,-0.7864948,0.64798594,-1.4280542,1.0107902,-0.5364418,0.27420276,-1.2500674,-1.4505385,-1.1790084,-1.3881534,-0.496049,-1.0105655,0.9195795,0.9625097,-0.2351097,1.4510721,-0.16526446,0.9422184,0.94486463,-0.93801033,-0.63833857,0.13136673,-0.16923715,-0.4689692,-0.49067628,-1.2611405,-0.8973608,-0.6122416,0.97260845,0.21756476,-0.90114194,-1.3780308,-1.4052863,1.3233998,1.5173844,0.08901026,-0.63148725,0.2040475,-0.92602056,-1.5173544,1.6199871,0.3804396,-1.2569959,-0.3546454,0.6024747,0.43340734,-0.77002215,-1.1984682,-0.10963475,1.6367329,-0.054449458,1.7039279,0.19451235,1.3440021,1.3535283,-1.0100273,1.5119382,1.6491008,0.97224915,-0.35746148,-0.16303316,1.1212434,1.0494322,-1.5580577,0.9219954,1.3230196,1.5763538,-1.2549158,-0.07374186,-0.20929737,-0.2679716,1.2187855,-1.2633827,0.89171946,0.26687512,-0.37051606,1.3462914,0.9419522,0.9974093,1.286056,-0.66684544,0.9428251,-0.2881811,0.88798445,0.658281,0.5982172,-0.97191346,-1.4477496,-0.1011964,-0.67041504,1.7183347,-1.1534994,-1.0978377,1.0237887,-1.1315199,-0.2188104,-0.31770754,-1.2235298,1.0760683,0.36126113,-0.7770215,-0.06677771,1.6961666,0.71919924,-0.35791346,-1.5763656,1.2411865,-1.3074218,0.40021145,-1.3638268,1.1268901,-0.7330618,-1.2194265,-1.1845413,1.5567186,-1.011679,-0.7819939,-0.038881622,1.4290951,1.3636818,-1.5244179,-0.58236194,-0.26496378,1.510469,1.1304078,0.21484685,-0.34257346,-0.06792164,0.7986767,0.827769,-0.67577386,1.0798175,-0.45740765,0.27845347,-1.235522,-1.602482,-0.6598577,0.4652972,1.7250946,0.27825862,-0.27089033,-0.6410853,-0.9107586,0.15837564,-0.97197455,0.61480826,-1.5207531,0.245006,-0.6282315,-0.23240776,0.76275235,-0.045238864,-0.19032706,-0.5827992,-0.10989906,-0.56342506,0.84243697,1.3073713,0.48251015,-1.0045958,-0.50311744,1.5770775,-0.92623955,-1.4942179,-0.20084961,-0.93048316,1.210874,-1.2692239,1.4792315,0.76760477,-0.5769429,1.6081234,-0.92818016,0.2560213,-0.7223126,0.33776125,-0.22671007,-1.3107449,0.15159202,-0.3160018,0.47446415,-1.3269424,1.000321,0.8755019,-0.58432275,1.6722927,-0.54944515,-0.01855451,-1.3360056,0.07770073,0.74331874,1.7095464,-1.3992116,0.28617674,-1.3974218,0.10640635,-0.76795256,-0.97226614,-1.4983383,-0.79213226,1.1746399,0.718149,-0.76767117,-1.2541741,1.5983529,0.3033819,-1.4924997,-0.5376371,-1.0929636,-1.5730565,0.21255018,-0.7404812,1.5141038,-0.5979248,-1.6491514,0.5648174,1.644697,-0.8104504,-0.89159554,0.69996625,-1.3623706,0.30266064,1.3509133,-1.5402565,1.3881922,-0.09635579,1.1354951,-0.85519123,-1.4669544,-0.8373968,-0.8474317,1.1284288,-0.3415996,1.1251711,1.5593785,-0.9686592,0.024898557,0.64361554,-0.10042435,0.4760875,-0.10769584,-0.33881837,0.40067983,0.63666886,1.4314836,0.04544941,0.39549395,-1.4227151,-0.86738056,-0.69072497,1.591568,0.6209598,1.367968,0.2800627,0.2257099,-1.2265229,0.5317302,-0.79774755,0.5158189,0.51323783,-0.830161,-1.0591155,-0.78224146,1.5022284,0.49271035,1.2033173,-0.16826801,-0.036797438,-0.00061605417,-0.10156766,-0.49174482,-1.4724629,0.21017095,-0.24002305,0.12125809,1.4359009,-1.5763843,-0.8396582,-0.7501848,0.73972076,1.7142197,-0.64044976,1.08319,-0.95663786,1.5392271,-0.7495199,-1.4691627,0.54749656,-0.06261776,-0.32168862,-0.6882369,-0.500788,-1.5354933,0.4355788,-1.2800379,-0.054575257,-0.88564336,1.4577993,-1.3148516,1.6482798,-1.1440113,-0.9046565,-0.28747198,1.2053419,-1.1761434,0.20945033,-1.1486219,-1.6026063,1.3835939,-1.6583625,-1.2039489,1.5921687,1.4373311,0.35130408,1.337773,-1.468104,0.30926377,-0.046149615,-0.82924634,-0.32509193,-0.2907822,-0.98551476,1.703302,-1.6052501,-0.7365474,-1.5828719,-1.0875089,-1.2798125,-1.5886813,-1.5649127,1.6990314,0.060107518,0.50713736,-0.6151181,1.4298315,1.5072848,1.6183318,0.17741765,0.969472,0.49924093,0.99206954,0.36969066,0.8088905,-0.6798027,1.6648629,1.5790824,0.19072346,-0.12985286,0.33686996,0.052941762,0.9274456,-1.0982939,-0.08374867,1.1129603,0.053153012,1.2497396,0.30385253,1.0551713,0.30193287,1.3768473,-0.841441,0.39337802,1.2435898,1.5408059,-0.054281037,0.13493967,1.2720975,0.9739878,0.96936727,-0.10593683,-0.91817456,-0.1790155,-0.8525112,0.26096556,0.27641705,-1.2364613,1.6525733,-1.6621594,-1.3978466,0.08343755,-1.120365,-0.70770043,-1.5817558,-0.9127838,-0.08573449,0.14774348,0.5074666,-1.2724236,0.9202251,-1.4408092,0.35723004,-0.60563356,0.90037906,-1.1891308,-0.18537705,1.1308377,0.7394071,0.53500473,-0.89377457,-1.4124874,1.5071946,-1.4395359,-1.39945,-1.4974189,-0.15573055,1.1536316,0.67197514,1.3651068,0.8125124,-1.3145465,-1.603993,-0.0064440556,1.0379137,-1.2651491,0.88144094,-0.64343816,1.5795581,-0.98345953,1.6619945,-0.8162069,-0.46136293,0.7944305,-0.2553063,1.3814814,0.10395357,1.5799292,0.3846928,0.753947,-0.14196742,1.0843694,1.5247602,-1.2886181,-1.405482,0.051498495,0.2633018,-1.4299269,1.368211,-1.5061262,1.010595,-0.8628524,1.4800277,1.2657989,0.38465387,-0.5738925,-0.6029857,-0.9921609,1.6398494,-1.5748256,-1.2939411,-0.0109754875,1.5089974,1.3196853,-0.9418898,0.18065865,1.1321521,-0.18671499,-1.5666823,0.43372306,-0.6900867,-0.3403276,0.48614106,0.41287327,-0.62773836,0.23354013,-1.2672324,0.7610357,-0.17654489,1.251982,-1.513269,-1.2270445,-0.6734927,0.8849133,-1.1147943,0.45037478,1.470119,-0.07571948,1.6505909,0.19745791,-1.1755075,-0.94433373,1.6213486,-1.5573821,0.31345528,-1.3384367,0.15179917,0.4697233,1.3318745,-0.33437893,0.10079657,-1.5636638,1.5953014,-0.31625444,-1.1564316,0.97058946,-1.3949709,0.75542676,0.8504987,1.2234251,0.18128298,1.1212288,1.0242206,0.7936511,0.90972716,-0.92701674,-0.27381846,-1.553256,0.82881993,1.6029,0.23684937,-1.4168222,-1.5627277,-1.633673,1.4228512,0.5739021,-0.825609,-1.4484502,-0.9105177,-0.85942966,1.1756313,-0.31885904,0.7587571,1.430228,-0.65371156,-0.38840985,-0.15658598,0.95237666,-0.9241034,-0.13820024,-1.1018614,1.7247199,0.083416656,0.7578916,0.24870944,-1.6302711,-0.3457663,1.5938513,-1.298649,-0.44838005,0.17177753,0.58050966,-0.11689844,-0.2866399,0.69500905,0.7749205,-0.6703712,1.2059096,-1.6083494,-0.28561214,0.5173427,0.7823973,0.14800248,-0.061673608,1.0761796,1.3059739,1.2798121,1.030589,-1.27498,1.5597472,-1.4789654,-1.3162446,0.8849664,0.7267054,1.7003808,-1.1779065,0.6926063,1.6749381,-0.35127202,-0.95312065,0.80734766,-0.11836979,0.08641548,0.04122532,-0.5901815,0.06416708,-0.4462309,0.77138937,-0.395809,-0.4003111,1.3079327,0.97431934,-0.35975257,0.2551091,-0.35945836,-0.9151944,1.531395,-0.4921384,0.3269285,-0.16609345,-0.59479755,-1.451371,-0.010384985,0.19486539,0.011156942,1.0593026,-0.6797886,1.4959115,1.6707062,0.98461366,-1.2039704,1.0054823,1.7280842,0.98854595,-0.70639384,0.87132967,-1.0146394,-1.5566349,-0.7085237,0.057079595,0.5022164,0.2988439,1.1884121,1.529054,-1.2019585,0.25943032,-0.47333303,1.1907239,-0.37558946,-1.0580808,-0.8208809,-1.4228157,0.74206084,0.2372864,0.7909068,-1.5659207,0.49111876,-1.6296967,0.94718814,-1.3333689,0.44043007,-0.056461513,0.4940932,1.0510292,-0.17304449,-1.3665191,0.5680279,1.1630982,1.4120955,-0.39667568,-0.94996774,-0.84044176,1.0419576,0.5899948,-1.6847246,-1.3741593,1.6499546,1.4413753,-0.9097794,-1.6609634,-1.3403295,-0.540206,-0.36389798,1.1720208,1.13252,0.92865956,0.6763932,0.728709,-1.1917479,-1.5193686,0.97526675,0.20285748,0.8520649,-1.4659637,-0.13746917,1.1628073,-1.5481845,1.5964735,1.4029195,0.601525,-0.34378868,0.19952324,-0.17177024,0.18786989,-0.45706302,-0.66326,0.58571047,-1.2830099,-1.2079912,-1.5789655,-0.07202197,0.22777788,0.6883201,-0.678149,-1.1213263,0.8181728,1.3168057,0.8961214,-1.4101428,0.9110971,-0.36741805,1.2272841,-1.4205428,-0.79114074,-0.27924222,0.83651143,0.05996143,-0.88319284,0.9250239,0.07986666,0.9874917,-0.57522666,1.5138062,0.2687356,0.8630384,-0.25444084,-0.38917494,0.4580624,0.5301912,0.18750478,0.560186,1.0801808,0.6239457,1.2125033,-0.23782925,-1.1321285,1.2188193,1.36563,1.5775679,1.4454727,-0.4432157,-1.5119694,0.8491956,0.25695643,-0.3750723,-0.15221088,1.1254289,1.3182703,-0.22743745,-0.0012444641,1.1739204,1.0487511,-0.5314317,0.045161743,0.021959972,-0.04971272,1.5201197,0.7802408,-1.1922138,0.39874932,-0.70479524,0.28949827,0.40219584,-1.1295099,-0.61965877,-1.4735698,-0.5902901,-1.4636511,-1.2594155,1.65245,1.2338455,1.3882719,1.1012932,-1.3912972,-0.6035674,0.09618073,0.19613758,0.8706195,0.55932343,0.34427458,-1.0148588,-1.5659271,0.67169976,-0.92371184,1.4499787,-1.1251309,-0.82686996,-0.66992,0.716124,-0.50739294,-1.224386,1.6615522,0.6003723,0.41343018,0.14279899,-1.3634051,-1.6255834,0.80842334,0.19507888,-1.4727463,1.3487297,-0.18108903,1.5208378,-0.4181672,0.34065863,-0.40708345,-0.023000708,-0.56878567,1.6900184,0.889564,-1.6842312,-0.97064996,1.3746396,0.8729487,0.39992195,-0.8774818,1.3793111,-1.6347421,-0.36965695,0.19860019,1.29861,-0.9405672,-1.4197689,-0.59608144,-1.1200967,-0.008356534,0.026272167,-1.4695257,0.94394034,-0.6911075,1.6852504,-1.6405874,-1.0695988,-1.6851789,-1.1007062,0.508947,-0.8939,-0.26442263,0.5954591,-0.26050097,1.0604306,1.1208024,-0.3569109,1.6348876,0.4748469,1.5555892,0.13941762,1.1100516,-0.35114437,-0.43878075,1.5574728,1.3597255,0.18556382,1.6042806,-0.9536917,-1.011315,0.31827644,-0.3319237,-0.1753393,0.88028616,-1.5868185,-1.0612822,1.1098843,0.30603957,-0.18375961,0.020599475,-1.0378358,-0.75995266,-0.012041139,1.072807,-0.967999,-1.1092789,-1.6269361,-0.7513348,1.1713831,0.2195014,-1.5355439,-0.9713361,0.9593463,-0.17660123,-0.24052136,-0.61509866,1.1001161,-0.7357432,0.6496021,-1.016027,0.43723208,0.66159767,1.0934627,-0.5599416,0.6535767,-0.3902748,-0.81771576,1.4901484,-1.621855,1.29917,-1.0558572,0.3648822,-0.78804684
FOXL2,-1.6864351,0.36226636,0.8753826,0.5341074,-1.3802066,0.042714875,-1.2035061,0.25969416,1.2321649,-1.3093094,-1.6129695,1.453456,0.028678989,1.5086373,-1.1422764,-1.2601018,0.18673328,-1.0485927,-0.9212931,1.1013393,0.29295665,1.1203494,1.5200561,-1.6766903,-1.2887741,1.2786505,-0.89627206,1.5881411,-0.7563988,0.76355845,-1.2393919,1.6167773,0.9821888,0.61150247,-1.2250304,-1.1005927,-1.5791336,0.18401355,-1.6765153,-0.46106857,-1.5061067,-0.004963716,1.0653952,-0.31152678,-0.1132832,1.4915884,-1.5299897,-0.13586262,-0.74694365,1.3672385,1.6754138,-0.20723596,-1.4797761,1.0598384,0.31674668,-0.7344064,0.58636934,-0.353634,0.79968554,0.8793099,1.6779944,-1.3720257,1.3491073,-1.440751,0.84487665,1.0418286,1.1763577,0.6538545,-1.1002711,-0.059214603,-0.97259444,-1.7199244,0.56681454,-0.15518449,-0.7135359,-0.3179964,-0.2833982,-0.6959256,-0.4688844,-0.22114016,1.2129964,1.5723448,-1.2187972,-0.88891363,-0.7054086,-0.5277781,-0.45718455,-0.81949854,0.5732128,0.81638193,-1.530065,-0.7577125,0.74247193,-0.9509832,-0.98360133,-1.3315595,-0.02180554,-0.61567545,-1.3628097,1.3621327,0.5241662,0.19428246,1.1765594,0.4811541,0.07041589,-0.57247406,-1.0679694,-0.7843231,0.86483306,0.61616486,-1.6224058,-1.2784207,0.3787578,0.6812058,-0.74695784,0.9196629,-0.45163745,-0.38792646,0.97676665,1.694656,-0.11636916,-0.8038869,1.0011933,-1.7091023,1.1813239,0.3413852,1.0483272,1.5462952,-0.024654072,-1.0098677,-0.0895905,1.3393869,0.3238864,1.2863358,-1.1990558,-1.580716,1.352659,0.11289717,0.291659,-0.38506436,-0.2771825,-0.31627288,-0.020660162,-1.5016736,1.2739742,0.6263652,0.98040754,-0.52775097,1.457763,-1.2341644,-0.15905187,-0.7787614,0.6372545,-0.39608258,1.5078104,-1.232066,-0.27878645,-0.79383034,1.3768276,-0.43043798,1.4159875,-0.06801656,-0.33786163,0.9913389,1.2119827,-0.4178464,0.72166497,-0.95442307,-0.20704564,-0.4705143,-1.512605,1.0344759,1.2479419,1.0804545,-1.6176368,0.3934739,-1.1585419,1.5924577,1.5728649,-0.8803051,1.7183849,-0.15705676,0.55250156,-1.3572122,-0.088015325,0.38072574,0.65813774,-0.45495057,0.83038425,1.178091,0.9317586,-0.49753636,0.5444664,-0.21485694,-1.4167124,1.4080259,1.1726317,-0.63593507,-1.1342795,1.566264,0.064296015,0.80654216,-0.8339937,0.3486741,1.0074208,-1.3392158,-0.5958684,0.44564554,-1.4441952,-0.035480138,-0.74514234,-1.2006681,-1.2221211,-0.81301004,-1.4423208,0.24321833,-0.8071004,-1.2348022,-0.16948578,1.4869642,-0.5392846,0.3546394,0.6241878,-1.5984972,-1.5336784,0.50978225,1.09455,0.71913373,-1.1092867,1.4309689,-1.5213633,1.4853534,-0.70897454,0.8869987,0.85313153,-0.76455367,0.061611876,0.7733669,-1.336733,0.40101606,0.66036344,-0.65380585,0.27584815,0.97892493,0.09397136,0.6701437,-0.73283535,-0.18447796,1.7110103,1.1205283,-1.1430912,-0.7781259,0.030574512,1.4259373,-1.3426414,0.3976297,-1.2399591,-1.0377107,-1.565917,0.4880799,1.3244227,1.1416181,1.6519338,-0.7706077,-0.23422572,1.569741,-0.33936647,-0.38958868,0.43875903,-0.015642468,0.7265352,-0.9492601,-0.63451934,-0.00021719294,0.4456632,-0.71360546,-1.0905085,0.5571785,-0.65383625,-0.33076903,0.46121192,-0.5177561,1.6234758,-1.6501802,-0.7672358,0.45153227,-0.104799956,1.4307395,0.96877784,0.41469723,1.6270047,1.4080713,-1.4557306,-1.2557551,-1.3141831,-0.022111278,-0.111456394,0.9849502,-1.6181945,-0.29958948,-0.8876979,-0.046528816,0.35954872,0.29877013,0.65224993,-1.1106361,1.4465228,1.5497679,0.911414,0.5909704,-0.14101404,-0.42746004,-0.9365585,-1.2202033,1.0382652,-0.5774341,-1.0392089,-0.23829576,0.6408118,-0.63817376,-1.6028281,0.8605517,-0.6976236,0.3936465,-1.2741188,-0.86627805,0.52366525,1.1893169,-0.35933313,0.90893537,0.856527,-1.1168188,-1.3219962,-1.089982,0.50264144,-0.3259976,-1.0853844,1.5031306,1.3683071,-1.0504931,1.4554639,-1.5527804,1.6807193,-0.12394817,-0.87927264,-0.1189457,-0.80616033,-0.5760787,-0.50996846,0.9553643,-1.6004757,-0.7583777,-1.5496097,-0.99146736,-0.6186678,-0.66272813,-1.6240788,-1.0716937,0.23630163,-0.7473878,0.6314687,-1.6171695,0.32099837,1.0336682,-0.85922533,-0.025685262,-0.9192395,-0.2677888,-0.30918995,-1.1805843,-1.3881522,0.38646582,-0.6743103,0.028122451,0.99854016,1.3718251,0.57532686,-0.07651462,0.9072744,0.24848641,0.9412945,0.32534063,0.77769685,1.2024846,-0.47269315,0.5893135,1.1646327,0.78883046,1.3228853,1.4612908,1.409434,0.5833597,-0.96204054,1.441156,0.09899152,-0.7116506,-1.723871,0.30526754,0.40287763,-1.0896131,-1.128336,1.560181,-1.2166647,-0.99398094,-1.1600326,-0.9889398,0.42796284,-0.11303507,0.3646571,-0.23354964,-0.8505639,1.632597,-0.31571162,0.948314,1.3241148,1.0649328,1.5338365,-0.18894282,-1.082301,-1.2439824,-1.0628364,1.3056902,0.51944375,-0.5280122,-1.5263292,-1.6919761,0.45056385,0.09626335,0.20469868,-0.7718437,-0.8557156,-0.51830995,0.7976289,-1.485974,-0.127266,1.6981173,1.4669122,1.3341286,-0.864993,1.3464903,-0.7133701,0.2558887,0.67649466,0.40878293,-1.0956516,-0.34031266,-1.4099214,1.2195666,-0.23118544,0.49553874,-1.4838932,1.5994468,1.1329029,0.13399811,1.6729198,-0.3576952,1.4030468,-0.93646985,-0.6354987,-1.4611923,-0.10004479,-1.7057697,-1.472058,0.6660716,-1.1230218,-0.41909036,0.64492524,-0.29270342,-0.32126135,1.3279094,1.6048226,-0.120673746,-0.5862231,-0.22164384,-1.3011345,-1.3098295,-0.938532,0.31209147,1.5870366,1.3042879,0.90987855,0.6618854,1.3818237,-0.57602066,-0.5118761,1.0444669,-1.6713259,1.33038,0.34228694,0.94098073,1.3589749,1.1789266,1.5883058,-1.2074608,-0.45586985,0.19883104,-1.636482,1.1935204,1.3971589,-0.44255364,0.93586487,0.6474028,-0.8371763,0.0179953,-0.8797667,-0.8752318,1.5257341,-1.453525,0.13380677,1.446389,-0.43806162,1.5382988,0.93665206,-0.204386,1.4101722,-0.39761785,-1.0554862,-0.14694238,0.7469232,-1.409598,-0.84729975,-1.2995486,1.265678,-1.5305028,1.4408617,1.1983694,0.09057966,0.3186488,-0.030631565,0.5565045,1.4653417,1.5215461,1.6909282,0.8764087,-1.5686684,-0.508676,-0.5898827,0.9770455,-0.4371144,-1.479707,0.6463325,0.42607695,-1.0649831,-0.60254157,0.74231374,-0.87682146,0.74640024,-1.4992465,0.3976542,-0.50753963,-1.1803763,1.5654589,1.1288195,0.7238657,-0.34982568,-0.23971806,1.1152674,0.23170282,1.6205555,1.4826471,1.2183958,-0.6144864,1.1684407,-1.5472891,0.97604984,0.21353848,-0.24215758,-1.0251374,-1.1246129,1.2409499,0.6231461,0.008153724,-1.6677772,-1.2319801,-0.5262698,0.31316608,0.20519967,0.5514566,0.8095234,-1.0923268,1.203481,-1.5765786,-0.8023389,-1.2874367,-1.3479725,-0.5277026,1.2707996,-0.119151235,0.54309493,1.6346874,0.24437237,0.21698901,1.2877055,0.5371567,-1.6957855,-1.3845079,-0.7632501,0.92217624,1.5662048,0.83099735,-0.9845035,-0.7856026,1.6949838,1.2369721,-1.1323459,-1.2245278,0.5651156,0.5097668,-0.71980906,0.38921416,-1.0283484,1.3948541,0.07786877,0.05358332,0.0958895,-0.026573256,0.67389345,0.14485112,-1.3029586,0.36207852,0.75119776,1.556009,0.34071505,-0.05372349,-0.70259047,-0.7565395,-1.2471523,-0.12880847,1.4218636,-0.75755984,1.0606921,0.66817516,-0.2247549,-1.6128767,-0.2912686,0.46581012,-0.35616177,-1.2539085,1.6954616,0.5737142,1.633565,-0.6369662,-1.5699115,1.0324725,-0.6407898,-0.42101693,-0.45120788,-0.4771967,1.5548668,-1.5082823,-0.95742595,1.0734632,1.5772284,0.15124299,1.3436495,1.0826707,0.35242295,0.06791425,0.99968594,-1.5957803,1.7178109,1.7127773,0.954838,-1.5507104,-0.8368667,1.5495371,1.4457965,-1.4960765,-0.724887,0.70520073,-1.0418035,0.17304654,0.04350246,0.8581067,-1.3857276,-0.38894778,1.5465475,0.8211519,1.3218689,1.4426512,-0.9992353,0.29063296,0.5857852,-1.6850177,0.6434193,-0.88072973,-0.7661178,-1.3785437,1.4778014,1.0007722,0.53327084,-1.2358402,-1.2172827,1.0616461,0.3960313,-0.69403255,1.0959107,1.0417958,0.8958303,-0.31382537,-0.35330173,-0.9143848,0.5310673,-0.6128738,-0.003041652,0.8598709,0.45453244,0.7514856,-1.2732698,-1.1935878,-0.19036987,-1.4211022,0.32182053,1.6366097,0.21319798,-1.4469441,0.3230916,0.9108287,0.15513526,-1.0570301,-0.25232527,0.096044436,-0.28691462,-0.2167963,-1.6690891,0.83118373,0.7736023,0.6145205,-0.6206851,-0.68989193,-1.1186182,-0.87395644,1.0424691,-1.361335,0.24039677,-0.55377764,-0.8968348,-0.4781254,-1.6411263,-1.0871918,-0.9066206,-0.69651896,-0.7453292,1.4307812,-0.32037193,-0.44081366,-0.5907166,1.0020822,0.44295645,-0.062145226,1.4332213,-0.25439277,-1.4099249,-1.5851187,-0.14638418,-0.52995384,-0.26624635,1.4503326,-0.922267,-0.83932304,1.1247591,0.7260459,-0.35329926,1.6814885,-0.12343339,1.2807713,1.3839264,-0.26129037,-1.6865907,-1.4002419,-0.7183795,1.1894183,0.87734914,0.7321063,-1.330439,1.1782197,-0.5822944,-1.360598,0.8028474,1.1297269,0.87280506,-1.6726876,-1.2727206,1.7015216,-0.17604634,-0.5889192,-1.34295,-0.64766395,0.73362243,-1.0517675,0.733915,-1.1518711,-0.2505291,-0.17578608,1.2523314,-1.0318,-1.3397286,0.39635617,0.27587387,-1.6455046,-0.37562644,-1.0535201,1.4781612,0.3605062,0.625562,1.5236173,-1.6079175,1.5206895,-0.3369356,0.094664924,0.15698963,-0.17071427,0.4879976,-0.05974481,0.9877977,0.1416559,1.6027151,-0.2338632,-0.9658962,-0.5294897,-0.890308,1.1932025,-0.15082456,-0.87904453,-0.16774641,1.0404189,1.5166467,-0.70158726,0.7579077,0.9582791,-0.16788776,-0.5836018,-0.03732093,0.3385525,0.47888047,-1.4293808,1.3136264,0.85699195,1.2089492,-1.3500153,1.4921654,-0.41351405,1.197516,-0.3577429,0.3377723,-0.72488904,1.1645011,-1.1024581,-0.9977084,-1.4332283,-1.497522,-0.43053055,1.3097454,0.5814035,0.21272434,0.5787389,-0.9380285,-0.7053032,-0.3296183,1.4155078,0.51580846,1.0470362,-0.3175742,1.4633483,-1.3615907,-1.0295205,-0.59516,1.1674769,-0.2135124,0.105466716,0.5530423,0.19920428,1.0311806,-1.4122769,1.0675497,0.52693063,-1.248553,0.59058934,-1.6869974,-0.92147124,0.874759,0.6794002,-0.20881937,-1.402112,0.99887574,0.2685467,1.0608984,0.85896295,-1.3501548,-1.688829,1.0680231,-1.5585502,-0.28489748,-0.7471765,1.0161333,-1.6862898,-0.43471438,-0.19732031,1.1454688,-0.75438005,1.5065161,-0.94904554,0.040104184,-0.16791327,-1.392785,-0.6489935,1.5650984,1.5981153,-1.0995115,-1.1547908,-0.82144964,-1.6588812,-0.31523943,-0.5526318,-0.87683624,0.40118682,-0.12794022,0.999215,-1.6786076,-1.1276807,-1.4870952,1.4475447,1.1866878,-1.362624,-0.6417955,-1.029013,-0.08494151,1.0320413,1.0399368,-0.8327534,1.7017728,-1.1209894,0.4056731,1.4139107,0.712174,-1.0144892,-1.3539993,-0.36591735,-0.8376944,0.21730421,-0.24303178,0.7556143,0.60677606,0.78393584,-0.0451744,-1.3675991,0.92869216,1.6950175,0.5809605,1.0156536,-1.140731,0.6635324,1.3910908,1.4186845,-0.91541743,-0.7802252,1.6806586,-1.070739,0.3365942,-0.053432774,-0.37640786,0.4778978,-1.5081172,-1.1635257,-0.4128752,1.2966422,1.5767502,0.7043788,1.3743241,-1.7075286,0.5610591,-1.5513201,-1.4436678,0.22962399,-0.76805526,1.2562641,1.6823553,-1.5130354,0.8473285,-1.1598868,0.5848211,0.6920304,0.61348337,-1.7037989,0.7615125,-0.6528176,-0.04837681,1.3400489,-0.8781493,-0.8715881,-0.16430514,0.44952074,0.5280396,-1.5208942,0.16116111,-1.1206479,-1.5096222,-0.5434906,-0.44500014,0.709216,0.9772699,1.5954251,-0.5081359,1.4493028,0.6277277,-1.1508865,0.9522265,1.0856512,-0.4811558,1.6259748,0.33698758,-0.25268283,-0.4336764,0.09370739,-0.45869532,0.20783278,1.2747098,0.18005338,-0.2981367,-0.11494809,1.1657006,-1.2869346,-0.6145747,1.0481551
