,0,1,2,3,4,5,6,7,8,9,10,11,12,13,14,15,16,17,18,19,20,21,22,23,24,25,26,27,28,29,30,31,32,33,34,35,36,37,38,39,40,41,42,43,44,45,46,47,48,49,50,51,52,53,54,55,56,57,58,59,60,61,62,63,64,65,66,67,68,69,70,71,72,73,74,75,76,77,78,79,80,81,82,83,84,85,86,87,88,89,90,91,92,93,94,95,96,97,98,99,100,101,102,103,104,105,106,107,108,109,110,111,112,113,114,115,116,117,118,119,120,121,122,123,124,125,126,127,128,129,130,131,132,133,134,135,136,137,138,139,140,141,142,143,144,145,146,147,148,149,150,151,152,153,154,155,156,157,158,159,160,161,162,163,164,165,166,167,168,169,170,171,172,173,174,175,176,177,178,179,180,181,182,183,184,185,186,187,188,189,190,191,192,193,194,195,196,197,198,199,200,201,202,203,204,205,206,207,208,209,210,211,212,213,214,215,216,217,218,219,220,221,222,223,224,225,226,227,228,229,230,231,232,233,234,235,236,237,238,239,240,241,242,243,244,245,246,247,248,249,250,251,252,253,254,255,256,257,258,259,260,261,262,263,264,265,266,267,268,269,270,271,272,273,274,275,276,277,278,279,280,281,282,283,284,285,286,287,288,289,290,291,292,293,294,295,296,297,298,299,300,301,302,303,304,305,306,307,308,309,310,311,312,313,314,315,316,317,318,319,320,321,322,323,324,325,326,327,328,329,330,331,332,333,334,335,336,337,338,339,340,341,342,343,344,345,346,347,348,349,350,351,352,353,354,355,356,357,358,359,360,361,362,363,364,365,366,367,368,369,370,371,372,373,374,375,376,377,378,379,380,381,382,383,384,385,386,387,388,389,390,391,392,393,394,395,396,397,398,399,400,401,402,403,404,405,406,407,408,409,410,411,412,413,414,415,416,417,418,419,420,421,422,423,424,425,426,427,428,429,430,431,432,433,434,435,436,437,438,439,440,441,442,443,444,445,446,447,448,449,450,451,452,453,454,455,456,457,458,459,460,461,462,463,464,465,466,467,468,469,470,471,472,473,474,475,476,477,478,479,480,481,482,483,484,485,486,487,488,489,490,491,492,493,494,495,496,497,498,499,500,501,502,503,504,505,506,507,508,509,510,511
Dbx1,-0.725492,1.1566716,1.0983769,-0.90435725,1.0411184,1.9477615,0.72113615,1.5873798,0.1268829,-1.7917696,-0.70944667,1.1417601,1.4407856,1.1101189,1.376678,1.6201617,-0.92927426,1.459437,1.8521945,0.4923775,1.0238361,1.6597036,0.21995202,-1.4732587,0.71377975,0.85822827,1.5823013,-0.9432396,0.20561169,-0.6897577,1.6220051,-1.625814,-0.11928106,-1.3222861,1.8402162,-1.0219182,0.59533954,-1.8430122,1.2692813,-1.1707921,0.41484466,0.12340338,0.9318105,1.2671441,0.9120869,-1.3405036,-0.7339636,1.0870169,-0.4578841,0.97615206,-1.2262329,1.6529869,0.6974714,-1.1331117,-0.18056239,-0.9163861,0.46982688,-1.2059542,-1.773723,-0.14535661,-1.723592,0.45806614,0.10638188,1.650869,-1.0599287,-1.2086841,-0.61762065,-0.8520335,1.7386568,-1.620689,0.9895403,1.1359602,0.9534705,0.96773547,-1.1008401,0.58948994,0.20402633,-1.680984,0.20704181,-0.3594766,-0.59099853,-1.2734392,-1.2561829,-2.012766,-0.5021647,-1.6078389,0.45902452,-1.8621681,-1.3016971,-0.6087564,1.649647,-1.7073565,1.002169,-1.5185758,0.08041425,-0.5536432,1.4019293,-1.2271395,-1.376301,1.5289314,0.73183686,-0.28556442,1.2142977,1.1217111,0.9692097,-0.24246204,-1.3967772,-0.3403256,-1.319906,-1.1611851,1.2925918,-0.5449269,-1.0151947,0.06539393,-1.04696,0.75264615,1.6287173,0.3880217,1.4105766,1.1625882,-1.684486,0.80850524,-1.237278,0.68147004,-1.2171831,0.27072215,-1.2208029,0.55060905,-1.0914434,-1.4851604,-1.757231,-1.4294547,-0.3045067,-1.4067445,-2.262207,-0.37527367,0.6540342,0.90478176,-1.4450288,0.39136225,0.464566,1.0660089,-0.2823763,-1.5443854,1.4516022,-0.541407,0.96370316,1.1364162,1.43401,-0.5576166,-1.7201018,-0.33806816,0.8372335,0.6945291,-0.31012234,1.3199937,-1.7591339,0.5528096,-1.4532703,-1.2697955,0.7184555,1.1440796,-0.22124383,1.277971,-1.4375497,-0.11151921,-1.0869685,0.65739447,0.017082367,0.3527588,0.6447307,0.88888514,-1.7304122,-0.25900233,-1.0470395,1.2581791,-0.6000182,-1.2193316,-1.755008,-1.1013798,1.668208,0.81218547,0.11871176,-0.67648494,1.200172,-1.755482,-1.170588,-0.08883221,-0.30848408,0.38181198,-0.14937542,1.4365304,0.2699402,-0.35713786,1.3871634,1.2505592,1.3171983,0.97486943,0.20513782,1.5304712,-0.18996662,-0.25754845,-0.07291002,0.46672595,0.33828104,-0.5293353,-0.017331323,1.3415701,0.2606301,0.0623351,-1.2996765,-0.90765095,0.32300454,-0.339991,-0.37728697,-0.31261164,-0.33561885,-0.20882058,1.0495447,-0.47131205,0.80928224,-0.83986354,0.54885507,0.9955968,-1.9434657,0.7156959,-1.5954261,1.1875008,-0.79711705,-0.49205074,-2.1281989,-1.9810493,0.028383017,1.6753151,-1.111612,-1.0839516,0.53517926,0.13912326,-1.9413804,0.5605835,-0.600676,-1.02816,-0.92803013,1.0826894,-0.6674181,1.2466295,0.0075560636,1.789053,-0.79189783,1.3128703,-0.4810727,0.7803342,-1.4622021,-2.0436797,0.9325529,1.2939732,-1.5461451,1.0205615,-0.74808395,-1.3155249,-0.12899263,-0.42518443,-1.3604912,-0.73364204,-0.2801107,-1.1943415,0.42363164,-0.10154293,-1.1873728,1.5865306,1.1732346,1.7214698,-0.6607069,0.011342374,0.99071115,0.7495777,1.9231645,0.8677001,0.14727116,-0.8096195,-0.58925116,-0.9824903,-0.5545041,1.2370572,-0.28277928,-1.029935,-0.49354762,1.6407133,0.42111492,-1.873496,1.0755377,0.45811984,-0.9946145,-1.37124,-0.055363797,-0.7603113,-1.7171454,1.1663285,-1.6153655,0.9720618,0.5122678,1.4128454,0.10950252,1.1935481,-0.060544863,0.79656464,1.3912233,1.4138452,-1.5984558,1.4295186,-0.652074,-0.7732618,1.6550097,0.23123048,1.7869958,-1.0726047,-0.5094647,-1.5670211,-0.23490949,0.86831427,1.0018462,-0.689783,-0.13768849,-1.5474596,0.8851702,1.5211086,0.57312113,0.012010397,0.16122507,-1.9828466,0.514602,0.7853456,1.1191556,0.4332581,-0.34330145,-1.0513698,-1.4446938,0.22146152,-1.1052241,1.6879388,0.4192807,-1.343572,0.70360714,0.26715282,-0.23386751,-0.19825953,-0.43120077,-0.8417764,0.021499792,1.7733276,-0.80372727,-0.6821973,1.0431355,-1.2384531,1.9972833,0.6715074,-0.26089227,1.1144294,1.034742,1.1323876,0.37025908,0.7300039,-0.4891813,-1.6614442,-1.5309999,-0.6412878,1.7280794,0.12670173,-0.8885373,-0.061361976,-1.7759719,-1.599257,0.6748085,1.1486647,-1.2745162,-0.23235555,-0.079961844,-1.0215206,0.5252451,-1.7550393,0.77930874,1.5133722,1.2880791,-1.1166916,-0.8655677,0.107934915,-1.1218758,0.7554899,-0.053342745,-1.4433094,0.4252567,-0.1008113,-1.248256,0.5352383,-1.6426665,0.92082894,1.0117607,0.33354467,-0.9961385,-1.3786212,0.3924401,0.76865035,1.048331,-0.8982784,1.905379,1.1905916,-1.775908,0.81333095,1.4107671,-1.5512542,0.61009485,2.0981832,-1.0394093,-1.2691225,-1.112153,-1.9846069,-0.58844084,1.0398972,-0.384744,-1.2084737,-0.1529638,1.8468497,-1.0430467,-0.88100594,0.26857895,-1.0490049,1.2426933,-0.28053877,0.55401903,1.414058,0.61928684,0.70910627,-0.67105067,-1.6275339,0.5391158,0.22201149,1.8963745,1.7818961,0.74992657,-0.78277636,-1.4459705,1.1268528,1.7169386,1.1199498,-0.13763079,-0.42284185,-1.0223731,0.5572218,1.472122,1.5444778,0.86694133,-0.48863605,0.74260944,-0.40354934,0.3871763,-1.996082,0.844218,-0.42173526,1.1841571,1.2896366,1.7748963,-0.07719672,1.3716316,0.49818578,0.19894168,-0.13787113,0.13065624,-1.6334733,1.2962376,1.3442708,0.57967997,-1.646582,1.2010832,1.1381246,-0.8586103,-1.2179327,-1.0011767,-0.2225369,0.45430553,0.8479579,-1.6387997,-0.9395316,0.1933882,0.74712247,0.35589632,0.51181203,-0.5619391,1.0134768,1.0173086,-0.5155944,-0.8472794,0.58068174,0.7452918,-1.103406,0.023761662,-0.090091914,-1.675239,-1.348811,1.9441406,1.0746362,0.86382,0.61371875,-0.059631526,1.6874954,-1.1667551,-0.7358085,1.5394351,-0.23380049,-0.79897624,1.3895926,-0.20777564,-0.5842094
Dbx2,-0.725492,1.1566716,1.0983769,-0.90435725,1.0411184,1.9477615,0.72113615,1.5873798,0.1268829,-1.7917696,-0.70944667,1.1417601,1.4407856,1.1101189,1.376678,1.6201617,-0.92927426,1.459437,1.8521945,0.4923775,1.0238361,1.6597036,0.21995202,-1.4732587,0.71377975,0.85822827,1.5823013,-0.9432396,0.20561169,-0.6897577,1.6220051,-1.625814,-0.11928106,-1.3222861,1.8402162,-1.0219182,0.59533954,-1.8430122,1.2692813,-1.1707921,0.41484466,0.12340338,0.9318105,1.2671441,0.9120869,-1.3405036,-0.7339636,1.0870169,-0.4578841,0.97615206,-1.2262329,1.6529869,0.6974714,-1.1331117,-0.18056239,-0.9163861,0.46982688,-1.2059542,-1.773723,-0.14535661,-1.723592,0.45806614,0.10638188,1.650869,-1.0599287,-1.2086841,-0.61762065,-0.8520335,1.7386568,-1.620689,0.9895403,1.1359602,0.9534705,0.96773547,-1.1008401,0.58948994,0.20402633,-1.680984,0.20704181,-0.3594766,-0.59099853,-1.2734392,-1.2561829,-2.012766,-0.5021647,-1.6078389,0.45902452,-1.8621681,-1.3016971,-0.6087564,1.649647,-1.7073565,1.002169,-1.5185758,0.08041425,-0.5536432,1.4019293,-1.2271395,-1.376301,1.5289314,0.73183686,-0.28556442,1.2142977,1.1217111,0.9692097,-0.24246204,-1.3967772,-0.3403256,-1.319906,-1.1611851,1.2925918,-0.5449269,-1.0151947,0.06539393,-1.04696,0.75264615,1.6287173,0.3880217,1.4105766,1.1625882,-1.684486,0.80850524,-1.237278,0.68147004,-1.2171831,0.27072215,-1.2208029,0.55060905,-1.0914434,-1.4851604,-1.757231,-1.4294547,-0.3045067,-1.4067445,-2.262207,-0.37527367,0.6540342,0.90478176,-1.4450288,0.39136225,0.464566,1.0660089,-0.2823763,-1.5443854,1.4516022,-0.541407,0.96370316,1.1364162,1.43401,-0.5576166,-1.7201018,-0.33806816,0.8372335,0.6945291,-0.31012234,1.3199937,-1.7591339,0.5528096,-1.4532703,-1.2697955,0.7184555,1.1440796,-0.22124383,1.277971,-1.4375497,-0.11151921,-1.0869685,0.65739447,0.017082367,0.3527588,0.6447307,0.88888514,-1.7304122,-0.25900233,-1.0470395,1.2581791,-0.6000182,-1.2193316,-1.755008,-1.1013798,1.668208,0.81218547,0.11871176,-0.67648494,1.200172,-1.755482,-1.170588,-0.08883221,-0.30848408,0.38181198,-0.14937542,1.4365304,0.2699402,-0.35713786,1.3871634,1.2505592,1.3171983,0.97486943,0.20513782,1.5304712,-0.18996662,-0.25754845,-0.07291002,0.46672595,0.33828104,-0.5293353,-0.017331323,1.3415701,0.2606301,0.0623351,-1.2996765,-0.90765095,0.32300454,-0.339991,-0.37728697,-0.31261164,-0.33561885,-0.20882058,1.0495447,-0.47131205,0.80928224,-0.83986354,0.54885507,0.9955968,-1.9434657,0.7156959,-1.5954261,1.1875008,-0.79711705,-0.49205074,-2.1281989,-1.9810493,0.028383017,1.6753151,-1.111612,-1.0839516,0.53517926,0.13912326,-1.9413804,0.5605835,-0.600676,-1.02816,-0.92803013,1.0826894,-0.6674181,1.2466295,0.0075560636,1.789053,-0.79189783,1.3128703,-0.4810727,0.7803342,-1.4622021,-2.0436797,0.9325529,1.2939732,-1.5461451,1.0205615,-0.74808395,-1.3155249,-0.12899263,-0.42518443,-1.3604912,-0.73364204,-0.2801107,-1.1943415,0.42363164,-0.10154293,-1.1873728,1.5865306,1.1732346,1.7214698,-0.6607069,0.011342374,0.99071115,0.7495777,1.9231645,0.8677001,0.14727116,-0.8096195,-0.58925116,-0.9824903,-0.5545041,1.2370572,-0.28277928,-1.029935,-0.49354762,1.6407133,0.42111492,-1.873496,1.0755377,0.45811984,-0.9946145,-1.37124,-0.055363797,-0.7603113,-1.7171454,1.1663285,-1.6153655,0.9720618,0.5122678,1.4128454,0.10950252,1.1935481,-0.060544863,0.79656464,1.3912233,1.4138452,-1.5984558,1.4295186,-0.652074,-0.7732618,1.6550097,0.23123048,1.7869958,-1.0726047,-0.5094647,-1.5670211,-0.23490949,0.86831427,1.0018462,-0.689783,-0.13768849,-1.5474596,0.8851702,1.5211086,0.57312113,0.012010397,0.16122507,-1.9828466,0.514602,0.7853456,1.1191556,0.4332581,-0.34330145,-1.0513698,-1.4446938,0.22146152,-1.1052241,1.6879388,0.4192807,-1.343572,0.70360714,0.26715282,-0.23386751,-0.19825953,-0.43120077,-0.8417764,0.021499792,1.7733276,-0.80372727,-0.6821973,1.0431355,-1.2384531,1.9972833,0.6715074,-0.26089227,1.1144294,1.034742,1.1323876,0.37025908,0.7300039,-0.4891813,-1.6614442,-1.5309999,-0.6412878,1.7280794,0.12670173,-0.8885373,-0.061361976,-1.7759719,-1.599257,0.6748085,1.1486647,-1.2745162,-0.23235555,-0.079961844,-1.0215206,0.5252451,-1.7550393,0.77930874,1.5133722,1.2880791,-1.1166916,-0.8655677,0.107934915,-1.1218758,0.7554899,-0.053342745,-1.4433094,0.4252567,-0.1008113,-1.248256,0.5352383,-1.6426665,0.92082894,1.0117607,0.33354467,-0.9961385,-1.3786212,0.3924401,0.76865035,1.048331,-0.8982784,1.905379,1.1905916,-1.775908,0.81333095,1.4107671,-1.5512542,0.61009485,2.0981832,-1.0394093,-1.2691225,-1.112153,-1.9846069,-0.58844084,1.0398972,-0.384744,-1.2084737,-0.1529638,1.8468497,-1.0430467,-0.88100594,0.26857895,-1.0490049,1.2426933,-0.28053877,0.55401903,1.414058,0.61928684,0.70910627,-0.67105067,-1.6275339,0.5391158,0.22201149,1.8963745,1.7818961,0.74992657,-0.78277636,-1.4459705,1.1268528,1.7169386,1.1199498,-0.13763079,-0.42284185,-1.0223731,0.5572218,1.472122,1.5444778,0.86694133,-0.48863605,0.74260944,-0.40354934,0.3871763,-1.996082,0.844218,-0.42173526,1.1841571,1.2896366,1.7748963,-0.07719672,1.3716316,0.49818578,0.19894168,-0.13787113,0.13065624,-1.6334733,1.2962376,1.3442708,0.57967997,-1.646582,1.2010832,1.1381246,-0.8586103,-1.2179327,-1.0011767,-0.2225369,0.45430553,0.8479579,-1.6387997,-0.9395316,0.1933882,0.74712247,0.35589632,0.51181203,-0.5619391,1.0134768,1.0173086,-0.5155944,-0.8472794,0.58068174,0.7452918,-1.103406,0.023761662,-0.090091914,-1.675239,-1.348811,1.9441406,1.0746362,0.86382,0.61371875,-0.059631526,1.6874954,-1.1667551,-0.7358085,1.5394351,-0.23380049,-0.79897624,1.3895926,-0.20777564,-0.5842094
Irx3,-0.725492,1.1566716,1.0983769,-0.90435725,1.0411184,1.9477615,0.72113615,1.5873798,0.1268829,-1.7917696,-0.70944667,1.1417601,1.4407856,1.1101189,1.376678,1.6201617,-0.92927426,1.459437,1.8521945,0.4923775,1.0238361,1.6597036,0.21995202,-1.4732587,0.71377975,0.85822827,1.5823013,-0.9432396,0.20561169,-0.6897577,1.6220051,-1.625814,-0.11928106,-1.3222861,1.8402162,-1.0219182,0.59533954,-1.8430122,1.2692813,-1.1707921,0.41484466,0.12340338,0.9318105,1.2671441,0.9120869,-1.3405036,-0.7339636,1.0870169,-0.4578841,0.97615206,-1.2262329,1.6529869,0.6974714,-1.1331117,-0.18056239,-0.9163861,0.46982688,-1.2059542,-1.773723,-0.14535661,-1.723592,0.45806614,0.10638188,1.650869,-1.0599287,-1.2086841,-0.61762065,-0.8520335,1.7386568,-1.620689,0.9895403,1.1359602,0.9534705,0.96773547,-1.1008401,0.58948994,0.20402633,-1.680984,0.20704181,-0.3594766,-0.59099853,-1.2734392,-1.2561829,-2.012766,-0.5021647,-1.6078389,0.45902452,-1.8621681,-1.3016971,-0.6087564,1.649647,-1.7073565,1.002169,-1.5185758,0.08041425,-0.5536432,1.4019293,-1.2271395,-1.376301,1.5289314,0.73183686,-0.28556442,1.2142977,1.1217111,0.9692097,-0.24246204,-1.3967772,-0.3403256,-1.319906,-1.1611851,1.2925918,-0.5449269,-1.0151947,0.06539393,-1.04696,0.75264615,1.6287173,0.3880217,1.4105766,1.1625882,-1.684486,0.80850524,-1.237278,0.68147004,-1.2171831,0.27072215,-1.2208029,0.55060905,-1.0914434,-1.4851604,-1.757231,-1.4294547,-0.3045067,-1.4067445,-2.262207,-0.37527367,0.6540342,0.90478176,-1.4450288,0.39136225,0.464566,1.0660089,-0.2823763,-1.5443854,1.4516022,-0.541407,0.96370316,1.1364162,1.43401,-0.5576166,-1.7201018,-0.33806816,0.8372335,0.6945291,-0.31012234,1.3199937,-1.7591339,0.5528096,-1.4532703,-1.2697955,0.7184555,1.1440796,-0.22124383,1.277971,-1.4375497,-0.11151921,-1.0869685,0.65739447,0.017082367,0.3527588,0.6447307,0.88888514,-1.7304122,-0.25900233,-1.0470395,1.2581791,-0.6000182,-1.2193316,-1.755008,-1.1013798,1.668208,0.81218547,0.11871176,-0.67648494,1.200172,-1.755482,-1.170588,-0.08883221,-0.30848408,0.38181198,-0.14937542,1.4365304,0.2699402,-0.35713786,1.3871634,1.2505592,1.3171983,0.97486943,0.20513782,1.5304712,-0.18996662,-0.25754845,-0.07291002,0.46672595,0.33828104,-0.5293353,-0.017331323,1.3415701,0.2606301,0.0623351,-1.2996765,-0.90765095,0.32300454,-0.339991,-0.37728697,-0.31261164,-0.33561885,-0.20882058,1.0495447,-0.47131205,0.80928224,-0.83986354,0.54885507,0.9955968,-1.9434657,0.7156959,-1.5954261,1.1875008,-0.79711705,-0.49205074,-2.1281989,-1.9810493,0.028383017,1.6753151,-1.111612,-1.0839516,0.53517926,0.13912326,-1.9413804,0.5605835,-0.600676,-1.02816,-0.92803013,1.0826894,-0.6674181,1.2466295,0.0075560636,1.789053,-0.79189783,1.3128703,-0.4810727,0.7803342,-1.4622021,-2.0436797,0.9325529,1.2939732,-1.5461451,1.0205615,-0.74808395,-1.3155249,-0.12899263,-0.42518443,-1.3604912,-0.73364204,-0.2801107,-1.1943415,0.42363164,-0.10154293,-1.1873728,1.5865306,1.1732346,1.7214698,-0.6607069,0.011342374,0.99071115,0.7495777,1.9231645,0.8677001,0.14727116,-0.8096195,-0.58925116,-0.9824903,-0.5545041,1.2370572,-0.28277928,-1.029935,-0.49354762,1.6407133,0.42111492,-1.873496,1.0755377,0.45811984,-0.9946145,-1.37124,-0.055363797,-0.7603113,-1.7171454,1.1663285,-1.6153655,0.9720618,0.5122678,1.4128454,0.10950252,1.1935481,-0.060544863,0.79656464,1.3912233,1.4138452,-1.5984558,1.4295186,-0.652074,-0.7732618,1.6550097,0.23123048,1.7869958,-1.0726047,-0.5094647,-1.5670211,-0.23490949,0.86831427,1.0018462,-0.689783,-0.13768849,-1.5474596,0.8851702,1.5211086,0.57312113,0.012010397,0.16122507,-1.9828466,0.514602,0.7853456,1.1191556,0.4332581,-0.34330145,-1.0513698,-1.4446938,0.22146152,-1.1052241,1.6879388,0.4192807,-1.343572,0.70360714,0.26715282,-0.23386751,-0.19825953,-0.43120077,-0.8417764,0.021499792,1.7733276,-0.80372727,-0.6821973,1.0431355,-1.2384531,1.9972833,0.6715074,-0.26089227,1.1144294,1.034742,1.1323876,0.37025908,0.7300039,-0.4891813,-1.6614442,-1.5309999,-0.6412878,1.7280794,0.12670173,-0.8885373,-0.061361976,-1.7759719,-1.599257,0.6748085,1.1486647,-1.2745162,-0.23235555,-0.079961844,-1.0215206,0.5252451,-1.7550393,0.77930874,1.5133722,1.2880791,-1.1166916,-0.8655677,0.107934915,-1.1218758,0.7554899,-0.053342745,-1.4433094,0.4252567,-0.1008113,-1.248256,0.5352383,-1.6426665,0.92082894,1.0117607,0.33354467,-0.9961385,-1.3786212,0.3924401,0.76865035,1.048331,-0.8982784,1.905379,1.1905916,-1.775908,0.81333095,1.4107671,-1.5512542,0.61009485,2.0981832,-1.0394093,-1.2691225,-1.112153,-1.9846069,-0.58844084,1.0398972,-0.384744,-1.2084737,-0.1529638,1.8468497,-1.0430467,-0.88100594,0.26857895,-1.0490049,1.2426933,-0.28053877,0.55401903,1.414058,0.61928684,0.70910627,-0.67105067,-1.6275339,0.5391158,0.22201149,1.8963745,1.7818961,0.74992657,-0.78277636,-1.4459705,1.1268528,1.7169386,1.1199498,-0.13763079,-0.42284185,-1.0223731,0.5572218,1.472122,1.5444778,0.86694133,-0.48863605,0.74260944,-0.40354934,0.3871763,-1.996082,0.844218,-0.42173526,1.1841571,1.2896366,1.7748963,-0.07719672,1.3716316,0.49818578,0.19894168,-0.13787113,0.13065624,-1.6334733,1.2962376,1.3442708,0.57967997,-1.646582,1.2010832,1.1381246,-0.8586103,-1.2179327,-1.0011767,-0.2225369,0.45430553,0.8479579,-1.6387997,-0.9395316,0.1933882,0.74712247,0.35589632,0.51181203,-0.5619391,1.0134768,1.0173086,-0.5155944,-0.8472794,0.58068174,0.7452918,-1.103406,0.023761662,-0.090091914,-1.675239,-1.348811,1.9441406,1.0746362,0.86382,0.61371875,-0.059631526,1.6874954,-1.1667551,-0.7358085,1.5394351,-0.23380049,-0.79897624,1.3895926,-0.20777564,-0.5842094
Nkx22,-0.725492,1.1566716,1.0983769,-0.90435725,1.0411184,1.9477615,0.72113615,1.5873798,0.1268829,-1.7917696,-0.70944667,1.1417601,1.4407856,1.1101189,1.376678,1.6201617,-0.92927426,1.459437,1.8521945,0.4923775,1.0238361,1.6597036,0.21995202,-1.4732587,0.71377975,0.85822827,1.5823013,-0.9432396,0.20561169,-0.6897577,1.6220051,-1.625814,-0.11928106,-1.3222861,1.8402162,-1.0219182,0.59533954,-1.8430122,1.2692813,-1.1707921,0.41484466,0.12340338,0.9318105,1.2671441,0.9120869,-1.3405036,-0.7339636,1.0870169,-0.4578841,0.97615206,-1.2262329,1.6529869,0.6974714,-1.1331117,-0.18056239,-0.9163861,0.46982688,-1.2059542,-1.773723,-0.14535661,-1.723592,0.45806614,0.10638188,1.650869,-1.0599287,-1.2086841,-0.61762065,-0.8520335,1.7386568,-1.620689,0.9895403,1.1359602,0.9534705,0.96773547,-1.1008401,0.58948994,0.20402633,-1.680984,0.20704181,-0.3594766,-0.59099853,-1.2734392,-1.2561829,-2.012766,-0.5021647,-1.6078389,0.45902452,-1.8621681,-1.3016971,-0.6087564,1.649647,-1.7073565,1.002169,-1.5185758,0.08041425,-0.5536432,1.4019293,-1.2271395,-1.376301,1.5289314,0.73183686,-0.28556442,1.2142977,1.1217111,0.9692097,-0.24246204,-1.3967772,-0.3403256,-1.319906,-1.1611851,1.2925918,-0.5449269,-1.0151947,0.06539393,-1.04696,0.75264615,1.6287173,0.3880217,1.4105766,1.1625882,-1.684486,0.80850524,-1.237278,0.68147004,-1.2171831,0.27072215,-1.2208029,0.55060905,-1.0914434,-1.4851604,-1.757231,-1.4294547,-0.3045067,-1.4067445,-2.262207,-0.37527367,0.6540342,0.90478176,-1.4450288,0.39136225,0.464566,1.0660089,-0.2823763,-1.5443854,1.4516022,-0.541407,0.96370316,1.1364162,1.43401,-0.5576166,-1.7201018,-0.33806816,0.8372335,0.6945291,-0.31012234,1.3199937,-1.7591339,0.5528096,-1.4532703,-1.2697955,0.7184555,1.1440796,-0.22124383,1.277971,-1.4375497,-0.11151921,-1.0869685,0.65739447,0.017082367,0.3527588,0.6447307,0.88888514,-1.7304122,-0.25900233,-1.0470395,1.2581791,-0.6000182,-1.2193316,-1.755008,-1.1013798,1.668208,0.81218547,0.11871176,-0.67648494,1.200172,-1.755482,-1.170588,-0.08883221,-0.30848408,0.38181198,-0.14937542,1.4365304,0.2699402,-0.35713786,1.3871634,1.2505592,1.3171983,0.97486943,0.20513782,1.5304712,-0.18996662,-0.25754845,-0.07291002,0.46672595,0.33828104,-0.5293353,-0.017331323,1.3415701,0.2606301,0.0623351,-1.2996765,-0.90765095,0.32300454,-0.339991,-0.37728697,-0.31261164,-0.33561885,-0.20882058,1.0495447,-0.47131205,0.80928224,-0.83986354,0.54885507,0.9955968,-1.9434657,0.7156959,-1.5954261,1.1875008,-0.79711705,-0.49205074,-2.1281989,-1.9810493,0.028383017,1.6753151,-1.111612,-1.0839516,0.53517926,0.13912326,-1.9413804,0.5605835,-0.600676,-1.02816,-0.92803013,1.0826894,-0.6674181,1.2466295,0.0075560636,1.789053,-0.79189783,1.3128703,-0.4810727,0.7803342,-1.4622021,-2.0436797,0.9325529,1.2939732,-1.5461451,1.0205615,-0.74808395,-1.3155249,-0.12899263,-0.42518443,-1.3604912,-0.73364204,-0.2801107,-1.1943415,0.42363164,-0.10154293,-1.1873728,1.5865306,1.1732346,1.7214698,-0.6607069,0.011342374,0.99071115,0.7495777,1.9231645,0.8677001,0.14727116,-0.8096195,-0.58925116,-0.9824903,-0.5545041,1.2370572,-0.28277928,-1.029935,-0.49354762,1.6407133,0.42111492,-1.873496,1.0755377,0.45811984,-0.9946145,-1.37124,-0.055363797,-0.7603113,-1.7171454,1.1663285,-1.6153655,0.9720618,0.5122678,1.4128454,0.10950252,1.1935481,-0.060544863,0.79656464,1.3912233,1.4138452,-1.5984558,1.4295186,-0.652074,-0.7732618,1.6550097,0.23123048,1.7869958,-1.0726047,-0.5094647,-1.5670211,-0.23490949,0.86831427,1.0018462,-0.689783,-0.13768849,-1.5474596,0.8851702,1.5211086,0.57312113,0.012010397,0.16122507,-1.9828466,0.514602,0.7853456,1.1191556,0.4332581,-0.34330145,-1.0513698,-1.4446938,0.22146152,-1.1052241,1.6879388,0.4192807,-1.343572,0.70360714,0.26715282,-0.23386751,-0.19825953,-0.43120077,-0.8417764,0.021499792,1.7733276,-0.80372727,-0.6821973,1.0431355,-1.2384531,1.9972833,0.6715074,-0.26089227,1.1144294,1.034742,1.1323876,0.37025908,0.7300039,-0.4891813,-1.6614442,-1.5309999,-0.6412878,1.7280794,0.12670173,-0.8885373,-0.061361976,-1.7759719,-1.599257,0.6748085,1.1486647,-1.2745162,-0.23235555,-0.079961844,-1.0215206,0.5252451,-1.7550393,0.77930874,1.5133722,1.2880791,-1.1166916,-0.8655677,0.107934915,-1.1218758,0.7554899,-0.053342745,-1.4433094,0.4252567,-0.1008113,-1.248256,0.5352383,-1.6426665,0.92082894,1.0117607,0.33354467,-0.9961385,-1.3786212,0.3924401,0.76865035,1.048331,-0.8982784,1.905379,1.1905916,-1.775908,0.81333095,1.4107671,-1.5512542,0.61009485,2.0981832,-1.0394093,-1.2691225,-1.112153,-1.9846069,-0.58844084,1.0398972,-0.384744,-1.2084737,-0.1529638,1.8468497,-1.0430467,-0.88100594,0.26857895,-1.0490049,1.2426933,-0.28053877,0.55401903,1.414058,0.61928684,0.70910627,-0.67105067,-1.6275339,0.5391158,0.22201149,1.8963745,1.7818961,0.74992657,-0.78277636,-1.4459705,1.1268528,1.7169386,1.1199498,-0.13763079,-0.42284185,-1.0223731,0.5572218,1.472122,1.5444778,0.86694133,-0.48863605,0.74260944,-0.40354934,0.3871763,-1.996082,0.844218,-0.42173526,1.1841571,1.2896366,1.7748963,-0.07719672,1.3716316,0.49818578,0.19894168,-0.13787113,0.13065624,-1.6334733,1.2962376,1.3442708,0.57967997,-1.646582,1.2010832,1.1381246,-0.8586103,-1.2179327,-1.0011767,-0.2225369,0.45430553,0.8479579,-1.6387997,-0.9395316,0.1933882,0.74712247,0.35589632,0.51181203,-0.5619391,1.0134768,1.0173086,-0.5155944,-0.8472794,0.58068174,0.7452918,-1.103406,0.023761662,-0.090091914,-1.675239,-1.348811,1.9441406,1.0746362,0.86382,0.61371875,-0.059631526,1.6874954,-1.1667551,-0.7358085,1.5394351,-0.23380049,-0.79897624,1.3895926,-0.20777564,-0.5842094
Nkx61,-0.725492,1.1566716,1.0983769,-0.90435725,1.0411184,1.9477615,0.72113615,1.5873798,0.1268829,-1.7917696,-0.70944667,1.1417601,1.4407856,1.1101189,1.376678,1.6201617,-0.92927426,1.459437,1.8521945,0.4923775,1.0238361,1.6597036,0.21995202,-1.4732587,0.71377975,0.85822827,1.5823013,-0.9432396,0.20561169,-0.6897577,1.6220051,-1.625814,-0.11928106,-1.3222861,1.8402162,-1.0219182,0.59533954,-1.8430122,1.2692813,-1.1707921,0.41484466,0.12340338,0.9318105,1.2671441,0.9120869,-1.3405036,-0.7339636,1.0870169,-0.4578841,0.97615206,-1.2262329,1.6529869,0.6974714,-1.1331117,-0.18056239,-0.9163861,0.46982688,-1.2059542,-1.773723,-0.14535661,-1.723592,0.45806614,0.10638188,1.650869,-1.0599287,-1.2086841,-0.61762065,-0.8520335,1.7386568,-1.620689,0.9895403,1.1359602,0.9534705,0.96773547,-1.1008401,0.58948994,0.20402633,-1.680984,0.20704181,-0.3594766,-0.59099853,-1.2734392,-1.2561829,-2.012766,-0.5021647,-1.6078389,0.45902452,-1.8621681,-1.3016971,-0.6087564,1.649647,-1.7073565,1.002169,-1.5185758,0.08041425,-0.5536432,1.4019293,-1.2271395,-1.376301,1.5289314,0.73183686,-0.28556442,1.2142977,1.1217111,0.9692097,-0.24246204,-1.3967772,-0.3403256,-1.319906,-1.1611851,1.2925918,-0.5449269,-1.0151947,0.06539393,-1.04696,0.75264615,1.6287173,0.3880217,1.4105766,1.1625882,-1.684486,0.80850524,-1.237278,0.68147004,-1.2171831,0.27072215,-1.2208029,0.55060905,-1.0914434,-1.4851604,-1.757231,-1.4294547,-0.3045067,-1.4067445,-2.262207,-0.37527367,0.6540342,0.90478176,-1.4450288,0.39136225,0.464566,1.0660089,-0.2823763,-1.5443854,1.4516022,-0.541407,0.96370316,1.1364162,1.43401,-0.5576166,-1.7201018,-0.33806816,0.8372335,0.6945291,-0.31012234,1.3199937,-1.7591339,0.5528096,-1.4532703,-1.2697955,0.7184555,1.1440796,-0.22124383,1.277971,-1.4375497,-0.11151921,-1.0869685,0.65739447,0.017082367,0.3527588,0.6447307,0.88888514,-1.7304122,-0.25900233,-1.0470395,1.2581791,-0.6000182,-1.2193316,-1.755008,-1.1013798,1.668208,0.81218547,0.11871176,-0.67648494,1.200172,-1.755482,-1.170588,-0.08883221,-0.30848408,0.38181198,-0.14937542,1.4365304,0.2699402,-0.35713786,1.3871634,1.2505592,1.3171983,0.97486943,0.20513782,1.5304712,-0.18996662,-0.25754845,-0.07291002,0.46672595,0.33828104,-0.5293353,-0.017331323,1.3415701,0.2606301,0.0623351,-1.2996765,-0.90765095,0.32300454,-0.339991,-0.37728697,-0.31261164,-0.33561885,-0.20882058,1.0495447,-0.47131205,0.80928224,-0.83986354,0.54885507,0.9955968,-1.9434657,0.7156959,-1.5954261,1.1875008,-0.79711705,-0.49205074,-2.1281989,-1.9810493,0.028383017,1.6753151,-1.111612,-1.0839516,0.53517926,0.13912326,-1.9413804,0.5605835,-0.600676,-1.02816,-0.92803013,1.0826894,-0.6674181,1.2466295,0.0075560636,1.789053,-0.79189783,1.3128703,-0.4810727,0.7803342,-1.4622021,-2.0436797,0.9325529,1.2939732,-1.5461451,1.0205615,-0.74808395,-1.3155249,-0.12899263,-0.42518443,-1.3604912,-0.73364204,-0.2801107,-1.1943415,0.42363164,-0.10154293,-1.1873728,1.5865306,1.1732346,1.7214698,-0.6607069,0.011342374,0.99071115,0.7495777,1.9231645,0.8677001,0.14727116,-0.8096195,-0.58925116,-0.9824903,-0.5545041,1.2370572,-0.28277928,-1.029935,-0.49354762,1.6407133,0.42111492,-1.873496,1.0755377,0.45811984,-0.9946145,-1.37124,-0.055363797,-0.7603113,-1.7171454,1.1663285,-1.6153655,0.9720618,0.5122678,1.4128454,0.10950252,1.1935481,-0.060544863,0.79656464,1.3912233,1.4138452,-1.5984558,1.4295186,-0.652074,-0.7732618,1.6550097,0.23123048,1.7869958,-1.0726047,-0.5094647,-1.5670211,-0.23490949,0.86831427,1.0018462,-0.689783,-0.13768849,-1.5474596,0.8851702,1.5211086,0.57312113,0.012010397,0.16122507,-1.9828466,0.514602,0.7853456,1.1191556,0.4332581,-0.34330145,-1.0513698,-1.4446938,0.22146152,-1.1052241,1.6879388,0.4192807,-1.343572,0.70360714,0.26715282,-0.23386751,-0.19825953,-0.43120077,-0.8417764,0.021499792,1.7733276,-0.80372727,-0.6821973,1.0431355,-1.2384531,1.9972833,0.6715074,-0.26089227,1.1144294,1.034742,1.1323876,0.37025908,0.7300039,-0.4891813,-1.6614442,-1.5309999,-0.6412878,1.7280794,0.12670173,-0.8885373,-0.061361976,-1.7759719,-1.599257,0.6748085,1.1486647,-1.2745162,-0.23235555,-0.079961844,-1.0215206,0.5252451,-1.7550393,0.77930874,1.5133722,1.2880791,-1.1166916,-0.8655677,0.107934915,-1.1218758,0.7554899,-0.053342745,-1.4433094,0.4252567,-0.1008113,-1.248256,0.5352383,-1.6426665,0.92082894,1.0117607,0.33354467,-0.9961385,-1.3786212,0.3924401,0.76865035,1.048331,-0.8982784,1.905379,1.1905916,-1.775908,0.81333095,1.4107671,-1.5512542,0.61009485,2.0981832,-1.0394093,-1.2691225,-1.112153,-1.9846069,-0.58844084,1.0398972,-0.384744,-1.2084737,-0.1529638,1.8468497,-1.0430467,-0.88100594,0.26857895,-1.0490049,1.2426933,-0.28053877,0.55401903,1.414058,0.61928684,0.70910627,-0.67105067,-1.6275339,0.5391158,0.22201149,1.8963745,1.7818961,0.74992657,-0.78277636,-1.4459705,1.1268528,1.7169386,1.1199498,-0.13763079,-0.42284185,-1.0223731,0.5572218,1.472122,1.5444778,0.86694133,-0.48863605,0.74260944,-0.40354934,0.3871763,-1.996082,0.844218,-0.42173526,1.1841571,1.2896366,1.7748963,-0.07719672,1.3716316,0.49818578,0.19894168,-0.13787113,0.13065624,-1.6334733,1.2962376,1.3442708,0.57967997,-1.646582,1.2010832,1.1381246,-0.8586103,-1.2179327,-1.0011767,-0.2225369,0.45430553,0.8479579,-1.6387997,-0.9395316,0.1933882,0.74712247,0.35589632,0.51181203,-0.5619391,1.0134768,1.0173086,-0.5155944,-0.8472794,0.58068174,0.7452918,-1.103406,0.023761662,-0.090091914,-1.675239,-1.348811,1.9441406,1.0746362,0.86382,0.61371875,-0.059631526,1.6874954,-1.1667551,-0.7358085,1.5394351,-0.23380049,-0.79897624,1.3895926,-0.20777564,-0.5842094
Nkx62,-0.725492,1.1566716,1.0983769,-0.90435725,1.0411184,1.9477615,0.72113615,1.5873798,0.1268829,-1.7917696,-0.70944667,1.1417601,1.4407856,1.1101189,1.376678,1.6201617,-0.92927426,1.459437,1.8521945,0.4923775,1.0238361,1.6597036,0.21995202,-1.4732587,0.71377975,0.85822827,1.5823013,-0.9432396,0.20561169,-0.6897577,1.6220051,-1.625814,-0.11928106,-1.3222861,1.8402162,-1.0219182,0.59533954,-1.8430122,1.2692813,-1.1707921,0.41484466,0.12340338,0.9318105,1.2671441,0.9120869,-1.3405036,-0.7339636,1.0870169,-0.4578841,0.97615206,-1.2262329,1.6529869,0.6974714,-1.1331117,-0.18056239,-0.9163861,0.46982688,-1.2059542,-1.773723,-0.14535661,-1.723592,0.45806614,0.10638188,1.650869,-1.0599287,-1.2086841,-0.61762065,-0.8520335,1.7386568,-1.620689,0.9895403,1.1359602,0.9534705,0.96773547,-1.1008401,0.58948994,0.20402633,-1.680984,0.20704181,-0.3594766,-0.59099853,-1.2734392,-1.2561829,-2.012766,-0.5021647,-1.6078389,0.45902452,-1.8621681,-1.3016971,-0.6087564,1.649647,-1.7073565,1.002169,-1.5185758,0.08041425,-0.5536432,1.4019293,-1.2271395,-1.376301,1.5289314,0.73183686,-0.28556442,1.2142977,1.1217111,0.9692097,-0.24246204,-1.3967772,-0.3403256,-1.319906,-1.1611851,1.2925918,-0.5449269,-1.0151947,0.06539393,-1.04696,0.75264615,1.6287173,0.3880217,1.4105766,1.1625882,-1.684486,0.80850524,-1.237278,0.68147004,-1.2171831,0.27072215,-1.2208029,0.55060905,-1.0914434,-1.4851604,-1.757231,-1.4294547,-0.3045067,-1.4067445,-2.262207,-0.37527367,0.6540342,0.90478176,-1.4450288,0.39136225,0.464566,1.0660089,-0.2823763,-1.5443854,1.4516022,-0.541407,0.96370316,1.1364162,1.43401,-0.5576166,-1.7201018,-0.33806816,0.8372335,0.6945291,-0.31012234,1.3199937,-1.7591339,0.5528096,-1.4532703,-1.2697955,0.7184555,1.1440796,-0.22124383,1.277971,-1.4375497,-0.11151921,-1.0869685,0.65739447,0.017082367,0.3527588,0.6447307,0.88888514,-1.7304122,-0.25900233,-1.0470395,1.2581791,-0.6000182,-1.2193316,-1.755008,-1.1013798,1.668208,0.81218547,0.11871176,-0.67648494,1.200172,-1.755482,-1.170588,-0.08883221,-0.30848408,0.38181198,-0.14937542,1.4365304,0.2699402,-0.35713786,1.3871634,1.2505592,1.3171983,0.97486943,0.20513782,1.5304712,-0.18996662,-0.25754845,-0.07291002,0.46672595,0.33828104,-0.5293353,-0.017331323,1.3415701,0.2606301,0.0623351,-1.2996765,-0.90765095,0.32300454,-0.339991,-0.37728697,-0.31261164,-0.33561885,-0.20882058,1.0495447,-0.47131205,0.80928224,-0.83986354,0.54885507,0.9955968,-1.9434657,0.7156959,-1.5954261,1.1875008,-0.79711705,-0.49205074,-2.1281989,-1.9810493,0.028383017,1.6753151,-1.111612,-1.0839516,0.53517926,0.13912326,-1.9413804,0.5605835,-0.600676,-1.02816,-0.92803013,1.0826894,-0.6674181,1.2466295,0.0075560636,1.789053,-0.79189783,1.3128703,-0.4810727,0.7803342,-1.4622021,-2.0436797,0.9325529,1.2939732,-1.5461451,1.0205615,-0.74808395,-1.3155249,-0.12899263,-0.42518443,-1.3604912,-0.73364204,-0.2801107,-1.1943415,0.42363164,-0.10154293,-1.1873728,1.5865306,1.1732346,1.7214698,-0.6607069,0.011342374,0.99071115,0.7495777,1.9231645,0.8677001,0.14727116,-0.8096195,-0.58925116,-0.9824903,-0.5545041,1.2370572,-0.28277928,-1.029935,-0.49354762,1.6407133,0.42111492,-1.873496,1.0755377,0.45811984,-0.9946145,-1.37124,-0.055363797,-0.7603113,-1.7171454,1.1663285,-1.6153655,0.9720618,0.5122678,1.4128454,0.10950252,1.1935481,-0.060544863,0.79656464,1.3912233,1.4138452,-1.5984558,1.4295186,-0.652074,-0.7732618,1.6550097,0.23123048,1.7869958,-1.0726047,-0.5094647,-1.5670211,-0.23490949,0.86831427,1.0018462,-0.689783,-0.13768849,-1.5474596,0.8851702,1.5211086,0.57312113,0.012010397,0.16122507,-1.9828466,0.514602,0.7853456,1.1191556,0.4332581,-0.34330145,-1.0513698,-1.4446938,0.22146152,-1.1052241,1.6879388,0.4192807,-1.343572,0.70360714,0.26715282,-0.23386751,-0.19825953,-0.43120077,-0.8417764,0.021499792,1.7733276,-0.80372727,-0.6821973,1.0431355,-1.2384531,1.9972833,0.6715074,-0.26089227,1.1144294,1.034742,1.1323876,0.37025908,0.7300039,-0.4891813,-1.6614442,-1.5309999,-0.6412878,1.7280794,0.12670173,-0.8885373,-0.061361976,-1.7759719,-1.599257,0.6748085,1.1486647,-1.2745162,-0.23235555,-0.079961844,-1.0215206,0.5252451,-1.7550393,0.77930874,1.5133722,1.2880791,-1.1166916,-0.8655677,0.107934915,-1.1218758,0.7554899,-0.053342745,-1.4433094,0.4252567,-0.1008113,-1.248256,0.5352383,-1.6426665,0.92082894,1.0117607,0.33354467,-0.9961385,-1.3786212,0.3924401,0.76865035,1.048331,-0.8982784,1.905379,1.1905916,-1.775908,0.81333095,1.4107671,-1.5512542,0.61009485,2.0981832,-1.0394093,-1.2691225,-1.112153,-1.9846069,-0.58844084,1.0398972,-0.384744,-1.2084737,-0.1529638,1.8468497,-1.0430467,-0.88100594,0.26857895,-1.0490049,1.2426933,-0.28053877,0.55401903,1.414058,0.61928684,0.70910627,-0.67105067,-1.6275339,0.5391158,0.22201149,1.8963745,1.7818961,0.74992657,-0.78277636,-1.4459705,1.1268528,1.7169386,1.1199498,-0.13763079,-0.42284185,-1.0223731,0.5572218,1.472122,1.5444778,0.86694133,-0.48863605,0.74260944,-0.40354934,0.3871763,-1.996082,0.844218,-0.42173526,1.1841571,1.2896366,1.7748963,-0.07719672,1.3716316,0.49818578,0.19894168,-0.13787113,0.13065624,-1.6334733,1.2962376,1.3442708,0.57967997,-1.646582,1.2010832,1.1381246,-0.8586103,-1.2179327,-1.0011767,-0.2225369,0.45430553,0.8479579,-1.6387997,-0.9395316,0.1933882,0.74712247,0.35589632,0.51181203,-0.5619391,1.0134768,1.0173086,-0.5155944,-0.8472794,0.58068174,0.7452918,-1.103406,0.023761662,-0.090091914,-1.675239,-1.348811,1.9441406,1.0746362,0.86382,0.61371875,-0.059631526,1.6874954,-1.1667551,-0.7358085,1.5394351,-0.23380049,-0.79897624,1.3895926,-0.20777564,-0.5842094
Olig2,-0.725492,1.1566716,1.0983769,-0.90435725,1.0411184,1.9477615,0.72113615,1.5873798,0.1268829,-1.7917696,-0.70944667,1.1417601,1.4407856,1.1101189,1.376678,1.6201617,-0.92927426,1.459437,1.8521945,0.4923775,1.0238361,1.6597036,0.21995202,-1.4732587,0.71377975,0.85822827,1.5823013,-0.9432396,0.20561169,-0.6897577,1.6220051,-1.625814,-0.11928106,-1.3222861,1.8402162,-1.0219182,0.59533954,-1.8430122,1.2692813,-1.1707921,0.41484466,0.12340338,0.9318105,1.2671441,0.9120869,-1.3405036,-0.7339636,1.0870169,-0.4578841,0.97615206,-1.2262329,1.6529869,0.6974714,-1.1331117,-0.18056239,-0.9163861,0.46982688,-1.2059542,-1.773723,-0.14535661,-1.723592,0.45806614,0.10638188,1.650869,-1.0599287,-1.2086841,-0.61762065,-0.8520335,1.7386568,-1.620689,0.9895403,1.1359602,0.9534705,0.96773547,-1.1008401,0.58948994,0.20402633,-1.680984,0.20704181,-0.3594766,-0.59099853,-1.2734392,-1.2561829,-2.012766,-0.5021647,-1.6078389,0.45902452,-1.8621681,-1.3016971,-0.6087564,1.649647,-1.7073565,1.002169,-1.5185758,0.08041425,-0.5536432,1.4019293,-1.2271395,-1.376301,1.5289314,0.73183686,-0.28556442,1.2142977,1.1217111,0.9692097,-0.24246204,-1.3967772,-0.3403256,-1.319906,-1.1611851,1.2925918,-0.5449269,-1.0151947,0.06539393,-1.04696,0.75264615,1.6287173,0.3880217,1.4105766,1.1625882,-1.684486,0.80850524,-1.237278,0.68147004,-1.2171831,0.27072215,-1.2208029,0.55060905,-1.0914434,-1.4851604,-1.757231,-1.4294547,-0.3045067,-1.4067445,-2.262207,-0.37527367,0.6540342,0.90478176,-1.4450288,0.39136225,0.464566,1.0660089,-0.2823763,-1.5443854,1.4516022,-0.541407,0.96370316,1.1364162,1.43401,-0.5576166,-1.7201018,-0.33806816,0.8372335,0.6945291,-0.31012234,1.3199937,-1.7591339,0.5528096,-1.4532703,-1.2697955,0.7184555,1.1440796,-0.22124383,1.277971,-1.4375497,-0.11151921,-1.0869685,0.65739447,0.017082367,0.3527588,0.6447307,0.88888514,-1.7304122,-0.25900233,-1.0470395,1.2581791,-0.6000182,-1.2193316,-1.755008,-1.1013798,1.668208,0.81218547,0.11871176,-0.67648494,1.200172,-1.755482,-1.170588,-0.08883221,-0.30848408,0.38181198,-0.14937542,1.4365304,0.2699402,-0.35713786,1.3871634,1.2505592,1.3171983,0.97486943,0.20513782,1.5304712,-0.18996662,-0.25754845,-0.07291002,0.46672595,0.33828104,-0.5293353,-0.017331323,1.3415701,0.2606301,0.0623351,-1.2996765,-0.90765095,0.32300454,-0.339991,-0.37728697,-0.31261164,-0.33561885,-0.20882058,1.0495447,-0.47131205,0.80928224,-0.83986354,0.54885507,0.9955968,-1.9434657,0.7156959,-1.5954261,1.1875008,-0.79711705,-0.49205074,-2.1281989,-1.9810493,0.028383017,1.6753151,-1.111612,-1.0839516,0.53517926,0.13912326,-1.9413804,0.5605835,-0.600676,-1.02816,-0.92803013,1.0826894,-0.6674181,1.2466295,0.0075560636,1.789053,-0.79189783,1.3128703,-0.4810727,0.7803342,-1.4622021,-2.0436797,0.9325529,1.2939732,-1.5461451,1.0205615,-0.74808395,-1.3155249,-0.12899263,-0.42518443,-1.3604912,-0.73364204,-0.2801107,-1.1943415,0.42363164,-0.10154293,-1.1873728,1.5865306,1.1732346,1.7214698,-0.6607069,0.011342374,0.99071115,0.7495777,1.9231645,0.8677001,0.14727116,-0.8096195,-0.58925116,-0.9824903,-0.5545041,1.2370572,-0.28277928,-1.029935,-0.49354762,1.6407133,0.42111492,-1.873496,1.0755377,0.45811984,-0.9946145,-1.37124,-0.055363797,-0.7603113,-1.7171454,1.1663285,-1.6153655,0.9720618,0.5122678,1.4128454,0.10950252,1.1935481,-0.060544863,0.79656464,1.3912233,1.4138452,-1.5984558,1.4295186,-0.652074,-0.7732618,1.6550097,0.23123048,1.7869958,-1.0726047,-0.5094647,-1.5670211,-0.23490949,0.86831427,1.0018462,-0.689783,-0.13768849,-1.5474596,0.8851702,1.5211086,0.57312113,0.012010397,0.16122507,-1.9828466,0.514602,0.7853456,1.1191556,0.4332581,-0.34330145,-1.0513698,-1.4446938,0.22146152,-1.1052241,1.6879388,0.4192807,-1.343572,0.70360714,0.26715282,-0.23386751,-0.19825953,-0.43120077,-0.8417764,0.021499792,1.7733276,-0.80372727,-0.6821973,1.0431355,-1.2384531,1.9972833,0.6715074,-0.26089227,1.1144294,1.034742,1.1323876,0.37025908,0.7300039,-0.4891813,-1.6614442,-1.5309999,-0.6412878,1.7280794,0.12670173,-0.8885373,-0.061361976,-1.7759719,-1.599257,0.6748085,1.1486647,-1.2745162,-0.23235555,-0.079961844,-1.0215206,0.5252451,-1.7550393,0.77930874,1.5133722,1.2880791,-1.1166916,-0.8655677,0.107934915,-1.1218758,0.7554899,-0.053342745,-1.4433094,0.4252567,-0.1008113,-1.248256,0.5352383,-1.6426665,0.92082894,1.0117607,0.33354467,-0.9961385,-1.3786212,0.3924401,0.76865035,1.048331,-0.8982784,1.905379,1.1905916,-1.775908,0.81333095,1.4107671,-1.5512542,0.61009485,2.0981832,-1.0394093,-1.2691225,-1.112153,-1.9846069,-0.58844084,1.0398972,-0.384744,-1.2084737,-0.1529638,1.8468497,-1.0430467,-0.88100594,0.26857895,-1.0490049,1.2426933,-0.28053877,0.55401903,1.414058,0.61928684,0.70910627,-0.67105067,-1.6275339,0.5391158,0.22201149,1.8963745,1.7818961,0.74992657,-0.78277636,-1.4459705,1.1268528,1.7169386,1.1199498,-0.13763079,-0.42284185,-1.0223731,0.5572218,1.472122,1.5444778,0.86694133,-0.48863605,0.74260944,-0.40354934,0.3871763,-1.996082,0.844218,-0.42173526,1.1841571,1.2896366,1.7748963,-0.07719672,1.3716316,0.49818578,0.19894168,-0.13787113,0.13065624,-1.6334733,1.2962376,1.3442708,0.57967997,-1.646582,1.2010832,1.1381246,-0.8586103,-1.2179327,-1.0011767,-0.2225369,0.45430553,0.8479579,-1.6387997,-0.9395316,0.1933882,0.74712247,0.35589632,0.51181203,-0.5619391,1.0134768,1.0173086,-0.5155944,-0.8472794,0.58068174,0.7452918,-1.103406,0.023761662,-0.090091914,-1.675239,-1.348811,1.9441406,1.0746362,0.86382,0.61371875,-0.059631526,1.6874954,-1.1667551,-0.7358085,1.5394351,-0.23380049,-0.79897624,1.3895926,-0.20777564,-0.5842094
Pax6,-0.725492,1.1566716,1.0983769,-0.90435725,1.0411184,1.9477615,0.72113615,1.5873798,0.1268829,-1.7917696,-0.70944667,1.1417601,1.4407856,1.1101189,1.376678,1.6201617,-0.92927426,1.459437,1.8521945,0.4923775,1.0238361,1.6597036,0.21995202,-1.4732587,0.71377975,0.85822827,1.5823013,-0.9432396,0.20561169,-0.6897577,1.6220051,-1.625814,-0.11928106,-1.3222861,1.8402162,-1.0219182,0.59533954,-1.8430122,1.2692813,-1.1707921,0.41484466,0.12340338,0.9318105,1.2671441,0.9120869,-1.3405036,-0.7339636,1.0870169,-0.4578841,0.97615206,-1.2262329,1.6529869,0.6974714,-1.1331117,-0.18056239,-0.9163861,0.46982688,-1.2059542,-1.773723,-0.14535661,-1.723592,0.45806614,0.10638188,1.650869,-1.0599287,-1.2086841,-0.61762065,-0.8520335,1.7386568,-1.620689,0.9895403,1.1359602,0.9534705,0.96773547,-1.1008401,0.58948994,0.20402633,-1.680984,0.20704181,-0.3594766,-0.59099853,-1.2734392,-1.2561829,-2.012766,-0.5021647,-1.6078389,0.45902452,-1.8621681,-1.3016971,-0.6087564,1.649647,-1.7073565,1.002169,-1.5185758,0.08041425,-0.5536432,1.4019293,-1.2271395,-1.376301,1.5289314,0.73183686,-0.28556442,1.2142977,1.1217111,0.9692097,-0.24246204,-1.3967772,-0.3403256,-1.319906,-1.1611851,1.2925918,-0.5449269,-1.0151947,0.06539393,-1.04696,0.75264615,1.6287173,0.3880217,1.4105766,1.1625882,-1.684486,0.80850524,-1.237278,0.68147004,-1.2171831,0.27072215,-1.2208029,0.55060905,-1.0914434,-1.4851604,-1.757231,-1.4294547,-0.3045067,-1.4067445,-2.262207,-0.37527367,0.6540342,0.90478176,-1.4450288,0.39136225,0.464566,1.0660089,-0.2823763,-1.5443854,1.4516022,-0.541407,0.96370316,1.1364162,1.43401,-0.5576166,-1.7201018,-0.33806816,0.8372335,0.6945291,-0.31012234,1.3199937,-1.7591339,0.5528096,-1.4532703,-1.2697955,0.7184555,1.1440796,-0.22124383,1.277971,-1.4375497,-0.11151921,-1.0869685,0.65739447,0.017082367,0.3527588,0.6447307,0.88888514,-1.7304122,-0.25900233,-1.0470395,1.2581791,-0.6000182,-1.2193316,-1.755008,-1.1013798,1.668208,0.81218547,0.11871176,-0.67648494,1.200172,-1.755482,-1.170588,-0.08883221,-0.30848408,0.38181198,-0.14937542,1.4365304,0.2699402,-0.35713786,1.3871634,1.2505592,1.3171983,0.97486943,0.20513782,1.5304712,-0.18996662,-0.25754845,-0.07291002,0.46672595,0.33828104,-0.5293353,-0.017331323,1.3415701,0.2606301,0.0623351,-1.2996765,-0.90765095,0.32300454,-0.339991,-0.37728697,-0.31261164,-0.33561885,-0.20882058,1.0495447,-0.47131205,0.80928224,-0.83986354,0.54885507,0.9955968,-1.9434657,0.7156959,-1.5954261,1.1875008,-0.79711705,-0.49205074,-2.1281989,-1.9810493,0.028383017,1.6753151,-1.111612,-1.0839516,0.53517926,0.13912326,-1.9413804,0.5605835,-0.600676,-1.02816,-0.92803013,1.0826894,-0.6674181,1.2466295,0.0075560636,1.789053,-0.79189783,1.3128703,-0.4810727,0.7803342,-1.4622021,-2.0436797,0.9325529,1.2939732,-1.5461451,1.0205615,-0.74808395,-1.3155249,-0.12899263,-0.42518443,-1.3604912,-0.73364204,-0.2801107,-1.1943415,0.42363164,-0.10154293,-1.1873728,1.5865306,1.1732346,1.7214698,-0.6607069,0.011342374,0.99071115,0.7495777,1.9231645,0.8677001,0.14727116,-0.8096195,-0.58925116,-0.9824903,-0.5545041,1.2370572,-0.28277928,-1.029935,-0.49354762,1.6407133,0.42111492,-1.873496,1.0755377,0.45811984,-0.9946145,-1.37124,-0.055363797,-0.7603113,-1.7171454,1.1663285,-1.6153655,0.9720618,0.5122678,1.4128454,0.10950252,1.1935481,-0.060544863,0.79656464,1.3912233,1.4138452,-1.5984558,1.4295186,-0.652074,-0.7732618,1.6550097,0.23123048,1.7869958,-1.0726047,-0.5094647,-1.5670211,-0.23490949,0.86831427,1.0018462,-0.689783,-0.13768849,-1.5474596,0.8851702,1.5211086,0.57312113,0.012010397,0.16122507,-1.9828466,0.514602,0.7853456,1.1191556,0.4332581,-0.34330145,-1.0513698,-1.4446938,0.22146152,-1.1052241,1.6879388,0.4192807,-1.343572,0.70360714,0.26715282,-0.23386751,-0.19825953,-0.43120077,-0.8417764,0.021499792,1.7733276,-0.80372727,-0.6821973,1.0431355,-1.2384531,1.9972833,0.6715074,-0.26089227,1.1144294,1.034742,1.1323876,0.37025908,0.7300039,-0.4891813,-1.6614442,-1.5309999,-0.6412878,1.7280794,0.12670173,-0.8885373,-0.061361976,-1.7759719,-1.599257,0.6748085,1.1486647,-1.2745162,-0.23235555,-0.079961844,-1.0215206,0.5252451,-1.7550393,0.77930874,1.5133722,1.2880791,-1.1166916,-0.8655677,0.107934915,-1.1218758,0.7554899,-0.053342745,-1.4433094,0.4252567,-0.1008113,-1.248256,0.5352383,-1.6426665,0.92082894,1.0117607,0.33354467,-0.9961385,-1.3786212,0.3924401,0.76865035,1.048331,-0.8982784,1.905379,1.1905916,-1.775908,0.81333095,1.4107671,-1.5512542,0.61009485,2.0981832,-1.0394093,-1.2691225,-1.112153,-1.9846069,-0.58844084,1.0398972,-0.384744,-1.2084737,-0.1529638,1.8468497,-1.0430467,-0.88100594,0.26857895,-1.0490049,1.2426933,-0.28053877,0.55401903,1.414058,0.61928684,0.70910627,-0.67105067,-1.6275339,0.5391158,0.22201149,1.8963745,1.7818961,0.74992657,-0.78277636,-1.4459705,1.1268528,1.7169386,1.1199498,-0.13763079,-0.42284185,-1.0223731,0.5572218,1.472122,1.5444778,0.86694133,-0.48863605,0.74260944,-0.40354934,0.3871763,-1.996082,0.844218,-0.42173526,1.1841571,1.2896366,1.7748963,-0.07719672,1.3716316,0.49818578,0.19894168,-0.13787113,0.13065624,-1.6334733,1.2962376,1.3442708,0.57967997,-1.646582,1.2010832,1.1381246,-0.8586103,-1.2179327,-1.0011767,-0.2225369,0.45430553,0.8479579,-1.6387997,-0.9395316,0.1933882,0.74712247,0.35589632,0.51181203,-0.5619391,1.0134768,1.0173086,-0.5155944,-0.8472794,0.58068174,0.7452918,-1.103406,0.023761662,-0.090091914,-1.675239,-1.348811,1.9441406,1.0746362,0.86382,0.61371875,-0.059631526,1.6874954,-1.1667551,-0.7358085,1.5394351,-0.23380049,-0.79897624,1.3895926,-0.20777564,-0.5842094
