,0,1,2,3,4,5,6,7,8,9,10,11,12,13,14,15,16,17,18,19,20,21,22,23,24,25,26,27,28,29,30,31,32,33,34,35,36,37,38,39,40,41,42,43,44,45,46,47,48,49,50,51,52,53,54,55,56,57,58,59,60,61,62,63,64,65,66,67,68,69,70,71,72,73,74,75,76,77,78,79,80,81,82,83,84,85,86,87,88,89,90,91,92,93,94,95,96,97,98,99,100,101,102,103,104,105,106,107,108,109,110,111,112,113,114,115,116,117,118,119,120,121,122,123,124,125,126,127,128,129,130,131,132,133,134,135,136,137,138,139,140,141,142,143,144,145,146,147,148,149,150,151,152,153,154,155,156,157,158,159,160,161,162,163,164,165,166,167,168,169,170,171,172,173,174,175,176,177,178,179,180,181,182,183,184,185,186,187,188,189,190,191,192,193,194,195,196,197,198,199,200,201,202,203,204,205,206,207,208,209,210,211,212,213,214,215,216,217,218,219,220,221,222,223,224,225,226,227,228,229,230,231,232,233,234,235,236,237,238,239,240,241,242,243,244,245,246,247,248,249,250,251,252,253,254,255,256,257,258,259,260,261,262,263,264,265,266,267,268,269,270,271,272,273,274,275,276,277,278,279,280,281,282,283,284,285,286,287,288,289,290,291,292,293,294,295,296,297,298,299,300,301,302,303,304,305,306,307,308,309,310,311,312,313,314,315,316,317,318,319,320,321,322,323,324,325,326,327,328,329,330,331,332,333,334,335,336,337,338,339,340,341,342,343,344,345,346,347,348,349,350,351,352,353,354,355,356,357,358,359,360,361,362,363,364,365,366,367,368,369,370,371,372,373,374,375,376,377,378,379,380,381,382,383,384,385,386,387,388,389,390,391,392,393,394,395,396,397,398,399,400,401,402,403,404,405,406,407,408,409,410,411,412,413,414,415,416,417,418,419,420,421,422,423,424,425,426,427,428,429,430,431,432,433,434,435,436,437,438,439,440,441,442,443,444,445,446,447,448,449,450,451,452,453,454,455,456,457,458,459,460,461,462,463,464,465,466,467,468,469,470,471,472,473,474,475,476,477,478,479,480,481,482,483,484,485,486,487,488,489,490,491,492,493,494,495,496,497,498,499,500,501,502,503,504,505,506,507,508,509,510,511
Coup,-0.23030083,-1.1099546,-0.13918106,-1.2413095,1.3256115,1.158068,-0.30439064,-1.1876426,-0.9908489,1.1575304,1.4917618,-0.38002697,-0.67193633,0.6901412,0.8344643,-0.47363508,0.7275872,-0.33104235,0.39305478,1.1803747,1.3228762,-0.5703192,0.5990475,-0.48009735,-1.8751972,0.53961873,1.3283786,-0.689749,-0.9135468,1.7230922,-0.4047435,1.2549087,0.5412469,0.87749326,-0.13555007,1.3457338,1.0381941,-0.7891879,-0.24302763,0.9807704,1.696197,1.029865,-1.8921516,-0.5162923,0.28494743,-0.12603447,-1.8927511,0.17866394,1.2021698,-0.74800026,-1.0620745,0.6687908,0.31517816,-1.4641926,1.4683137,-1.4227289,1.6015462,0.98067343,1.691632,-0.043030452,-1.0092049,0.10159019,0.5054457,1.3207954,-1.4707913,-1.4879935,1.2456508,0.3017602,1.0918262,0.9346046,-0.90024513,1.0979546,-1.4572203,0.2796791,-0.08554391,-0.913503,-1.3093271,0.7114709,1.4002149,-0.9345533,0.25937945,-0.4495384,1.6929799,1.2331425,1.7745261,-0.020132259,-1.0464542,1.5299191,0.45597348,0.52068424,2.1098485,-1.0891544,-1.2323642,0.08740501,1.1116024,0.14159909,0.6924842,0.7728168,0.6887254,-1.2076089,1.123232,1.5458878,-1.6579632,0.926922,-1.182786,1.0615946,-1.3257886,0.5745246,-0.17759733,0.97160494,0.73040724,0.07855164,-0.84169585,-1.2252884,-1.728773,-1.0000511,-0.5537075,0.89192015,1.4874722,1.0592983,-0.03938202,-0.18897034,0.8840402,0.7746452,-0.43472058,-1.2396673,0.17576413,-1.751064,0.3603953,0.60888815,-0.44033137,-0.06870344,-1.725189,-1.9535646,1.0277772,1.1013418,0.71041304,0.9268503,-0.5348065,-0.48257875,0.5277961,0.79805124,1.0660304,1.074656,0.26817018,0.67406195,1.0130975,-0.19103198,-0.373418,1.4598749,0.35541824,-0.12038576,0.76935583,-1.5572598,-0.22694212,-1.5993698,-1.4471654,-0.98955417,-0.09940953,-0.5949301,-1.2465204,-0.8908701,0.54561347,0.37465042,-1.3906966,0.9843693,-1.8474439,-1.6059283,-1.7979621,2.0894635,-0.32313338,0.29402366,-0.71206003,-1.2225468,-1.5992504,-0.21807115,-0.14320828,1.5318041,-0.6589263,-1.4209386,1.0261145,0.24384828,1.7397454,0.75117767,-1.1496739,0.42662835,-0.1565782,-1.630237,-1.6992328,-0.88508373,1.2136664,-0.3734547,0.21443176,-0.12901701,0.16823809,1.7040566,0.29334897,-1.1711615,-0.24090292,-0.5891527,0.91673625,0.9574703,-1.2185259,-0.9552175,0.83950347,-1.1071756,-1.223056,-0.06840631,-0.6032264,-2.3645055,-0.02537659,-0.58458245,1.4016619,1.5151972,0.19022456,-0.7959649,-0.3730123,-0.8880135,0.43620718,1.617668,0.17185017,-0.05220856,-0.6807199,-0.6524171,-0.36198458,-1.0865651,-1.6634202,1.4139959,-1.2505481,-2.0270913,-1.5476955,0.32026008,-0.30978984,0.8268723,-0.018858397,0.19800787,0.08126102,-0.6093558,1.5635102,-0.24617195,-0.2505347,-1.5398525,-1.6472842,0.4760287,1.3528047,-1.6592466,0.8105788,-1.6291825,1.4290872,-1.4169283,-0.7099237,0.14807454,-0.22807623,0.06162717,0.5081658,0.45841694,0.25847098,-0.6346088,1.2201021,-0.9030942,-1.4297051,1.0491693,1.0243168,-0.119848736,0.92213285,0.8193681,-0.6807351,1.0257385,0.91820085,-0.6446437,-0.041108333,1.5429335,0.52973175,0.8599913,0.9405442,1.0063257,-0.9435198,1.8893925,1.6524725,-0.19301371,-0.5715832,-1.1336485,-1.0100062,0.89297533,-1.4047176,1.2621841,-1.8369663,0.25391406,-1.1906719,1.573511,1.270791,0.12161277,-0.68294084,-0.11102155,0.46827707,1.2318069,0.07694561,0.72092044,-0.35431173,0.51016724,1.381173,-0.16215286,1.5628084,-0.22416392,1.7097735,-0.32818925,1.707038,0.62353855,1.1344194,-0.697114,-1.4106221,0.9405362,0.7121083,0.84468174,-0.028290464,-1.3102947,1.8864176,0.78199106,-0.2435464,-0.38404885,-0.22388794,-0.116279274,-0.59338915,-0.33179554,-0.6316107,0.60444593,-0.42710668,0.017943287,0.08355647,-1.1216017,0.8258779,-1.6408558,-0.8140546,0.8010367,1.212263,1.1148628,-0.70063716,-1.2938459,-1.2880229,1.2843177,-0.24093811,-1.0614108,-1.4636577,0.28803462,-1.2117146,1.7289691,-1.8173075,1.2336326,1.769846,0.9872581,0.8602767,-1.4928336,0.39059833,1.4664117,-1.4572954,-1.2920576,0.6758845,-1.4516497,0.17543778,-0.783859,-0.5693165,0.35768506,-0.8455033,-0.37173817,-1.1931353,0.37950537,1.1994827,-1.2459418,1.4875338,0.18628232,1.1314204,-0.4654942,-1.8890592,0.3022048,-0.16588308,-0.78028554,-1.5817858,0.6774362,0.039691504,-1.2924675,0.31565502,-0.36346188,-0.23610157,-1.2302244,0.47789773,0.43944696,-1.5552201,-0.33305383,-0.20464125,1.4603198,0.2349254,2.3018994,0.7104232,1.8839518,-0.4819206,-0.4925276,0.033920914,-1.1177343,0.08494957,1.1345276,-1.2571509,-1.519086,0.7543652,-0.6398104,-1.8781334,0.4986705,1.7999536,0.6698003,-0.7984945,-1.8457024,-1.5432434,1.4837607,1.2708186,1.7153513,-0.9702026,0.48434064,1.1558123,-1.0389096,0.894981,-0.24024682,-0.3820785,-1.7155066,-0.9079446,-0.13509202,-1.2503841,1.0461166,0.33739638,-0.93275416,0.22993833,1.8641974,0.18127088,-0.5034261,-0.48310372,-0.7710793,0.3152547,-1.5266994,2.076508,-1.2362777,-1.4396669,-0.79210126,-0.7662885,-1.3694686,0.24539769,-0.8511631,-0.64933825,0.09925872,0.09778906,-0.1544805,-1.0601636,-1.4391849,-1.0284868,-0.8519845,-1.2160579,1.3218004,-1.6738639,-1.0570978,-0.7891421,0.06072559,0.15152963,0.752211,-1.2786295,0.679235,-0.39311427,1.3035214,1.3566377,-0.84236485,1.6163956,0.78861845,0.79584646,-0.35993525,-0.7971399,0.86008555,0.33700523,-1.4889927,0.9213387,0.35918114,0.8537203,0.7154147,0.7023474,1.747238,-0.006331216,-0.4546915,-1.3111055,0.96546453,-0.3607521,0.66876996,1.1268413,-0.1325545,-0.024581231,-0.8542387,-0.8915835,1.8556169,-0.49390304,-1.0567466,1.3448324,-1.3545125,1.28407,1.6584158,-0.68866473,0.17999063,0.591461,-1.3039678,0.83655643,-0.33542377,0.582106,-0.7181741,0.77046865,1.0684588,-1.57517,1.9574928,1.1883059,1.3492465
Emx2,-0.23030083,-1.1099546,-0.13918106,-1.2413095,1.3256115,1.158068,-0.30439064,-1.1876426,-0.9908489,1.1575304,1.4917618,-0.38002697,-0.67193633,0.6901412,0.8344643,-0.47363508,0.7275872,-0.33104235,0.39305478,1.1803747,1.3228762,-0.5703192,0.5990475,-0.48009735,-1.8751972,0.53961873,1.3283786,-0.689749,-0.9135468,1.7230922,-0.4047435,1.2549087,0.5412469,0.87749326,-0.13555007,1.3457338,1.0381941,-0.7891879,-0.24302763,0.9807704,1.696197,1.029865,-1.8921516,-0.5162923,0.28494743,-0.12603447,-1.8927511,0.17866394,1.2021698,-0.74800026,-1.0620745,0.6687908,0.31517816,-1.4641926,1.4683137,-1.4227289,1.6015462,0.98067343,1.691632,-0.043030452,-1.0092049,0.10159019,0.5054457,1.3207954,-1.4707913,-1.4879935,1.2456508,0.3017602,1.0918262,0.9346046,-0.90024513,1.0979546,-1.4572203,0.2796791,-0.08554391,-0.913503,-1.3093271,0.7114709,1.4002149,-0.9345533,0.25937945,-0.4495384,1.6929799,1.2331425,1.7745261,-0.020132259,-1.0464542,1.5299191,0.45597348,0.52068424,2.1098485,-1.0891544,-1.2323642,0.08740501,1.1116024,0.14159909,0.6924842,0.7728168,0.6887254,-1.2076089,1.123232,1.5458878,-1.6579632,0.926922,-1.182786,1.0615946,-1.3257886,0.5745246,-0.17759733,0.97160494,0.73040724,0.07855164,-0.84169585,-1.2252884,-1.728773,-1.0000511,-0.5537075,0.89192015,1.4874722,1.0592983,-0.03938202,-0.18897034,0.8840402,0.7746452,-0.43472058,-1.2396673,0.17576413,-1.751064,0.3603953,0.60888815,-0.44033137,-0.06870344,-1.725189,-1.9535646,1.0277772,1.1013418,0.71041304,0.9268503,-0.5348065,-0.48257875,0.5277961,0.79805124,1.0660304,1.074656,0.26817018,0.67406195,1.0130975,-0.19103198,-0.373418,1.4598749,0.35541824,-0.12038576,0.76935583,-1.5572598,-0.22694212,-1.5993698,-1.4471654,-0.98955417,-0.09940953,-0.5949301,-1.2465204,-0.8908701,0.54561347,0.37465042,-1.3906966,0.9843693,-1.8474439,-1.6059283,-1.7979621,2.0894635,-0.32313338,0.29402366,-0.71206003,-1.2225468,-1.5992504,-0.21807115,-0.14320828,1.5318041,-0.6589263,-1.4209386,1.0261145,0.24384828,1.7397454,0.75117767,-1.1496739,0.42662835,-0.1565782,-1.630237,-1.6992328,-0.88508373,1.2136664,-0.3734547,0.21443176,-0.12901701,0.16823809,1.7040566,0.29334897,-1.1711615,-0.24090292,-0.5891527,0.91673625,0.9574703,-1.2185259,-0.9552175,0.83950347,-1.1071756,-1.223056,-0.06840631,-0.6032264,-2.3645055,-0.02537659,-0.58458245,1.4016619,1.5151972,0.19022456,-0.7959649,-0.3730123,-0.8880135,0.43620718,1.617668,0.17185017,-0.05220856,-0.6807199,-0.6524171,-0.36198458,-1.0865651,-1.6634202,1.4139959,-1.2505481,-2.0270913,-1.5476955,0.32026008,-0.30978984,0.8268723,-0.018858397,0.19800787,0.08126102,-0.6093558,1.5635102,-0.24617195,-0.2505347,-1.5398525,-1.6472842,0.4760287,1.3528047,-1.6592466,0.8105788,-1.6291825,1.4290872,-1.4169283,-0.7099237,0.14807454,-0.22807623,0.06162717,0.5081658,0.45841694,0.25847098,-0.6346088,1.2201021,-0.9030942,-1.4297051,1.0491693,1.0243168,-0.119848736,0.92213285,0.8193681,-0.6807351,1.0257385,0.91820085,-0.6446437,-0.041108333,1.5429335,0.52973175,0.8599913,0.9405442,1.0063257,-0.9435198,1.8893925,1.6524725,-0.19301371,-0.5715832,-1.1336485,-1.0100062,0.89297533,-1.4047176,1.2621841,-1.8369663,0.25391406,-1.1906719,1.573511,1.270791,0.12161277,-0.68294084,-0.11102155,0.46827707,1.2318069,0.07694561,0.72092044,-0.35431173,0.51016724,1.381173,-0.16215286,1.5628084,-0.22416392,1.7097735,-0.32818925,1.707038,0.62353855,1.1344194,-0.697114,-1.4106221,0.9405362,0.7121083,0.84468174,-0.028290464,-1.3102947,1.8864176,0.78199106,-0.2435464,-0.38404885,-0.22388794,-0.116279274,-0.59338915,-0.33179554,-0.6316107,0.60444593,-0.42710668,0.017943287,0.08355647,-1.1216017,0.8258779,-1.6408558,-0.8140546,0.8010367,1.212263,1.1148628,-0.70063716,-1.2938459,-1.2880229,1.2843177,-0.24093811,-1.0614108,-1.4636577,0.28803462,-1.2117146,1.7289691,-1.8173075,1.2336326,1.769846,0.9872581,0.8602767,-1.4928336,0.39059833,1.4664117,-1.4572954,-1.2920576,0.6758845,-1.4516497,0.17543778,-0.783859,-0.5693165,0.35768506,-0.8455033,-0.37173817,-1.1931353,0.37950537,1.1994827,-1.2459418,1.4875338,0.18628232,1.1314204,-0.4654942,-1.8890592,0.3022048,-0.16588308,-0.78028554,-1.5817858,0.6774362,0.039691504,-1.2924675,0.31565502,-0.36346188,-0.23610157,-1.2302244,0.47789773,0.43944696,-1.5552201,-0.33305383,-0.20464125,1.4603198,0.2349254,2.3018994,0.7104232,1.8839518,-0.4819206,-0.4925276,0.033920914,-1.1177343,0.08494957,1.1345276,-1.2571509,-1.519086,0.7543652,-0.6398104,-1.8781334,0.4986705,1.7999536,0.6698003,-0.7984945,-1.8457024,-1.5432434,1.4837607,1.2708186,1.7153513,-0.9702026,0.48434064,1.1558123,-1.0389096,0.894981,-0.24024682,-0.3820785,-1.7155066,-0.9079446,-0.13509202,-1.2503841,1.0461166,0.33739638,-0.93275416,0.22993833,1.8641974,0.18127088,-0.5034261,-0.48310372,-0.7710793,0.3152547,-1.5266994,2.076508,-1.2362777,-1.4396669,-0.79210126,-0.7662885,-1.3694686,0.24539769,-0.8511631,-0.64933825,0.09925872,0.09778906,-0.1544805,-1.0601636,-1.4391849,-1.0284868,-0.8519845,-1.2160579,1.3218004,-1.6738639,-1.0570978,-0.7891421,0.06072559,0.15152963,0.752211,-1.2786295,0.679235,-0.39311427,1.3035214,1.3566377,-0.84236485,1.6163956,0.78861845,0.79584646,-0.35993525,-0.7971399,0.86008555,0.33700523,-1.4889927,0.9213387,0.35918114,0.8537203,0.7154147,0.7023474,1.747238,-0.006331216,-0.4546915,-1.3111055,0.96546453,-0.3607521,0.66876996,1.1268413,-0.1325545,-0.024581231,-0.8542387,-0.8915835,1.8556169,-0.49390304,-1.0567466,1.3448324,-1.3545125,1.28407,1.6584158,-0.68866473,0.17999063,0.591461,-1.3039678,0.83655643,-0.33542377,0.582106,-0.7181741,0.77046865,1.0684588,-1.57517,1.9574928,1.1883059,1.3492465
Fgf8,-0.23030083,-1.1099546,-0.13918106,-1.2413095,1.3256115,1.158068,-0.30439064,-1.1876426,-0.9908489,1.1575304,1.4917618,-0.38002697,-0.67193633,0.6901412,0.8344643,-0.47363508,0.7275872,-0.33104235,0.39305478,1.1803747,1.3228762,-0.5703192,0.5990475,-0.48009735,-1.8751972,0.53961873,1.3283786,-0.689749,-0.9135468,1.7230922,-0.4047435,1.2549087,0.5412469,0.87749326,-0.13555007,1.3457338,1.0381941,-0.7891879,-0.24302763,0.9807704,1.696197,1.029865,-1.8921516,-0.5162923,0.28494743,-0.12603447,-1.8927511,0.17866394,1.2021698,-0.74800026,-1.0620745,0.6687908,0.31517816,-1.4641926,1.4683137,-1.4227289,1.6015462,0.98067343,1.691632,-0.043030452,-1.0092049,0.10159019,0.5054457,1.3207954,-1.4707913,-1.4879935,1.2456508,0.3017602,1.0918262,0.9346046,-0.90024513,1.0979546,-1.4572203,0.2796791,-0.08554391,-0.913503,-1.3093271,0.7114709,1.4002149,-0.9345533,0.25937945,-0.4495384,1.6929799,1.2331425,1.7745261,-0.020132259,-1.0464542,1.5299191,0.45597348,0.52068424,2.1098485,-1.0891544,-1.2323642,0.08740501,1.1116024,0.14159909,0.6924842,0.7728168,0.6887254,-1.2076089,1.123232,1.5458878,-1.6579632,0.926922,-1.182786,1.0615946,-1.3257886,0.5745246,-0.17759733,0.97160494,0.73040724,0.07855164,-0.84169585,-1.2252884,-1.728773,-1.0000511,-0.5537075,0.89192015,1.4874722,1.0592983,-0.03938202,-0.18897034,0.8840402,0.7746452,-0.43472058,-1.2396673,0.17576413,-1.751064,0.3603953,0.60888815,-0.44033137,-0.06870344,-1.725189,-1.9535646,1.0277772,1.1013418,0.71041304,0.9268503,-0.5348065,-0.48257875,0.5277961,0.79805124,1.0660304,1.074656,0.26817018,0.67406195,1.0130975,-0.19103198,-0.373418,1.4598749,0.35541824,-0.12038576,0.76935583,-1.5572598,-0.22694212,-1.5993698,-1.4471654,-0.98955417,-0.09940953,-0.5949301,-1.2465204,-0.8908701,0.54561347,0.37465042,-1.3906966,0.9843693,-1.8474439,-1.6059283,-1.7979621,2.0894635,-0.32313338,0.29402366,-0.71206003,-1.2225468,-1.5992504,-0.21807115,-0.14320828,1.5318041,-0.6589263,-1.4209386,1.0261145,0.24384828,1.7397454,0.75117767,-1.1496739,0.42662835,-0.1565782,-1.630237,-1.6992328,-0.88508373,1.2136664,-0.3734547,0.21443176,-0.12901701,0.16823809,1.7040566,0.29334897,-1.1711615,-0.24090292,-0.5891527,0.91673625,0.9574703,-1.2185259,-0.9552175,0.83950347,-1.1071756,-1.223056,-0.06840631,-0.6032264,-2.3645055,-0.02537659,-0.58458245,1.4016619,1.5151972,0.19022456,-0.7959649,-0.3730123,-0.8880135,0.43620718,1.617668,0.17185017,-0.05220856,-0.6807199,-0.6524171,-0.36198458,-1.0865651,-1.6634202,1.4139959,-1.2505481,-2.0270913,-1.5476955,0.32026008,-0.30978984,0.8268723,-0.018858397,0.19800787,0.08126102,-0.6093558,1.5635102,-0.24617195,-0.2505347,-1.5398525,-1.6472842,0.4760287,1.3528047,-1.6592466,0.8105788,-1.6291825,1.4290872,-1.4169283,-0.7099237,0.14807454,-0.22807623,0.06162717,0.5081658,0.45841694,0.25847098,-0.6346088,1.2201021,-0.9030942,-1.4297051,1.0491693,1.0243168,-0.119848736,0.92213285,0.8193681,-0.6807351,1.0257385,0.91820085,-0.6446437,-0.041108333,1.5429335,0.52973175,0.8599913,0.9405442,1.0063257,-0.9435198,1.8893925,1.6524725,-0.19301371,-0.5715832,-1.1336485,-1.0100062,0.89297533,-1.4047176,1.2621841,-1.8369663,0.25391406,-1.1906719,1.573511,1.270791,0.12161277,-0.68294084,-0.11102155,0.46827707,1.2318069,0.07694561,0.72092044,-0.35431173,0.51016724,1.381173,-0.16215286,1.5628084,-0.22416392,1.7097735,-0.32818925,1.707038,0.62353855,1.1344194,-0.697114,-1.4106221,0.9405362,0.7121083,0.84468174,-0.028290464,-1.3102947,1.8864176,0.78199106,-0.2435464,-0.38404885,-0.22388794,-0.116279274,-0.59338915,-0.33179554,-0.6316107,0.60444593,-0.42710668,0.017943287,0.08355647,-1.1216017,0.8258779,-1.6408558,-0.8140546,0.8010367,1.212263,1.1148628,-0.70063716,-1.2938459,-1.2880229,1.2843177,-0.24093811,-1.0614108,-1.4636577,0.28803462,-1.2117146,1.7289691,-1.8173075,1.2336326,1.769846,0.9872581,0.8602767,-1.4928336,0.39059833,1.4664117,-1.4572954,-1.2920576,0.6758845,-1.4516497,0.17543778,-0.783859,-0.5693165,0.35768506,-0.8455033,-0.37173817,-1.1931353,0.37950537,1.1994827,-1.2459418,1.4875338,0.18628232,1.1314204,-0.4654942,-1.8890592,0.3022048,-0.16588308,-0.78028554,-1.5817858,0.6774362,0.039691504,-1.2924675,0.31565502,-0.36346188,-0.23610157,-1.2302244,0.47789773,0.43944696,-1.5552201,-0.33305383,-0.20464125,1.4603198,0.2349254,2.3018994,0.7104232,1.8839518,-0.4819206,-0.4925276,0.033920914,-1.1177343,0.08494957,1.1345276,-1.2571509,-1.519086,0.7543652,-0.6398104,-1.8781334,0.4986705,1.7999536,0.6698003,-0.7984945,-1.8457024,-1.5432434,1.4837607,1.2708186,1.7153513,-0.9702026,0.48434064,1.1558123,-1.0389096,0.894981,-0.24024682,-0.3820785,-1.7155066,-0.9079446,-0.13509202,-1.2503841,1.0461166,0.33739638,-0.93275416,0.22993833,1.8641974,0.18127088,-0.5034261,-0.48310372,-0.7710793,0.3152547,-1.5266994,2.076508,-1.2362777,-1.4396669,-0.79210126,-0.7662885,-1.3694686,0.24539769,-0.8511631,-0.64933825,0.09925872,0.09778906,-0.1544805,-1.0601636,-1.4391849,-1.0284868,-0.8519845,-1.2160579,1.3218004,-1.6738639,-1.0570978,-0.7891421,0.06072559,0.15152963,0.752211,-1.2786295,0.679235,-0.39311427,1.3035214,1.3566377,-0.84236485,1.6163956,0.78861845,0.79584646,-0.35993525,-0.7971399,0.86008555,0.33700523,-1.4889927,0.9213387,0.35918114,0.8537203,0.7154147,0.7023474,1.747238,-0.006331216,-0.4546915,-1.3111055,0.96546453,-0.3607521,0.66876996,1.1268413,-0.1325545,-0.024581231,-0.8542387,-0.8915835,1.8556169,-0.49390304,-1.0567466,1.3448324,-1.3545125,1.28407,1.6584158,-0.68866473,0.17999063,0.591461,-1.3039678,0.83655643,-0.33542377,0.582106,-0.7181741,0.77046865,1.0684588,-1.57517,1.9574928,1.1883059,1.3492465
Pax6,-0.23030083,-1.1099546,-0.13918106,-1.2413095,1.3256115,1.158068,-0.30439064,-1.1876426,-0.9908489,1.1575304,1.4917618,-0.38002697,-0.67193633,0.6901412,0.8344643,-0.47363508,0.7275872,-0.33104235,0.39305478,1.1803747,1.3228762,-0.5703192,0.5990475,-0.48009735,-1.8751972,0.53961873,1.3283786,-0.689749,-0.9135468,1.7230922,-0.4047435,1.2549087,0.5412469,0.87749326,-0.13555007,1.3457338,1.0381941,-0.7891879,-0.24302763,0.9807704,1.696197,1.029865,-1.8921516,-0.5162923,0.28494743,-0.12603447,-1.8927511,0.17866394,1.2021698,-0.74800026,-1.0620745,0.6687908,0.31517816,-1.4641926,1.4683137,-1.4227289,1.6015462,0.98067343,1.691632,-0.043030452,-1.0092049,0.10159019,0.5054457,1.3207954,-1.4707913,-1.4879935,1.2456508,0.3017602,1.0918262,0.9346046,-0.90024513,1.0979546,-1.4572203,0.2796791,-0.08554391,-0.913503,-1.3093271,0.7114709,1.4002149,-0.9345533,0.25937945,-0.4495384,1.6929799,1.2331425,1.7745261,-0.020132259,-1.0464542,1.5299191,0.45597348,0.52068424,2.1098485,-1.0891544,-1.2323642,0.08740501,1.1116024,0.14159909,0.6924842,0.7728168,0.6887254,-1.2076089,1.123232,1.5458878,-1.6579632,0.926922,-1.182786,1.0615946,-1.3257886,0.5745246,-0.17759733,0.97160494,0.73040724,0.07855164,-0.84169585,-1.2252884,-1.728773,-1.0000511,-0.5537075,0.89192015,1.4874722,1.0592983,-0.03938202,-0.18897034,0.8840402,0.7746452,-0.43472058,-1.2396673,0.17576413,-1.751064,0.3603953,0.60888815,-0.44033137,-0.06870344,-1.725189,-1.9535646,1.0277772,1.1013418,0.71041304,0.9268503,-0.5348065,-0.48257875,0.5277961,0.79805124,1.0660304,1.074656,0.26817018,0.67406195,1.0130975,-0.19103198,-0.373418,1.4598749,0.35541824,-0.12038576,0.76935583,-1.5572598,-0.22694212,-1.5993698,-1.4471654,-0.98955417,-0.09940953,-0.5949301,-1.2465204,-0.8908701,0.54561347,0.37465042,-1.3906966,0.9843693,-1.8474439,-1.6059283,-1.7979621,2.0894635,-0.32313338,0.29402366,-0.71206003,-1.2225468,-1.5992504,-0.21807115,-0.14320828,1.5318041,-0.6589263,-1.4209386,1.0261145,0.24384828,1.7397454,0.75117767,-1.1496739,0.42662835,-0.1565782,-1.630237,-1.6992328,-0.88508373,1.2136664,-0.3734547,0.21443176,-0.12901701,0.16823809,1.7040566,0.29334897,-1.1711615,-0.24090292,-0.5891527,0.91673625,0.9574703,-1.2185259,-0.9552175,0.83950347,-1.1071756,-1.223056,-0.06840631,-0.6032264,-2.3645055,-0.02537659,-0.58458245,1.4016619,1.5151972,0.19022456,-0.7959649,-0.3730123,-0.8880135,0.43620718,1.617668,0.17185017,-0.05220856,-0.6807199,-0.6524171,-0.36198458,-1.0865651,-1.6634202,1.4139959,-1.2505481,-2.0270913,-1.5476955,0.32026008,-0.30978984,0.8268723,-0.018858397,0.19800787,0.08126102,-0.6093558,1.5635102,-0.24617195,-0.2505347,-1.5398525,-1.6472842,0.4760287,1.3528047,-1.6592466,0.8105788,-1.6291825,1.4290872,-1.4169283,-0.7099237,0.14807454,-0.22807623,0.06162717,0.5081658,0.45841694,0.25847098,-0.6346088,1.2201021,-0.9030942,-1.4297051,1.0491693,1.0243168,-0.119848736,0.92213285,0.8193681,-0.6807351,1.0257385,0.91820085,-0.6446437,-0.041108333,1.5429335,0.52973175,0.8599913,0.9405442,1.0063257,-0.9435198,1.8893925,1.6524725,-0.19301371,-0.5715832,-1.1336485,-1.0100062,0.89297533,-1.4047176,1.2621841,-1.8369663,0.25391406,-1.1906719,1.573511,1.270791,0.12161277,-0.68294084,-0.11102155,0.46827707,1.2318069,0.07694561,0.72092044,-0.35431173,0.51016724,1.381173,-0.16215286,1.5628084,-0.22416392,1.7097735,-0.32818925,1.707038,0.62353855,1.1344194,-0.697114,-1.4106221,0.9405362,0.7121083,0.84468174,-0.028290464,-1.3102947,1.8864176,0.78199106,-0.2435464,-0.38404885,-0.22388794,-0.116279274,-0.59338915,-0.33179554,-0.6316107,0.60444593,-0.42710668,0.017943287,0.08355647,-1.1216017,0.8258779,-1.6408558,-0.8140546,0.8010367,1.212263,1.1148628,-0.70063716,-1.2938459,-1.2880229,1.2843177,-0.24093811,-1.0614108,-1.4636577,0.28803462,-1.2117146,1.7289691,-1.8173075,1.2336326,1.769846,0.9872581,0.8602767,-1.4928336,0.39059833,1.4664117,-1.4572954,-1.2920576,0.6758845,-1.4516497,0.17543778,-0.783859,-0.5693165,0.35768506,-0.8455033,-0.37173817,-1.1931353,0.37950537,1.1994827,-1.2459418,1.4875338,0.18628232,1.1314204,-0.4654942,-1.8890592,0.3022048,-0.16588308,-0.78028554,-1.5817858,0.6774362,0.039691504,-1.2924675,0.31565502,-0.36346188,-0.23610157,-1.2302244,0.47789773,0.43944696,-1.5552201,-0.33305383,-0.20464125,1.4603198,0.2349254,2.3018994,0.7104232,1.8839518,-0.4819206,-0.4925276,0.033920914,-1.1177343,0.08494957,1.1345276,-1.2571509,-1.519086,0.7543652,-0.6398104,-1.8781334,0.4986705,1.7999536,0.6698003,-0.7984945,-1.8457024,-1.5432434,1.4837607,1.2708186,1.7153513,-0.9702026,0.48434064,1.1558123,-1.0389096,0.894981,-0.24024682,-0.3820785,-1.7155066,-0.9079446,-0.13509202,-1.2503841,1.0461166,0.33739638,-0.93275416,0.22993833,1.8641974,0.18127088,-0.5034261,-0.48310372,-0.7710793,0.3152547,-1.5266994,2.076508,-1.2362777,-1.4396669,-0.79210126,-0.7662885,-1.3694686,0.24539769,-0.8511631,-0.64933825,0.09925872,0.09778906,-0.1544805,-1.0601636,-1.4391849,-1.0284868,-0.8519845,-1.2160579,1.3218004,-1.6738639,-1.0570978,-0.7891421,0.06072559,0.15152963,0.752211,-1.2786295,0.679235,-0.39311427,1.3035214,1.3566377,-0.84236485,1.6163956,0.78861845,0.79584646,-0.35993525,-0.7971399,0.86008555,0.33700523,-1.4889927,0.9213387,0.35918114,0.8537203,0.7154147,0.7023474,1.747238,-0.006331216,-0.4546915,-1.3111055,0.96546453,-0.3607521,0.66876996,1.1268413,-0.1325545,-0.024581231,-0.8542387,-0.8915835,1.8556169,-0.49390304,-1.0567466,1.3448324,-1.3545125,1.28407,1.6584158,-0.68866473,0.17999063,0.591461,-1.3039678,0.83655643,-0.33542377,0.582106,-0.7181741,0.77046865,1.0684588,-1.57517,1.9574928,1.1883059,1.3492465
Sp8,-0.23030083,-1.1099546,-0.13918106,-1.2413095,1.3256115,1.158068,-0.30439064,-1.1876426,-0.9908489,1.1575304,1.4917618,-0.38002697,-0.67193633,0.6901412,0.8344643,-0.47363508,0.7275872,-0.33104235,0.39305478,1.1803747,1.3228762,-0.5703192,0.5990475,-0.48009735,-1.8751972,0.53961873,1.3283786,-0.689749,-0.9135468,1.7230922,-0.4047435,1.2549087,0.5412469,0.87749326,-0.13555007,1.3457338,1.0381941,-0.7891879,-0.24302763,0.9807704,1.696197,1.029865,-1.8921516,-0.5162923,0.28494743,-0.12603447,-1.8927511,0.17866394,1.2021698,-0.74800026,-1.0620745,0.6687908,0.31517816,-1.4641926,1.4683137,-1.4227289,1.6015462,0.98067343,1.691632,-0.043030452,-1.0092049,0.10159019,0.5054457,1.3207954,-1.4707913,-1.4879935,1.2456508,0.3017602,1.0918262,0.9346046,-0.90024513,1.0979546,-1.4572203,0.2796791,-0.08554391,-0.913503,-1.3093271,0.7114709,1.4002149,-0.9345533,0.25937945,-0.4495384,1.6929799,1.2331425,1.7745261,-0.020132259,-1.0464542,1.5299191,0.45597348,0.52068424,2.1098485,-1.0891544,-1.2323642,0.08740501,1.1116024,0.14159909,0.6924842,0.7728168,0.6887254,-1.2076089,1.123232,1.5458878,-1.6579632,0.926922,-1.182786,1.0615946,-1.3257886,0.5745246,-0.17759733,0.97160494,0.73040724,0.07855164,-0.84169585,-1.2252884,-1.728773,-1.0000511,-0.5537075,0.89192015,1.4874722,1.0592983,-0.03938202,-0.18897034,0.8840402,0.7746452,-0.43472058,-1.2396673,0.17576413,-1.751064,0.3603953,0.60888815,-0.44033137,-0.06870344,-1.725189,-1.9535646,1.0277772,1.1013418,0.71041304,0.9268503,-0.5348065,-0.48257875,0.5277961,0.79805124,1.0660304,1.074656,0.26817018,0.67406195,1.0130975,-0.19103198,-0.373418,1.4598749,0.35541824,-0.12038576,0.76935583,-1.5572598,-0.22694212,-1.5993698,-1.4471654,-0.98955417,-0.09940953,-0.5949301,-1.2465204,-0.8908701,0.54561347,0.37465042,-1.3906966,0.9843693,-1.8474439,-1.6059283,-1.7979621,2.0894635,-0.32313338,0.29402366,-0.71206003,-1.2225468,-1.5992504,-0.21807115,-0.14320828,1.5318041,-0.6589263,-1.4209386,1.0261145,0.24384828,1.7397454,0.75117767,-1.1496739,0.42662835,-0.1565782,-1.630237,-1.6992328,-0.88508373,1.2136664,-0.3734547,0.21443176,-0.12901701,0.16823809,1.7040566,0.29334897,-1.1711615,-0.24090292,-0.5891527,0.91673625,0.9574703,-1.2185259,-0.9552175,0.83950347,-1.1071756,-1.223056,-0.06840631,-0.6032264,-2.3645055,-0.02537659,-0.58458245,1.4016619,1.5151972,0.19022456,-0.7959649,-0.3730123,-0.8880135,0.43620718,1.617668,0.17185017,-0.05220856,-0.6807199,-0.6524171,-0.36198458,-1.0865651,-1.6634202,1.4139959,-1.2505481,-2.0270913,-1.5476955,0.32026008,-0.30978984,0.8268723,-0.018858397,0.19800787,0.08126102,-0.6093558,1.5635102,-0.24617195,-0.2505347,-1.5398525,-1.6472842,0.4760287,1.3528047,-1.6592466,0.8105788,-1.6291825,1.4290872,-1.4169283,-0.7099237,0.14807454,-0.22807623,0.06162717,0.5081658,0.45841694,0.25847098,-0.6346088,1.2201021,-0.9030942,-1.4297051,1.0491693,1.0243168,-0.119848736,0.92213285,0.8193681,-0.6807351,1.0257385,0.91820085,-0.6446437,-0.041108333,1.5429335,0.52973175,0.8599913,0.9405442,1.0063257,-0.9435198,1.8893925,1.6524725,-0.19301371,-0.5715832,-1.1336485,-1.0100062,0.89297533,-1.4047176,1.2621841,-1.8369663,0.25391406,-1.1906719,1.573511,1.270791,0.12161277,-0.68294084,-0.11102155,0.46827707,1.2318069,0.07694561,0.72092044,-0.35431173,0.51016724,1.381173,-0.16215286,1.5628084,-0.22416392,1.7097735,-0.32818925,1.707038,0.62353855,1.1344194,-0.697114,-1.4106221,0.9405362,0.7121083,0.84468174,-0.028290464,-1.3102947,1.8864176,0.78199106,-0.2435464,-0.38404885,-0.22388794,-0.116279274,-0.59338915,-0.33179554,-0.6316107,0.60444593,-0.42710668,0.017943287,0.08355647,-1.1216017,0.8258779,-1.6408558,-0.8140546,0.8010367,1.212263,1.1148628,-0.70063716,-1.2938459,-1.2880229,1.2843177,-0.24093811,-1.0614108,-1.4636577,0.28803462,-1.2117146,1.7289691,-1.8173075,1.2336326,1.769846,0.9872581,0.8602767,-1.4928336,0.39059833,1.4664117,-1.4572954,-1.2920576,0.6758845,-1.4516497,0.17543778,-0.783859,-0.5693165,0.35768506,-0.8455033,-0.37173817,-1.1931353,0.37950537,1.1994827,-1.2459418,1.4875338,0.18628232,1.1314204,-0.4654942,-1.8890592,0.3022048,-0.16588308,-0.78028554,-1.5817858,0.6774362,0.039691504,-1.2924675,0.31565502,-0.36346188,-0.23610157,-1.2302244,0.47789773,0.43944696,-1.5552201,-0.33305383,-0.20464125,1.4603198,0.2349254,2.3018994,0.7104232,1.8839518,-0.4819206,-0.4925276,0.033920914,-1.1177343,0.08494957,1.1345276,-1.2571509,-1.519086,0.7543652,-0.6398104,-1.8781334,0.4986705,1.7999536,0.6698003,-0.7984945,-1.8457024,-1.5432434,1.4837607,1.2708186,1.7153513,-0.9702026,0.48434064,1.1558123,-1.0389096,0.894981,-0.24024682,-0.3820785,-1.7155066,-0.9079446,-0.13509202,-1.2503841,1.0461166,0.33739638,-0.93275416,0.22993833,1.8641974,0.18127088,-0.5034261,-0.48310372,-0.7710793,0.3152547,-1.5266994,2.076508,-1.2362777,-1.4396669,-0.79210126,-0.7662885,-1.3694686,0.24539769,-0.8511631,-0.64933825,0.09925872,0.09778906,-0.1544805,-1.0601636,-1.4391849,-1.0284868,-0.8519845,-1.2160579,1.3218004,-1.6738639,-1.0570978,-0.7891421,0.06072559,0.15152963,0.752211,-1.2786295,0.679235,-0.39311427,1.3035214,1.3566377,-0.84236485,1.6163956,0.78861845,0.79584646,-0.35993525,-0.7971399,0.86008555,0.33700523,-1.4889927,0.9213387,0.35918114,0.8537203,0.7154147,0.7023474,1.747238,-0.006331216,-0.4546915,-1.3111055,0.96546453,-0.3607521,0.66876996,1.1268413,-0.1325545,-0.024581231,-0.8542387,-0.8915835,1.8556169,-0.49390304,-1.0567466,1.3448324,-1.3545125,1.28407,1.6584158,-0.68866473,0.17999063,0.591461,-1.3039678,0.83655643,-0.33542377,0.582106,-0.7181741,0.77046865,1.0684588,-1.57517,1.9574928,1.1883059,1.3492465
